{"learner":{"attributes":{"scikit_learn":"{\"_estimator_type\": \"regressor\"}"},"feature_names":[],"feature_types":[],"gradient_booster":{"model":{"gbtree_model_param":{"num_parallel_tree":"1","num_trees":"1000"},"iteration_indptr":[0,1,2,3,4,5,6,7,8,9,10,11,12,13,14,15,16,17,18,19,20,21,22,23,24,25,26,27,28,29,30,31,32,33,34,35,36,37,38,39,40,41,42,43,44,45,46,47,48,49,50,51,52,53,54,55,56,57,58,59,60,61,62,63,64,65,66,67,68,69,70,71,72,73,74,75,76,77,78,79,80,81,82,83,84,85,86,87,88,89,90,91,92,93,94,95,96,97,98,99,100,101,102,103,104,105,106,107,108,109,110,111,112,113,114,115,116,117,118,119,120,121,122,123,124,125,126,127,128,129,130,131,132,133,134,135,136,137,138,139,140,141,142,143,144,145,146,147,148,149,150,151,152,153,154,155,156,157,158,159,160,161,162,163,164,165,166,167,168,169,170,171,172,173,174,175,176,177,178,179,180,181,182,183,184,185,186,187,188,189,190,191,192,193,194,195,196,197,198,199,200,201,202,203,204,205,206,207,208,209,210,211,212,213,214,215,216,217,218,219,220,221,222,223,224,225,226,227,228,229,230,231,232,233,234,235,236,237,238,239,240,241,242,243,244,245,246,247,248,249,250,251,252,253,254,255,256,257,258,259,260,261,262,263,264,265,266,267,268,269,270,271,272,273,274,275,276,277,278,279,280,281,282,283,284,285,286,287,288,289,290,291,292,293,294,295,296,297,298,299,300,301,302,303,304,305,306,307,308,309,310,311,312,313,314,315,316,317,318,319,320,321,322,323,324,325,326,327,328,329,330,331,332,333,334,335,336,337,338,339,340,341,342,343,344,345,346,347,348,349,350,351,352,353,354,355,356,357,358,359,360,361,362,363,364,365,366,367,368,369,370,371,372,373,374,375,376,377,378,379,380,381,382,383,384,385,386,387,388,389,390,391,392,393,394,395,396,397,398,399,400,401,402,403,404,405,406,407,408,409,410,411,412,413,414,415,416,417,418,419,420,421,422,423,424,425,426,427,428,429,430,431,432,433,434,435,436,437,438,439,440,441,442,443,444,445,446,447,448,449,450,451,452,453,454,455,456,457,458,459,460,461,462,463,464,465,466,467,468,469,470,471,472,473,474,475,476,477,478,479,480,481,482,483,484,485,486,487,488,489,490,491,492,493,494,495,496,497,498,499,500,501,502,503,504,505,506,507,508,509,510,511,512,513,514,515,516,517,518,519,520,521,522,523,524,525,526,527,528,529,530,531,532,533,534,535,536,537,538,539,540,541,542,543,544,545,546,547,548,549,550,551,552,553,554,555,556,557,558,559,560,561,562,563,564,565,566,567,568,569,570,571,572,573,574,575,576,577,578,579,580,581,582,583,584,585,586,587,588,589,590,591,592,593,594,595,596,597,598,599,600,601,602,603,604,605,606,607,608,609,610,611,612,613,614,615,616,617,618,619,620,621,622,623,624,625,626,627,628,629,630,631,632,633,634,635,636,637,638,639,640,641,642,643,644,645,646,647,648,649,650,651,652,653,654,655,656,657,658,659,660,661,662,663,664,665,666,667,668,669,670,671,672,673,674,675,676,677,678,679,680,681,682,683,684,685,686,687,688,689,690,691,692,693,694,695,696,697,698,699,700,701,702,703,704,705,706,707,708,709,710,711,712,713,714,715,716,717,718,719,720,721,722,723,724,725,726,727,728,729,730,731,732,733,734,735,736,737,738,739,740,741,742,743,744,745,746,747,748,749,750,751,752,753,754,755,756,757,758,759,760,761,762,763,764,765,766,767,768,769,770,771,772,773,774,775,776,777,778,779,780,781,782,783,784,785,786,787,788,789,790,791,792,793,794,795,796,797,798,799,800,801,802,803,804,805,806,807,808,809,810,811,812,813,814,815,816,817,818,819,820,821,822,823,824,825,826,827,828,829,830,831,832,833,834,835,836,837,838,839,840,841,842,843,844,845,846,847,848,849,850,851,852,853,854,855,856,857,858,859,860,861,862,863,864,865,866,867,868,869,870,871,872,873,874,875,876,877,878,879,880,881,882,883,884,885,886,887,888,889,890,891,892,893,894,895,896,897,898,899,900,901,902,903,904,905,906,907,908,909,910,911,912,913,914,915,916,917,918,919,920,921,922,923,924,925,926,927,928,929,930,931,932,933,934,935,936,937,938,939,940,941,942,943,944,945,946,947,948,949,950,951,952,953,954,955,956,957,958,959,960,961,962,963,964,965,966,967,968,969,970,971,972,973,974,975,976,977,978,979,980,981,982,983,984,985,986,987,988,989,990,991,992,993,994,995,996,997,998,999,1000],"tree_info":[0,0,0,0,0,0,0,0,0,0,0,0,0,0,0,0,0,0,0,0,0,0,0,0,0,0,0,0,0,0,0,0,0,0,0,0,0,0,0,0,0,0,0,0,0,0,0,0,0,0,0,0,0,0,0,0,0,0,0,0,0,0,0,0,0,0,0,0,0,0,0,0,0,0,0,0,0,0,0,0,0,0,0,0,0,0,0,0,0,0,0,0,0,0,0,0,0,0,0,0,0,0,0,0,0,0,0,0,0,0,0,0,0,0,0,0,0,0,0,0,0,0,0,0,0,0,0,0,0,0,0,0,0,0,0,0,0,0,0,0,0,0,0,0,0,0,0,0,0,0,0,0,0,0,0,0,0,0,0,0,0,0,0,0,0,0,0,0,0,0,0,0,0,0,0,0,0,0,0,0,0,0,0,0,0,0,0,0,0,0,0,0,0,0,0,0,0,0,0,0,0,0,0,0,0,0,0,0,0,0,0,0,0,0,0,0,0,0,0,0,0,0,0,0,0,0,0,0,0,0,0,0,0,0,0,0,0,0,0,0,0,0,0,0,0,0,0,0,0,0,0,0,0,0,0,0,0,0,0,0,0,0,0,0,0,0,0,0,0,0,0,0,0,0,0,0,0,0,0,0,0,0,0,0,0,0,0,0,0,0,0,0,0,0,0,0,0,0,0,0,0,0,0,0,0,0,0,0,0,0,0,0,0,0,0,0,0,0,0,0,0,0,0,0,0,0,0,0,0,0,0,0,0,0,0,0,0,0,0,0,0,0,0,0,0,0,0,0,0,0,0,0,0,0,0,0,0,0,0,0,0,0,0,0,0,0,0,0,0,0,0,0,0,0,0,0,0,0,0,0,0,0,0,0,0,0,0,0,0,0,0,0,0,0,0,0,0,0,0,0,0,0,0,0,0,0,0,0,0,0,0,0,0,0,0,0,0,0,0,0,0,0,0,0,0,0,0,0,0,0,0,0,0,0,0,0,0,0,0,0,0,0,0,0,0,0,0,0,0,0,0,0,0,0,0,0,0,0,0,0,0,0,0,0,0,0,0,0,0,0,0,0,0,0,0,0,0,0,0,0,0,0,0,0,0,0,0,0,0,0,0,0,0,0,0,0,0,0,0,0,0,0,0,0,0,0,0,0,0,0,0,0,0,0,0,0,0,0,0,0,0,0,0,0,0,0,0,0,0,0,0,0,0,0,0,0,0,0,0,0,0,0,0,0,0,0,0,0,0,0,0,0,0,0,0,0,0,0,0,0,0,0,0,0,0,0,0,0,0,0,0,0,0,0,0,0,0,0,0,0,0,0,0,0,0,0,0,0,0,0,0,0,0,0,0,0,0,0,0,0,0,0,0,0,0,0,0,0,0,0,0,0,0,0,0,0,0,0,0,0,0,0,0,0,0,0,0,0,0,0,0,0,0,0,0,0,0,0,0,0,0,0,0,0,0,0,0,0,0,0,0,0,0,0,0,0,0,0,0,0,0,0,0,0,0,0,0,0,0,0,0,0,0,0,0,0,0,0,0,0,0,0,0,0,0,0,0,0,0,0,0,0,0,0,0,0,0,0,0,0,0,0,0,0,0,0,0,0,0,0,0,0,0,0,0,0,0,0,0,0,0,0,0,0,0,0,0,0,0,0,0,0,0,0,0,0,0,0,0,0,0,0,0,0,0,0,0,0,0,0,0,0,0,0,0,0,0,0,0,0,0,0,0,0,0,0,0,0,0,0,0,0,0,0,0,0,0,0,0,0,0,0,0,0,0,0,0,0,0,0,0,0,0,0,0,0,0,0,0,0,0,0,0,0,0,0,0,0,0,0,0,0,0,0,0,0,0,0,0,0,0,0,0,0,0,0,0,0,0,0,0,0,0,0,0,0,0,0,0,0,0,0,0,0,0,0,0,0,0,0,0,0,0,0,0,0,0,0,0,0,0,0,0,0,0,0,0,0,0,0,0,0,0,0,0,0,0,0,0,0,0,0,0,0,0,0,0,0,0,0,0,0,0,0,0,0,0,0,0,0,0,0,0,0,0,0,0,0,0,0,0,0,0,0,0,0,0,0,0,0,0,0,0,0,0,0,0,0,0,0,0,0,0,0,0,0,0,0,0,0,0,0,0,0,0,0,0,0,0,0,0,0,0,0,0,0,0,0,0,0,0,0,0,0,0,0,0,0,0,0,0,0,0,0,0,0,0,0,0,0,0,0,0,0,0,0,0,0,0,0,0,0,0,0,0,0,0,0,0,0],"trees":[{"base_weights":[1.9795313E-3,-6.822385E-2,7.046741E-2,-1.06073625E-1,-4.622635E-2,2.4606775E-2,9.596198E-2,-6.4753154E-3,-4.2279433E-3,-2.9778988E-3,-3.0091275E-2,3.4768344E-3,3.3092804E-2,3.74465E-3,5.748041E-3,1.4699102E-4,-1.5765056E-3,-1.7563254E-5,6.2630774E-4,8.9556444E-4,1.8833209E-3],"categories":[],"categories_nodes":[],"categories_segments":[],"categories_sizes":[],"default_left":[0,0,0,0,0,0,0,0,0,0,0,0,0,0,0,0,0,0,0,0,0],"id":0,"left_children":[1,3,5,7,9,11,13,-1,-1,-1,15,17,19,-1,-1,-1,-1,-1,-1,-1,-1],"loss_changes":[7.885247E-1,6.253722E-2,9.468207E-2,3.669411E-3,9.608492E-3,5.44353E-3,1.2605399E-2,0E0,0E0,0E0,1.3283789E-3,3.5081693E-4,8.529015E-4,0E0,0E0,0E0,0E0,0E0,0E0,0E0,0E0],"parents":[2147483647,0,0,1,1,2,2,3,3,4,4,5,5,6,6,10,10,11,11,12,12],"right_children":[2,4,6,8,10,12,14,-1,-1,-1,16,18,20,-1,-1,-1,-1,-1,-1,-1,-1],"split_conditions":[8.189135E-1,7.5966036E-1,8.9459294E-1,1.00739685E2,7.9668933E-1,1.2923769E2,9.2954165E-1,-6.4753154E-3,-4.2279433E-3,-2.9778988E-3,7.968068E-1,8.3111197E-1,8.5702306E-1,3.74465E-3,5.748041E-3,1.4699102E-4,-1.5765056E-3,-1.7563254E-5,6.2630774E-4,8.9556444E-4,1.8833209E-3],"split_indices":[4,1,1,2,1,2,1,0,0,0,1,4,1,0,0,0,0,0,0,0,0],"split_type":[0,0,0,0,0,0,0,0,0,0,0,0,0,0,0,0,0,0,0,0,0],"sum_hessian":[1.62E2,8E1,8.2E1,2.8E1,5.2E1,3E1,5.2E1,1.1E1,1.7E1,2.7E1,2.5E1,9E0,2.1E1,2.7E1,2.5E1,1E0,2.4E1,7E0,2E0,6E0,1.5E1],"tree_param":{"num_deleted":"0","num_feature":"5","num_nodes":"21","size_leaf_vector":"1"}},{"base_weights":[7.4479426E-4,-6.54077E-2,6.6887744E-2,-1.0420259E-1,-4.282604E-2,2.5708726E-2,9.497513E-2,-6.3826414E-3,-4.075996E-3,-2.7716754E-3,-2.6332913E-2,7.837216E-3,3.4288242E-2,3.4791976E-3,5.6760176E-3,-1.5179587E-3,-2.480644E-4,3.6889647E-5,1.0925807E-3,8.5718336E-4,1.9822991E-3],"categories":[],"categories_nodes":[],"categories_segments":[],"categories_sizes":[],"default_left":[0,0,0,0,0,0,0,0,0,0,0,0,0,0,0,0,0,0,0,0,0],"id":1,"left_children":[1,3,5,7,9,11,13,-1,-1,-1,15,17,19,-1,-1,-1,-1,-1,-1,-1,-1],"loss_changes":[6.825807E-1,6.3869566E-2,8.777395E-2,4.4873357E-3,9.145029E-3,4.7911294E-3,1.376152E-2,0E0,0E0,0E0,1.9145254E-3,1.1778078E-3,1.3411567E-3,0E0,0E0,0E0,0E0,0E0,0E0,0E0,0E0],"parents":[2147483647,0,0,1,1,2,2,3,3,4,4,5,5,6,6,10,10,11,11,12,12],"right_children":[2,4,6,8,10,12,14,-1,-1,-1,16,18,20,-1,-1,-1,-1,-1,-1,-1,-1],"split_conditions":[8.189135E-1,7.5966036E-1,8.9459294E-1,1.00739685E2,7.9668933E-1,1.2993721E2,9.2954165E-1,-6.3826414E-3,-4.075996E-3,-2.7716754E-3,1.2472477E2,1.4370215E2,8.5702306E-1,3.4791976E-3,5.6760176E-3,-1.5179587E-3,-2.480644E-4,3.6889647E-5,1.0925807E-3,8.5718336E-4,1.9822991E-3],"split_indices":[4,1,1,2,1,2,1,0,0,0,3,3,1,0,0,0,0,0,0,0,0],"split_type":[0,0,0,0,0,0,0,0,0,0,0,0,0,0,0,0,0,0,0,0,0],"sum_hessian":[1.54E2,7.7E1,7.7E1,2.7E1,5E1,3.2E1,4.5E1,1.1E1,1.6E1,2.7E1,2.3E1,1.1E1,2.1E1,2.1E1,2.4E1,1.9E1,4E0,8E0,3E0,6E0,1.5E1],"tree_param":{"num_deleted":"0","num_feature":"5","num_nodes":"21","size_leaf_vector":"1"}},{"base_weights":[6.152018E-4,-6.391501E-2,6.599761E-2,-1.0316879E-1,-4.381386E-2,3.2792255E-2,9.580788E-2,-6.007551E-3,-3.73794E-3,-5.9982475E-2,-3.0926006E-2,1.813796E-2,2.5446198E-3,3.760849E-3,5.3430847E-3,-8.842304E-4,-3.057727E-3,-1.7296093E-3,-8.0308615E-4,2.227323E-4,1.2819403E-3],"categories":[],"categories_nodes":[],"categories_segments":[],"categories_sizes":[],"default_left":[0,0,0,0,0,0,0,0,0,0,0,0,0,0,0,0,0,0,0,0,0],"id":2,"left_children":[1,3,5,7,9,11,13,-1,-1,15,17,19,-1,-1,-1,-1,-1,-1,-1,-1,-1],"loss_changes":[6.370893E-1,5.544728E-2,7.109779E-2,3.0792952E-3,8.980684E-3,8.890975E-3,8.389056E-4,0E0,0E0,9.171665E-6,1.1337381E-3,2.14379E-3,0E0,0E0,0E0,0E0,0E0,0E0,0E0,0E0,0E0],"parents":[2147483647,0,0,1,1,2,2,3,3,4,4,5,5,6,6,9,9,10,10,11,11],"right_children":[2,4,6,8,10,12,14,-1,-1,16,18,20,-1,-1,-1,-1,-1,-1,-1,-1,-1],"split_conditions":[8.189135E-1,7.712773E-1,8.3904505E-1,1.00739685E2,7.954197E-1,8.344436E-1,8.430066E-1,-6.007551E-3,-3.73794E-3,8.904934E1,8.1232E-1,1.2923769E2,2.5446198E-3,3.760849E-3,5.3430847E-3,-8.842304E-4,-3.057727E-3,-1.7296093E-3,-8.0308615E-4,2.227323E-4,1.2819403E-3],"split_indices":[4,4,4,2,4,4,4,0,0,3,4,2,0,0,0,0,0,0,0,0,0],"split_type":[0,0,0,0,0,0,0,0,0,0,0,0,0,0,0,0,0,0,0,0,0],"sum_hessian":[1.49E2,7.5E1,7.4E1,2.4E1,5.1E1,3.6E1,3.8E1,1.3E1,1.1E1,2.1E1,3E1,2.1E1,1.5E1,1.6E1,2.2E1,1E0,2E1,2.3E1,7E0,8E0,1.3E1],"tree_param":{"num_deleted":"0","num_feature":"5","num_nodes":"21","size_leaf_vector":"1"}},{"base_weights":[-2.6694005E-3,-5.8315184E-2,6.399423E-2,-5.1792413E-3,-3.9598126E-2,3.183049E-2,4.6072914E-3,-2.9278556E-3,-2.5810856E-2,1.6276095E-2,2.3672397E-3,-1.6790072E-3,-4.4917996E-4,5.044842E-4,1.0726767E-3],"categories":[],"categories_nodes":[],"categories_segments":[],"categories_sizes":[],"default_left":[0,0,0,0,0,0,0,0,0,0,0,0,0,0,0],"id":3,"left_children":[1,3,5,-1,7,9,-1,-1,11,13,-1,-1,-1,-1,-1],"loss_changes":[6.1951715E-1,7.300386E-2,6.588194E-2,0E0,1.5740506E-2,8.158088E-3,0E0,0E0,4.927758E-3,4.2413594E-4,0E0,0E0,0E0,0E0,0E0],"parents":[2147483647,0,0,1,1,2,2,4,4,5,5,8,8,9,9],"right_children":[2,4,6,-1,8,10,-1,-1,12,14,-1,-1,-1,-1,-1],"split_conditions":[8.378787E-1,7.550762E-1,9.075498E-1,-5.1792413E-3,7.887552E-1,8.750907E-1,4.6072914E-3,-2.9278556E-3,8.1232E-1,8.272385E-1,2.3672397E-3,-1.6790072E-3,-4.4917996E-4,5.044842E-4,1.0726767E-3],"split_indices":[1,1,1,0,1,1,0,0,4,4,0,0,0,0,0],"split_type":[0,0,0,0,0,0,0,0,0,0,0,0,0,0,0],"sum_hessian":[1.65E2,9E1,7.5E1,2.5E1,6.5E1,3.6E1,3.9E1,2.6E1,3.9E1,1.9E1,1.7E1,2.6E1,1.3E1,1E1,9E0],"tree_param":{"num_deleted":"0","num_feature":"5","num_nodes":"15","size_leaf_vector":"1"}},{"base_weights":[-1.3168298E-3,-5.7690572E-2,5.5743705E-2,-8.822281E-2,-3.455355E-2,2.6783694E-2,8.6930126E-2,-5.785277E-3,-3.382921E-3,-3.966268E-2,-1.0150755E-2,3.592213E-3,3.4181166E-2,3.2807558E-3,4.991594E-3,-2.0581314E-3,-3.4712357E-4,-8.2222476E-5,-1.124955E-3,-2.1466077E-4,4.0357895E-4,1.2251951E-3,2.240272E-3],"categories":[],"categories_nodes":[],"categories_segments":[],"categories_sizes":[],"default_left":[0,0,0,0,0,0,0,0,0,0,0,0,0,0,0,0,0,0,0,0,0,0,0],"id":4,"left_children":[1,3,5,7,9,11,13,-1,-1,15,17,19,21,-1,-1,-1,-1,-1,-1,-1,-1,-1,-1],"loss_changes":[5.4362416E-1,5.6997716E-2,7.353708E-2,1.2517542E-2,5.8312453E-3,7.597342E-3,4.4495463E-3,0E0,0E0,1.726456E-3,1.0133894E-3,4.5851368E-4,2.3977645E-3,0E0,0E0,0E0,0E0,0E0,0E0,0E0,0E0,0E0,0E0],"parents":[2147483647,0,0,1,1,2,2,3,3,4,4,5,5,6,6,9,9,10,10,11,11,12,12],"right_children":[2,4,6,8,10,12,14,-1,-1,16,18,20,22,-1,-1,-1,-1,-1,-1,-1,-1,-1,-1],"split_conditions":[8.189135E-1,7.8147364E-1,8.3904505E-1,9.637095E1,8.1232E-1,1.2993721E2,8.433061E-1,-5.785277E-3,-3.382921E-3,1.2247517E2,8.078091E-1,8.23874E-1,8.6135954E-1,3.2807558E-3,4.991594E-3,-2.0581314E-3,-3.4712357E-4,-8.2222476E-5,-1.124955E-3,-2.1466077E-4,4.0357895E-4,1.2251951E-3,2.240272E-3],"split_indices":[4,4,4,2,4,2,4,0,0,3,0,4,0,0,0,0,0,0,0,0,0,0,0],"split_type":[0,0,0,0,0,0,0,0,0,0,0,0,0,0,0,0,0,0,0,0,0,0,0],"sum_hessian":[1.67E2,8.4E1,8.3E1,3.5E1,4.9E1,4.4E1,3.9E1,1.3E1,2.2E1,4E1,9E0,1.1E1,3.3E1,1.7E1,2.2E1,3.8E1,2E0,6E0,3E0,4E0,7E0,1.9E1,1.4E1],"tree_param":{"num_deleted":"0","num_feature":"5","num_nodes":"23","size_leaf_vector":"1"}},{"base_weights":[3.031304E-4,-4.9864296E-2,5.7196636E-2,-8.637345E-2,-3.5171613E-2,2.2056393E-2,7.6008156E-2,-4.9413545E-3,-3.1804305E-3,-4.689129E-2,-2.2072785E-2,1.38761E-2,3.7029367E-2,2.9616053E-3,4.690561E-3,-2.5217764E-3,-1.6493574E-3,-1.3142903E-3,-1.0337234E-4,1.3994664E-3,5.4586877E-4,5.1857234E-4,1.9419488E-3],"categories":[],"categories_nodes":[],"categories_segments":[],"categories_sizes":[],"default_left":[0,0,0,0,0,0,0,0,0,0,0,0,0,0,0,0,0,0,0,0,0,0,0],"id":5,"left_children":[1,3,5,7,9,11,13,-1,-1,15,17,19,21,-1,-1,-1,-1,-1,-1,-1,-1,-1,-1],"loss_changes":[4.99483E-1,4.6848923E-2,5.2528948E-2,1.0849088E-3,9.403929E-3,3.160676E-3,1.0272592E-2,0E0,0E0,6.106496E-5,2.8112717E-3,5.713301E-4,7.958803E-5,0E0,0E0,0E0,0E0,0E0,0E0,0E0,0E0,0E0,0E0],"parents":[2147483647,0,0,1,1,2,2,3,3,4,4,5,5,6,6,9,9,10,10,11,11,12,12],"right_children":[2,4,6,8,10,12,14,-1,-1,16,18,20,22,-1,-1,-1,-1,-1,-1,-1,-1,-1,-1],"split_conditions":[8.446976E-1,7.550762E-1,8.9459294E-1,1.04413475E2,7.9668933E-1,1.4388559E2,9.3030244E-1,-4.9413545E-3,-3.1804305E-3,7.8834337E-1,1.2472477E2,8.231838E-1,8.531673E-1,2.9616053E-3,4.690561E-3,-2.5217764E-3,-1.6493574E-3,-1.3142903E-3,-1.0337234E-4,1.3994664E-3,5.4586877E-4,5.1857234E-4,1.9419488E-3],"split_indices":[1,1,1,2,1,2,1,0,0,1,3,4,1,0,0,0,0,0,0,0,0,0,0],"split_type":[0,0,0,0,0,0,0,0,0,0,0,0,0,0,0,0,0,0,0,0,0,0,0],"sum_hessian":[1.73E2,9.2E1,8.1E1,2.5E1,6.7E1,2.9E1,5.2E1,1.4E1,1.1E1,3.4E1,3.3E1,2E1,9E0,2.9E1,2.3E1,2.5E1,9E0,2.7E1,6E0,2E0,1.8E1,1E0,8E0],"tree_param":{"num_deleted":"0","num_feature":"5","num_nodes":"23","size_leaf_vector":"1"}},{"base_weights":[-3.1081866E-3,-4.8674364E-2,5.3736065E-2,-8.472054E-2,-3.130907E-2,2.110426E-2,7.243072E-2,-5.0143925E-3,-3.1752598E-3,-3.7949216E-2,-5.357904E-3,1.4436123E-2,1.6788712E-3,2.7505965E-3,4.243102E-3,-2.317772E-3,-1.4844387E-3,-6.296358E-4,8.211471E-5,1.5286648E-3,4.2454991E-4],"categories":[],"categories_nodes":[],"categories_segments":[],"categories_sizes":[],"default_left":[0,0,0,0,0,0,0,0,0,0,0,0,0,0,0,0,0,0,0,0,0],"id":6,"left_children":[1,3,5,7,9,11,13,-1,-1,15,17,19,-1,-1,-1,-1,-1,-1,-1,-1,-1],"loss_changes":[4.2481408E-1,5.4309174E-2,4.300435E-2,3.2088906E-3,1.0652799E-2,1.844109E-3,5.292356E-3,0E0,0E0,2.0957217E-3,7.2971254E-4,1.6591526E-3,0E0,0E0,0E0,0E0,0E0,0E0,0E0,0E0,0E0],"parents":[2147483647,0,0,1,1,2,2,3,3,4,4,5,5,6,6,9,9,10,10,11,11],"right_children":[2,4,6,8,10,12,14,-1,-1,16,18,20,-1,-1,-1,-1,-1,-1,-1,-1,-1],"split_conditions":[8.378787E-1,7.588255E-1,8.9459294E-1,1.00739685E2,8.1645364E-1,1.5357677E2,9.2404574E-1,-5.0143925E-3,-3.1752598E-3,7.846803E-1,1.19955765E2,1.3084396E2,1.6788712E-3,2.7505965E-3,4.243102E-3,-2.317772E-3,-1.4844387E-3,-6.296358E-4,8.211471E-5,1.5286648E-3,4.2454991E-4],"split_indices":[1,1,1,2,1,3,1,0,0,1,2,3,0,0,0,0,0,0,0,0,0],"split_type":[0,0,0,0,0,0,0,0,0,0,0,0,0,0,0,0,0,0,0,0,0],"sum_hessian":[1.62E2,9E1,7.2E1,2.8E1,6.2E1,2.7E1,4.5E1,1.4E1,1.4E1,4.9E1,1.3E1,1.9E1,8E0,2.1E1,2.4E1,2.2E1,2.7E1,6E0,7E0,4E0,1.5E1],"tree_param":{"num_deleted":"0","num_feature":"5","num_nodes":"21","size_leaf_vector":"1"}},{"base_weights":[6.478451E-4,-4.7170844E-2,5.610889E-2,-8.130928E-2,-2.8699743E-2,3.089644E-2,7.3170014E-2,-5.061361E-3,-6.2406924E-2,-3.6178052E-2,-6.8080537E-3,1.1734707E-2,3.4867045E-2,3.0649032E-3,4.4209845E-3,-8.5505395E-4,-3.2033015E-3,-1.8449133E-3,-1.4822782E-4,-5.265291E-4,3.496088E-4,1.20487064E-4,9.062998E-4,1.3694892E-3,2.1286665E-3],"categories":[],"categories_nodes":[],"categories_segments":[],"categories_sizes":[],"default_left":[0,0,0,0,0,0,0,0,0,0,0,0,0,0,0,0,0,0,0,0,0,0,0,0,0],"id":7,"left_children":[1,3,5,7,9,11,13,-1,15,17,19,21,23,-1,-1,-1,-1,-1,-1,-1,-1,-1,-1,-1,-1],"loss_changes":[4.296307E-1,5.252643E-2,3.0000776E-2,4.977584E-3,9.249043E-3,2.0255186E-3,2.5459677E-3,0E0,2.574101E-4,9.1920793E-4,8.955796E-4,3.7351093E-4,3.3209473E-4,0E0,0E0,0E0,0E0,0E0,0E0,0E0,0E0,0E0,0E0,0E0,0E0],"parents":[2147483647,0,0,1,1,2,2,3,3,4,4,5,5,6,6,8,8,9,9,10,10,11,11,12,12],"right_children":[2,4,6,8,10,12,14,-1,16,18,20,22,24,-1,-1,-1,-1,-1,-1,-1,-1,-1,-1,-1,-1],"split_conditions":[8.272385E-1,7.5966036E-1,9.075498E-1,9.74467E1,8.1232E-1,1.2914163E2,9.418408E-1,-5.061361E-3,9.297209E1,1.2372462E2,1.396074E2,1.4370215E2,8.9333826E-1,3.0649032E-3,4.4209845E-3,-8.5505395E-4,-3.2033015E-3,-1.8449133E-3,-1.4822782E-4,-5.265291E-4,3.496088E-4,1.20487064E-4,9.062998E-4,1.3694892E-3,2.1286665E-3],"split_indices":[4,1,1,2,4,2,1,0,3,3,2,3,1,0,0,0,0,0,0,0,0,0,0,0,0],"split_type":[0,0,0,0,0,0,0,0,0,0,0,0,0,0,0,0,0,0,0,0,0,0,0,0,0],"sum_hessian":[1.6E2,8.6E1,7.4E1,2.9E1,5.7E1,3.1E1,4.3E1,1.2E1,1.7E1,4.2E1,1.5E1,6E0,2.5E1,2.7E1,1.6E1,1E0,1.6E1,4.1E1,1E0,1.2E1,3E0,3E0,3E0,1.5E1,1E1],"tree_param":{"num_deleted":"0","num_feature":"5","num_nodes":"25","size_leaf_vector":"1"}},{"base_weights":[4.068239E-4,-4.0671106E-2,5.3050272E-2,-7.159739E-2,-2.5789626E-2,3.209463E-2,7.2532296E-2,-4.419859E-3,-5.8102917E-2,-3.453733E-2,-5.2551897E-3,2.2484254E-2,4.270234E-2,2.8536995E-3,4.042807E-3,-8.3367823E-4,-2.973912E-3,-1.9485941E-3,-1.2170563E-3,-6.46227E-4,4.673774E-5,8.2047563E-4,1.5152261E-3,2.2483652E-3,8.949201E-4],"categories":[],"categories_nodes":[],"categories_segments":[],"categories_sizes":[],"default_left":[0,0,0,0,0,0,0,0,0,0,0,0,0,0,0,0,0,0,0,0,0,0,0,0,0],"id":8,"left_children":[1,3,5,7,9,11,13,-1,15,17,19,21,23,-1,-1,-1,-1,-1,-1,-1,-1,-1,-1,-1,-1],"loss_changes":[3.5031754E-1,4.003437E-2,2.6658446E-2,1.4382899E-3,1.1135139E-2,2.7098544E-3,1.7434359E-5,0E0,9.088218E-5,1.0408685E-3,9.615381E-4,5.0034653E-4,9.403564E-5,0E0,0E0,0E0,0E0,0E0,0E0,0E0,0E0,0E0,0E0,0E0,0E0],"parents":[2147483647,0,0,1,1,2,2,3,3,4,4,5,5,6,6,8,8,9,9,10,10,11,11,12,12],"right_children":[2,4,6,8,10,12,14,-1,16,18,20,22,24,-1,-1,-1,-1,-1,-1,-1,-1,-1,-1,-1,-1],"split_conditions":[8.272385E-1,7.5966036E-1,9.1163224E-1,7.270415E-1,8.087695E-1,8.9333826E-1,9.3030244E-1,-4.419859E-3,9.297209E1,7.9668933E-1,1.3125647E2,1.5372559E2,8.92708E-1,2.8536995E-3,4.042807E-3,-8.3367823E-4,-2.973912E-3,-1.9485941E-3,-1.2170563E-3,-6.46227E-4,4.673774E-5,8.2047563E-4,1.5152261E-3,2.2483652E-3,8.949201E-4],"split_indices":[4,1,1,1,4,1,1,0,3,1,3,3,0,0,0,0,0,0,0,0,0,0,0,0,0],"split_type":[0,0,0,0,0,0,0,0,0,0,0,0,0,0,0,0,0,0,0,0,0,0,0,0,0],"sum_hessian":[1.6E2,9E1,7E1,2.8E1,6.2E1,3.5E1,3.5E1,1E1,1.8E1,4.3E1,1.9E1,2E1,1.5E1,1.5E1,2E1,1E0,1.7E1,2.8E1,1.5E1,8E0,1.1E1,1.3E1,7E0,1.3E1,2E0],"tree_param":{"num_deleted":"0","num_feature":"5","num_nodes":"25","size_leaf_vector":"1"}},{"base_weights":[1.8421324E-3,-4.037439E-2,4.8726637E-2,-6.837812E-2,-2.662467E-2,2.3726135E-2,6.7232974E-2,-4.4160155E-3,-2.6616899E-3,-3.685526E-2,-1.6517324E-2,1.4517361E-2,3.716011E-2,2.6649036E-3,3.8403184E-3,-5.216479E-4,-1.8703308E-3,-1.4547306E-3,-5.2942836E-4,1.2205815E-3,5.2063767E-4,1.9379962E-3,4.090637E-4],"categories":[],"categories_nodes":[],"categories_segments":[],"categories_sizes":[],"default_left":[0,0,0,0,0,0,0,0,0,0,0,0,0,0,0,0,0,0,0,0,0,0,0],"id":9,"left_children":[1,3,5,7,9,11,13,-1,-1,15,17,19,21,-1,-1,-1,-1,-1,-1,-1,-1,-1,-1],"loss_changes":[3.3844844E-1,3.2833368E-2,3.5880893E-2,4.056677E-3,5.8023036E-3,3.9141085E-3,2.042964E-3,0E0,0E0,4.6782196E-5,2.1526637E-3,6.7988597E-4,3.3194572E-4,0E0,0E0,0E0,0E0,0E0,0E0,0E0,0E0,0E0,0E0],"parents":[2147483647,0,0,1,1,2,2,3,3,4,4,5,5,6,6,9,9,10,10,11,11,12,12],"right_children":[2,4,6,8,10,12,14,-1,-1,16,18,20,22,-1,-1,-1,-1,-1,-1,-1,-1,-1,-1],"split_conditions":[8.446976E-1,7.5966036E-1,8.3853215E-1,7.2739035E-1,7.9668933E-1,8.344436E-1,9.3030244E-1,-4.4160155E-3,-2.6616899E-3,8.904934E1,1.0287006E2,8.321796E-1,9.017427E-1,2.6649036E-3,3.8403184E-3,-5.216479E-4,-1.8703308E-3,-1.4547306E-3,-5.2942836E-4,1.2205815E-3,5.2063767E-4,1.9379962E-3,4.090637E-4],"split_indices":[1,1,4,1,1,4,1,0,0,3,3,0,1,0,0,0,0,0,0,0,0,0,0],"split_type":[0,0,0,0,0,0,0,0,0,0,0,0,0,0,0,0,0,0,0,0,0,0,0],"sum_hessian":[1.69E2,8.9E1,8E1,2.8E1,6.1E1,3.5E1,4.5E1,1E1,1.8E1,2.9E1,3.2E1,2.2E1,1.3E1,2.1E1,2.4E1,1E0,2.8E1,9E0,2.3E1,5E0,1.7E1,1.2E1,1E0],"tree_param":{"num_deleted":"0","num_feature":"5","num_nodes":"23","size_leaf_vector":"1"}},{"base_weights":[1.6408573E-3,-4.088558E-2,4.6149235E-2,-6.492612E-2,-2.5559438E-2,2.4389617E-2,6.4949125E-2,-4.2222324E-3,-2.5959832E-3,-1.6778253E-3,-1.5727162E-2,4.137657E-3,3.0789034E-2,2.387034E-3,3.7326624E-3,4.77688E-4,-8.533479E-4,-1.1466955E-4,6.156796E-4,3.2139223E-4,1.6123735E-3],"categories":[],"categories_nodes":[],"categories_segments":[],"categories_sizes":[],"default_left":[0,0,0,0,0,0,0,0,0,0,0,0,0,0,0,0,0,0,0,0,0],"id":10,"left_children":[1,3,5,7,9,11,13,-1,-1,-1,15,17,19,-1,-1,-1,-1,-1,-1,-1,-1],"loss_changes":[3.2933822E-1,3.1132475E-2,3.3187598E-2,4.247144E-3,3.8754977E-3,5.1862355E-3,3.9506704E-3,0E0,0E0,0E0,1.0775775E-3,6.06618E-4,8.941218E-4,0E0,0E0,0E0,0E0,0E0,0E0,0E0,0E0],"parents":[2147483647,0,0,1,1,2,2,3,3,4,4,5,5,6,6,10,10,11,11,12,12],"right_children":[2,4,6,8,10,12,14,-1,-1,-1,16,18,20,-1,-1,-1,-1,-1,-1,-1,-1],"split_conditions":[8.189135E-1,7.679812E-1,9.075498E-1,9.74467E1,7.9668933E-1,1.2923769E2,9.2954165E-1,-4.2222324E-3,-2.5959832E-3,-1.6778253E-3,7.968068E-1,1.4370215E2,8.446976E-1,2.387034E-3,3.7326624E-3,4.77688E-4,-8.533479E-4,-1.1466955E-4,6.156796E-4,3.2139223E-4,1.6123735E-3],"split_indices":[4,1,1,2,1,2,1,0,0,0,1,3,1,0,0,0,0,0,0,0,0],"split_type":[0,0,0,0,0,0,0,0,0,0,0,0,0,0,0,0,0,0,0,0,0],"sum_hessian":[1.72E2,8.8E1,8.4E1,3.3E1,5.5E1,4E1,4.4E1,1.1E1,2.2E1,2.9E1,2.6E1,1E1,3E1,1.8E1,2.6E1,1E0,2.5E1,6E0,4E0,2E0,2.8E1],"tree_param":{"num_deleted":"0","num_feature":"5","num_nodes":"21","size_leaf_vector":"1"}},{"base_weights":[-7.6736853E-4,-3.833908E-2,4.2033292E-2,-6.4689405E-2,-2.4227291E-2,1.3212052E-2,6.0073808E-2,-4.2613787E-3,-2.610638E-3,-2.7853686E-2,5.5948645E-4,3.9629876E-3,1.7175982E-2,2.4594574E-3,3.7233864E-3,-1.5205841E-3,-6.6949823E-4,-2.1051108E-4,3.190875E-4,-3.2093005E-5,7.460793E-4,1.2304634E-3,6.528801E-4],"categories":[],"categories_nodes":[],"categories_segments":[],"categories_sizes":[],"default_left":[0,0,0,0,0,0,0,0,0,0,0,0,0,0,0,0,0,0,0,0,0,0,0],"id":11,"left_children":[1,3,5,7,9,11,13,-1,-1,15,17,19,21,-1,-1,-1,-1,-1,-1,-1,-1,-1,-1],"loss_changes":[2.476499E-1,2.8924465E-2,3.66427E-2,2.7249604E-3,4.959345E-3,9.951484E-4,3.2306015E-3,0E0,0E0,1.3687015E-3,2.4903257E-4,5.142043E-4,2.9092375E-4,0E0,0E0,0E0,0E0,0E0,0E0,0E0,0E0,0E0,0E0],"parents":[2147483647,0,0,1,1,2,2,3,3,4,4,5,5,6,6,9,9,10,10,11,11,12,12],"right_children":[2,4,6,8,10,12,14,-1,-1,16,18,20,22,-1,-1,-1,-1,-1,-1,-1,-1,-1,-1],"split_conditions":[8.378787E-1,7.679812E-1,8.9459294E-1,9.59269E1,1.2472477E2,1.2923769E2,9.418408E-1,-4.2613787E-3,-2.610638E-3,8.1902796E-1,1.369333E2,8.5344136E-1,1.36319E2,2.4594574E-3,3.7233864E-3,-1.5205841E-3,-6.6949823E-4,-2.1051108E-4,3.190875E-4,-3.2093005E-5,7.460793E-4,1.2304634E-3,6.528801E-4],"split_indices":[1,1,1,2,3,2,1,0,0,1,3,0,2,0,0,0,0,0,0,0,0,0,0],"split_type":[0,0,0,0,0,0,0,0,0,0,0,0,0,0,0,0,0,0,0,0,0,0,0],"sum_hessian":[1.52E2,8.1E1,7.1E1,2.7E1,5.4E1,2.8E1,4.3E1,8E0,1.9E1,4.7E1,7E0,9E0,1.9E1,2.7E1,1.6E1,3.9E1,8E0,4E0,3E0,7E0,2E0,5E0,1.4E1],"tree_param":{"num_deleted":"0","num_feature":"5","num_nodes":"23","size_leaf_vector":"1"}},{"base_weights":[5.486399E-4,-4.1039385E-2,3.444596E-2,-6.1277796E-2,-2.8378662E-2,1.2943139E-2,5.2249465E-2,-3.52229E-3,-4.3183308E-2,-3.4497097E-2,-2.0822845E-2,2.7108004E-3,2.020199E-2,4.097453E-2,6.370375E-2,-6.1612873E-4,-2.2434297E-3,-1.3350397E-3,-2.269522E-3,-1.2393402E-3,-5.731079E-4,-2.0573736E-5,5.767733E-4,1.0818545E-3,1.232783E-4,2.08102E-3,5.8840367E-4,8.305222E-4,3.254467E-3],"categories":[],"categories_nodes":[],"categories_segments":[],"categories_sizes":[],"default_left":[0,0,0,0,0,0,0,0,0,0,0,0,0,0,0,0,0,0,0,0,0,0,0,0,0,0,0,0,0],"id":12,"left_children":[1,3,5,7,9,11,13,-1,15,17,19,21,23,25,27,-1,-1,-1,-1,-1,-1,-1,-1,-1,-1,-1,-1,-1,-1],"loss_changes":[2.3542759E-1,1.7478481E-2,3.454368E-2,1.6028434E-3,1.5007071E-3,3.1390628E-3,3.8470924E-3,0E0,7.121451E-5,9.1123395E-4,6.064186E-4,5.282542E-4,5.8299024E-4,3.8381666E-5,4.196316E-4,0E0,0E0,0E0,0E0,0E0,0E0,0E0,0E0,0E0,0E0,0E0,0E0,0E0,0E0],"parents":[2147483647,0,0,1,1,2,2,3,3,4,4,5,5,6,6,8,8,9,9,10,10,11,11,12,12,13,13,14,14],"right_children":[2,4,6,8,10,12,14,-1,16,18,20,22,24,26,28,-1,-1,-1,-1,-1,-1,-1,-1,-1,-1,-1,-1,-1,-1],"split_conditions":[8.1902796E-1,7.5966036E-1,8.9459294E-1,1.0664173E2,1.1186494E2,1.2923769E2,9.2404574E-1,-3.52229E-3,9.297209E1,1.0250442E2,7.954917E-1,1.4370215E2,8.3661485E-1,9.234918E-1,1.339671E2,-6.1612873E-4,-2.2434297E-3,-1.3350397E-3,-2.269522E-3,-1.2393402E-3,-5.731079E-4,-2.0573736E-5,5.767733E-4,1.0818545E-3,1.232783E-4,2.08102E-3,5.8840367E-4,8.305222E-4,3.254467E-3],"split_indices":[1,1,1,2,2,2,1,0,3,3,1,3,4,1,2,0,0,0,0,0,0,0,0,0,0,0,0,0,0],"split_type":[0,0,0,0,0,0,0,0,0,0,0,0,0,0,0,0,0,0,0,0,0,0,0,0,0,0,0,0,0],"sum_hessian":[1.65E2,7.4E1,9.1E1,2.7E1,4.7E1,4.2E1,4.9E1,1.6E1,1.1E1,2.4E1,2.3E1,1.8E1,2.4E1,2.7E1,2.2E1,1E0,1E1,1.6E1,8E0,1.5E1,8E0,1.4E1,4E0,2.2E1,2E0,2.6E1,1E0,1E0,2.1E1],"tree_param":{"num_deleted":"0","num_feature":"5","num_nodes":"29","size_leaf_vector":"1"}},{"base_weights":[-2.6639944E-4,-3.6638923E-2,3.9888546E-2,-3.2049466E-3,-2.5418293E-2,2.3416646E-2,5.7063125E-2,-3.631599E-2,-1.7579855E-2,4.7562495E-3,2.7118603E-2,2.4187062E-3,3.394131E-3,-3.952712E-4,-1.8585185E-3,-1.2458448E-3,-5.2269147E-4,4.481411E-4,-8.455142E-5,2.487908E-4,1.4173517E-3],"categories":[],"categories_nodes":[],"categories_segments":[],"categories_sizes":[],"default_left":[0,0,0,0,0,0,0,0,0,0,0,0,0,0,0,0,0,0,0,0,0],"id":13,"left_children":[1,3,5,-1,7,9,11,13,15,17,19,-1,-1,-1,-1,-1,-1,-1,-1,-1,-1],"loss_changes":[2.366079E-1,2.4560794E-2,2.0446911E-2,0E0,4.657671E-3,2.703296E-3,1.9462407E-4,3.1298772E-4,1.7263126E-3,2.3212392E-4,7.837806E-4,0E0,0E0,0E0,0E0,0E0,0E0,0E0,0E0,0E0,0E0],"parents":[2147483647,0,0,1,1,2,2,4,4,5,5,6,6,7,7,8,8,9,9,10,10],"right_children":[2,4,6,-1,8,10,12,14,16,18,20,-1,-1,-1,-1,-1,-1,-1,-1,-1,-1],"split_conditions":[8.1850946E-1,7.7172405E-1,8.40469E-1,-3.2049466E-3,7.945336E-1,1.2993721E2,1.5943314E2,8.904934E1,1.1186494E2,1.27655426E2,8.2205117E-1,2.4187062E-3,3.394131E-3,-3.952712E-4,-1.8585185E-3,-1.2458448E-3,-5.2269147E-4,4.481411E-4,-8.455142E-5,2.487908E-4,1.4173517E-3],"split_indices":[4,4,4,0,4,2,2,3,2,2,4,0,0,0,0,0,0,0,0,0,0],"split_type":[0,0,0,0,0,0,0,0,0,0,0,0,0,0,0,0,0,0,0,0,0],"sum_hessian":[1.6E2,8.4E1,7.6E1,2.3E1,6.1E1,4E1,3.6E1,2.4E1,3.7E1,7E0,3.3E1,2.3E1,1.3E1,1E0,2.3E1,1.7E1,2E1,4E0,3E0,2E0,3.1E1],"tree_param":{"num_deleted":"0","num_feature":"5","num_nodes":"21","size_leaf_vector":"1"}},{"base_weights":[-1.7519788E-3,-3.6384314E-2,3.425242E-2,-6.0733303E-2,-2.4864512E-2,1.7590163E-2,5.3744555E-2,-3.617876E-3,-4.4437293E-2,-3.1578224E-2,-1.5276377E-2,6.9321855E-3,2.7448587E-2,2.3311244E-3,3.7786234E-3,-5.2060187E-4,-2.320253E-3,-1.6051133E-3,-3.8332492E-4,-9.071563E-4,-9.037853E-6,9.126127E-4,2.0920807E-4,1.4326157E-3,5.137106E-4],"categories":[],"categories_nodes":[],"categories_segments":[],"categories_sizes":[],"default_left":[0,0,0,0,0,0,0,0,0,0,0,0,0,0,0,0,0,0,0,0,0,0,0,0,0],"id":14,"left_children":[1,3,5,7,9,11,13,-1,15,17,19,21,23,-1,-1,-1,-1,-1,-1,-1,-1,-1,-1,-1,-1],"loss_changes":[1.957652E-1,2.0929545E-2,2.4062917E-2,1.5203357E-3,3.1224266E-3,4.3277694E-3,1.9177198E-3,0E0,3.8722716E-4,1.548715E-4,1.0786038E-3,6.080017E-4,1.6043149E-4,0E0,0E0,0E0,0E0,0E0,0E0,0E0,0E0,0E0,0E0,0E0,0E0],"parents":[2147483647,0,0,1,1,2,2,3,3,4,4,5,5,6,6,8,8,9,9,10,10,11,11,12,12],"right_children":[2,4,6,8,10,12,14,-1,16,18,20,22,24,-1,-1,-1,-1,-1,-1,-1,-1,-1,-1,-1,-1],"split_conditions":[8.189135E-1,7.550762E-1,8.40469E-1,7.2739035E-1,7.808931E-1,8.6135954E-1,1.6761526E2,-3.617876E-3,9.297209E1,8.020685E-1,1.2472477E2,1.23319565E2,9.090256E-1,2.3311244E-3,3.7786234E-3,-5.2060187E-4,-2.320253E-3,-1.6051133E-3,-3.8332492E-4,-9.071563E-4,-9.037853E-6,9.126127E-4,2.0920807E-4,1.4326157E-3,5.137106E-4],"split_indices":[4,1,4,1,0,0,3,0,3,1,3,3,1,0,0,0,0,0,0,0,0,0,0,0,0],"split_type":[0,0,0,0,0,0,0,0,0,0,0,0,0,0,0,0,0,0,0,0,0,0,0,0,0],"sum_hessian":[1.55E2,7.9E1,7.6E1,2.4E1,5.5E1,4.2E1,3.4E1,1.2E1,1.2E1,3.1E1,2.4E1,2.1E1,2.1E1,2.8E1,6E0,1E0,1.1E1,3E1,1E0,2E1,4E0,3E0,1.8E1,1.9E1,2E0],"tree_param":{"num_deleted":"0","num_feature":"5","num_nodes":"25","size_leaf_vector":"1"}},{"base_weights":[-3.0158032E-3,-3.440255E-2,3.343303E-2,-5.7983164E-2,-2.2824885E-2,1.9984698E-2,4.9943496E-2,-3.62884E-3,-2.21355E-3,-3.0681493E-2,-1.6336408E-2,5.546713E-3,2.364338E-2,2.1212283E-3,3.149729E-3,-5.185912E-4,-1.5970903E-3,-1.0945356E-3,-5.7955616E-4,-2.4671358E-4,4.3918713E-4,1.9428135E-5,1.2168149E-3],"categories":[],"categories_nodes":[],"categories_segments":[],"categories_sizes":[],"default_left":[0,0,0,0,0,0,0,0,0,0,0,0,0,0,0,0,0,0,0,0,0,0,0],"id":15,"left_children":[1,3,5,7,9,11,13,-1,-1,15,17,19,21,-1,-1,-1,-1,-1,-1,-1,-1,-1,-1],"loss_changes":[1.8533583E-1,2.2428282E-2,1.5654765E-2,2.390042E-3,2.557423E-3,2.1402873E-3,5.657673E-4,0E0,0E0,3.3421442E-4,6.687483E-4,3.8261391E-4,5.3840876E-4,0E0,0E0,0E0,0E0,0E0,0E0,0E0,0E0,0E0,0E0],"parents":[2147483647,0,0,1,1,2,2,3,3,4,4,5,5,6,6,9,9,10,10,11,11,12,12],"right_children":[2,4,6,8,10,12,14,-1,-1,16,18,20,22,-1,-1,-1,-1,-1,-1,-1,-1,-1,-1],"split_conditions":[8.37006E-1,7.7172405E-1,8.40469E-1,9.59269E1,7.8834337E-1,1.2923769E2,1.5943314E2,-3.62884E-3,-2.21355E-3,7.73567E-1,1.0991228E2,8.23874E-1,8.446976E-1,2.1212283E-3,3.149729E-3,-5.185912E-4,-1.5970903E-3,-1.0945356E-3,-5.7955616E-4,-2.4671358E-4,4.3918713E-4,1.9428135E-5,1.2168149E-3],"split_indices":[1,4,4,2,1,2,2,0,0,4,2,4,1,0,0,0,0,0,0,0,0,0,0],"split_type":[0,0,0,0,0,0,0,0,0,0,0,0,0,0,0,0,0,0,0,0,0,0,0],"sum_hessian":[1.6E2,8.6E1,7.4E1,2.7E1,5.9E1,4.2E1,3.2E1,1.1E1,1.6E1,2.5E1,3.4E1,9E0,3.3E1,2.3E1,9E0,2E0,2.3E1,1.4E1,2E1,2E0,7E0,1E0,3.2E1],"tree_param":{"num_deleted":"0","num_feature":"5","num_nodes":"23","size_leaf_vector":"1"}},{"base_weights":[5.5123767E-4,-3.0982384E-2,3.1673517E-2,-5.352727E-2,-1.8439358E-2,1.2022884E-2,4.658485E-2,-3.4047053E-3,-4.095301E-2,-2.6816048E-2,-1.1681807E-2,6.4151078E-3,2.1019496E-2,1.8014519E-3,2.8215153E-3,-4.5224876E-4,-2.1190976E-3,-2.471775E-4,-1.3811095E-3,-9.124622E-4,-3.4595604E-4,4.769652E-4,-3.3699276E-4,4.1020714E-4,1.1301864E-3],"categories":[],"categories_nodes":[],"categories_segments":[],"categories_sizes":[],"default_left":[0,0,0,0,0,0,0,0,0,0,0,0,0,0,0,0,0,0,0,0,0,0,0,0,0],"id":16,"left_children":[1,3,5,7,9,11,13,-1,15,17,19,21,23,-1,-1,-1,-1,-1,-1,-1,-1,-1,-1,-1,-1],"loss_changes":[1.5211666E-1,2.078712E-2,2.2295251E-2,2.1568611E-3,2.5736392E-3,1.6309423E-3,2.5396422E-3,0E0,3.9176643E-4,2.5136024E-4,8.1209047E-4,1.009563E-3,7.848814E-5,0E0,0E0,0E0,0E0,0E0,0E0,0E0,0E0,0E0,0E0,0E0,0E0],"parents":[2147483647,0,0,1,1,2,2,3,3,4,4,5,5,6,6,8,8,9,9,10,10,11,11,12,12],"right_children":[2,4,6,8,10,12,14,-1,16,18,20,22,24,-1,-1,-1,-1,-1,-1,-1,-1,-1,-1,-1,-1],"split_conditions":[8.1850946E-1,7.5966036E-1,8.9459294E-1,9.59269E1,7.8946495E-1,1.396382E2,9.2954165E-1,-3.4047053E-3,9.297209E1,7.73567E-1,1.0991228E2,1.36319E2,8.5702306E-1,1.8014519E-3,2.8215153E-3,-4.5224876E-4,-2.1190976E-3,-2.471775E-4,-1.3811095E-3,-9.124622E-4,-3.4595604E-4,4.769652E-4,-3.3699276E-4,4.1020714E-4,1.1301864E-3],"split_indices":[4,1,1,2,1,2,1,0,3,4,2,2,1,0,0,0,0,0,0,0,0,0,0,0,0],"split_type":[0,0,0,0,0,0,0,0,0,0,0,0,0,0,0,0,0,0,0,0,0,0,0,0,0],"sum_hessian":[1.53E2,7.6E1,7.7E1,2.6E1,5E1,3.4E1,4.3E1,1E1,1.6E1,2.1E1,2.9E1,2.2E1,1.2E1,2.3E1,2E1,1E0,1.5E1,1E0,2E1,1.1E1,1.8E1,1.8E1,4E0,2E0,1E1],"tree_param":{"num_deleted":"0","num_feature":"5","num_nodes":"25","size_leaf_vector":"1"}},{"base_weights":[1.0529931E-3,-2.6874399E-2,3.5259053E-2,-5.36205E-2,-1.64247E-2,2.207576E-2,4.7462925E-2,-3.255489E-3,-3.8890354E-2,-2.1200553E-2,5.8978796E-4,5.190921E-3,2.4024148E-2,4.019998E-2,3.0157538E-3,-4.4094326E-4,-2.0330704E-3,-1.3529635E-3,-7.8154355E-4,1.8684658E-4,-6.622215E-4,-6.748636E-5,5.000631E-4,8.584821E-4,1.3639185E-3,5.674452E-4,2.0450035E-3],"categories":[],"categories_nodes":[],"categories_segments":[],"categories_sizes":[],"default_left":[0,0,0,0,0,0,0,0,0,0,0,0,0,0,0,0,0,0,0,0,0,0,0,0,0,0,0],"id":17,"left_children":[1,3,5,7,9,11,13,-1,15,17,19,21,23,25,-1,-1,-1,-1,-1,-1,-1,-1,-1,-1,-1,-1,-1],"loss_changes":[1.5092748E-1,2.3434818E-2,1.0375217E-2,1.5295893E-3,5.2130595E-3,1.0596309E-3,9.357333E-4,0E0,3.3376738E-4,1.2085997E-3,7.0256763E-4,1.7081271E-4,2.454333E-4,6.0983002E-5,0E0,0E0,0E0,0E0,0E0,0E0,0E0,0E0,0E0,0E0,0E0,0E0,0E0],"parents":[2147483647,0,0,1,1,2,2,3,3,4,4,5,5,6,6,8,8,9,9,10,10,11,11,12,12,13,13],"right_children":[2,4,6,8,10,12,14,-1,16,18,20,22,24,26,-1,-1,-1,-1,-1,-1,-1,-1,-1,-1,-1,-1,-1],"split_conditions":[8.272385E-1,7.7436405E-1,8.40499E-1,9.74467E1,1.2472477E2,1.2914163E2,1.6208226E2,-3.255489E-3,9.297209E1,7.8946495E-1,8.2647806E-1,1.4370215E2,8.8196373E-1,1.339671E2,3.0157538E-3,-4.4094326E-4,-2.0330704E-3,-1.3529635E-3,-7.8154355E-4,1.8684658E-4,-6.622215E-4,-6.748636E-5,5.000631E-4,8.584821E-4,1.3639185E-3,5.674452E-4,2.0450035E-3],"split_indices":[4,4,4,2,3,2,2,0,3,1,4,3,1,2,0,0,0,0,0,0,0,0,0,0,0,0,0],"split_type":[0,0,0,0,0,0,0,0,0,0,0,0,0,0,0,0,0,0,0,0,0,0,0,0,0,0,0],"sum_hessian":[1.56E2,8.6E1,7E1,2.3E1,6.3E1,3.5E1,3.5E1,1.1E1,1.2E1,4.9E1,1.4E1,4E0,3.1E1,2.5E1,1E1,1E0,1.1E1,2.2E1,2.7E1,1.2E1,2E0,2E0,2E0,1.2E1,1.9E1,1E0,2.4E1],"tree_param":{"num_deleted":"0","num_feature":"5","num_nodes":"27","size_leaf_vector":"1"}},{"base_weights":[-3.7819843E-4,-2.6192933E-2,2.9517522E-2,-3.860716E-2,-1.34725105E-2,1.4449761E-2,4.420503E-2,-2.8861593E-3,-3.2042377E-2,-1.6540049E-2,6.3542527E-4,9.275357E-3,2.4085082E-2,1.8058604E-3,2.709927E-3,-1.8897481E-3,-1.320378E-3,-1.1405897E-3,-6.6861504E-4,-1.8866837E-4,2.4585665E-4,6.084643E-4,-2.945894E-4,6.615698E-4,1.3719393E-3],"categories":[],"categories_nodes":[],"categories_segments":[],"categories_sizes":[],"default_left":[0,0,0,0,0,0,0,0,0,0,0,0,0,0,0,0,0,0,0,0,0,0,0,0,0],"id":18,"left_children":[1,3,5,7,9,11,13,-1,15,17,19,21,23,-1,-1,-1,-1,-1,-1,-1,-1,-1,-1,-1,-1],"loss_changes":[1.2656842E-1,1.3376314E-2,1.6180634E-2,3.6720857E-3,1.9579586E-3,1.7210273E-3,1.1138842E-3,0E0,1.3644621E-4,4.3004472E-4,1.884486E-4,1.2568003E-3,1.1014752E-4,0E0,0E0,0E0,0E0,0E0,0E0,0E0,0E0,0E0,0E0,0E0,0E0],"parents":[2147483647,0,0,1,1,2,2,3,3,4,4,5,5,6,6,8,8,9,9,10,10,11,11,12,12],"right_children":[2,4,6,8,10,12,14,-1,16,18,20,22,24,-1,-1,-1,-1,-1,-1,-1,-1,-1,-1,-1,-1],"split_conditions":[8.446976E-1,7.9275715E-1,9.075498E-1,9.59269E1,1.2472477E2,1.5357677E2,9.418408E-1,-2.8861593E-3,1.1229336E2,1.0199496E2,1.369333E2,1.5180336E2,1.416521E2,1.8058604E-3,2.709927E-3,-1.8897481E-3,-1.320378E-3,-1.1405897E-3,-6.6861504E-4,-1.8866837E-4,2.4585665E-4,6.084643E-4,-2.945894E-4,6.615698E-4,1.3719393E-3],"split_indices":[1,4,1,2,3,3,1,0,2,2,3,3,2,0,0,0,0,0,0,0,0,0,0,0,0],"split_type":[0,0,0,0,0,0,0,0,0,0,0,0,0,0,0,0,0,0,0,0,0,0,0,0,0],"sum_hessian":[1.62E2,8.7E1,7.5E1,4.3E1,4.4E1,3.8E1,3.7E1,9E0,3.4E1,3.6E1,8E0,2.6E1,1.2E1,2.3E1,1.4E1,1.4E1,2E1,1E1,2.6E1,4E0,4E0,2.2E1,4E0,4E0,8E0],"tree_param":{"num_deleted":"0","num_feature":"5","num_nodes":"25","size_leaf_vector":"1"}},{"base_weights":[2.9157556E-4,-2.7390119E-2,2.8661666E-2,-4.4649616E-2,-1.5451047E-2,1.4215832E-2,4.3483805E-2,-2.7947896E-3,-1.7780764E-3,-2.1341212E-2,-8.180817E-3,4.9635074E-3,1.7338801E-2,1.7030645E-3,2.4608301E-3,-4.4617578E-4,-1.1260805E-3,-4.879063E-4,1.0726303E-4,6.8529375E-4,-3.0315865E-4,9.236084E-4,2.5352687E-4],"categories":[],"categories_nodes":[],"categories_segments":[],"categories_sizes":[],"default_left":[0,0,0,0,0,0,0,0,0,0,0,0,0,0,0,0,0,0,0,0,0,0,0],"id":19,"left_children":[1,3,5,7,9,11,13,-1,-1,15,17,19,21,-1,-1,-1,-1,-1,-1,-1,-1,-1,-1],"loss_changes":[1.2722352E-1,1.6207226E-2,1.6511299E-2,1.3850704E-3,1.9665537E-3,1.1275178E-3,4.3029338E-4,0E0,0E0,1.9478984E-4,4.1183166E-4,1.2398927E-3,3.3737347E-4,0E0,0E0,0E0,0E0,0E0,0E0,0E0,0E0,0E0,0E0],"parents":[2147483647,0,0,1,1,2,2,3,3,4,4,5,5,6,6,9,9,10,10,11,11,12,12],"right_children":[2,4,6,8,10,12,14,-1,-1,16,18,20,22,-1,-1,-1,-1,-1,-1,-1,-1,-1,-1],"split_conditions":[8.189135E-1,7.778606E-1,8.40469E-1,7.2739035E-1,8.042925E-1,8.272385E-1,9.38967E-1,-2.7947896E-3,-1.7780764E-3,7.7048355E-1,1.2472477E2,8.200132E-1,9.0491945E-1,1.7030645E-3,2.4608301E-3,-4.4617578E-4,-1.1260805E-3,-4.879063E-4,1.0726303E-4,6.8529375E-4,-3.0315865E-4,9.236084E-4,2.5352687E-4],"split_indices":[4,4,4,1,1,4,1,0,0,1,3,0,1,0,0,0,0,0,0,0,0,0,0],"split_type":[0,0,0,0,0,0,0,0,0,0,0,0,0,0,0,0,0,0,0,0,0,0,0],"sum_hessian":[1.6E2,8.1E1,7.9E1,3.2E1,4.9E1,4.1E1,3.8E1,1.2E1,2E1,2.6E1,2.3E1,1.1E1,3E1,1.7E1,2.1E1,3E0,2.3E1,2E1,3E0,6E0,5E0,2.7E1,3E0],"tree_param":{"num_deleted":"0","num_feature":"5","num_nodes":"23","size_leaf_vector":"1"}},{"base_weights":[1.9651037E-3,-2.936153E-2,2.493928E-2,-2.6235231E-3,-2.1970706E-2,7.861075E-3,3.6387686E-2,-2.5654532E-2,-9.613024E-3,2.3990904E-3,1.1556407E-2,1.4555407E-3,2.356479E-3,-1.7858297E-4,-1.3058656E-3,6.413758E-4,-6.162976E-4,3.2786696E-4,-1.5493036E-4,6.4593484E-4,-9.1587506E-5],"categories":[],"categories_nodes":[],"categories_segments":[],"categories_sizes":[],"default_left":[0,0,0,0,0,0,0,0,0,0,0,0,0,0,0,0,0,0,0,0,0],"id":20,"left_children":[1,3,5,-1,7,9,11,13,15,17,19,-1,-1,-1,-1,-1,-1,-1,-1,-1,-1],"loss_changes":[1.17324226E-1,1.06319785E-2,1.809267E-2,0E0,2.2116527E-3,7.5944536E-4,3.0053928E-3,3.2571703E-4,1.0104252E-3,4.0895218E-4,4.431503E-4,0E0,0E0,0E0,0E0,0E0,0E0,0E0,0E0,0E0,0E0],"parents":[2147483647,0,0,1,1,2,2,4,4,5,5,6,6,7,7,8,8,9,9,10,10],"right_children":[2,4,6,-1,8,10,12,14,16,18,20,-1,-1,-1,-1,-1,-1,-1,-1,-1,-1],"split_conditions":[8.1232E-1,7.319269E-1,8.9333826E-1,-2.6235231E-3,7.9668933E-1,8.272385E-1,9.4032043E-1,8.904934E1,7.968068E-1,8.177769E-1,8.929678E-1,1.4555407E-3,2.356479E-3,-1.7858297E-4,-1.3058656E-3,6.413758E-4,-6.162976E-4,3.2786696E-4,-1.5493036E-4,6.4593484E-4,-9.1587506E-5],"split_indices":[4,1,1,0,1,4,1,3,1,0,1,0,0,0,0,0,0,0,0,0,0],"split_type":[0,0,0,0,0,0,0,0,0,0,0,0,0,0,0,0,0,0,0,0,0],"sum_hessian":[1.61E2,6.8E1,9.3E1,1.5E1,5.3E1,3.8E1,5.5E1,4E1,1.3E1,1.6E1,2.2E1,3.5E1,2E1,1E0,3.9E1,1E0,1.2E1,9E0,7E0,2E1,2E0],"tree_param":{"num_deleted":"0","num_feature":"5","num_nodes":"21","size_leaf_vector":"1"}},{"base_weights":[2.5785243E-4,-2.2354472E-2,2.8109878E-2,-4.1224364E-2,-1.5110631E-2,1.5229579E-2,3.76273E-2,-2.603687E-3,-1.5983224E-3,-2.1603012E-2,-7.711947E-3,7.211119E-4,1.6758304E-2,2.5910432E-2,2.0387068E-3,-1.1821346E-3,-4.523322E-5,-6.7488075E-4,-1.07665095E-4,-1.5122196E-4,2.9894413E-4,6.258241E-4,1.1087992E-3,1.3553376E-3,3.486812E-4],"categories":[],"categories_nodes":[],"categories_segments":[],"categories_sizes":[],"default_left":[0,0,0,0,0,0,0,0,0,0,0,0,0,0,0,0,0,0,0,0,0,0,0,0,0],"id":21,"left_children":[1,3,5,7,9,11,13,-1,-1,15,17,19,21,23,-1,-1,-1,-1,-1,-1,-1,-1,-1,-1,-1],"loss_changes":[9.698764E-2,1.0995764E-2,7.885471E-3,6.4557046E-4,2.8596101E-3,6.754785E-4,3.814958E-4,0E0,0E0,1.3718065E-3,9.6791016E-4,9.685576E-5,3.6589708E-4,6.0166698E-5,0E0,0E0,0E0,0E0,0E0,0E0,0E0,0E0,0E0,0E0,0E0],"parents":[2147483647,0,0,1,1,2,2,3,3,4,4,5,5,6,6,9,9,10,10,11,11,12,12,13,13],"right_children":[2,4,6,8,10,12,14,-1,-1,16,18,20,22,24,-1,-1,-1,-1,-1,-1,-1,-1,-1,-1,-1],"split_conditions":[1.3200224E2,7.5761753E-1,8.3853215E-1,9.59269E1,1.1383167E2,8.446976E-1,1.4501877E2,-2.603687E-3,-1.5983224E-3,8.1232E-1,7.848016E-1,1.3491463E2,1.4573369E2,1.4299904E2,2.0387068E-3,-1.1821346E-3,-4.523322E-5,-6.7488075E-4,-1.07665095E-4,-1.5122196E-4,2.9894413E-4,6.258241E-4,1.1087992E-3,1.3553376E-3,3.486812E-4],"split_indices":[2,1,4,2,2,1,2,0,0,4,0,2,2,2,0,0,0,0,0,0,0,0,0,0,0],"split_type":[0,0,0,0,0,0,0,0,0,0,0,0,0,0,0,0,0,0,0,0,0,0,0,0,0],"sum_hessian":[1.52E2,8.4E1,6.8E1,2.2E1,6.2E1,3E1,3.8E1,8E0,1.4E1,3.2E1,3E1,3E0,2.7E1,1E1,2.8E1,2.9E1,3E0,1.4E1,1.6E1,2E0,1E0,1.7E1,1E1,9E0,1E0],"tree_param":{"num_deleted":"0","num_feature":"5","num_nodes":"25","size_leaf_vector":"1"}},{"base_weights":[-2.4257703E-3,-2.499569E-2,2.3031807E-2,-4.3269277E-2,-1.7181486E-2,7.1904305E-3,3.3112895E-2,-2.6551576E-3,-1.625878E-3,-1.9224787E-2,-4.2251823E-3,5.2843854E-4,1.0194588E-2,2.5418082E-2,2.1307364E-3,-1.2080729E-3,-7.732519E-4,1.5088283E-4,-1.1065513E-3,5.2031456E-4,-3.301331E-4,6.1158126E-4,4.1117073E-5,1.6301166E-3,1.082513E-3],"categories":[],"categories_nodes":[],"categories_segments":[],"categories_sizes":[],"default_left":[0,0,0,0,0,0,0,0,0,0,0,0,0,0,0,0,0,0,0,0,0,0,0,0,0],"id":22,"left_children":[1,3,5,7,9,11,13,-1,-1,15,17,19,21,23,-1,-1,-1,-1,-1,-1,-1,-1,-1,-1,-1],"loss_changes":[9.65298E-2,1.1965197E-2,1.2378067E-2,1.0222197E-3,1.6130824E-3,6.3505047E-4,2.42633E-3,0E0,0E0,6.471779E-4,1.3636751E-3,8.435488E-4,4.099568E-4,7.915124E-5,0E0,0E0,0E0,0E0,0E0,0E0,0E0,0E0,0E0,0E0,0E0],"parents":[2147483647,0,0,1,1,2,2,3,3,4,4,5,5,6,6,9,9,10,10,11,11,12,12,13,13],"right_children":[2,4,6,8,10,12,14,-1,-1,16,18,20,22,24,-1,-1,-1,-1,-1,-1,-1,-1,-1,-1,-1],"split_conditions":[8.1850946E-1,7.550762E-1,8.9459294E-1,7.2209597E-1,8.1232E-1,8.272385E-1,9.3030244E-1,-2.6551576E-3,-1.625878E-3,7.9275715E-1,8.3167857E-1,8.200132E-1,8.8438696E-1,1.5060736E2,2.1307364E-3,-1.2080729E-3,-7.732519E-4,1.5088283E-4,-1.1065513E-3,5.2031456E-4,-3.301331E-4,6.1158126E-4,4.1117073E-5,1.6301166E-3,1.082513E-3],"split_indices":[4,1,1,1,4,4,1,0,0,4,1,0,1,3,0,0,0,0,0,0,0,0,0,0,0],"split_type":[0,0,0,0,0,0,0,0,0,0,0,0,0,0,0,0,0,0,0,0,0,0,0,0,0],"sum_hessian":[1.66E2,8.8E1,7.8E1,2.5E1,6.3E1,3.1E1,4.7E1,1.1E1,1.4E1,5.4E1,9E0,1E1,2.1E1,2.8E1,1.9E1,2.1E1,3.3E1,7E0,2E0,4E0,6E0,1.7E1,4E0,7E0,2.1E1],"tree_param":{"num_deleted":"0","num_feature":"5","num_nodes":"25","size_leaf_vector":"1"}},{"base_weights":[-2.0017975E-3,-2.1980964E-2,2.6233522E-2,-4.929008E-2,-1.7492875E-2,2.1547452E-2,2.067724E-3,-2.558192E-3,-6.701246E-4,-2.1147283E-2,-3.8779378E-3,1.1223627E-2,2.4547111E-2,-1.3430958E-3,-8.251116E-4,2.0546268E-4,-3.5120122E-4,7.430233E-4,-3.5324693E-4,1.835674E-4,1.2488611E-3],"categories":[],"categories_nodes":[],"categories_segments":[],"categories_sizes":[],"default_left":[0,0,0,0,0,0,0,0,0,0,0,0,0,0,0,0,0,0,0,0,0],"id":23,"left_children":[1,3,5,7,9,11,-1,-1,-1,13,15,17,19,-1,-1,-1,-1,-1,-1,-1,-1],"loss_changes":[9.2527896E-2,1.0904085E-2,3.9272495E-3,1.8845499E-4,4.097376E-3,1.3967641E-3,0E0,0E0,0E0,1.3086703E-3,5.0630304E-4,1.0361642E-3,2.764333E-4,0E0,0E0,0E0,0E0,0E0,0E0,0E0,0E0],"parents":[2147483647,0,0,1,1,2,2,3,3,4,4,5,5,9,9,10,10,11,11,12,12],"right_children":[2,4,6,8,10,12,-1,-1,-1,14,16,18,20,-1,-1,-1,-1,-1,-1,-1,-1],"split_conditions":[8.272385E-1,9.59269E1,1.5809511E2,7.9275715E-1,8.1232E-1,8.6135954E-1,2.067724E-3,-2.558192E-3,-6.701246E-4,7.821809E-1,8.101231E-1,8.5966444E-1,8.334953E-1,-1.3430958E-3,-8.251116E-4,2.0546268E-4,-3.5120122E-4,7.430233E-4,-3.5324693E-4,1.835674E-4,1.2488611E-3],"split_indices":[4,2,2,4,4,0,0,0,0,4,0,0,4,0,0,0,0,0,0,0,0],"split_type":[0,0,0,0,0,0,0,0,0,0,0,0,0,0,0,0,0,0,0,0,0],"sum_hessian":[1.62E2,9.5E1,6.7E1,1.2E1,8.3E1,5.3E1,1.4E1,1.1E1,1E0,6.5E1,1.8E1,1.3E1,4E1,2.7E1,3.8E1,5E0,1.3E1,1.1E1,2E0,1E0,3.9E1],"tree_param":{"num_deleted":"0","num_feature":"5","num_nodes":"21","size_leaf_vector":"1"}},{"base_weights":[-2.886176E-3,-2.0137543E-2,2.3557372E-2,-3.9523877E-2,-1.3240408E-2,1.0613518E-2,3.2246362E-2,-2.5325657E-3,-2.7987003E-2,-2.1742107E-2,-8.112081E-3,1.6884899E-2,5.562337E-3,1.7932074E-2,3.6563978E-2,-2.0563007E-4,-1.4699281E-3,-1.2902924E-3,-6.557898E-4,-6.737643E-4,-1.6214892E-4,-1.2236039E-4,1.049802E-3,-9.545654E-5,7.10319E-4,1.209767E-3,5.4482947E-4,1.596159E-3,2.451659E-3],"categories":[],"categories_nodes":[],"categories_segments":[],"categories_sizes":[],"default_left":[0,0,0,0,0,0,0,0,0,0,0,0,0,0,0,0,0,0,0,0,0,0,0,0,0,0,0,0,0],"id":24,"left_children":[1,3,5,7,9,11,13,-1,15,17,19,21,23,25,27,-1,-1,-1,-1,-1,-1,-1,-1,-1,-1,-1,-1,-1,-1],"loss_changes":[7.620148E-2,1.29814185E-2,7.0807077E-3,1.9201934E-3,3.137187E-3,7.93061E-4,1.7546713E-3,0E0,3.8459525E-4,6.4307917E-4,1.2358855E-3,1.0051064E-3,1.1250444E-3,2.2106944E-4,1.1285022E-4,0E0,0E0,0E0,0E0,0E0,0E0,0E0,0E0,0E0,0E0,0E0,0E0,0E0,0E0],"parents":[2147483647,0,0,1,1,2,2,3,3,4,4,5,5,6,6,8,8,9,9,10,10,11,11,12,12,13,13,14,14],"right_children":[2,4,6,8,10,12,14,-1,16,18,20,22,24,26,28,-1,-1,-1,-1,-1,-1,-1,-1,-1,-1,-1,-1,-1,-1],"split_conditions":[1.3200224E2,7.550762E-1,9.075498E-1,9.59269E1,7.8834337E-1,1.4788206E2,1.4501877E2,-2.5325657E-3,9.297209E1,1.1378923E2,1.1383167E2,8.446976E-1,1.5380121E2,1.5136583E2,1.6783443E2,-2.0563007E-4,-1.4699281E-3,-1.2902924E-3,-6.557898E-4,-6.737643E-4,-1.6214892E-4,-1.2236039E-4,1.049802E-3,-9.545654E-5,7.10319E-4,1.209767E-3,5.4482947E-4,1.596159E-3,2.451659E-3],"split_indices":[2,1,1,2,1,3,2,0,3,2,2,1,3,3,3,0,0,0,0,0,0,0,0,0,0,0,0,0,0],"split_type":[0,0,0,0,0,0,0,0,0,0,0,0,0,0,0,0,0,0,0,0,0,0,0,0,0,0,0,0,0],"sum_hessian":[1.65E2,1E2,6.5E1,2.5E1,7.5E1,2.7E1,3.8E1,1.1E1,1.4E1,2.7E1,4.8E1,1.1E1,1.6E1,1E1,2.8E1,1E0,1.3E1,1.7E1,1E1,2.2E1,2.6E1,2E0,9E0,9E0,7E0,4E0,6E0,2.3E1,5E0],"tree_param":{"num_deleted":"0","num_feature":"5","num_nodes":"29","size_leaf_vector":"1"}},{"base_weights":[3.4063123E-4,-2.0419054E-2,2.1355554E-2,-4.5457907E-2,-1.540566E-2,9.126755E-3,2.8510297E-2,-2.3562156E-3,-6.3652697E-4,-2.2037657E-2,-9.074264E-3,4.4957562E-3,1.8402278E-2,2.2989301E-2,1.9930003E-3,-1.3404804E-3,-7.9846877E-4,-6.2714843E-4,-2.358011E-4,4.0799528E-4,-8.517802E-5,2.3735464E-4,9.696033E-4,1.1640483E-3,3.195256E-4],"categories":[],"categories_nodes":[],"categories_segments":[],"categories_sizes":[],"default_left":[0,0,0,0,0,0,0,0,0,0,0,0,0,0,0,0,0,0,0,0,0,0,0,0,0],"id":25,"left_children":[1,3,5,7,9,11,13,-1,-1,15,17,19,21,23,-1,-1,-1,-1,-1,-1,-1,-1,-1,-1,-1],"loss_changes":[7.0238166E-2,9.467591E-3,6.739307E-3,1.09065324E-4,2.6973207E-3,1.248871E-3,2.216734E-3,0E0,0E0,5.274657E-4,5.0019287E-4,5.136358E-4,4.3101143E-5,2.5508925E-5,0E0,0E0,0E0,0E0,0E0,0E0,0E0,0E0,0E0,0E0,0E0],"parents":[2147483647,0,0,1,1,2,2,3,3,4,4,5,5,6,6,9,9,10,10,11,11,12,12,13,13],"right_children":[2,4,6,8,10,12,14,-1,-1,16,18,20,22,24,-1,-1,-1,-1,-1,-1,-1,-1,-1,-1,-1],"split_conditions":[8.4524363E-1,9.4273056E1,8.9459294E-1,7.846803E-1,7.8834337E-1,1.4388559E2,1.568766E2,-2.3562156E-3,-6.3652697E-4,1.1086132E2,1.1383167E2,1.36319E2,8.177769E-1,1.5633517E2,1.9930003E-3,-1.3404804E-3,-7.9846877E-4,-6.2714843E-4,-2.358011E-4,4.0799528E-4,-8.517802E-5,2.3735464E-4,9.696033E-4,1.1640483E-3,3.195256E-4],"split_indices":[1,2,1,1,1,2,2,0,0,2,2,2,0,2,0,0,0,0,0,0,0,0,0,0,0],"split_type":[0,0,0,0,0,0,0,0,0,0,0,0,0,0,0,0,0,0,0,0,0,0,0,0,0],"sum_hessian":[1.59E2,8E1,7.9E1,1.2E1,6.8E1,3E1,4.9E1,1.1E1,1E0,3.2E1,3.6E1,2.1E1,9E0,3.5E1,1.4E1,1.6E1,1.6E1,1.9E1,1.7E1,1.3E1,8E0,1E0,8E0,3.4E1,1E0],"tree_param":{"num_deleted":"0","num_feature":"5","num_nodes":"25","size_leaf_vector":"1"}},{"base_weights":[-9.232016E-4,-2.0338984E-2,1.9251179E-2,-3.4922723E-2,-1.3585785E-2,6.251208E-3,2.7245926E-2,-2.1706605E-3,-2.636818E-2,-1.4332973E-2,-1.0229647E-4,2.3163205E-3,1.428284E-2,2.4181932E-2,2.0868808E-3,-1.8052757E-4,-1.3867915E-3,-5.956892E-4,-9.4487285E-4,-1.4298757E-4,2.0425172E-4,2.4759854E-4,-3.8176417E-4,7.581261E-4,1.5914292E-4,7.235181E-4,1.2855404E-3],"categories":[],"categories_nodes":[],"categories_segments":[],"categories_sizes":[],"default_left":[0,0,0,0,0,0,0,0,0,0,0,0,0,0,0,0,0,0,0,0,0,0,0,0,0,0,0],"id":26,"left_children":[1,3,5,7,9,11,13,-1,15,17,19,21,23,25,-1,-1,-1,-1,-1,-1,-1,-1,-1,-1,-1,-1,-1],"loss_changes":[6.228037E-2,7.5029843E-3,7.936336E-3,6.710775E-4,5.7279225E-4,9.4662723E-4,1.1220202E-3,0E0,3.6672503E-4,3.7114602E-4,5.7867685E-5,6.148464E-4,4.9384078E-5,2.5156327E-4,0E0,0E0,0E0,0E0,0E0,0E0,0E0,0E0,0E0,0E0,0E0,0E0,0E0],"parents":[2147483647,0,0,1,1,2,2,3,3,4,4,5,5,6,6,8,8,9,9,10,10,11,11,12,12,13,13],"right_children":[2,4,6,8,10,12,14,-1,16,18,20,22,24,26,-1,-1,-1,-1,-1,-1,-1,-1,-1,-1,-1,-1,-1],"split_conditions":[1.2473778E2,7.550762E-1,8.9459294E-1,9.59269E1,8.3590794E-1,1.5380121E2,8.478928E-1,-2.1706605E-3,9.297209E1,1.1810973E2,8.378787E-1,1.5148679E2,8.3661485E-1,1.3585696E2,2.0868808E-3,-1.8052757E-4,-1.3867915E-3,-5.956892E-4,-9.4487285E-4,-1.4298757E-4,2.0425172E-4,2.4759854E-4,-3.8176417E-4,7.581261E-4,1.5914292E-4,7.235181E-4,1.2855404E-3],"split_indices":[3,1,1,2,1,3,4,0,3,3,1,3,4,2,0,0,0,0,0,0,0,0,0,0,0,0,0],"split_type":[0,0,0,0,0,0,0,0,0,0,0,0,0,0,0,0,0,0,0,0,0,0,0,0,0,0,0],"sum_hessian":[1.57E2,8E1,7.7E1,2.4E1,5.6E1,3E1,4.7E1,1E1,1.4E1,5.3E1,3E0,2.1E1,9E0,4.1E1,6E0,1E0,1.3E1,3.7E1,1.6E1,2E0,1E0,1.7E1,4E0,8E0,1E0,7E0,3.4E1],"tree_param":{"num_deleted":"0","num_feature":"5","num_nodes":"27","size_leaf_vector":"1"}},{"base_weights":[-2.733451E-4,-1.7897315E-2,2.164123E-2,-2.5685742E-2,-7.1302145E-3,1.1785969E-2,2.8472094E-2,-2.060176E-3,-2.1118736E-2,-8.491472E-3,7.243976E-3,7.887674E-3,1.6876735E-2,2.2308199E-2,1.7222582E-3,-1.2705241E-3,-8.3311676E-4,-3.356313E-4,-1.0744401E-3,4.4165554E-5,4.5348803E-4,6.7647966E-4,4.4639706E-5,3.2231808E-4,9.093567E-4,1.4084792E-3,8.0546906E-4],"categories":[],"categories_nodes":[],"categories_segments":[],"categories_sizes":[],"default_left":[0,0,0,0,0,0,0,0,0,0,0,0,0,0,0,0,0,0,0,0,0,0,0,0,0,0,0],"id":27,"left_children":[1,3,5,7,9,11,13,-1,15,17,19,21,23,25,-1,-1,-1,-1,-1,-1,-1,-1,-1,-1,-1,-1,-1],"loss_changes":[6.411392E-2,7.5318627E-3,4.646104E-3,2.885934E-3,8.441915E-4,5.0193164E-4,8.147396E-4,0E0,3.9901026E-4,7.112031E-4,3.8441416E-5,7.7721186E-4,6.044237E-5,4.1821413E-4,0E0,0E0,0E0,0E0,0E0,0E0,0E0,0E0,0E0,0E0,0E0,0E0,0E0],"parents":[2147483647,0,0,1,1,2,2,3,3,4,4,5,5,6,6,8,8,9,9,10,10,11,11,12,12,13,13],"right_children":[2,4,6,8,10,12,14,-1,16,18,20,22,24,26,-1,-1,-1,-1,-1,-1,-1,-1,-1,-1,-1,-1,-1],"split_conditions":[1.3200224E2,7.8834337E-1,9.075498E-1,9.59269E1,8.616742E-1,1.4573369E2,8.433371E-1,-2.060176E-3,1.1229336E2,1.25834816E2,8.515865E-1,1.3833388E2,8.177769E-1,9.00252E-1,1.7222582E-3,-1.2705241E-3,-8.3311676E-4,-3.356313E-4,-1.0744401E-3,4.4165554E-5,4.5348803E-4,6.7647966E-4,4.4639706E-5,3.2231808E-4,9.093567E-4,1.4084792E-3,8.0546906E-4],"split_indices":[2,1,1,2,1,2,4,0,2,2,0,2,0,0,0,0,0,0,0,0,0,0,0,0,0,0,0],"split_type":[0,0,0,0,0,0,0,0,0,0,0,0,0,0,0,0,0,0,0,0,0,0,0,0,0,0,0],"sum_hessian":[1.64E2,9.1E1,7.3E1,5.2E1,3.9E1,3.1E1,4.2E1,1E1,4.2E1,3.6E1,3E0,1.9E1,1.2E1,2.3E1,1.9E1,1.9E1,2.3E1,3.3E1,3E0,1E0,2E0,1E1,9E0,2E0,1E1,1E1,1.3E1],"tree_param":{"num_deleted":"0","num_feature":"5","num_nodes":"27","size_leaf_vector":"1"}},{"base_weights":[1.6830185E-5,-1.795561E-2,1.9336993E-2,-1.8425247E-3,-1.3110344E-2,1.3916288E-2,1.8617593E-3,-1.9039668E-2,-8.704136E-3,5.2787536E-3,1.87509E-2,-1.0018324E-3,2.2189319E-4,-3.172885E-4,-8.3231967E-4,-1.7977656E-4,4.2183005E-4,4.1822792E-4,9.836295E-4],"categories":[],"categories_nodes":[],"categories_segments":[],"categories_sizes":[],"default_left":[0,0,0,0,0,0,0,0,0,0,0,0,0,0,0,0,0,0,0],"id":28,"left_children":[1,3,5,-1,7,9,-1,11,13,15,17,-1,-1,-1,-1,-1,-1,-1,-1],"loss_changes":[5.7640236E-2,7.3902383E-3,7.2434917E-3,0E0,1.6630851E-3,2.5318442E-3,0E0,7.677106E-4,6.810571E-4,7.029011E-4,2.1836627E-4,0E0,0E0,0E0,0E0,0E0,0E0,0E0,0E0],"parents":[2147483647,0,0,1,1,2,2,4,4,5,5,7,7,8,8,9,9,10,10],"right_children":[2,4,6,-1,8,10,-1,12,14,16,18,-1,-1,-1,-1,-1,-1,-1,-1],"split_conditions":[8.446976E-1,7.319269E-1,1.5809511E2,-1.8425247E-3,1.1229336E2,8.6135954E-1,1.8617593E-3,8.044204E-1,1.2539768E2,1.2923769E2,1.339671E2,-1.0018324E-3,2.2189319E-4,-3.172885E-4,-8.3231967E-4,-1.7977656E-4,4.2183005E-4,4.1822792E-4,9.836295E-4],"split_indices":[1,1,2,0,2,0,0,0,2,2,2,0,0,0,0,0,0,0,0],"split_type":[0,0,0,0,0,0,0,0,0,0,0,0,0,0,0,0,0,0,0],"sum_hessian":[1.64E2,8.5E1,7.9E1,1.6E1,6.9E1,6.2E1,1.7E1,2.8E1,4.1E1,2.3E1,3.9E1,2.7E1,1E0,3.3E1,8E0,6E0,1.7E1,4E0,3.5E1],"tree_param":{"num_deleted":"0","num_feature":"5","num_nodes":"19","size_leaf_vector":"1"}},{"base_weights":[-1.04210754E-4,-1.6722739E-2,1.8339572E-2,-2.8730107E-2,-9.723316E-3,9.388504E-3,2.7967969E-2,-2.1109567E-3,-2.3474634E-2,-1.3507962E-2,-4.400189E-3,3.5634097E-3,1.4094274E-2,2.2423184E-2,1.8666339E-3,-1.3147146E-3,-8.619628E-4,-1.1788716E-3,-5.479416E-4,-1.0454771E-4,-8.2891213E-4,5.7457475E-4,-1.869619E-5,7.7437435E-4,1.628168E-4,1.2303527E-3,6.3341303E-4],"categories":[],"categories_nodes":[],"categories_segments":[],"categories_sizes":[],"default_left":[0,0,0,0,0,0,0,0,0,0,0,0,0,0,0,0,0,0,0,0,0,0,0,0,0,0,0],"id":29,"left_children":[1,3,5,7,9,11,13,-1,15,17,19,21,23,25,-1,-1,-1,-1,-1,-1,-1,-1,-1,-1,-1,-1,-1],"loss_changes":[5.302615E-2,7.36871E-3,6.8045463E-3,1.3483316E-3,1.1291853E-3,1.1558847E-3,1.187969E-3,0E0,3.827736E-6,6.1434414E-4,6.965073E-4,6.598227E-4,3.1195674E-4,2.6346557E-4,0E0,0E0,0E0,0E0,0E0,0E0,0E0,0E0,0E0,0E0,0E0,0E0,0E0],"parents":[2147483647,0,0,1,1,2,2,3,3,4,4,5,5,6,6,8,8,9,9,10,10,11,11,12,12,13,13],"right_children":[2,4,6,8,10,12,14,-1,16,18,20,22,24,26,-1,-1,-1,-1,-1,-1,-1,-1,-1,-1,-1,-1,-1],"split_conditions":[8.189135E-1,7.778606E-1,8.40499E-1,8.2608536E1,7.8253627E-1,8.583112E-1,1.5943314E2,-2.1109567E-3,1.1229336E2,9.696455E1,1.2492281E2,8.200132E-1,9.090256E-1,1.5294815E2,1.8666339E-3,-1.3147146E-3,-8.619628E-4,-1.1788716E-3,-5.479416E-4,-1.0454771E-4,-8.2891213E-4,5.7457475E-4,-1.869619E-5,7.7437435E-4,1.628168E-4,1.2303527E-3,6.3341303E-4],"split_indices":[4,4,4,2,0,0,2,0,2,2,2,0,1,2,0,0,0,0,0,0,0,0,0,0,0,0,0],"split_type":[0,0,0,0,0,0,0,0,0,0,0,0,0,0,0,0,0,0,0,0,0,0,0,0,0,0,0],"sum_hessian":[1.71E2,9E1,8.1E1,3.2E1,5.8E1,4.3E1,3.8E1,7E0,2.5E1,3.3E1,2.5E1,2E1,2.3E1,2.6E1,1.2E1,1.5E1,1E1,5E0,2.8E1,2.2E1,3E0,6E0,1.4E1,2E1,3E0,2E1,6E0],"tree_param":{"num_deleted":"0","num_feature":"5","num_nodes":"27","size_leaf_vector":"1"}},{"base_weights":[-1.7647818E-4,-1.7225469E-2,1.7522177E-2,-2.8729023E-2,-1.1676031E-2,1.15977125E-2,3.0615835E-2,-1.8989699E-3,-2.250778E-2,-1.6076736E-2,-7.735582E-3,7.4005667E-3,1.6885549E-2,1.2085399E-3,2.1407546E-3,-8.4294594E-4,-1.3730746E-3,-4.65821E-4,-9.5538516E-4,-2.3194762E-4,-1.0190577E-3,7.904333E-4,2.8478514E-4,9.7620813E-4,2.857839E-4],"categories":[],"categories_nodes":[],"categories_segments":[],"categories_sizes":[],"default_left":[0,0,0,0,0,0,0,0,0,0,0,0,0,0,0,0,0,0,0,0,0,0,0,0,0],"id":30,"left_children":[1,3,5,7,9,11,13,-1,15,17,19,21,23,-1,-1,-1,-1,-1,-1,-1,-1,-1,-1,-1,-1],"loss_changes":[4.8580892E-2,4.899297E-3,5.7731867E-3,6.414354E-4,8.6405966E-4,1.1178916E-3,8.5211545E-4,0E0,4.0719286E-5,3.5473192E-4,1.1585299E-3,3.8300257E-4,5.9575774E-4,0E0,0E0,0E0,0E0,0E0,0E0,0E0,0E0,0E0,0E0,0E0,0E0],"parents":[2147483647,0,0,1,1,2,2,3,3,4,4,5,5,6,6,8,8,9,9,10,10,11,11,12,12],"right_children":[2,4,6,8,10,12,14,-1,16,18,20,22,24,-1,-1,-1,-1,-1,-1,-1,-1,-1,-1,-1,-1],"split_conditions":[8.1850946E-1,7.550762E-1,9.2404574E-1,7.134909E-1,7.8834337E-1,8.9459294E-1,9.6594805E-1,-1.8989699E-3,7.652715E-1,7.4450576E-1,8.034197E-1,1.3084396E2,9.203073E-1,1.2085399E-3,2.1407546E-3,-8.4294594E-4,-1.3730746E-3,-4.65821E-4,-9.5538516E-4,-2.3194762E-4,-1.0190577E-3,7.904333E-4,2.8478514E-4,9.7620813E-4,2.857839E-4],"split_indices":[4,1,1,1,1,1,1,0,4,0,0,3,1,0,0,0,0,0,0,0,0,0,0,0,0],"split_type":[0,0,0,0,0,0,0,0,0,0,0,0,0,0,0,0,0,0,0,0,0,0,0,0,0],"sum_hessian":[1.59E2,8.1E1,7.8E1,2.5E1,5.6E1,5.5E1,2.3E1,8E0,1.7E1,2.5E1,3.1E1,3.2E1,2.3E1,1.7E1,6E0,1E1,7E0,9E0,1.6E1,2.6E1,5E0,4E0,2.8E1,1.8E1,5E0],"tree_param":{"num_deleted":"0","num_feature":"5","num_nodes":"25","size_leaf_vector":"1"}},{"base_weights":[3.9837637E-4,-1.37298275E-2,1.9230448E-2,-2.9127212E-2,-7.5946962E-3,1.4036265E-2,2.7367558E-2,-1.9164333E-3,-1.1198557E-3,-1.0154725E-2,1.6800724E-3,1.0024255E-2,1.6488263E-2,2.3388116E-2,1.8698797E-3,-4.0772144E-4,-8.32146E-4,2.2685294E-4,-6.1062776E-4,5.683706E-4,-3.8739294E-4,9.788986E-4,4.638979E-4,1.231329E-3,5.829185E-4],"categories":[],"categories_nodes":[],"categories_segments":[],"categories_sizes":[],"default_left":[0,0,0,0,0,0,0,0,0,0,0,0,0,0,0,0,0,0,0,0,0,0,0,0,0],"id":31,"left_children":[1,3,5,7,9,11,13,-1,-1,15,17,19,21,23,-1,-1,-1,-1,-1,-1,-1,-1,-1,-1,-1],"loss_changes":[4.4696614E-2,8.847425E-3,2.6589893E-3,8.135699E-4,1.6791178E-3,2.8724037E-4,2.0301715E-4,0E0,0E0,5.7809334E-4,6.904658E-4,5.6548766E-4,4.1985605E-4,3.2486394E-5,0E0,0E0,0E0,0E0,0E0,0E0,0E0,0E0,0E0,0E0,0E0],"parents":[2147483647,0,0,1,1,2,2,3,3,4,4,5,5,6,6,9,9,10,10,11,11,12,12,13,13],"right_children":[2,4,6,8,10,12,14,-1,-1,16,18,20,22,24,-1,-1,-1,-1,-1,-1,-1,-1,-1,-1,-1],"split_conditions":[8.272385E-1,7.550762E-1,9.2954165E-1,7.134909E-1,1.2473778E2,8.9459294E-1,1.6783443E2,-1.9164333E-3,-1.1198557E-3,1.1951422E2,8.2647806E-1,8.3661485E-1,9.00252E-1,9.502746E-1,1.8698797E-3,-4.0772144E-4,-8.32146E-4,2.2685294E-4,-6.1062776E-4,5.683706E-4,-3.8739294E-4,9.788986E-4,4.638979E-4,1.231329E-3,5.829185E-4],"split_indices":[4,1,1,1,3,1,3,0,0,3,4,4,0,0,0,0,0,0,0,0,0,0,0,0,0],"split_type":[0,0,0,0,0,0,0,0,0,0,0,0,0,0,0,0,0,0,0,0,0,0,0,0,0],"sum_hessian":[1.66E2,9.5E1,7.1E1,2.6E1,6.9E1,4.5E1,2.6E1,9E0,1.7E1,5.4E1,1.5E1,1.9E1,2.6E1,2.1E1,5E0,4.3E1,1.1E1,1.3E1,2E0,1.8E1,1E0,1.7E1,9E0,1.8E1,3E0],"tree_param":{"num_deleted":"0","num_feature":"5","num_nodes":"25","size_leaf_vector":"1"}},{"base_weights":[3.6987425E-5,-1.6912688E-2,1.4320005E-2,-3.3130486E-2,-1.1953106E-2,6.25614E-3,2.3608038E-2,-1.8050623E-3,-9.3902054E-4,-1.5809156E-2,-8.435941E-3,1.630182E-3,1.0285635E-2,1.6885035E-2,1.6528709E-3,-1.0236786E-3,-4.605525E-4,-4.7133366E-5,-4.8701797E-4,2.5752047E-4,-3.0270367E-4,8.868267E-4,2.99438E-4,5.32516E-4,9.111467E-4],"categories":[],"categories_nodes":[],"categories_segments":[],"categories_sizes":[],"default_left":[0,0,0,0,0,0,0,0,0,0,0,0,0,0,0,0,0,0,0,0,0,0,0,0,0],"id":32,"left_children":[1,3,5,7,9,11,13,-1,-1,15,17,19,21,23,-1,-1,-1,-1,-1,-1,-1,-1,-1,-1,-1],"loss_changes":[3.9703265E-2,5.6365E-3,6.5181796E-3,4.6724454E-5,6.6681486E-4,8.966059E-4,2.046479E-3,0E0,0E0,6.423774E-4,3.133719E-4,6.803888E-4,7.2618504E-4,2.2796448E-5,0E0,0E0,0E0,0E0,0E0,0E0,0E0,0E0,0E0,0E0,0E0],"parents":[2147483647,0,0,1,1,2,2,3,3,4,4,5,5,6,6,9,9,10,10,11,11,12,12,13,13],"right_children":[2,4,6,8,10,12,14,-1,-1,16,18,20,22,24,-1,-1,-1,-1,-1,-1,-1,-1,-1,-1,-1],"split_conditions":[8.1645364E-1,9.74467E1,1.4555254E2,9.59269E1,1.1186494E2,8.7067807E-1,8.4432405E-1,-1.8050623E-3,-9.3902054E-4,7.8834337E-1,1.1279258E2,8.528866E-1,1.4109065E2,8.796658E-1,1.6528709E-3,-1.0236786E-3,-4.605525E-4,-4.7133366E-5,-4.8701797E-4,2.5752047E-4,-3.0270367E-4,8.868267E-4,2.99438E-4,5.32516E-4,9.111467E-4],"split_indices":[1,2,2,2,2,1,4,0,0,1,3,1,3,1,0,0,0,0,0,0,0,0,0,0,0],"split_type":[0,0,0,0,0,0,0,0,0,0,0,0,0,0,0,0,0,0,0,0,0,0,0,0,0],"sum_hessian":[1.62E2,7.4E1,8.8E1,1.6E1,5.8E1,4.8E1,4E1,1.2E1,4E0,2.6E1,3.2E1,2.3E1,2.5E1,2.5E1,1.5E1,1.4E1,1.2E1,5E0,2.7E1,1.6E1,7E0,8E0,1.7E1,6E0,1.9E1],"tree_param":{"num_deleted":"0","num_feature":"5","num_nodes":"25","size_leaf_vector":"1"}},{"base_weights":[-7.0571573E-4,-1.3807289E-2,1.6649969E-2,-1.4486567E-3,-1.056095E-2,8.243289E-3,2.3733579E-2,-1.2615681E-2,1.9626021E-3,4.48322E-3,1.3972383E-2,2.0565297E-2,1.8601766E-3,-5.2290986E-4,-9.770789E-4,-3.4337863E-5,2.9045282E-4,6.755924E-4,-2.0833116E-4,2.6445687E-4,7.535163E-4,1.2190687E-3,8.4328896E-4],"categories":[],"categories_nodes":[],"categories_segments":[],"categories_sizes":[],"default_left":[0,0,0,0,0,0,0,0,0,0,0,0,0,0,0,0,0,0,0,0,0,0,0],"id":33,"left_children":[1,3,5,-1,7,9,11,13,15,17,19,21,-1,-1,-1,-1,-1,-1,-1,-1,-1,-1,-1],"loss_changes":[3.752132E-2,4.3219626E-3,4.032381E-3,0E0,2.0576287E-3,6.697795E-4,8.5661E-4,8.117212E-4,1.262771E-4,1.7744154E-3,4.4228975E-5,5.4670498E-5,0E0,0E0,0E0,0E0,0E0,0E0,0E0,0E0,0E0,0E0,0E0],"parents":[2147483647,0,0,1,1,2,2,4,4,5,5,6,6,7,7,8,8,9,9,10,10,11,11],"right_children":[2,4,6,-1,8,10,12,14,16,18,20,22,-1,-1,-1,-1,-1,-1,-1,-1,-1,-1,-1],"split_conditions":[1.3200224E2,9.696455E1,9.075498E-1,-1.4486567E-3,1.2472477E2,1.4573369E2,1.6783443E2,1.1935386E2,1.4370215E2,1.4291685E2,8.177769E-1,1.5538956E2,1.8601766E-3,-5.2290986E-4,-9.770789E-4,-3.4337863E-5,2.9045282E-4,6.755924E-4,-2.0833116E-4,2.6445687E-4,7.535163E-4,1.2190687E-3,8.4328896E-4],"split_indices":[2,2,1,0,3,2,3,3,3,3,0,3,0,0,0,0,0,0,0,0,0,0,0],"split_type":[0,0,0,0,0,0,0,0,0,0,0,0,0,0,0,0,0,0,0,0,0,0,0],"sum_hessian":[1.63E2,9.3E1,7E1,1.5E1,7.8E1,3.3E1,3.7E1,6.7E1,1.1E1,2.1E1,1.2E1,3.2E1,5E0,5.3E1,1.4E1,7E0,4E0,1E1,1.1E1,2E0,1E1,1.3E1,1.9E1],"tree_param":{"num_deleted":"0","num_feature":"5","num_nodes":"23","size_leaf_vector":"1"}},{"base_weights":[4.702321E-4,-1.22343255E-2,1.5843246E-2,-2.054456E-2,-6.525164E-3,8.79142E-3,2.3038646E-2,-1.7628312E-3,-1.7692897E-2,-1.7417226E-2,-4.869772E-3,5.5833315E-3,1.5811682E-2,1.9575005E-2,1.7543196E-3,-9.919776E-4,-5.797999E-4,-9.771243E-4,-1.1664182E-4,-1.5853814E-4,-6.1286986E-4,5.8727054E-4,-7.872283E-6,1.7528087E-4,8.305862E-4,4.5721905E-4,1.0182994E-3],"categories":[],"categories_nodes":[],"categories_segments":[],"categories_sizes":[],"default_left":[0,0,0,0,0,0,0,0,0,0,0,0,0,0,0,0,0,0,0,0,0,0,0,0,0,0,0],"id":34,"left_children":[1,3,5,7,9,11,13,-1,15,17,19,21,23,25,-1,-1,-1,-1,-1,-1,-1,-1,-1,-1,-1,-1,-1],"loss_changes":[3.281016E-2,4.2308336E-3,3.6537517E-3,9.2849974E-4,9.248974E-4,8.125829E-4,8.5716136E-4,0E0,2.0184275E-4,1.7881836E-4,5.8871694E-4,1.0277278E-3,5.9909886E-5,6.952975E-5,0E0,0E0,0E0,0E0,0E0,0E0,0E0,0E0,0E0,0E0,0E0,0E0,0E0],"parents":[2147483647,0,0,1,1,2,2,3,3,4,4,5,5,6,6,8,8,9,9,10,10,11,11,12,12,13,13],"right_children":[2,4,6,8,10,12,14,-1,16,18,20,22,24,26,-1,-1,-1,-1,-1,-1,-1,-1,-1,-1,-1,-1,-1],"split_conditions":[1.3200224E2,7.821809E-1,8.40499E-1,6.8118334E-1,9.696455E1,1.5169821E2,1.6617929E2,-1.7628312E-3,1.1445538E2,7.808931E-1,1.2555029E2,1.4997417E2,8.177769E-1,1.3469992E2,1.7543196E-3,-9.919776E-4,-5.797999E-4,-9.771243E-4,-1.1664182E-4,-1.5853814E-4,-6.1286986E-4,5.8727054E-4,-7.872283E-6,1.7528087E-4,8.305862E-4,4.5721905E-4,1.0182994E-3],"split_indices":[2,4,4,0,2,2,2,0,2,0,2,3,0,2,0,0,0,0,0,0,0,0,0,0,0,0,0],"split_type":[0,0,0,0,0,0,0,0,0,0,0,0,0,0,0,0,0,0,0,0,0,0,0,0,0,0,0],"sum_hessian":[1.66E2,9.1E1,7.5E1,3.6E1,5.5E1,3.9E1,3.6E1,4E0,3.2E1,6E0,4.9E1,2.8E1,1.1E1,3E1,6E0,2.2E1,1E1,5E0,1E0,4.1E1,8E0,1.3E1,1.5E1,1E0,1E1,3E0,2.7E1],"tree_param":{"num_deleted":"0","num_feature":"5","num_nodes":"27","size_leaf_vector":"1"}},{"base_weights":[-1.4180169E-4,-1.3053371E-2,1.5820302E-2,-2.446234E-2,-8.942033E-3,9.386275E-3,2.045612E-2,-1.2480932E-3,-3.3681988E-4,-1.2324137E-2,-5.296928E-3,5.8074417E-3,1.2602143E-2,1.8221477E-2,1.4353519E-3,-6.8220886E-4,4.9360096E-5,4.6036742E-4,-3.2455876E-4,3.9690113E-4,-1.5507266E-4,1.00497906E-4,6.587146E-4,9.688204E-4,5.4168486E-4],"categories":[],"categories_nodes":[],"categories_segments":[],"categories_sizes":[],"default_left":[0,0,0,0,0,0,0,0,0,0,0,0,0,0,0,0,0,0,0,0,0,0,0,0,0],"id":35,"left_children":[1,3,5,7,9,11,13,-1,-1,15,17,19,21,23,-1,-1,-1,-1,-1,-1,-1,-1,-1,-1,-1],"loss_changes":[3.3181835E-2,3.9559016E-3,1.9555371E-3,3.5502948E-5,7.6070474E-4,2.9510376E-4,2.328679E-4,0E0,0E0,6.1089965E-4,6.4870383E-4,3.472985E-4,7.048505E-5,8.8714994E-5,0E0,0E0,0E0,0E0,0E0,0E0,0E0,0E0,0E0,0E0,0E0],"parents":[2147483647,0,0,1,1,2,2,3,3,4,4,5,5,6,6,9,9,10,10,11,11,12,12,13,13],"right_children":[2,4,6,8,10,12,14,-1,-1,16,18,20,22,24,-1,-1,-1,-1,-1,-1,-1,-1,-1,-1,-1],"split_conditions":[8.272385E-1,7.7172405E-1,8.3904505E-1,1.2702699E2,1.1383167E2,8.344436E-1,1.6617929E2,-1.2480932E-3,-3.3681988E-4,8.044204E-1,1.1462591E2,8.334953E-1,1.3352827E2,9.2958647E-1,1.4353519E-3,-6.8220886E-4,4.9360096E-5,4.6036742E-4,-3.2455876E-4,3.9690113E-4,-1.5507266E-4,1.00497906E-4,6.587146E-4,9.688204E-4,5.4168486E-4],"split_indices":[4,4,4,2,2,4,2,0,0,0,2,4,3,0,0,0,0,0,0,0,0,0,0,0,0],"split_type":[0,0,0,0,0,0,0,0,0,0,0,0,0,0,0,0,0,0,0,0,0,0,0,0,0],"sum_hessian":[1.59E2,8.8E1,7.1E1,2.2E1,6.6E1,3.1E1,4E1,2.1E1,1E0,3.3E1,3.3E1,1.6E1,1.5E1,3.4E1,6E0,3E1,3E0,2E0,3.1E1,1.3E1,3E0,1E0,1.4E1,2.8E1,6E0],"tree_param":{"num_deleted":"0","num_feature":"5","num_nodes":"25","size_leaf_vector":"1"}},{"base_weights":[1.6557937E-3,-8.867372E-3,1.4147453E-2,-1.567466E-2,-2.5955958E-3,9.084156E-3,2.4979802E-2,-2.0868547E-2,-9.487033E-3,-1.2460614E-2,-1.3881382E-3,5.8402787E-3,1.2625334E-2,1.9851793E-2,1.6932497E-3,-1.408801E-3,-8.530939E-4,-3.3580125E-4,-5.50281E-4,-7.3045347E-4,-9.666979E-5,9.779457E-6,-3.3169985E-4,5.450682E-4,1.949211E-5,7.1794953E-4,2.5155992E-4,1.0625961E-3,3.1169454E-4],"categories":[],"categories_nodes":[],"categories_segments":[],"categories_sizes":[],"default_left":[0,0,0,0,0,0,0,0,0,0,0,0,0,0,0,0,0,0,0,0,0,0,0,0,0,0,0,0,0],"id":36,"left_children":[1,3,5,7,9,11,13,15,17,19,21,23,25,27,-1,-1,-1,-1,-1,-1,-1,-1,-1,-1,-1,-1,-1,-1,-1],"loss_changes":[2.1289192E-2,3.7163687E-3,3.831787E-3,1.1518076E-3,5.425478E-4,5.2359654E-4,3.7567504E-4,1.3124105E-4,1.4454359E-5,8.484116E-5,3.5854193E-4,7.9571875E-4,2.43732E-4,1.9165361E-4,0E0,0E0,0E0,0E0,0E0,0E0,0E0,0E0,0E0,0E0,0E0,0E0,0E0,0E0,0E0],"parents":[2147483647,0,0,1,1,2,2,3,3,4,4,5,5,6,6,7,7,8,8,9,9,10,10,11,11,12,12,13,13],"right_children":[2,4,6,8,10,12,14,16,18,20,22,24,26,28,-1,-1,-1,-1,-1,-1,-1,-1,-1,-1,-1,-1,-1,-1,-1],"split_conditions":[1.3200224E2,7.8834337E-1,8.433061E-1,1.1086132E2,9.696455E1,1.4501877E2,9.6594805E-1,8.2608536E1,7.386141E-1,7.808931E-1,1.2555029E2,1.3833388E2,8.4168625E-1,9.502746E-1,1.6932497E-3,-1.408801E-3,-8.530939E-4,-3.3580125E-4,-5.50281E-4,-7.3045347E-4,-9.666979E-5,9.779457E-6,-3.3169985E-4,5.450682E-4,1.949211E-5,7.1794953E-4,2.5155992E-4,1.0625961E-3,3.1169454E-4],"split_indices":[2,1,4,2,2,2,1,2,0,0,2,2,4,0,0,0,0,0,0,0,0,0,0,0,0,0,0,0,0],"split_type":[0,0,0,0,0,0,0,0,0,0,0,0,0,0,0,0,0,0,0,0,0,0,0,0,0,0,0,0,0],"sum_hessian":[1.6E2,8.7E1,7.3E1,4.1E1,4.6E1,5.1E1,2.2E1,2.1E1,2E1,4E0,4.2E1,2.8E1,2.3E1,1.6E1,6E0,5E0,1.6E1,9E0,1.1E1,3E0,1E0,3.3E1,9E0,1.4E1,1.4E1,1.8E1,5E0,1.4E1,2E0],"tree_param":{"num_deleted":"0","num_feature":"5","num_nodes":"29","size_leaf_vector":"1"}},{"base_weights":[-5.264394E-4,-1.1316834E-2,1.2488371E-2,-1.3426002E-3,-8.014883E-3,8.332827E-3,2.1742912E-2,-1.2788662E-2,-3.155812E-3,3.313385E-3,1.0278185E-2,-2.6272237E-5,2.2828331E-2,-6.526385E-4,-8.2018974E-5,5.4637872E-5,-2.7043893E-4,3.3474358E-4,-4.2523965E-4,6.4434804E-4,2.53592E-4,8.879299E-4,1.4423411E-3],"categories":[],"categories_nodes":[],"categories_segments":[],"categories_sizes":[],"default_left":[0,0,0,0,0,0,0,0,0,0,0,0,0,0,0,0,0,0,0,0,0,0,0],"id":37,"left_children":[1,3,5,-1,7,9,11,13,15,17,19,-1,21,-1,-1,-1,-1,-1,-1,-1,-1,-1,-1],"loss_changes":[2.2610918E-2,4.298865E-3,2.626229E-3,0E0,1.6761553E-3,4.737042E-4,5.4374523E-4,8.7528955E-5,3.6964205E-4,6.9634663E-4,4.371805E-4,0E0,1.2847595E-4,0E0,0E0,0E0,0E0,0E0,0E0,0E0,0E0,0E0,0E0],"parents":[2147483647,0,0,1,1,2,2,4,4,5,5,6,6,7,7,8,8,9,9,10,10,12,12],"right_children":[2,4,6,-1,8,10,12,14,16,18,20,-1,22,-1,-1,-1,-1,-1,-1,-1,-1,-1,-1],"split_conditions":[8.272385E-1,9.696455E1,8.433061E-1,-1.3426002E-3,7.8834337E-1,8.6135954E-1,1.339671E2,1.3200224E2,8.070603E-1,8.5966444E-1,8.9301777E-1,-2.6272237E-5,1.6617929E2,-6.526385E-4,-8.2018974E-5,5.4637872E-5,-2.7043893E-4,3.3474358E-4,-4.2523965E-4,6.4434804E-4,2.53592E-4,8.879299E-4,1.4423411E-3],"split_indices":[4,2,4,0,1,0,2,2,1,0,0,0,2,0,0,0,0,0,0,0,0,0,0],"split_type":[0,0,0,0,0,0,0,0,0,0,0,0,0,0,0,0,0,0,0,0,0,0,0],"sum_hessian":[1.59E2,8.7E1,7.2E1,1.4E1,7.3E1,5.1E1,2.1E1,3.6E1,3.7E1,1.5E1,3.6E1,1E0,2E1,3.5E1,1E0,1.3E1,2.4E1,1.2E1,3E0,2.3E1,1.3E1,1.3E1,7E0],"tree_param":{"num_deleted":"0","num_feature":"5","num_nodes":"23","size_leaf_vector":"1"}},{"base_weights":[3.7953723E-4,-1.0815633E-2,1.3459872E-2,-2.5264492E-2,-8.483964E-3,9.964678E-3,2.2922942E-2,-1.3140321E-3,-3.5217108E-4,-1.2568071E-2,-5.280842E-3,2.0378828E-4,1.0683934E-2,-2.5615096E-5,2.4183339E-2,1.7659963E-4,-6.581491E-4,-3.0891187E-4,2.8431864E-4,-8.99151E-5,2.0530373E-4,4.7196573E-4,8.330289E-4,9.571148E-4,1.5957609E-3],"categories":[],"categories_nodes":[],"categories_segments":[],"categories_sizes":[],"default_left":[0,0,0,0,0,0,0,0,0,0,0,0,0,0,0,0,0,0,0,0,0,0,0,0,0],"id":38,"left_children":[1,3,5,7,9,11,13,-1,-1,15,17,19,21,-1,23,-1,-1,-1,-1,-1,-1,-1,-1,-1,-1],"loss_changes":[2.4454052E-2,2.8177546E-3,2.3183757E-3,3.7078746E-5,9.6709887E-4,4.0501542E-4,6.031431E-4,0E0,0E0,3.7214765E-4,4.8786053E-4,4.644761E-5,2.4442282E-4,0E0,1.29628E-4,0E0,0E0,0E0,0E0,0E0,0E0,0E0,0E0,0E0,0E0],"parents":[2147483647,0,0,1,1,2,2,3,3,4,4,5,5,6,6,9,9,10,10,11,11,12,12,14,14],"right_children":[2,4,6,8,10,12,14,-1,-1,16,18,20,22,-1,24,-1,-1,-1,-1,-1,-1,-1,-1,-1,-1],"split_conditions":[1.3185056E2,9.59269E1,8.4432405E-1,7.9275715E-1,7.911109E-1,8.2205117E-1,1.339671E2,-1.3140321E-3,-3.5217108E-4,8.904934E1,8.3111197E-1,1.4422195E2,1.568766E2,-2.5615096E-5,1.6783443E2,1.7659963E-4,-6.581491E-4,-3.0891187E-4,2.8431864E-4,-8.99151E-5,2.0530373E-4,4.7196573E-4,8.330289E-4,9.571148E-4,1.5957609E-3],"split_indices":[2,2,4,4,4,4,2,0,0,3,4,2,2,0,3,0,0,0,0,0,0,0,0,0,0],"split_type":[0,0,0,0,0,0,0,0,0,0,0,0,0,0,0,0,0,0,0,0,0,0,0,0,0],"sum_hessian":[1.65E2,8.9E1,7.6E1,1.1E1,7.8E1,5.7E1,1.9E1,1E1,1E0,3.3E1,4.5E1,4E0,5.3E1,1E0,1.8E1,1E0,3.2E1,4.2E1,3E0,3E0,1E0,4.6E1,7E0,1.3E1,5E0],"tree_param":{"num_deleted":"0","num_feature":"5","num_nodes":"25","size_leaf_vector":"1"}},{"base_weights":[3.1891998E-4,-1.2051733E-2,1.0875344E-2,-1.41492E-3,-9.498963E-3,7.254526E-3,1.9848116E-2,-1.2321191E-2,-4.177744E-3,4.424586E-3,9.759161E-3,1.5428281E-2,1.48998E-3,-2.6908834E-4,-8.134787E-4,2.1871594E-4,-4.5152326E-4,3.1051814E-4,-4.3677763E-4,5.781163E-4,1.5648865E-4,-2.4974346E-5,8.197296E-4],"categories":[],"categories_nodes":[],"categories_segments":[],"categories_sizes":[],"default_left":[0,0,0,0,0,0,0,0,0,0,0,0,0,0,0,0,0,0,0,0,0,0,0],"id":39,"left_children":[1,3,5,-1,7,9,11,13,15,17,19,21,-1,-1,-1,-1,-1,-1,-1,-1,-1,-1,-1],"loss_changes":[1.9850137E-2,2.6343754E-3,2.520091E-3,0E0,8.7962206E-4,3.8209767E-4,5.518729E-4,1.0084212E-3,9.940201E-4,7.59283E-4,3.3438252E-4,2.8522965E-4,0E0,0E0,0E0,0E0,0E0,0E0,0E0,0E0,0E0,0E0,0E0],"parents":[2147483647,0,0,1,1,2,2,4,4,5,5,6,6,7,7,8,8,9,9,10,10,11,11],"right_children":[2,4,6,-1,8,10,12,14,16,18,20,22,-1,-1,-1,-1,-1,-1,-1,-1,-1,-1,-1],"split_conditions":[8.1232E-1,9.59269E1,8.433061E-1,-1.41492E-3,1.1383167E2,8.6135954E-1,1.6783443E2,9.9193825E1,1.17059105E2,8.321076E-1,9.00252E-1,1.339671E2,1.48998E-3,-2.6908834E-4,-8.134787E-4,2.1871594E-4,-4.5152326E-4,3.1051814E-4,-4.3677763E-4,5.781163E-4,1.5648865E-4,-2.4974346E-5,8.197296E-4],"split_indices":[4,2,4,0,2,0,3,3,2,4,0,2,0,0,0,0,0,0,0,0,0,0,0],"split_type":[0,0,0,0,0,0,0,0,0,0,0,0,0,0,0,0,0,0,0,0,0,0,0],"sum_hessian":[1.5E2,6.9E1,8.1E1,8E0,6.1E1,5.9E1,2.2E1,3.9E1,2.2E1,2.9E1,3E1,1.7E1,5E0,1.5E1,2.4E1,8E0,1.4E1,2.6E1,3E0,2.3E1,7E0,1E0,1.6E1],"tree_param":{"num_deleted":"0","num_feature":"5","num_nodes":"23","size_leaf_vector":"1"}},{"base_weights":[-7.2806963E-4,-1.2558565E-2,8.438852E-3,-1.4996881E-3,-1.0809762E-2,3.6128697E-3,1.5328751E-2,-9.135792E-3,-1.8501265E-2,1.9290955E-3,1.1165321E-2,1.2198472E-2,9.239004E-4,-7.441588E-4,-2.6848647E-4,-1.0042832E-3,-6.643236E-5,1.2726388E-4,-3.978332E-4,1.4826209E-4,5.873485E-4,1.0494435E-3,4.5395014E-4],"categories":[],"categories_nodes":[],"categories_segments":[],"categories_sizes":[],"default_left":[0,0,0,0,0,0,0,0,0,0,0,0,0,0,0,0,0,0,0,0,0,0,0],"id":40,"left_children":[1,3,5,-1,7,9,11,13,15,17,19,21,-1,-1,-1,-1,-1,-1,-1,-1,-1,-1,-1],"loss_changes":[1.7891653E-2,1.8711062E-3,3.036919E-3,0E0,6.9362484E-4,6.9059187E-4,1.4920253E-4,1.1538467E-3,2.7260417E-4,3.0654887E-4,1.2863078E-5,4.127121E-4,0E0,0E0,0E0,0E0,0E0,0E0,0E0,0E0,0E0,0E0,0E0],"parents":[2147483647,0,0,1,1,2,2,4,4,5,5,6,6,7,7,8,8,9,9,10,10,11,11],"right_children":[2,4,6,-1,8,10,12,14,16,18,20,22,-1,-1,-1,-1,-1,-1,-1,-1,-1,-1,-1],"split_conditions":[7.921737E-1,8.580925E1,9.1163224E-1,-1.4996881E-3,1.1951422E2,1.5169821E2,9.418408E-1,7.588255E-1,1.2729129E2,9.0718746E-1,8.177769E-1,8.9301777E-1,9.239004E-4,-7.441588E-4,-2.6848647E-4,-1.0042832E-3,-6.643236E-5,1.2726388E-4,-3.978332E-4,1.4826209E-4,5.873485E-4,1.0494435E-3,4.5395014E-4],"split_indices":[0,3,1,0,3,2,1,1,2,1,0,0,0,0,0,0,0,0,0,0,0,0,0],"split_type":[0,0,0,0,0,0,0,0,0,0,0,0,0,0,0,0,0,0,0,0,0,0,0],"sum_hessian":[1.63E2,7.1E1,9.2E1,5E0,6.6E1,5.5E1,3.7E1,5.6E1,1E1,4.6E1,9E0,2.1E1,1.6E1,2.1E1,3.5E1,9E0,1E0,4.4E1,2E0,1E0,8E0,4E0,1.7E1],"tree_param":{"num_deleted":"0","num_feature":"5","num_nodes":"23","size_leaf_vector":"1"}},{"base_weights":[2.6090426E-4,-1.0582978E-2,1.0471294E-2,-2.2990387E-2,-8.091973E-3,5.279738E-3,1.604057E-2,-1.1950987E-3,-3.012836E-4,-5.8608856E-3,-1.3265094E-2,2.496036E-3,9.88158E-3,1.3506113E-2,1.428694E-3,-5.2597484E-4,-5.7801604E-5,-7.147771E-4,-1.3303557E-4,2.8239773E-4,-1.7308186E-4,5.6694465E-4,-3.494223E-5,9.421408E-5,7.067165E-4],"categories":[],"categories_nodes":[],"categories_segments":[],"categories_sizes":[],"default_left":[0,0,0,0,0,0,0,0,0,0,0,0,0,0,0,0,0,0,0,0,0,0,0,0,0],"id":41,"left_children":[1,3,5,7,9,11,13,-1,-1,15,17,19,21,23,-1,-1,-1,-1,-1,-1,-1,-1,-1,-1,-1],"loss_changes":[1.849038E-2,2.317422E-3,2.4018465E-3,5.7016965E-5,7.186313E-4,5.6460244E-4,9.164484E-4,0E0,0E0,1.0837434E-3,1.8050871E-4,5.828942E-4,2.70047E-4,2.3620436E-4,0E0,0E0,0E0,0E0,0E0,0E0,0E0,0E0,0E0,0E0,0E0],"parents":[2147483647,0,0,1,1,2,2,3,3,4,4,5,5,6,6,9,9,10,10,11,11,12,12,13,13],"right_children":[2,4,6,8,10,12,14,-1,-1,16,18,20,22,24,-1,-1,-1,-1,-1,-1,-1,-1,-1,-1,-1],"split_conditions":[1.2473778E2,9.59269E1,8.40499E-1,7.9275715E-1,1.1784766E2,1.4498013E2,1.6783443E2,-1.1950987E-3,-3.012836E-4,7.911109E-1,8.120005E-1,1.4997417E2,8.398421E-1,1.3469992E2,1.428694E-3,-5.2597484E-4,-5.7801604E-5,-7.147771E-4,-1.3303557E-4,2.8239773E-4,-1.7308186E-4,5.6694465E-4,-3.494223E-5,9.421408E-5,7.067165E-4],"split_indices":[3,2,4,4,3,2,3,0,0,4,0,3,4,2,0,0,0,0,0,0,0,0,0,0,0],"split_type":[0,0,0,0,0,0,0,0,0,0,0,0,0,0,0,0,0,0,0,0,0,0,0,0,0],"sum_hessian":[1.65E2,8E1,8.5E1,1.2E1,6.8E1,4.5E1,4E1,1.1E1,1E0,4.9E1,1.9E1,2.9E1,1.6E1,3.5E1,5E0,2.4E1,2.5E1,1.7E1,2E0,1.9E1,1E1,1.4E1,2E0,2E0,3.3E1],"tree_param":{"num_deleted":"0","num_feature":"5","num_nodes":"25","size_leaf_vector":"1"}},{"base_weights":[4.7920507E-4,-8.521529E-3,1.2816223E-2,-1.3531221E-2,-2.7820545E-3,1.0060242E-2,2.2250803E-2,-1.7422166E-2,-7.6103318E-3,-8.744454E-3,-1.0954045E-3,6.6818926E-3,1.2765416E-2,6.8407616E-4,1.3221744E-3,-1.3285012E-3,-7.4964395E-4,6.962915E-5,-4.2901264E-4,-2.0143588E-4,-1.2796521E-3,1.9664805E-5,-2.8853086E-4,6.2088546E-4,2.2258845E-4,7.5051375E-4,3.3873352E-4],"categories":[],"categories_nodes":[],"categories_segments":[],"categories_sizes":[],"default_left":[0,0,0,0,0,0,0,0,0,0,0,0,0,0,0,0,0,0,0,0,0,0,0,0,0,0,0],"id":42,"left_children":[1,3,5,7,9,11,13,15,17,19,21,23,25,-1,-1,-1,-1,-1,-1,-1,-1,-1,-1,-1,-1,-1,-1],"loss_changes":[1.843118E-2,2.7226438E-3,1.596258E-3,1.0423409E-3,4.530195E-4,4.26488E-4,1.7713755E-4,2.6832242E-4,2.0405522E-4,6.9142797E-4,2.5978926E-4,2.9009185E-4,3.0176155E-4,0E0,0E0,0E0,0E0,0E0,0E0,0E0,0E0,0E0,0E0,0E0,0E0,0E0,0E0],"parents":[2147483647,0,0,1,1,2,2,3,3,4,4,5,5,6,6,7,7,8,8,9,9,10,10,11,11,12,12],"right_children":[2,4,6,8,10,12,14,16,18,20,22,24,26,-1,-1,-1,-1,-1,-1,-1,-1,-1,-1,-1,-1,-1,-1],"split_conditions":[1.3292947E2,7.846803E-1,1.5943314E2,1.1229336E2,1.0199496E2,8.3853215E-1,9.255883E-1,6.8118334E-1,1.1272631E2,7.967776E-1,1.2555029E2,1.36319E2,1.5176836E2,6.8407616E-4,1.3221744E-3,-1.3285012E-3,-7.4964395E-4,6.962915E-5,-4.2901264E-4,-2.0143588E-4,-1.2796521E-3,1.9664805E-5,-2.8853086E-4,6.2088546E-4,2.2258845E-4,7.5051375E-4,3.3873352E-4],"split_indices":[2,1,2,2,2,4,0,0,2,0,2,2,2,0,0,0,0,0,0,0,0,0,0,0,0,0,0],"split_type":[0,0,0,0,0,0,0,0,0,0,0,0,0,0,0,0,0,0,0,0,0,0,0,0,0,0,0],"sum_hessian":[1.64E2,9.5E1,6.9E1,5E1,4.5E1,5.5E1,1.4E1,2.9E1,2.1E1,9E0,3.6E1,2.6E1,2.9E1,6E0,8E0,4E0,2.5E1,2E0,1.9E1,8E0,1E0,2.8E1,8E0,6E0,2E1,2E1,9E0],"tree_param":{"num_deleted":"0","num_feature":"5","num_nodes":"27","size_leaf_vector":"1"}},{"base_weights":[1.9714986E-4,-8.288243E-3,9.126548E-3,-2.253593E-2,-6.8284855E-3,4.8906803E-3,1.3697215E-2,-1.2051727E-3,-3.282696E-4,-7.871463E-3,2.7600154E-3,1.1964339E-2,2.5273282E-3,1.2333864E-2,1.2291392E-3,-3.4979868E-4,-7.803142E-4,2.5880517E-4,-4.7504902E-5,1.2185723E-4,7.849629E-4,-8.196399E-5,4.371542E-4,8.250298E-4,4.2960615E-4],"categories":[],"categories_nodes":[],"categories_segments":[],"categories_sizes":[],"default_left":[0,0,0,0,0,0,0,0,0,0,0,0,0,0,0,0,0,0,0,0,0,0,0,0,0],"id":43,"left_children":[1,3,5,7,9,11,13,-1,-1,15,17,19,21,23,-1,-1,-1,-1,-1,-1,-1,-1,-1,-1,-1],"loss_changes":[1.1819907E-2,1.5099663E-3,1.4044275E-3,1.6991049E-5,7.617695E-4,6.551816E-4,2.3106951E-4,0E0,0E0,3.4452695E-4,7.662948E-5,3.1757168E-4,8.4308814E-4,3.8831355E-4,0E0,0E0,0E0,0E0,0E0,0E0,0E0,0E0,0E0,0E0,0E0],"parents":[2147483647,0,0,1,1,2,2,3,3,4,4,5,5,6,6,9,9,10,10,11,11,12,12,13,13],"right_children":[2,4,6,8,10,12,14,-1,-1,16,18,20,22,24,-1,-1,-1,-1,-1,-1,-1,-1,-1,-1,-1],"split_conditions":[8.2307017E-1,8.2608536E1,8.40469E-1,7.353689E-1,1.2473778E2,1.4291685E2,1.6783443E2,-1.2051727E-3,-3.282696E-4,8.0237746E-1,8.101231E-1,1.3292947E2,1.4573369E2,1.5538956E2,1.2291392E-3,-3.4979868E-4,-7.803142E-4,2.5880517E-4,-4.7504902E-5,1.2185723E-4,7.849629E-4,-8.196399E-5,4.371542E-4,8.250298E-4,4.2960615E-4],"split_indices":[4,2,4,4,3,3,3,0,0,0,0,2,2,3,0,0,0,0,0,0,0,0,0,0,0],"split_type":[0,0,0,0,0,0,0,0,0,0,0,0,0,0,0,0,0,0,0,0,0,0,0,0,0],"sum_hessian":[1.54E2,7.9E1,7.5E1,6E0,7.3E1,4E1,3.5E1,5E0,1E0,6.6E1,7E0,9E0,3.1E1,3.3E1,2E0,6.1E1,5E0,4E0,3E0,3E0,6E0,1.9E1,1.2E1,1.4E1,1.9E1],"tree_param":{"num_deleted":"0","num_feature":"5","num_nodes":"25","size_leaf_vector":"1"}},{"base_weights":[6.513985E-5,-9.546254E-3,8.20579E-3,-1.4299227E-2,-3.4957943E-3,5.2041123E-3,1.7701035E-2,-1.2360824E-3,-1.2454469E-2,-5.934119E-3,4.865736E-3,2.8741374E-3,1.0060052E-2,1.3498509E-2,1.262859E-3,-3.7857267E-4,-9.3929627E-4,1.680386E-4,-3.888431E-4,7.990256E-4,4.974902E-5,4.7170915E-4,9.220148E-5,7.517638E-4,1.5418888E-4,7.536299E-4,1.08897686E-4],"categories":[],"categories_nodes":[],"categories_segments":[],"categories_sizes":[],"default_left":[0,0,0,0,0,0,0,0,0,0,0,0,0,0,0,0,0,0,0,0,0,0,0,0,0,0,0],"id":44,"left_children":[1,3,5,7,9,11,13,-1,15,17,19,21,23,25,-1,-1,-1,-1,-1,-1,-1,-1,-1,-1,-1,-1,-1],"loss_changes":[1.2284242E-2,2.0205658E-3,2.330524E-3,4.6117883E-4,7.0168206E-4,7.1782456E-4,2.9416336E-4,0E0,9.7076036E-4,4.714667E-4,3.2828038E-4,2.9345052E-4,6.825137E-4,2.3446605E-4,0E0,0E0,0E0,0E0,0E0,0E0,0E0,0E0,0E0,0E0,0E0,0E0,0E0],"parents":[2147483647,0,0,1,1,2,2,3,3,4,4,5,5,6,6,8,8,9,9,10,10,11,11,12,12,13,13],"right_children":[2,4,6,8,10,12,14,-1,16,18,20,22,24,26,-1,-1,-1,-1,-1,-1,-1,-1,-1,-1,-1,-1,-1],"split_conditions":[8.1232E-1,1.1229336E2,1.568766E2,8.580925E1,7.954917E-1,8.40469E-1,1.6783443E2,-1.2360824E-3,1.01900986E2,1.1279258E2,7.968068E-1,8.1693745E-1,1.5531914E2,9.642042E-1,1.262859E-3,-3.7857267E-4,-9.3929627E-4,1.680386E-4,-3.888431E-4,7.990256E-4,4.974902E-5,4.7170915E-4,9.220148E-5,7.517638E-4,1.5418888E-4,7.536299E-4,1.08897686E-4],"split_indices":[4,2,2,3,1,4,3,0,2,3,1,4,3,1,0,0,0,0,0,0,0,0,0,0,0,0,0],"split_type":[0,0,0,0,0,0,0,0,0,0,0,0,0,0,0,0,0,0,0,0,0,0,0,0,0,0,0],"sum_hessian":[1.55E2,7.1E1,8.4E1,3.9E1,3.2E1,6.5E1,1.9E1,4E0,3.5E1,2.5E1,7E0,4.5E1,2E1,1.4E1,5E0,2.1E1,1.4E1,4E0,2.1E1,1E0,6E0,5E0,4E1,1.1E1,9E0,1.2E1,2E0],"tree_param":{"num_deleted":"0","num_feature":"5","num_nodes":"27","size_leaf_vector":"1"}},{"base_weights":[-5.2304467E-4,-9.975213E-3,8.118726E-3,-1.619672E-2,-6.4704283E-3,5.3545516E-3,1.9013528E-2,-1.2419899E-3,-1.2955998E-2,-5.6013376E-3,-1.2046695E-3,3.2573277E-3,9.693492E-3,6.959268E-4,1.2592714E-3,6.6138804E-5,-6.868038E-4,-3.6272706E-4,7.031441E-5,1.9881374E-4,-4.1865013E-4,8.554738E-4,2.3816973E-4],"categories":[],"categories_nodes":[],"categories_segments":[],"categories_sizes":[],"default_left":[0,0,0,0,0,0,0,0,0,0,0,0,0,0,0,0,0,0,0,0,0,0,0],"id":45,"left_children":[1,3,5,7,9,11,13,-1,15,17,-1,19,21,-1,-1,-1,-1,-1,-1,-1,-1,-1,-1],"loss_changes":[1.2660242E-2,1.5087742E-3,2.3375172E-3,4.0643057E-4,6.1552646E-4,5.690075E-4,1.5258789E-4,0E0,2.5207945E-4,5.6628324E-4,0E0,4.179265E-4,6.8629254E-4,0E0,0E0,0E0,0E0,0E0,0E0,0E0,0E0,0E0,0E0],"parents":[2147483647,0,0,1,1,2,2,3,3,4,4,5,5,6,6,8,8,9,9,11,11,12,12],"right_children":[2,4,6,8,10,12,14,-1,16,18,-1,20,22,-1,-1,-1,-1,-1,-1,-1,-1,-1,-1],"split_conditions":[8.1086487E-1,7.7172405E-1,8.4432405E-1,6.8118334E-1,8.107514E-1,9.1163224E-1,8.4854364E-1,-1.2419899E-3,6.9677895E-1,7.848016E-1,-1.2046695E-3,9.0718746E-1,9.203073E-1,6.959268E-4,1.2592714E-3,6.6138804E-5,-6.868038E-4,-3.6272706E-4,7.031441E-5,1.9881374E-4,-4.1865013E-4,8.554738E-4,2.3816973E-4],"split_indices":[4,4,4,0,4,1,4,0,1,0,0,1,1,0,0,0,0,0,0,0,0,0,0],"split_type":[0,0,0,0,0,0,0,0,0,0,0,0,0,0,0,0,0,0,0,0,0,0,0],"sum_hessian":[1.53E2,7.3E1,8E1,2.5E1,4.8E1,6.5E1,1.5E1,5E0,2E1,4.7E1,1E0,4.5E1,2E1,1E1,5E0,1E0,1.9E1,3.8E1,9E0,4.3E1,2E0,7E0,1.3E1],"tree_param":{"num_deleted":"0","num_feature":"5","num_nodes":"23","size_leaf_vector":"1"}},{"base_weights":[1.3235265E-4,-8.763088E-3,7.826921E-3,-1.4459341E-2,-4.3911007E-3,2.793404E-3,1.291135E-2,-1.1902407E-3,-1.1940335E-2,-2.0165823E-3,-1.0080948E-2,5.350369E-3,-1.8832053E-3,1.06048165E-2,1.0982574E-3,-4.6120706E-4,-9.3855907E-4,-3.0570478E-5,-1.1745527E-3,-9.4587356E-4,-2.7691215E-4,1.0635828E-4,7.818507E-4,-5.180699E-4,7.612499E-5,3.0609182E-4,5.723392E-4],"categories":[],"categories_nodes":[],"categories_segments":[],"categories_sizes":[],"default_left":[0,0,0,0,0,0,0,0,0,0,0,0,0,0,0,0,0,0,0,0,0,0,0,0,0,0,0],"id":46,"left_children":[1,3,5,7,9,11,13,-1,15,17,19,21,23,25,-1,-1,-1,-1,-1,-1,-1,-1,-1,-1,-1,-1,-1],"loss_changes":[1.1362274E-2,1.8541119E-3,2.241671E-3,4.9262587E-4,5.876499E-4,5.601405E-4,6.859107E-4,0E0,3.4636073E-4,9.814235E-4,4.1707268E-4,9.614161E-4,5.06637E-4,6.95819E-5,0E0,0E0,0E0,0E0,0E0,0E0,0E0,0E0,0E0,0E0,0E0,0E0,0E0],"parents":[2147483647,0,0,1,1,2,2,3,3,4,4,5,5,6,6,8,8,9,9,10,10,11,11,12,12,13,13],"right_children":[2,4,6,8,10,12,14,-1,16,18,20,22,24,26,-1,-1,-1,-1,-1,-1,-1,-1,-1,-1,-1,-1,-1],"split_conditions":[8.1902796E-1,7.679812E-1,1.4501877E2,6.8118334E-1,1.1951422E2,1.4997417E2,1.6617929E2,-1.1902407E-3,7.3940456E-1,7.920394E-1,1.1186494E2,1.3488252E2,1.5289792E2,8.796658E-1,1.0982574E-3,-4.6120706E-4,-9.3855907E-4,-3.0570478E-5,-1.1745527E-3,-9.4587356E-4,-2.7691215E-4,1.0635828E-4,7.818507E-4,-5.180699E-4,7.612499E-5,3.0609182E-4,5.723392E-4],"split_indices":[1,1,2,0,3,3,2,0,0,0,2,2,3,1,0,0,0,0,0,0,0,0,0,0,0,0,0],"split_type":[0,0,0,0,0,0,0,0,0,0,0,0,0,0,0,0,0,0,0,0,0,0,0,0,0,0,0],"sum_hessian":[1.64E2,7.6E1,8.8E1,3.2E1,4.4E1,4.5E1,4.3E1,5E0,2.7E1,3.2E1,1.2E1,2.9E1,1.6E1,3.6E1,7E0,2.1E1,6E0,3.1E1,1E0,3E0,9E0,2.3E1,6E0,4E0,1.2E1,7E0,2.9E1],"tree_param":{"num_deleted":"0","num_feature":"5","num_nodes":"27","size_leaf_vector":"1"}},{"base_weights":[-9.2624876E-5,-6.80091E-3,8.725301E-3,-1.2745817E-2,-2.9269175E-3,5.7300306E-3,1.7726438E-2,-8.135334E-4,-6.7263166E-3,-1.152352E-2,-1.6896012E-3,1.2820797E-2,3.1690365E-3,1.3964332E-2,1.1981315E-3,-3.9637662E-4,2.5226772E-4,-6.669293E-4,-1.5828015E-5,-1.1617237E-5,-3.483797E-4,1.3899953E-4,7.6532364E-4,-3.604153E-4,3.1564618E-4,7.564582E-4,-3.4123659E-7],"categories":[],"categories_nodes":[],"categories_segments":[],"categories_sizes":[],"default_left":[0,0,0,0,0,0,0,0,0,0,0,0,0,0,0,0,0,0,0,0,0,0,0,0,0,0,0],"id":47,"left_children":[1,3,5,7,9,11,13,-1,15,17,19,21,23,25,-1,-1,-1,-1,-1,-1,-1,-1,-1,-1,-1,-1,-1],"loss_changes":[9.583E-3,2.0815022E-3,1.7856862E-3,6.544008E-4,5.868227E-4,9.3997875E-4,6.421842E-5,0E0,2.5210204E-4,1.3816718E-4,3.9064186E-4,3.0686264E-4,1.3831384E-3,2.1166564E-4,0E0,0E0,0E0,0E0,0E0,0E0,0E0,0E0,0E0,0E0,0E0,0E0,0E0],"parents":[2147483647,0,0,1,1,2,2,3,3,4,4,5,5,6,6,8,8,9,9,10,10,11,11,12,12,13,13],"right_children":[2,4,6,8,10,12,14,-1,16,18,20,22,24,26,-1,-1,-1,-1,-1,-1,-1,-1,-1,-1,-1,-1,-1],"split_conditions":[1.3185056E2,7.679812E-1,1.568766E2,1.1229336E2,9.696455E1,1.4814651E2,9.5846426E-1,-8.135334E-4,7.608973E-1,7.808931E-1,1.2555029E2,1.3292947E2,1.5380121E2,9.503563E-1,1.1981315E-3,-3.9637662E-4,2.5226772E-4,-6.669293E-4,-1.5828015E-5,-1.1617237E-5,-3.483797E-4,1.3899953E-4,7.6532364E-4,-3.604153E-4,3.1564618E-4,7.564582E-4,-3.4123659E-7],"split_indices":[2,1,2,2,2,3,0,0,1,0,2,2,3,0,0,0,0,0,0,0,0,0,0,0,0,0,0],"split_type":[0,0,0,0,0,0,0,0,0,0,0,0,0,0,0,0,0,0,0,0,0,0,0,0,0,0,0],"sum_hessian":[1.6E2,9.1E1,6.9E1,3.5E1,5.6E1,5.3E1,1.6E1,2.1E1,1.4E1,6E0,5E1,1.3E1,4E1,1.2E1,4E0,1.3E1,1E0,5E0,1E0,4E1,1E1,3E0,1E1,9E0,3.1E1,1.1E1,1E0],"tree_param":{"num_deleted":"0","num_feature":"5","num_nodes":"27","size_leaf_vector":"1"}},{"base_weights":[-3.632517E-4,-8.524744E-3,7.6012067E-3,-1.601894E-2,-6.2115137E-3,3.359547E-3,1.2554544E-2,-1.1067495E-3,-1.19639225E-2,-9.497255E-3,-4.030249E-3,6.607111E-3,-2.939608E-3,1.0632863E-2,2.0711085E-2,9.635389E-5,-6.6410477E-4,-3.2957213E-4,-8.55806E-4,-7.179338E-5,-5.251798E-4,1.5729594E-4,6.607452E-4,-5.2209647E-4,7.0990216E-5,5.6459854E-4,2.4875006E-5,2.3114533E-4,1.150207E-3],"categories":[],"categories_nodes":[],"categories_segments":[],"categories_sizes":[],"default_left":[0,0,0,0,0,0,0,0,0,0,0,0,0,0,0,0,0,0,0,0,0,0,0,0,0,0,0,0,0],"id":48,"left_children":[1,3,5,7,9,11,13,-1,15,17,19,21,23,25,27,-1,-1,-1,-1,-1,-1,-1,-1,-1,-1,-1,-1,-1,-1],"loss_changes":[1.0400095E-2,1.2700269E-3,1.6596625E-3,1.8159114E-4,4.0608202E-4,9.3998335E-4,3.5972986E-4,0E0,2.636352E-4,4.1851588E-4,6.398971E-4,6.445523E-4,5.3811684E-4,2.0815176E-4,1.1500041E-4,0E0,0E0,0E0,0E0,0E0,0E0,0E0,0E0,0E0,0E0,0E0,0E0,0E0,0E0],"parents":[2147483647,0,0,1,1,2,2,3,3,4,4,5,5,6,6,8,8,9,9,10,10,11,11,12,12,13,13,14,14],"right_children":[2,4,6,8,10,12,14,-1,16,18,20,22,24,26,28,-1,-1,-1,-1,-1,-1,-1,-1,-1,-1,-1,-1,-1,-1],"split_conditions":[8.2317E-1,9.696455E1,1.4501877E2,6.8118334E-1,7.679812E-1,1.4997417E2,1.6783443E2,-1.1067495E-3,6.9677895E-1,7.436715E-1,1.1951422E2,1.3488252E2,8.6135954E-1,9.502746E-1,9.503563E-1,9.635389E-5,-6.6410477E-4,-3.2957213E-4,-8.55806E-4,-7.179338E-5,-5.251798E-4,1.5729594E-4,6.607452E-4,-5.2209647E-4,7.0990216E-5,5.6459854E-4,2.4875006E-5,2.3114533E-4,1.150207E-3],"split_indices":[1,2,2,0,1,3,3,0,1,0,3,2,0,0,0,0,0,0,0,0,0,0,0,0,0,0,0,0,0],"split_type":[0,0,0,0,0,0,0,0,0,0,0,0,0,0,0,0,0,0,0,0,0,0,0,0,0,0,0,0,0],"sum_hessian":[1.58E2,7.8E1,8E1,1.7E1,6.1E1,4.4E1,3.6E1,5E0,1.2E1,2.3E1,3.8E1,2.9E1,1.5E1,3.1E1,5E0,1E0,1.1E1,1.8E1,5E0,2.8E1,1E1,2E1,9E0,5E0,1E1,2.9E1,2E0,1E0,4E0],"tree_param":{"num_deleted":"0","num_feature":"5","num_nodes":"29","size_leaf_vector":"1"}},{"base_weights":[-4.2920257E-4,-6.984468E-3,6.291182E-3,-1.0476233E-2,-3.57204E-3,2.1320528E-3,8.910383E-3,-7.079859E-3,-1.3688433E-2,-2.6196113E-3,-1.571536E-2,4.7154156E-3,-1.7107555E-3,1.2616136E-2,7.6685413E-3,-6.406432E-4,-9.102442E-6,-4.523155E-4,-8.014661E-4,-2.8941207E-4,1.19031174E-4,-1.081264E-3,-9.738803E-5,5.5129083E-5,7.666701E-4,-6.938527E-4,7.366911E-5,-3.6388636E-5,7.0116523E-4,-2.3531169E-5,4.7046464E-4],"categories":[],"categories_nodes":[],"categories_segments":[],"categories_sizes":[],"default_left":[0,0,0,0,0,0,0,0,0,0,0,0,0,0,0,0,0,0,0,0,0,0,0,0,0,0,0,0,0,0,0],"id":49,"left_children":[1,3,5,7,9,11,13,15,17,19,21,23,25,27,29,-1,-1,-1,-1,-1,-1,-1,-1,-1,-1,-1,-1,-1,-1,-1,-1],"loss_changes":[7.3128343E-3,9.6347183E-4,8.7427744E-4,3.5039103E-4,4.6772027E-4,3.3567013E-4,1.3335049E-4,8.676612E-4,7.2327675E-5,6.792232E-4,2.0197534E-4,7.503142E-4,5.6279456E-4,2.1675415E-4,5.711585E-4,0E0,0E0,0E0,0E0,0E0,0E0,0E0,0E0,0E0,0E0,0E0,0E0,0E0,0E0,0E0,0E0],"parents":[2147483647,0,0,1,1,2,2,3,3,4,4,5,5,6,6,7,7,8,8,9,9,10,10,11,11,12,12,13,13,14,14],"right_children":[2,4,6,8,10,12,14,16,18,20,22,24,26,28,30,-1,-1,-1,-1,-1,-1,-1,-1,-1,-1,-1,-1,-1,-1,-1,-1],"split_conditions":[1.2473778E2,1.1229336E2,8.93131E-1,1.0250442E2,1.2426378E2,1.4997417E2,1.5060736E2,7.679812E-1,7.515804E-1,7.8946495E-1,8.321347E-1,1.3394814E2,1.396074E2,1.3352827E2,1.4501877E2,-6.406432E-4,-9.102442E-6,-4.523155E-4,-8.014661E-4,-2.8941207E-4,1.19031174E-4,-1.081264E-3,-9.738803E-5,5.5129083E-5,7.666701E-4,-6.938527E-4,7.366911E-5,-3.6388636E-5,7.0116523E-4,-2.3531169E-5,4.7046464E-4],"split_indices":[3,2,1,3,3,3,3,1,1,1,1,2,2,3,2,0,0,0,0,0,0,0,0,0,0,0,0,0,0,0,0],"split_type":[0,0,0,0,0,0,0,0,0,0,0,0,0,0,0,0,0,0,0,0,0,0,0,0,0,0,0,0,0,0,0],"sum_hessian":[1.64E2,8.3E1,8.1E1,4E1,4.3E1,3.2E1,4.9E1,2.1E1,1.9E1,4.1E1,2E0,1.9E1,1.3E1,1E1,3.9E1,1.1E1,1E1,8E0,1.1E1,2.5E1,1.6E1,1E0,1E0,1.5E1,4E0,2E0,1.1E1,1E0,9E0,7E0,3.2E1],"tree_param":{"num_deleted":"0","num_feature":"5","num_nodes":"31","size_leaf_vector":"1"}},{"base_weights":[3.2653904E-4,-5.8030626E-3,7.0887418E-3,-1.1818636E-2,-3.6445362E-3,3.6273205E-3,1.0732783E-2,-9.614366E-4,-9.103686E-3,-2.9837275E-3,-1.2810737E-2,1.0327935E-2,2.18356E-3,8.847341E-3,9.499838E-4,1.0996014E-4,-4.948963E-4,-2.200017E-4,2.8441352E-4,-1.0542319E-3,-1.5122791E-4,6.1428896E-4,-3.5478177E-5,-2.3168197E-5,3.3493066E-4,8.067465E-4,3.6150048E-4],"categories":[],"categories_nodes":[],"categories_segments":[],"categories_sizes":[],"default_left":[0,0,0,0,0,0,0,0,0,0,0,0,0,0,0,0,0,0,0,0,0,0,0,0,0,0,0],"id":50,"left_children":[1,3,5,7,9,11,13,-1,15,17,19,21,23,25,-1,-1,-1,-1,-1,-1,-1,-1,-1,-1,-1,-1,-1],"loss_changes":[6.7145233E-3,1.0606325E-3,9.3231257E-4,2.6754453E-4,3.4943107E-4,3.7408574E-4,4.0861312E-4,0E0,1.8335739E-4,7.7424315E-4,2.6010768E-4,1.5998544E-4,4.2138895E-4,2.6051071E-4,0E0,0E0,0E0,0E0,0E0,0E0,0E0,0E0,0E0,0E0,0E0,0E0,0E0],"parents":[2147483647,0,0,1,1,2,2,3,3,4,4,5,5,6,6,8,8,9,9,10,10,11,11,12,12,13,13],"right_children":[2,4,6,8,10,12,14,-1,16,18,20,22,24,26,-1,-1,-1,-1,-1,-1,-1,-1,-1,-1,-1,-1,-1],"split_conditions":[8.446976E-1,7.7172405E-1,8.40499E-1,6.8118334E-1,8.11082E-1,1.4109065E2,1.6783443E2,-9.614366E-4,6.9677895E-1,8.1086487E-1,8.120005E-1,8.9944386E-1,1.5434209E2,1.5060736E2,9.499838E-4,1.0996014E-4,-4.948963E-4,-2.200017E-4,2.8441352E-4,-1.0542319E-3,-1.5122791E-4,6.1428896E-4,-3.5478177E-5,-2.3168197E-5,3.3493066E-4,8.067465E-4,3.6150048E-4],"split_indices":[1,4,4,0,0,3,3,0,1,4,0,1,3,3,0,0,0,0,0,0,0,0,0,0,0,0,0],"split_type":[0,0,0,0,0,0,0,0,0,0,0,0,0,0,0,0,0,0,0,0,0,0,0,0,0,0,0],"sum_hessian":[1.6E2,8.4E1,7.6E1,2.1E1,6.3E1,4E1,3.6E1,4E0,1.7E1,6E1,3E0,6E0,3.4E1,3.1E1,5E0,1E0,1.6E1,5.2E1,8E0,1E0,2E0,5E0,1E0,2.2E1,1.2E1,4E0,2.7E1],"tree_param":{"num_deleted":"0","num_feature":"5","num_nodes":"27","size_leaf_vector":"1"}},{"base_weights":[9.07764E-4,-5.0093727E-3,8.154015E-3,-1.04059195E-2,-1.8145937E-3,5.5759335E-3,1.4964941E-2,-8.728027E-3,-1.4768064E-2,-7.598422E-3,-4.791508E-4,9.006155E-3,3.7140877E-3,1.1668756E-2,9.225313E-4,-5.9041E-4,-2.5122124E-4,-7.985234E-4,-1.5878082E-4,-1.9439966E-4,-1.1175678E-3,1.9733397E-4,-1.0934986E-4,-1.0445714E-4,5.2171876E-4,-3.261149E-4,2.5551004E-4,6.251568E-4,2.3598869E-4],"categories":[],"categories_nodes":[],"categories_segments":[],"categories_sizes":[],"default_left":[0,0,0,0,0,0,0,0,0,0,0,0,0,0,0,0,0,0,0,0,0,0,0,0,0,0,0,0,0],"id":51,"left_children":[1,3,5,7,9,11,13,15,17,19,21,23,25,27,-1,-1,-1,-1,-1,-1,-1,-1,-1,-1,-1,-1,-1,-1,-1],"loss_changes":[7.1584377E-3,1.5672687E-3,1.2334906E-3,1.1995691E-4,4.5207358E-4,3.2419688E-4,1.4493708E-5,2.4867943E-4,6.079441E-5,5.1523483E-4,3.790046E-4,3.228829E-4,5.7639397E-4,1.6363338E-5,0E0,0E0,0E0,0E0,0E0,0E0,0E0,0E0,0E0,0E0,0E0,0E0,0E0,0E0,0E0],"parents":[2147483647,0,0,1,1,2,2,3,3,4,4,5,5,6,6,7,7,8,8,9,9,10,10,11,11,12,12,13,13],"right_children":[2,4,6,8,10,12,14,16,18,20,22,24,26,28,-1,-1,-1,-1,-1,-1,-1,-1,-1,-1,-1,-1,-1,-1,-1],"split_conditions":[1.3200224E2,7.821809E-1,8.4432405E-1,7.436715E-1,1.0199496E2,1.5060736E2,1.6588725E2,7.5474095E-1,7.8147364E-1,7.967776E-1,1.1604779E2,8.2205117E-1,1.3988931E2,1.6018594E2,9.225313E-4,-5.9041E-4,-2.5122124E-4,-7.985234E-4,-1.5878082E-4,-1.9439966E-4,-1.1175678E-3,1.9733397E-4,-1.0934986E-4,-1.0445714E-4,5.2171876E-4,-3.261149E-4,2.5551004E-4,6.251568E-4,2.3598869E-4],"split_indices":[2,4,4,0,2,3,2,4,4,0,3,4,2,2,0,0,0,0,0,0,0,0,0,0,0,0,0,0,0],"split_type":[0,0,0,0,0,0,0,0,0,0,0,0,0,0,0,0,0,0,0,0,0,0,0,0,0,0,0,0,0],"sum_hessian":[1.65E2,9.1E1,7.4E1,3.3E1,5.8E1,5.5E1,1.9E1,2.6E1,7E0,1E1,4.8E1,1.8E1,3.7E1,1.2E1,7E0,1.3E1,1.3E1,6E0,1E0,9E0,1E0,1.3E1,3.5E1,2E0,1.6E1,4E0,3.3E1,1E1,2E0],"tree_param":{"num_deleted":"0","num_feature":"5","num_nodes":"29","size_leaf_vector":"1"}},{"base_weights":[2.555403E-4,-5.435586E-3,6.6921366E-3,-8.552391E-3,-2.5393988E-3,4.4920607E-3,1.3531711E-2,-1.0704403E-2,-4.108612E-3,1.0614626E-4,-7.50643E-3,9.7259285E-4,6.139493E-3,9.82595E-3,8.975672E-4,-3.9719985E-4,-7.671273E-4,-1.6574313E-5,-7.2064175E-4,-1.7339922E-4,5.4076355E-4,2.0332634E-6,-4.625598E-4,3.1206285E-4,-3.0801792E-4,6.065962E-4,2.0042014E-4,5.823919E-4,2.3883582E-5],"categories":[],"categories_nodes":[],"categories_segments":[],"categories_sizes":[],"default_left":[0,0,0,0,0,0,0,0,0,0,0,0,0,0,0,0,0,0,0,0,0,0,0,0,0,0,0,0,0],"id":52,"left_children":[1,3,5,7,9,11,13,15,17,19,21,23,25,27,-1,-1,-1,-1,-1,-1,-1,-1,-1,-1,-1,-1,-1,-1,-1],"loss_changes":[5.9340447E-3,7.545911E-4,1.0828311E-3,3.4810556E-4,6.0526E-4,3.3611595E-4,1.184165E-4,2.2380403E-4,5.790275E-4,1.2240573E-3,2.1106284E-4,7.900709E-4,4.6218664E-4,1.9881444E-4,0E0,0E0,0E0,0E0,0E0,0E0,0E0,0E0,0E0,0E0,0E0,0E0,0E0,0E0,0E0],"parents":[2147483647,0,0,1,1,2,2,3,3,4,4,5,5,6,6,7,7,8,8,9,9,10,10,11,11,12,12,13,13],"right_children":[2,4,6,8,10,12,14,16,18,20,22,24,26,28,-1,-1,-1,-1,-1,-1,-1,-1,-1,-1,-1,-1,-1,-1,-1],"split_conditions":[1.3352827E2,1.1127787E2,1.568766E2,7.8834337E-1,1.1951422E2,8.6135954E-1,1.6761526E2,7.4450576E-1,7.920394E-1,7.848016E-1,7.513373E-1,8.592912E-1,1.5060736E2,9.418856E-1,8.975672E-4,-3.9719985E-4,-7.671273E-4,-1.6574313E-5,-7.2064175E-4,-1.7339922E-4,5.4076355E-4,2.0332634E-6,-4.625598E-4,3.1206285E-4,-3.0801792E-4,6.065962E-4,2.0042014E-4,5.823919E-4,2.3883582E-5],"split_indices":[3,2,2,1,3,0,3,0,0,0,0,1,3,0,0,0,0,0,0,0,0,0,0,0,0,0,0,0,0],"split_type":[0,0,0,0,0,0,0,0,0,0,0,0,0,0,0,0,0,0,0,0,0,0,0,0,0,0,0,0,0],"sum_hessian":[1.6E2,8.5E1,7.5E1,4E1,4.5E1,5.8E1,1.7E1,2.6E1,1.4E1,3E1,1.5E1,1.9E1,3.9E1,1.1E1,6E0,1.8E1,8E0,1.1E1,3E0,2.3E1,7E0,3E0,1.2E1,1.1E1,8E0,9E0,3E1,9E0,2E0],"tree_param":{"num_deleted":"0","num_feature":"5","num_nodes":"29","size_leaf_vector":"1"}},{"base_weights":[2.8889658E-4,-4.033232E-3,7.682898E-3,-1.2983599E-2,-2.195709E-3,6.273911E-3,9.5416507E-4,-9.853268E-4,-9.399116E-3,-7.538551E-3,-5.433975E-4,1.1543464E-2,4.8139337E-3,1.3190061E-4,-5.3110224E-4,-2.0676553E-4,-6.634048E-4,2.19263E-4,-1.3145685E-4,2.8243166E-4,7.7571924E-4,6.889173E-5,3.9456683E-4],"categories":[],"categories_nodes":[],"categories_segments":[],"categories_sizes":[],"default_left":[0,0,0,0,0,0,0,0,0,0,0,0,0,0,0,0,0,0,0,0,0,0,0],"id":53,"left_children":[1,3,5,7,9,11,-1,-1,13,15,17,19,21,-1,-1,-1,-1,-1,-1,-1,-1,-1,-1],"loss_changes":[5.112281E-3,1.632589E-3,8.279914E-4,2.2444618E-4,7.462868E-4,3.5987562E-4,0E0,0E0,2.1938828E-4,3.3511268E-4,6.9000246E-4,1.6985182E-4,4.5439438E-4,0E0,0E0,0E0,0E0,0E0,0E0,0E0,0E0,0E0,0E0],"parents":[2147483647,0,0,1,1,2,2,3,3,4,4,5,5,8,8,9,9,10,10,11,11,12,12],"right_children":[2,4,6,8,10,12,-1,-1,14,16,18,20,22,-1,-1,-1,-1,-1,-1,-1,-1,-1,-1],"split_conditions":[8.6135954E-1,9.696455E1,1.6783443E2,6.8118334E-1,7.821809E-1,1.5060736E2,9.5416507E-4,-9.853268E-4,8.8048904E1,7.436715E-1,1.1604779E2,1.4596399E2,9.082631E-1,1.3190061E-4,-5.3110224E-4,-2.0676553E-4,-6.634048E-4,2.19263E-4,-1.3145685E-4,2.8243166E-4,7.7571924E-4,6.889173E-5,3.9456683E-4],"split_indices":[0,2,3,0,4,3,0,0,3,0,3,3,0,0,0,0,0,0,0,0,0,0,0],"split_type":[0,0,0,0,0,0,0,0,0,0,0,0,0,0,0,0,0,0,0,0,0,0,0],"sum_hessian":[1.58E2,1E2,5.8E1,1.6E1,8.4E1,5.3E1,5E0,4E0,1.2E1,1.9E1,6.5E1,1E1,4.3E1,1E0,1.1E1,1.3E1,6E0,1.9E1,4.6E1,5E0,5E0,2.1E1,2.2E1],"tree_param":{"num_deleted":"0","num_feature":"5","num_nodes":"23","size_leaf_vector":"1"}},{"base_weights":[3.7276998E-4,-5.8036447E-3,6.7733387E-3,-1.1593345E-2,-3.2945424E-3,4.9541155E-3,1.1735209E-2,-9.026456E-4,-9.503288E-3,4.984161E-4,-3.92375E-3,1.0736847E-2,3.74678E-3,8.792695E-3,1.636414E-2,4.499952E-5,-5.322869E-4,-3.8573393E-4,-6.963876E-5,6.801948E-4,2.5745094E-4,-5.2541494E-5,3.0535358E-4,5.599134E-4,-3.11099E-5,3.435095E-4,9.393841E-4],"categories":[],"categories_nodes":[],"categories_segments":[],"categories_sizes":[],"default_left":[0,0,0,0,0,0,0,0,0,0,0,0,0,0,0,0,0,0,0,0,0,0,0,0,0,0,0],"id":54,"left_children":[1,3,5,7,9,11,13,-1,15,-1,17,19,21,23,25,-1,-1,-1,-1,-1,-1,-1,-1,-1,-1,-1,-1],"loss_changes":[6.522651E-3,1.1820691E-3,6.730291E-4,1.6595982E-4,5.398189E-4,3.8565486E-4,1.4214963E-4,0E0,2.5917066E-4,0E0,5.4575043E-4,9.015913E-5,5.952529E-4,3.4669077E-4,3.1987904E-5,0E0,0E0,0E0,0E0,0E0,0E0,0E0,0E0,0E0,0E0,0E0,0E0],"parents":[2147483647,0,0,1,1,2,2,3,3,4,4,5,5,6,6,8,8,10,10,11,11,12,12,13,13,14,14],"right_children":[2,4,6,8,10,12,14,-1,16,-1,18,20,22,24,26,-1,-1,-1,-1,-1,-1,-1,-1,-1,-1,-1,-1],"split_conditions":[8.446976E-1,1.0199496E2,1.568766E2,8.580925E1,1.0346276E2,1.4291685E2,1.6783443E2,-9.026456E-4,8.904934E1,4.984161E-4,1.1445538E2,8.9944386E-1,8.6135954E-1,9.502746E-1,9.503563E-1,4.499952E-5,-5.322869E-4,-3.8573393E-4,-6.963876E-5,6.801948E-4,2.5745094E-4,-5.2541494E-5,3.0535358E-4,5.599134E-4,-3.11099E-5,3.435095E-4,9.393841E-4],"split_indices":[1,2,2,3,2,3,3,0,3,0,2,1,0,0,0,0,0,0,0,0,0,0,0,0,0,0,0],"split_type":[0,0,0,0,0,0,0,0,0,0,0,0,0,0,0,0,0,0,0,0,0,0,0,0,0,0,0],"sum_hessian":[1.63E2,8.3E1,8E1,2.4E1,5.9E1,6E1,2E1,4E0,2E1,2E0,5.7E1,9E0,5.1E1,1.4E1,6E0,2E0,1.8E1,2.2E1,3.5E1,5E0,4E0,1.7E1,3.4E1,1.1E1,3E0,2E0,4E0],"tree_param":{"num_deleted":"0","num_feature":"5","num_nodes":"27","size_leaf_vector":"1"}},{"base_weights":[4.1511407E-4,-5.8848048E-3,5.421696E-3,-5.3534033E-3,-1.063788E-3,4.8396266E-3,8.2176254E-4,-9.33609E-3,-3.021835E-3,1.2732253E-3,5.6481655E-3,-3.5778616E-4,-6.2086084E-4,-3.8704744E-5,-3.9718408E-4,1.496749E-4,-6.5627845E-4,4.154578E-4,2.2354031E-4],"categories":[],"categories_nodes":[],"categories_segments":[],"categories_sizes":[],"default_left":[0,0,0,0,0,0,0,0,0,0,0,0,0,0,0,0,0,0,0],"id":55,"left_children":[1,3,5,7,-1,9,-1,11,13,15,17,-1,-1,-1,-1,-1,-1,-1,-1],"loss_changes":[4.983852E-3,4.58617E-4,4.8459717E-4,6.125155E-4,0E0,2.379124E-4,0E0,7.909536E-5,4.916872E-4,4.6037885E-4,1.7902441E-4,0E0,0E0,0E0,0E0,0E0,0E0,0E0,0E0],"parents":[2147483647,0,0,1,1,2,2,3,3,5,5,7,7,8,8,9,9,10,10],"right_children":[2,4,6,8,-1,10,-1,12,14,16,18,-1,-1,-1,-1,-1,-1,-1,-1],"split_conditions":[8.1086487E-1,8.034197E-1,1.6849196E2,7.7436405E-1,-1.063788E-3,8.264924E-1,8.2176254E-4,1.1407132E2,1.1810973E2,8.2647806E-1,1.5060736E2,-3.5778616E-4,-6.2086084E-4,-3.8704744E-5,-3.9718408E-4,1.496749E-4,-6.5627845E-4,4.154578E-4,2.2354031E-4],"split_indices":[4,0,3,4,0,4,0,3,3,4,3,0,0,0,0,0,0,0,0],"split_type":[0,0,0,0,0,0,0,0,0,0,0,0,0,0,0,0,0,0,0],"sum_hessian":[1.56E2,6.9E1,8.7E1,6.8E1,1E0,8.4E1,3E0,2.4E1,4.4E1,1.6E1,6.8E1,1.6E1,8E0,3.1E1,1.3E1,1.5E1,1E0,1.9E1,4.9E1],"tree_param":{"num_deleted":"0","num_feature":"5","num_nodes":"19","size_leaf_vector":"1"}},{"base_weights":[-2.662848E-4,-4.7390186E-3,5.653561E-3,-7.6066854E-4,-3.4010701E-3,4.868561E-3,7.909462E-4,-4.330887E-3,1.2950622E-3,8.279755E-3,3.406727E-3,-1.01786725E-4,-5.4011086E-4,2.5155905E-4,-4.622274E-5,2.4797348E-4,6.1572617E-4,-3.013632E-4,2.5497313E-4],"categories":[],"categories_nodes":[],"categories_segments":[],"categories_sizes":[],"default_left":[0,0,0,0,0,0,0,0,0,0,0,0,0,0,0,0,0,0,0],"id":56,