{"learner":{"attributes":{"scikit_learn":"{\"_estimator_type\": \"regressor\"}"},"feature_names":[],"feature_types":[],"gradient_booster":{"model":{"gbtree_model_param":{"num_parallel_tree":"1","num_trees":"1000"},"iteration_indptr":[0,1,2,3,4,5,6,7,8,9,10,11,12,13,14,15,16,17,18,19,20,21,22,23,24,25,26,27,28,29,30,31,32,33,34,35,36,37,38,39,40,41,42,43,44,45,46,47,48,49,50,51,52,53,54,55,56,57,58,59,60,61,62,63,64,65,66,67,68,69,70,71,72,73,74,75,76,77,78,79,80,81,82,83,84,85,86,87,88,89,90,91,92,93,94,95,96,97,98,99,100,101,102,103,104,105,106,107,108,109,110,111,112,113,114,115,116,117,118,119,120,121,122,123,124,125,126,127,128,129,130,131,132,133,134,135,136,137,138,139,140,141,142,143,144,145,146,147,148,149,150,151,152,153,154,155,156,157,158,159,160,161,162,163,164,165,166,167,168,169,170,171,172,173,174,175,176,177,178,179,180,181,182,183,184,185,186,187,188,189,190,191,192,193,194,195,196,197,198,199,200,201,202,203,204,205,206,207,208,209,210,211,212,213,214,215,216,217,218,219,220,221,222,223,224,225,226,227,228,229,230,231,232,233,234,235,236,237,238,239,240,241,242,243,244,245,246,247,248,249,250,251,252,253,254,255,256,257,258,259,260,261,262,263,264,265,266,267,268,269,270,271,272,273,274,275,276,277,278,279,280,281,282,283,284,285,286,287,288,289,290,291,292,293,294,295,296,297,298,299,300,301,302,303,304,305,306,307,308,309,310,311,312,313,314,315,316,317,318,319,320,321,322,323,324,325,326,327,328,329,330,331,332,333,334,335,336,337,338,339,340,341,342,343,344,345,346,347,348,349,350,351,352,353,354,355,356,357,358,359,360,361,362,363,364,365,366,367,368,369,370,371,372,373,374,375,376,377,378,379,380,381,382,383,384,385,386,387,388,389,390,391,392,393,394,395,396,397,398,399,400,401,402,403,404,405,406,407,408,409,410,411,412,413,414,415,416,417,418,419,420,421,422,423,424,425,426,427,428,429,430,431,432,433,434,435,436,437,438,439,440,441,442,443,444,445,446,447,448,449,450,451,452,453,454,455,456,457,458,459,460,461,462,463,464,465,466,467,468,469,470,471,472,473,474,475,476,477,478,479,480,481,482,483,484,485,486,487,488,489,490,491,492,493,494,495,496,497,498,499,500,501,502,503,504,505,506,507,508,509,510,511,512,513,514,515,516,517,518,519,520,521,522,523,524,525,526,527,528,529,530,531,532,533,534,535,536,537,538,539,540,541,542,543,544,545,546,547,548,549,550,551,552,553,554,555,556,557,558,559,560,561,562,563,564,565,566,567,568,569,570,571,572,573,574,575,576,577,578,579,580,581,582,583,584,585,586,587,588,589,590,591,592,593,594,595,596,597,598,599,600,601,602,603,604,605,606,607,608,609,610,611,612,613,614,615,616,617,618,619,620,621,622,623,624,625,626,627,628,629,630,631,632,633,634,635,636,637,638,639,640,641,642,643,644,645,646,647,648,649,650,651,652,653,654,655,656,657,658,659,660,661,662,663,664,665,666,667,668,669,670,671,672,673,674,675,676,677,678,679,680,681,682,683,684,685,686,687,688,689,690,691,692,693,694,695,696,697,698,699,700,701,702,703,704,705,706,707,708,709,710,711,712,713,714,715,716,717,718,719,720,721,722,723,724,725,726,727,728,729,730,731,732,733,734,735,736,737,738,739,740,741,742,743,744,745,746,747,748,749,750,751,752,753,754,755,756,757,758,759,760,761,762,763,764,765,766,767,768,769,770,771,772,773,774,775,776,777,778,779,780,781,782,783,784,785,786,787,788,789,790,791,792,793,794,795,796,797,798,799,800,801,802,803,804,805,806,807,808,809,810,811,812,813,814,815,816,817,818,819,820,821,822,823,824,825,826,827,828,829,830,831,832,833,834,835,836,837,838,839,840,841,842,843,844,845,846,847,848,849,850,851,852,853,854,855,856,857,858,859,860,861,862,863,864,865,866,867,868,869,870,871,872,873,874,875,876,877,878,879,880,881,882,883,884,885,886,887,888,889,890,891,892,893,894,895,896,897,898,899,900,901,902,903,904,905,906,907,908,909,910,911,912,913,914,915,916,917,918,919,920,921,922,923,924,925,926,927,928,929,930,931,932,933,934,935,936,937,938,939,940,941,942,943,944,945,946,947,948,949,950,951,952,953,954,955,956,957,958,959,960,961,962,963,964,965,966,967,968,969,970,971,972,973,974,975,976,977,978,979,980,981,982,983,984,985,986,987,988,989,990,991,992,993,994,995,996,997,998,999,1000],"tree_info":[0,0,0,0,0,0,0,0,0,0,0,0,0,0,0,0,0,0,0,0,0,0,0,0,0,0,0,0,0,0,0,0,0,0,0,0,0,0,0,0,0,0,0,0,0,0,0,0,0,0,0,0,0,0,0,0,0,0,0,0,0,0,0,0,0,0,0,0,0,0,0,0,0,0,0,0,0,0,0,0,0,0,0,0,0,0,0,0,0,0,0,0,0,0,0,0,0,0,0,0,0,0,0,0,0,0,0,0,0,0,0,0,0,0,0,0,0,0,0,0,0,0,0,0,0,0,0,0,0,0,0,0,0,0,0,0,0,0,0,0,0,0,0,0,0,0,0,0,0,0,0,0,0,0,0,0,0,0,0,0,0,0,0,0,0,0,0,0,0,0,0,0,0,0,0,0,0,0,0,0,0,0,0,0,0,0,0,0,0,0,0,0,0,0,0,0,0,0,0,0,0,0,0,0,0,0,0,0,0,0,0,0,0,0,0,0,0,0,0,0,0,0,0,0,0,0,0,0,0,0,0,0,0,0,0,0,0,0,0,0,0,0,0,0,0,0,0,0,0,0,0,0,0,0,0,0,0,0,0,0,0,0,0,0,0,0,0,0,0,0,0,0,0,0,0,0,0,0,0,0,0,0,0,0,0,0,0,0,0,0,0,0,0,0,0,0,0,0,0,0,0,0,0,0,0,0,0,0,0,0,0,0,0,0,0,0,0,0,0,0,0,0,0,0,0,0,0,0,0,0,0,0,0,0,0,0,0,0,0,0,0,0,0,0,0,0,0,0,0,0,0,0,0,0,0,0,0,0,0,0,0,0,0,0,0,0,0,0,0,0,0,0,0,0,0,0,0,0,0,0,0,0,0,0,0,0,0,0,0,0,0,0,0,0,0,0,0,0,0,0,0,0,0,0,0,0,0,0,0,0,0,0,0,0,0,0,0,0,0,0,0,0,0,0,0,0,0,0,0,0,0,0,0,0,0,0,0,0,0,0,0,0,0,0,0,0,0,0,0,0,0,0,0,0,0,0,0,0,0,0,0,0,0,0,0,0,0,0,0,0,0,0,0,0,0,0,0,0,0,0,0,0,0,0,0,0,0,0,0,0,0,0,0,0,0,0,0,0,0,0,0,0,0,0,0,0,0,0,0,0,0,0,0,0,0,0,0,0,0,0,0,0,0,0,0,0,0,0,0,0,0,0,0,0,0,0,0,0,0,0,0,0,0,0,0,0,0,0,0,0,0,0,0,0,0,0,0,0,0,0,0,0,0,0,0,0,0,0,0,0,0,0,0,0,0,0,0,0,0,0,0,0,0,0,0,0,0,0,0,0,0,0,0,0,0,0,0,0,0,0,0,0,0,0,0,0,0,0,0,0,0,0,0,0,0,0,0,0,0,0,0,0,0,0,0,0,0,0,0,0,0,0,0,0,0,0,0,0,0,0,0,0,0,0,0,0,0,0,0,0,0,0,0,0,0,0,0,0,0,0,0,0,0,0,0,0,0,0,0,0,0,0,0,0,0,0,0,0,0,0,0,0,0,0,0,0,0,0,0,0,0,0,0,0,0,0,0,0,0,0,0,0,0,0,0,0,0,0,0,0,0,0,0,0,0,0,0,0,0,0,0,0,0,0,0,0,0,0,0,0,0,0,0,0,0,0,0,0,0,0,0,0,0,0,0,0,0,0,0,0,0,0,0,0,0,0,0,0,0,0,0,0,0,0,0,0,0,0,0,0,0,0,0,0,0,0,0,0,0,0,0,0,0,0,0,0,0,0,0,0,0,0,0,0,0,0,0,0,0,0,0,0,0,0,0,0,0,0,0,0,0,0,0,0,0,0,0,0,0,0,0,0,0,0,0,0,0,0,0,0,0,0,0,0,0,0,0,0,0,0,0,0,0,0,0,0,0,0,0,0,0,0,0,0,0,0,0,0,0,0,0,0,0,0,0,0,0,0,0,0,0,0,0,0,0,0,0,0,0,0,0,0,0,0,0,0,0,0,0,0,0,0,0,0,0,0,0,0,0,0,0,0,0,0,0,0,0,0,0,0,0,0,0,0,0,0,0,0,0,0,0,0,0,0,0,0,0,0,0,0,0,0,0,0,0,0,0,0,0,0,0,0,0,0,0,0,0,0,0,0,0,0,0,0,0,0,0,0,0,0,0,0,0,0,0,0,0,0,0,0,0,0,0,0,0,0,0,0,0,0,0,0,0,0,0,0,0,0,0,0,0,0,0,0,0,0,0,0,0,0],"trees":[{"base_weights":[1.2124369E-3,-1.3278227E-1,6.819084E-2,-7.4387933E-3,-2.7204296E-3,2.4632666E-2,1.4476705E-1,5.2455463E-3,2.7904443E-3,3.797811E-3,7.983069E-3,-3.5578702E-4,1.0645067E-3],"categories":[],"categories_nodes":[],"categories_segments":[],"categories_sizes":[],"default_left":[0,0,0,0,0,0,0,0,0,0,0,0,0],"id":0,"left_children":[1,3,5,-1,-1,7,9,11,-1,-1,-1,-1,-1],"loss_changes":[8.6165595E-1,3.2016635E-2,2.099073E-1,0E0,0E0,2.5092773E-2,1.1445224E-2,5.506452E-3,0E0,0E0,0E0,0E0,0E0],"parents":[2147483647,0,0,1,1,2,2,5,5,6,6,7,7],"right_children":[2,4,6,-1,-1,8,10,12,-1,-1,-1,-1,-1],"split_conditions":[4.6905676E-1,3.982044E-1,6.0269874E-1,-7.4387933E-3,-2.7204296E-3,5.5310035E-1,6.316019E-1,5.2109516E-1,2.7904443E-3,3.797811E-3,7.983069E-3,-3.5578702E-4,1.0645067E-3],"split_indices":[0,1,0,0,0,1,0,1,0,0,0,0,0],"split_type":[0,0,0,0,0,0,0,0,0,0,0,0,0],"sum_hessian":[9.4E1,3.1E1,6.3E1,2.5E1,6E0,4.1E1,2.2E1,2.6E1,1.5E1,5E0,1.7E1,1.5E1,1.1E1],"tree_param":{"num_deleted":"0","num_feature":"4","num_nodes":"13","size_leaf_vector":"1"}},{"base_weights":[-1.3640895E-3,-1.265585E-1,6.751557E-2,-6.67004E-3,-2.180079E-3,1.9768143E-2,1.4346716E-1,-5.1493535E-4,4.4854E-2,4.0111276E-3,7.8289155E-3,-8.255583E-4,5.9147336E-4,1.2039597E-3,2.5751784E-3],"categories":[],"categories_nodes":[],"categories_segments":[],"categories_sizes":[],"default_left":[0,0,0,0,0,0,0,0,0,0,0,0,0,0,0],"id":1,"left_children":[1,3,5,-1,-1,7,9,11,13,-1,-1,-1,-1,-1,-1],"loss_changes":[8.0189276E-1,1.2914896E-2,2.1475351E-1,0E0,0E0,1.9358195E-2,6.5107346E-3,4.5395247E-3,1.1082739E-3,0E0,0E0,0E0,0E0,0E0,0E0],"parents":[2147483647,0,0,1,1,2,2,5,5,6,6,7,7,8,8],"right_children":[2,4,6,-1,-1,8,10,12,14,-1,-1,-1,-1,-1,-1],"split_conditions":[4.51551E-1,4.3608534E-1,5.949333E-1,-6.67004E-3,-2.180079E-3,5.400302E-1,6.3508844E-1,5.0685376E-1,5.5310035E-1,4.0111276E-3,7.8289155E-3,-8.255583E-4,5.9147336E-4,1.2039597E-3,2.5751784E-3],"split_indices":[1,3,1,0,0,1,1,1,1,0,0,0,0,0,0],"split_type":[0,0,0,0,0,0,0,0,0,0,0,0,0,0,0],"sum_hessian":[9.1E1,3.2E1,5.9E1,2.9E1,3E0,3.7E1,2.2E1,2.1E1,1.6E1,5E0,1.7E1,9E0,1.2E1,5E0,1.1E1],"tree_param":{"num_deleted":"0","num_feature":"4","num_nodes":"15","size_leaf_vector":"1"}},{"base_weights":[5.4519414E-3,-1.1742961E-1,5.5287383E-2,-6.5664956E-3,-2.4603456E-3,2.0845028E-2,1.24819584E-1,5.5164653E-3,2.5056244E-3,3.8197287E-3,7.178766E-3,-4.9865566E-4,8.198457E-4],"categories":[],"categories_nodes":[],"categories_segments":[],"categories_sizes":[],"default_left":[0,0,0,0,0,0,0,0,0,0,0,0,0],"id":2,"left_children":[1,3,5,-1,-1,7,9,11,-1,-1,-1,-1,-1],"loss_changes":[5.515155E-1,1.819393E-2,1.5066871E-1,0E0,0E0,1.9463195E-2,8.104801E-3,5.219535E-3,0E0,0E0,0E0,0E0,0E0],"parents":[2147483647,0,0,1,1,2,2,5,5,6,6,7,7],"right_children":[2,4,6,-1,-1,8,10,12,-1,-1,-1,-1,-1],"split_conditions":[4.6905676E-1,3.982044E-1,6.0269874E-1,-6.5664956E-3,-2.4603456E-3,5.5310035E-1,6.316019E-1,5.12095E-1,2.5056244E-3,3.8197287E-3,7.178766E-3,-4.9865566E-4,8.198457E-4],"split_indices":[0,1,0,0,0,1,0,1,0,0,0,0,0],"split_type":[0,0,0,0,0,0,0,0,0,0,0,0,0],"sum_hessian":[8.8E1,2.5E1,6.3E1,2E1,5E0,4.3E1,2E1,2.9E1,1.4E1,7E0,1.3E1,1.2E1,1.7E1],"tree_param":{"num_deleted":"0","num_feature":"4","num_nodes":"13","size_leaf_vector":"1"}},{"base_weights":[-1.2677414E-3,-1.1447334E-1,5.7069506E-2,-6.2811743E-3,-2.0751082E-3,2.3970306E-2,1.17908426E-1,6.3564777E-3,2.578565E-3,3.6526166E-3,6.6483603E-3,-3.0350342E-4,8.0278836E-4],"categories":[],"categories_nodes":[],"categories_segments":[],"categories_sizes":[],"default_left":[0,0,0,0,0,0,0,0,0,0,0,0,0],"id":3,"left_children":[1,3,5,-1,-1,7,9,11,-1,-1,-1,-1,-1],"loss_changes":[6.603392E-1,2.245006E-2,1.3007918E-1,0E0,0E0,2.1063192E-2,5.82242E-3,3.4722623E-3,0E0,0E0,0E0,0E0,0E0],"parents":[2147483647,0,0,1,1,2,2,5,5,6,6,7,7],"right_children":[2,4,6,-1,-1,8,10,12,-1,-1,-1,-1,-1],"split_conditions":[4.6905676E-1,4.3636653E-1,6.0269874E-1,-6.2811743E-3,-2.0751082E-3,5.5312926E-1,6.316019E-1,5.1618844E-1,2.578565E-3,3.6526166E-3,6.6483603E-3,-3.0350342E-4,8.0278836E-4],"split_indices":[0,0,0,0,0,3,0,0,0,0,0,0,0],"split_type":[0,0,0,0,0,0,0,0,0,0,0,0,0],"sum_hessian":[9.8E1,3.3E1,6.5E1,2.8E1,5E0,4.3E1,2.2E1,2.7E1,1.6E1,7E0,1.5E1,1.2E1,1.5E1],"tree_param":{"num_deleted":"0","num_feature":"4","num_nodes":"13","size_leaf_vector":"1"}},{"base_weights":[4.1824467E-3,-1.0288359E-1,5.6029882E-2,-5.854478E-3,-2.6784744E-3,2.1916669E-2,1.1481481E-1,4.096459E-3,2.5866122E-3,7.855867E-2,6.7550363E-3,-4.81965E-4,7.5003674E-4,1.1475623E-3,4.0912144E-3],"categories":[],"categories_nodes":[],"categories_segments":[],"categories_sizes":[],"default_left":[0,0,0,0,0,0,0,0,0,0,0,0,0,0,0],"id":4,"left_children":[1,3,5,-1,-1,7,9,11,-1,13,-1,-1,-1,-1,-1],"loss_changes":[5.4422116E-1,1.6145319E-2,1.2983626E-1,0E0,0E0,2.2634834E-2,7.0384145E-3,4.338395E-3,0E0,1.19544566E-4,0E0,0E0,0E0,0E0,0E0],"parents":[2147483647,0,0,1,1,2,2,5,5,6,6,7,7,9,9],"right_children":[2,4,6,-1,-1,8,10,12,-1,14,-1,-1,-1,-1,-1],"split_conditions":[4.744885E-1,3.9329204E-1,6.0340387E-1,-5.854478E-3,-2.6784744E-3,5.5310035E-1,6.565821E-1,5.12095E-1,2.5866122E-3,1.3937122E2,6.7550363E-3,-4.81965E-4,7.5003674E-4,1.1475623E-3,4.0912144E-3],"split_indices":[1,1,3,0,0,1,1,1,0,2,0,0,0,0,0],"split_type":[0,0,0,0,0,0,0,0,0,0,0,0,0,0,0],"sum_hessian":[9.6E1,3.1E1,6.5E1,2.3E1,8E0,4.2E1,2.3E1,2.7E1,1.5E1,1E1,1.3E1,1.2E1,1.5E1,1E0,9E0],"tree_param":{"num_deleted":"0","num_feature":"4","num_nodes":"15","size_leaf_vector":"1"}},{"base_weights":[4.499413E-3,-1.0107904E-1,5.411722E-2,-5.467948E-3,-1.7247837E-3,2.4303464E-2,6.48631E-3,4.692467E-3,2.5580933E-3,-5.4787524E-4,7.164844E-4],"categories":[],"categories_nodes":[],"categories_segments":[],"categories_sizes":[],"default_left":[0,0,0,0,0,0,0,0,0,0,0],"id":5,"left_children":[1,3,5,-1,-1,7,-1,9,-1,-1,-1],"loss_changes":[5.240887E-1,1.3869345E-2,1.5013197E-1,0E0,0E0,2.6095927E-2,0E0,4.681684E-3,0E0,0E0,0E0],"parents":[2147483647,0,0,1,1,2,2,5,5,7,7],"right_children":[2,4,6,-1,-1,8,-1,10,-1,-1,-1],"split_conditions":[4.6905676E-1,4.3636653E-1,6.2734413E-1,-5.467948E-3,-1.7247837E-3,5.5310035E-1,6.48631E-3,5.12095E-1,2.5580933E-3,-5.4787524E-4,7.164844E-4],"split_indices":[0,0,0,0,0,1,0,1,0,0,0],"split_type":[0,0,0,0,0,0,0,0,0,0,0],"sum_hessian":[9.8E1,3.1E1,6.7E1,2.7E1,4E0,4.9E1,1.8E1,2.9E1,2E1,1.1E1,1.8E1],"tree_param":{"num_deleted":"0","num_feature":"4","num_nodes":"11","size_leaf_vector":"1"}},{"base_weights":[-2.9899105E-3,-1.02495044E-1,5.1625647E-2,-5.4539577E-3,-2.1245694E-3,2.0584175E-2,1.0336622E-1,1.2859051E-3,4.1846164E-2,3.1712018E-3,5.8438466E-3,-2.6426636E-4,4.8499583E-4,1.2027998E-3,2.3240754E-3],"categories":[],"categories_nodes":[],"categories_segments":[],"categories_sizes":[],"default_left":[0,0,0,0,0,0,0,0,0,0,0,0,0,0,0],"id":6,"left_children":[1,3,5,-1,-1,7,9,11,13,-1,-1,-1,-1,-1,-1],"loss_changes":[5.215716E-1,8.797497E-3,9.745073E-2,0E0,0E0,1.6358972E-2,4.9990714E-3,1.2676567E-3,4.486479E-4,0E0,0E0,0E0,0E0,0E0,0E0],"parents":[2147483647,0,0,1,1,2,2,5,5,6,6,7,7,8,8],"right_children":[2,4,6,-1,-1,8,10,12,14,-1,-1,-1,-1,-1,-1],"split_conditions":[4.6905676E-1,4.0634996E-1,6.0269874E-1,-5.4539577E-3,-2.1245694E-3,5.4555535E-1,6.316019E-1,5.1618844E-1,5.5982304E-1,3.1712018E-3,5.8438466E-3,-2.6426636E-4,4.8499583E-4,1.2027998E-3,2.3240754E-3],"split_indices":[0,3,0,0,0,0,0,0,0,0,0,0,0,0,0],"split_type":[0,0,0,0,0,0,0,0,0,0,0,0,0,0,0],"sum_hessian":[9.4E1,3.3E1,6.1E1,2.9E1,4E0,3.9E1,2.2E1,2.1E1,1.8E1,7E0,1.5E1,1.2E1,9E0,5E0,1.3E1],"tree_param":{"num_deleted":"0","num_feature":"4","num_nodes":"15","size_leaf_vector":"1"}},{"base_weights":[-4.9979105E-3,-9.431404E-2,4.7724053E-2,-9.973746E-2,-1.5029922E-3,1.6146248E-2,1.0375679E-1,-5.5640168E-3,-3.6574893E-3,-2.4512648E-3,3.591314E-2,3.8324804E-3,6.159951E-3,-5.828786E-4,3.0704736E-4,1.0189165E-3,2.1973175E-3],"categories":[],"categories_nodes":[],"categories_segments":[],"categories_sizes":[],"default_left":[0,0,0,0,0,0,0,0,0,0,0,0,0,0,0,0,0],"id":7,"left_children":[1,3,5,7,-1,9,11,-1,-1,13,15,-1,-1,-1,-1,-1,-1],"loss_changes":[4.1888613E-1,8.501649E-3,9.7410604E-2,1.0668337E-3,0E0,1.368979E-2,1.0973364E-3,0E0,0E0,1.6536394E-3,1.3507456E-3,0E0,0E0,0E0,0E0,0E0,0E0],"parents":[2147483647,0,0,1,1,2,2,3,3,5,5,6,6,9,9,10,10],"right_children":[2,4,6,8,-1,10,12,-1,-1,14,16,-1,-1,-1,-1,-1,-1],"split_conditions":[4.6905676E-1,4.3636653E-1,5.8212006E-1,3.7594575E-1,-1.5029922E-3,5.383879E-1,6.671906E-1,-5.5640168E-3,-3.6574893E-3,5.156987E-1,5.5982304E-1,3.8324804E-3,6.159951E-3,-5.828786E-4,3.0704736E-4,1.0189165E-3,2.1973175E-3],"split_indices":[0,0,0,0,0,0,0,0,0,3,0,0,0,0,0,0,0],"split_type":[0,0,0,0,0,0,0,0,0,0,0,0,0,0,0,0,0],"sum_hessian":[8.7E1,3.2E1,5.5E1,2.9E1,3E0,3.6E1,1.9E1,1.8E1,1.1E1,1.9E1,1.7E1,1E1,9E0,9E0,1E1,7E0,1E1],"tree_param":{"num_deleted":"0","num_feature":"4","num_nodes":"17","size_leaf_vector":"1"}},{"base_weights":[-1.7506215E-3,-9.220966E-2,4.0679406E-2,-5.0552445E-3,-2.4269463E-3,1.5023141E-2,8.897668E-2,4.2355447E-3,3.9591786E-2,2.8647915E-3,4.9970676E-3,-2.573725E-4,7.293618E-4,2.724687E-3,1.4835912E-3],"categories":[],"categories_nodes":[],"categories_segments":[],"categories_sizes":[],"default_left":[0,0,0,0,0,0,0,0,0,0,0,0,0,0,0],"id":8,"left_children":[1,3,5,-1,-1,7,9,11,13,-1,-1,-1,-1,-1,-1],"loss_changes":[3.607017E-1,6.746322E-3,7.796746E-2,0E0,0E0,1.1228883E-2,1.9159168E-3,3.0861124E-3,3.0482002E-4,0E0,0E0,0E0,0E0,0E0,0E0],"parents":[2147483647,0,0,1,1,2,2,5,5,6,6,7,7,8,8],"right_children":[2,4,6,-1,-1,8,10,12,14,-1,-1,-1,-1,-1,-1],"split_conditions":[4.744885E-1,3.9794505E-1,6.0340387E-1,-5.0552445E-3,-2.4269463E-3,5.5310035E-1,6.3508844E-1,5.2109516E-1,1.1872619E2,2.8647915E-3,4.9970676E-3,-2.573725E-4,7.293618E-4,2.724687E-3,1.4835912E-3],"split_indices":[1,1,3,0,0,1,1,1,2,0,0,0,0,0,0],"split_type":[0,0,0,0,0,0,0,0,0,0,0,0,0,0,0],"sum_hessian":[9.2E1,2.9E1,6.3E1,2.3E1,6E0,4.2E1,2.1E1,3E1,1.2E1,7E0,1.4E1,1.6E1,1.4E1,3E0,9E0],"tree_param":{"num_deleted":"0","num_feature":"4","num_nodes":"15","size_leaf_vector":"1"}},{"base_weights":[7.262592E-3,-8.1550695E-2,4.4167258E-2,-4.611114E-3,-2.033803E-3,1.6772175E-2,9.499913E-2,3.4798519E-3,3.8732722E-2,5.478915E-2,5.379625E-3,-3.2611168E-4,5.070117E-4,2.5895906E-3,1.5651071E-3,8.082092E-4,2.8998915E-3],"categories":[],"categories_nodes":[],"categories_segments":[],"categories_sizes":[],"default_left":[0,0,0,0,0,0,0,0,0,0,0,0,0,0,0,0,0],"id":9,"left_children":[1,3,5,-1,-1,7,9,11,13,15,-1,-1,-1,-1,-1,-1,-1],"loss_changes":[3.3464193E-1,9.3346685E-3,9.86698E-2,0E0,0E0,1.3876737E-2,6.764561E-3,2.131286E-3,1.2546591E-4,5.3992495E-5,0E0,0E0,0E0,0E0,0E0,0E0,0E0],"parents":[2147483647,0,0,1,1,2,2,5,5,6,6,7,7,8,8,9,9],"right_children":[2,4,6,-1,-1,8,10,12,14,16,-1,-1,-1,-1,-1,-1,-1],"split_conditions":[4.6905676E-1,3.8911432E-1,6.0269874E-1,-4.611114E-3,-2.033803E-3,5.5312926E-1,6.316019E-1,5.082627E-1,1.1872619E2,1.3937122E2,5.379625E-3,-3.2611168E-4,5.070117E-4,2.5895906E-3,1.5651071E-3,8.082092E-4,2.8998915E-3],"split_indices":[0,3,0,0,0,3,0,3,2,2,0,0,0,0,0,0,0],"split_type":[0,0,0,0,0,0,0,0,0,0,0,0,0,0,0,0,0],"sum_hessian":[1E2,2.9E1,7.1E1,2.2E1,7E0,4.7E1,2.4E1,3E1,1.7E1,7E0,1.7E1,1.2E1,1.8E1,4E0,1.3E1,1E0,6E0],"tree_param":{"num_deleted":"0","num_feature":"4","num_nodes":"17","size_leaf_vector":"1"}},{"base_weights":[-1.9754446E-3,-8.1615806E-2,4.2701356E-2,-4.7876197E-3,-4.815192E-2,1.6801368E-2,9.373763E-2,-2.7481844E-3,-2.6260365E-2,3.2376072E-3,1.9475619E-3,2.856033E-3,5.350875E-3,-3.788233E-4,-1.4518611E-3,-2.0788927E-4,6.329729E-4],"categories":[],"categories_nodes":[],"categories_segments":[],"categories_sizes":[],"default_left":[0,0,0,0,0,0,0,0,0,0,0,0,0,0,0,0,0],"id":10,"left_children":[1,3,5,-1,7,9,11,-1,13,15,-1,-1,-1,-1,-1,-1,-1],"loss_changes":[3.664089E-1,1.2892738E-2,8.566644E-2,0E0,4.951935E-4,1.3393489E-2,4.585013E-3,0E0,3.9413106E-5,2.0733057E-3,0E0,0E0,0E0,0E0,0E0,0E0,0E0],"parents":[2147483647,0,0,1,1,2,2,4,4,5,5,6,6,8,8,9,9],"right_children":[2,4,6,-1,8,10,12,-1,14,16,-1,-1,-1,-1,-1,-1,-1],"split_conditions":[4.744885E-1,3.8504514E-1,6.0340387E-1,-4.7876197E-3,1.10047455E2,5.5144566E-1,6.565821E-1,-2.7481844E-3,1.100748E2,5.2109516E-1,1.9475619E-3,2.856033E-3,5.350875E-3,-3.788233E-4,-1.4518611E-3,-2.0788927E-4,6.329729E-4],"split_indices":[1,1,3,0,2,1,1,0,2,1,0,0,0,0,0,0,0],"split_type":[0,0,0,0,0,0,0,0,0,0,0,0,0,0,0,0,0],"sum_hessian":[1.01E2,3.6E1,6.5E1,2.4E1,1.2E1,4.4E1,2.1E1,8E0,4E0,2.8E1,1.6E1,7E0,1.4E1,1E0,3E0,1.6E1,1.2E1],"tree_param":{"num_deleted":"0","num_feature":"4","num_nodes":"17","size_leaf_vector":"1"}},{"base_weights":[-3.3152553E-3,-7.885049E-2,3.828438E-2,-4.7665723E-3,-5.773128E-2,9.313075E-3,7.847168E-2,-3.10821E-3,-1.3891623E-3,1.3828432E-3,2.9793393E-2,2.4297517E-3,4.612006E-3,-3.0112392E-4,3.4252033E-4,2.0262802E-3,5.4780307E-4],"categories":[],"categories_nodes":[],"categories_segments":[],"categories_sizes":[],"default_left":[0,0,0,0,0,0,0,0,0,0,0,0,0,0,0,0,0],"id":11,"left_children":[1,3,5,-1,7,9,11,-1,-1,13,15,-1,-1,-1,-1,-1,-1],"loss_changes":[2.9210466E-1,5.982533E-3,6.912591E-2,0E0,5.297512E-4,5.8056926E-3,5.801454E-3,0E0,0E0,1.1344611E-3,1.5776604E-3,0E0,0E0,0E0,0E0,0E0,0E0],"parents":[2147483647,0,0,1,1,2,2,4,4,5,5,6,6,9,9,10,10],"right_children":[2,4,6,-1,8,10,12,-1,-1,14,16,-1,-1,-1,-1,-1,-1],"split_conditions":[4.51551E-1,3.7099764E-1,5.7103056E-1,-4.7665723E-3,4.3608534E-1,5.5144566E-1,6.3508844E-1,-3.10821E-3,-1.3891623E-3,5.0685376E-1,5.657942E-1,2.4297517E-3,4.612006E-3,-3.0112392E-4,3.4252033E-4,2.0262802E-3,5.4780307E-4],"split_indices":[1,1,1,0,3,1,1,0,0,1,1,0,0,0,0,0,0],"split_type":[0,0,0,0,0,0,0,0,0,0,0,0,0,0,0,0,0],"sum_hessian":[9.1E1,3.2E1,5.9E1,1.6E1,1.6E1,3.5E1,2.4E1,1.3E1,3E0,2.6E1,9E0,9E0,1.5E1,1.1E1,1.5E1,5E0,4E0],"tree_param":{"num_deleted":"0","num_feature":"4","num_nodes":"17","size_leaf_vector":"1"}},{"base_weights":[2.0778743E-3,-5.9368618E-2,4.9572747E-2,-7.667229E-2,-2.0520657E-2,2.4812846E-2,8.333385E-2,-4.503866E-3,-2.952472E-3,-1.4218338E-2,-1.9444859E-3,9.097209E-3,3.3787366E-2,2.9328056E-3,5.1339604E-3,-1.3569926E-3,-5.5578137E-5,6.461753E-4,1.9521713E-5,1.0476939E-3,1.8895364E-3],"categories":[],"categories_nodes":[],"categories_segments":[],"categories_sizes":[],"default_left":[0,0,0,0,0,0,0,0,0,0,0,0,0,0,0,0,0,0,0,0,0],"id":12,"left_children":[1,3,5,7,9,11,13,-1,-1,15,-1,17,19,-1,-1,-1,-1,-1,-1,-1,-1],"loss_changes":[2.7435365E-1,2.5987342E-2,4.2236105E-2,1.2955517E-3,1.0678E-3,4.205918E-3,4.480034E-3,0E0,0E0,2.0021454E-3,0E0,4.2804528E-4,2.3567863E-4,0E0,0E0,0E0,0E0,0E0,0E0,0E0,0E0],"parents":[2147483647,0,0,1,1,2,2,3,3,4,4,5,5,6,6,9,9,11,11,12,12],"right_children":[2,4,6,8,10,12,14,-1,-1,16,-1,18,20,-1,-1,-1,-1,-1,-1,-1,-1],"split_conditions":[5.0685376E-1,4.3608534E-1,6.0340387E-1,3.7099764E-1,1.176629E2,5.377855E-1,6.7175907E-1,-4.503866E-3,-2.952472E-3,4.744885E-1,-1.9444859E-3,5.2886945E-1,5.615335E-1,2.9328056E-3,5.1339604E-3,-1.3569926E-3,-5.5578137E-5,6.461753E-4,1.9521713E-5,1.0476939E-3,1.8895364E-3],"split_indices":[1,3,3,1,2,3,3,0,0,1,0,1,3,0,0,0,0,0,0,0,0],"split_type":[0,0,0,0,0,0,0,0,0,0,0,0,0,0,0,0,0,0,0,0,0],"sum_hessian":[9.2E1,4E1,5.2E1,2.7E1,1.3E1,3.1E1,2.1E1,1.3E1,1.4E1,1.1E1,2E0,1.2E1,1.9E1,1.1E1,1E1,5E0,6E0,8E0,4E0,6E0,1.3E1],"tree_param":{"num_deleted":"0","num_feature":"4","num_nodes":"21","size_leaf_vector":"1"}},{"base_weights":[-2.6372857E-3,-7.4667975E-2,3.4544744E-2,-4.827305E-3,-5.561988E-2,1.2123147E-2,7.6798566E-2,-6.08519E-2,-1.9478835E-2,9.917453E-4,3.2835647E-2,3.0665586E-3,4.810005E-3,-8.216016E-4,-3.1300571E-3,-3.0069874E-4,-1.0981233E-3,-4.3867953E-4,3.723436E-4,2.4936646E-3,1.2210064E-3],"categories":[],"categories_nodes":[],"categories_segments":[],"categories_sizes":[],"default_left":[0,0,0,0,0,0,0,0,0,0,0,0,0,0,0,0,0,0,0,0,0],"id":13,"left_children":[1,3,5,-1,7,9,11,13,15,17,19,-1,-1,-1,-1,-1,-1,-1,-1,-1,-1],"loss_changes":[2.596911E-1,8.38244E-3,5.9702456E-2,0E0,2.596479E-3,9.881479E-3,7.019341E-4,2.9225647E-4,1.6852282E-6,1.8933937E-3,9.327978E-4,0E0,0E0,0E0,0E0,0E0,0E0,0E0,0E0,0E0,0E0],"parents":[2147483647,0,0,1,1,2,2,4,4,5,5,6,6,7,7,8,8,9,9,10,10],"right_children":[2,4,6,-1,8,10,12,14,16,18,20,-1,-1,-1,-1,-1,-1,-1,-1,-1,-1],"split_conditions":[4.744885E-1,9.146615E1,6.0340387E-1,-4.827305E-3,1.10047455E2,5.5310035E-1,6.9288003E-1,3.413059E-1,1.100748E2,5.12095E-1,1.1872619E2,3.0665586E-3,4.810005E-3,-8.216016E-4,-3.1300571E-3,-3.0069874E-4,-1.0981233E-3,-4.3867953E-4,3.723436E-4,2.4936646E-3,1.2210064E-3],"split_indices":[1,2,3,0,2,1,1,1,2,1,2,0,0,0,0,0,0,0,0,0,0],"split_type":[0,0,0,0,0,0,0,0,0,0,0,0,0,0,0,0,0,0,0,0,0],"sum_hessian":[9.5E1,3.2E1,6.3E1,1.3E1,1.9E1,4.2E1,2.1E1,1.6E1,3E0,2.8E1,1.4E1,1.4E1,7E0,1E0,1.5E1,1E0,2E0,1.1E1,1.7E1,3E0,1.1E1],"tree_param":{"num_deleted":"0","num_feature":"4","num_nodes":"21","size_leaf_vector":"1"}},{"base_weights":[1.7525319E-3,-6.524256E-2,3.779985E-2,-3.945697E-3,-4.4075675E-2,1.8441852E-2,4.184798E-3,-2.4730796E-3,-1.1167167E-3,3.403414E-3,3.2711882E-2,-6.561643E-5,5.7043997E-4,8.870338E-4,1.7858976E-3],"categories":[],"categories_nodes":[],"categories_segments":[],"categories_sizes":[],"default_left":[0,0,0,0,0,0,0,0,0,0,0,0,0,0,0],"id":14,"left_children":[1,3,5,-1,7,9,-1,-1,-1,11,13,-1,-1,-1,-1],"loss_changes":[2.4155049E-1,6.65015E-3,5.6206167E-2,0E0,7.688645E-4,9.974819E-3,0E0,0E0,0E0,9.210041E-4,4.4644438E-4,0E0,0E0,0E0,0E0],"parents":[2147483647,0,0,1,1,2,2,4,4,5,5,9,9,10,10],"right_children":[2,4,6,-1,8,10,-1,-1,-1,12,14,-1,-1,-1,-1],"split_conditions":[4.6905676E-1,3.7594575E-1,6.3090974E-1,-3.945697E-3,4.3738684E-1,5.4555535E-1,4.184798E-3,-2.4730796E-3,-1.1167167E-3,5.2111894E-1,5.566955E-1,-6.561643E-5,5.7043997E-4,8.870338E-4,1.7858976E-3],"split_indices":[0,0,3,0,3,0,0,0,0,3,0,0,0,0,0],"split_type":[0,0,0,0,0,0,0,0,0,0,0,0,0,0,0],"sum_hessian":[9.8E1,3.4E1,6.4E1,1.9E1,1.5E1,4.6E1,1.8E1,1.1E1,4E0,2.3E1,2.3E1,1.5E1,8E0,5E0,1.8E1],"tree_param":{"num_deleted":"0","num_feature":"4","num_nodes":"15","size_leaf_vector":"1"}},{"base_weights":[2.8968272E-3,-4.7333844E-2,4.1911483E-2,-6.5246634E-2,-1.4147641E-2,1.7371196E-2,6.767136E-2,-3.6188655E-3,-2.294338E-3,-7.1589397E-3,-1.6662006E-3,5.500304E-3,2.6672527E-2,2.4654286E-3,4.249278E-3,-1.072525E-3,7.8812736E-5,4.945758E-4,-1.0016164E-4,1.4327961E-3,-7.696003E-5],"categories":[],"categories_nodes":[],"categories_segments":[],"categories_sizes":[],"default_left":[0,0,0,0,0,0,0,0,0,0,0,0,0,0,0,0,0,0,0,0,0],"id":15,"left_children":[1,3,5,7,9,11,13,-1,-1,15,-1,17,19,-1,-1,-1,-1,-1,-1,-1,-1],"loss_changes":[1.8815841E-1,2.4044134E-2,3.2960825E-2,4.061535E-4,1.9057225E-3,3.0553304E-3,4.075855E-3,0E0,0E0,1.656726E-3,0E0,4.811098E-4,9.393878E-4,0E0,0E0,0E0,0E0,0E0,0E0,0E0,0E0],"parents":[2147483647,0,0,1,1,2,2,3,3,4,4,5,5,6,6,9,9,11,11,12,12],"right_children":[2,4,6,8,10,12,14,-1,-1,16,-1,18,20,-1,-1,-1,-1,-1,-1,-1,-1],"split_conditions":[5.082627E-1,4.3636653E-1,6.0269874E-1,3.757715E-1,5.1340735E-1,5.4555535E-1,6.671906E-1,-3.6188655E-3,-2.294338E-3,4.6905676E-1,-1.6662006E-3,5.2294075E-1,1.3684123E2,2.4654286E-3,4.249278E-3,-1.072525E-3,7.8812736E-5,4.945758E-4,-1.0016164E-4,1.4327961E-3,-7.696003E-5],"split_indices":[3,0,0,0,0,0,0,0,0,0,0,0,2,0,0,0,0,0,0,0,0],"split_type":[0,0,0,0,0,0,0,0,0,0,0,0,0,0,0,0,0,0,0,0,0],"sum_hessian":[9.4E1,4.1E1,5.3E1,2.6E1,1.5E1,2.8E1,2.5E1,1.7E1,9E0,1.2E1,3E0,1.3E1,1.5E1,1.4E1,1.1E1,4E0,8E0,8E0,5E0,1.4E1,1E0],"tree_param":{"num_deleted":"0","num_feature":"4","num_nodes":"21","size_leaf_vector":"1"}},{"base_weights":[1.8161674E-3,-5.9988413E-2,3.0155709E-2,-3.2293287E-3,-1.6182037E-3,1.0038246E-2,6.53622E-2,1.1535287E-3,2.6456041E-2,2.4366747E-3,4.0221657E-3,4.0985565E-4,-4.9184385E-4,1.8136129E-3,8.486169E-4],"categories":[],"categories_nodes":[],"categories_segments":[],"categories_sizes":[],"default_left":[0,0,0,0,0,0,0,0,0,0,0,0,0,0,0],"id":16,"left_children":[1,3,5,-1,-1,7,9,11,13,-1,-1,-1,-1,-1,-1],"loss_changes":[1.5594219E-1,1.4663115E-3,4.254806E-2,0E0,0E0,5.804181E-3,1.596868E-3,2.170754E-3,6.8769325E-4,0E0,0E0,0E0,0E0,0E0,0E0],"parents":[2147483647,0,0,1,1,2,2,5,5,6,6,7,7,8,8],"right_children":[2,4,6,-1,-1,8,10,12,14,-1,-1,-1,-1,-1,-1],"split_conditions":[4.744885E-1,3.982044E-1,6.0340387E-1,-3.2293287E-3,-1.6182037E-3,5.5144566E-1,6.6458595E-1,1.1768967E2,1.1872619E2,2.4366747E-3,4.0221657E-3,4.0985565E-4,-4.9184385E-4,1.8136129E-3,8.486169E-4],"split_indices":[1,1,3,0,0,1,1,2,2,0,0,0,0,0,0],"split_type":[0,0,0,0,0,0,0,0,0,0,0,0,0,0,0],"sum_hessian":[8.7E1,2.7E1,6E1,2.2E1,5E0,3.9E1,2.1E1,2.6E1,1.3E1,1.2E1,9E0,1.6E1,1E1,5E0,8E0],"tree_param":{"num_deleted":"0","num_feature":"4","num_nodes":"15","size_leaf_vector":"1"}},{"base_weights":[-1.0058902E-3,-6.0386635E-2,3.2108065E-2,-3.8184298E-3,-4.1937754E-2,1.3121689E-2,6.764775E-2,-2.2210428E-3,-1.4715314E-2,4.9634567E-3,3.0311462E-2,4.6994537E-2,4.2833416E-3,-1.9799471E-4,-9.0565387E-4,1.0554173E-5,4.4057835E-4,2.2978059E-3,1.1644575E-3,2.4414659E-3,6.7029893E-4],"categories":[],"categories_nodes":[],"categories_segments":[],"categories_sizes":[],"default_left":[0,0,0,0,0,0,0,0,0,0,0,0,0,0,0,0,0,0,0,0,0],"id":17,"left_children":[1,3,5,-1,7,9,11,-1,13,15,17,19,-1,-1,-1,-1,-1,-1,-1,-1,-1],"loss_changes":[1.8677403E-1,6.8221465E-3,4.0273316E-2,0E0,5.630627E-4,5.599314E-3,3.7893131E-3,0E0,3.7907215E-5,5.284821E-4,3.579231E-4,8.492544E-5,0E0,0E0,0E0,0E0,0E0,0E0,0E0,0E0,0E0],"parents":[2147483647,0,0,1,1,2,2,4,4,5,5,6,6,8,8,9,9,10,10,11,11],"right_children":[2,4,6,-1,8,10,12,-1,14,16,18,20,-1,-1,-1,-1,-1,-1,-1,-1,-1],"split_conditions":[4.6905676E-1,3.7099764E-1,6.0269874E-1,-3.8184298E-3,4.41558E-1,5.5699974E-1,6.813071E-1,-2.2210428E-3,4.4358227E-1,5.2109516E-1,5.643461E-1,6.657221E-1,4.2833416E-3,-1.9799471E-4,-9.0565387E-4,1.0554173E-5,4.4057835E-4,2.2978059E-3,1.1644575E-3,2.4414659E-3,6.7029893E-4],"split_indices":[0,1,0,0,3,1,0,0,0,1,1,3,0,0,0,0,0,0,0,0,0],"split_type":[0,0,0,0,0,0,0,0,0,0,0,0,0,0,0,0,0,0,0,0,0],"sum_hessian":[9.3E1,3.3E1,6E1,1.6E1,1.7E1,4E1,2E1,1.5E1,2E0,2.8E1,1.2E1,1.1E1,9E0,1E0,1E0,1.3E1,1.5E1,2E0,1E1,1E1,1E0],"tree_param":{"num_deleted":"0","num_feature":"4","num_nodes":"21","size_leaf_vector":"1"}},{"base_weights":[-2.1668307E-3,-5.7172943E-2,2.6724355E-2,-4.4814507E-3,-4.623581E-2,7.8983E-3,5.0138712E-2,-5.1474404E-2,-1.0097382E-3,-2.908662E-3,1.6148955E-2,1.6820364E-3,3.2659012E-3,-4.3575393E-4,-2.6588307E-3,2.7017933E-4,-8.831504E-4,1.3931267E-3,3.8491856E-4],"categories":[],"categories_nodes":[],"categories_segments":[],"categories_sizes":[],"default_left":[0,0,0,0,0,0,0,0,0,0,0,0,0,0,0,0,0,0,0],"id":18,"left_children":[1,3,5,-1,7,9,11,13,-1,15,17,-1,-1,-1,-1,-1,-1,-1,-1],"loss_changes":[1.4773355E-1,7.215172E-3,2.6492786E-2,0E0,2.5073662E-3,3.1677296E-3,4.564211E-3,1.0650568E-3,0E0,2.057712E-3,1.7652358E-3,0E0,0E0,0E0,0E0,0E0,0E0,0E0,0E0],"parents":[2147483647,0,0,1,1,2,2,4,4,5,5,6,6,7,7,9,9,10,10],"right_children":[2,4,6,-1,8,10,12,14,-1,16,18,-1,-1,-1,-1,-1,-1,-1,-1],"split_conditions":[4.6905676E-1,3.4268898E-1,5.748719E-1,-4.4814507E-3,4.3636653E-1,5.188404E-1,6.316019E-1,3.43807E-1,-1.0097382E-3,5.1340735E-1,1.1915807E2,1.6820364E-3,3.2659012E-3,-4.3575393E-4,-2.6588307E-3,2.7017933E-4,-8.831504E-4,1.3931267E-3,3.8491856E-4],"split_indices":[0,0,0,0,0,3,0,0,0,0,2,0,0,0,0,0,0,0,0],"split_type":[0,0,0,0,0,0,0,0,0,0,0,0,0,0,0,0,0,0,0],"sum_hessian":[9.1E1,3.1E1,6E1,6E0,2.5E1,3.4E1,2.6E1,2E1,5E0,1.5E1,1.9E1,1.4E1,1.2E1,1E0,1.9E1,1E1,5E0,7E0,1.2E1],"tree_param":{"num_deleted":"0","num_feature":"4","num_nodes":"19","size_leaf_vector":"1"}},{"base_weights":[-1.0422661E-3,-5.3799503E-2,2.5785875E-2,-4.289388E-3,-4.2690814E-2,2.3481292E-3,4.432914E-2,-4.7706127E-2,-9.428978E-4,-1.8694669E-3,1.1459662E-2,3.0573597E-2,2.894664E-3,-4.2486042E-4,-2.4661268E-3,3.3150634E-4,-3.4780902E-4,8.3390326E-4,3.835708E-5,2.7525888E-3,1.3077634E-3],"categories":[],"categories_nodes":[],"categories_segments":[],"categories_sizes":[],"default_left":[0,0,0,0,0,0,0,0,0,0,0,0,0,0,0,0,0,0,0,0,0],"id":19,"left_children":[1,3,5,-1,7,9,11,13,-1,15,17,19,-1,-1,-1,-1,-1,-1,-1,-1,-1],"loss_changes":[1.3018672E-1,7.353425E-3,2.640726E-2,0E0,2.0885952E-3,1.0974288E-3,4.573785E-3,8.484423E-4,0E0,9.1082026E-4,4.893865E-4,6.150063E-4,0E0,0E0,0E0,0E0,0E0,0E0,0E0,0E0,0E0],"parents":[2147483647,0,0,1,1,2,2,4,4,5,5,6,6,7,7,9,9,10,10,11,11],"right_children":[2,4,6,-1,8,10,12,14,-1,16,18,20,-1,-1,-1,-1,-1,-1,-1,-1,-1],"split_conditions":[4.6905676E-1,3.4268898E-1,5.5982304E-1,-4.289388E-3,3.982044E-1,5.389531E-1,6.316019E-1,3.43807E-1,-9.428978E-4,5.098161E-1,5.564887E-1,5.609869E-1,2.894664E-3,-4.2486042E-4,-2.4661268E-3,3.3150634E-4,-3.4780902E-4,8.3390326E-4,3.835708E-5,2.7525888E-3,1.3077634E-3],"split_indices":[0,0,0,0,1,0,0,0,0,0,0,0,0,0,0,0,0,0,0,0,0],"split_type":[0,0,0,0,0,0,0,0,0,0,0,0,0,0,0,0,0,0,0,0,0],"sum_hessian":[9E1,3E1,6E1,6E0,2.4E1,2.7E1,3.3E1,1.9E1,5E0,1.9E1,8E0,1.8E1,1.5E1,1E0,1.8E1,7E0,1.2E1,5E0,3E0,1E0,1.7E1],"tree_param":{"num_deleted":"0","num_feature":"4","num_nodes":"21","size_leaf_vector":"1"}},{"base_weights":[1.4759008E-3,-5.0677743E-2,2.5949946E-2,-2.8069317E-3,-9.2837913E-4,9.351087E-3,6.651812E-2,4.048737E-3,1.3409097E-3,3.6822904E-2,3.7246675E-3,-1.56558E-4,4.7064034E-4,2.0121809E-3,4.929841E-4],"categories":[],"categories_nodes":[],"categories_segments":[],"categories_sizes":[],"default_left":[0,0,0,0,0,0,0,0,0,0,0,0,0,0,0],"id":20,"left_children":[1,3,5,-1,-1,7,9,11,-1,13,-1,-1,-1,-1,-1],"loss_changes":[1.2385051E-1,4.393488E-3,4.3821424E-2,0E0,0E0,4.3370225E-3,1.7566308E-3,1.4929845E-3,0E0,1.566112E-4,0E0,0E0,0E0,0E0,0E0],"parents":[2147483647,0,0,1,1,2,2,5,5,6,6,7,7,9,9],"right_children":[2,4,6,-1,-1,8,10,12,-1,14,-1,-1,-1,-1,-1],"split_conditions":[4.744885E-1,4.3608534E-1,6.2354654E-1,-2.8069317E-3,-9.2837913E-4,5.7103056E-1,6.565821E-1,5.2109516E-1,1.3409097E-3,6.5307367E-1,3.7246675E-3,-1.56558E-4,4.7064034E-4,2.0121809E-3,4.929841E-4],"split_indices":[1,3,1,0,0,1,1,1,0,1,0,0,0,0,0],"split_type":[0,0,0,0,0,0,0,0,0,0,0,0,0,0,0],"sum_hessian":[9.5E1,3E1,6.5E1,2.5E1,5E0,4.7E1,1.8E1,3.7E1,1E1,5E0,1.3E1,1.6E1,2.1E1,4E0,1E0],"tree_param":{"num_deleted":"0","num_feature":"4","num_nodes":"15","size_leaf_vector":"1"}},{"base_weights":[3.2753502E-3,-4.8019003E-2,2.6835047E-2,-3.7930955E-3,-3.9057486E-2,1.5977725E-2,6.736492E-2,-4.289799E-2,-1.5883971E-2,5.419601E-3,2.7629798E-2,3.5083487E-3,8.4350706E-4,-5.9074315E-4,-2.2847645E-3,-1.2101978E-4,-9.3223824E-4,7.572766E-4,1.0393207E-4,2.6720078E-3,1.2092062E-3],"categories":[],"categories_nodes":[],"categories_segments":[],"categories_sizes":[],"default_left":[0,0,0,0,0,0,0,0,0,0,0,0,0,0,0,0,0,0,0,0,0],"id":21,"left_children":[1,3,5,-1,7,9,11,13,15,17,19,-1,-1,-1,-1,-1,-1,-1,-1,-1,-1],"loss_changes":[1.1126021E-1,4.2729527E-3,2.6646558E-2,0E0,1.4545582E-3,6.1244825E-3,6.5562874E-4,1.1990964E-3,1.4072307E-4,8.783482E-4,8.420143E-4,0E0,0E0,0E0,0E0,0E0,0E0,0E0,0E0,0E0,0E0],"parents":[2147483647,0,0,1,1,2,2,4,4,5,5,6,6,7,7,8,8,9,9,10,10],"right_children":[2,4,6,-1,8,10,12,14,16,18,20,-1,-1,-1,-1,-1,-1,-1,-1,-1,-1],"split_conditions":[4.6905676E-1,3.4268898E-1,6.6458595E-1,-3.7930955E-3,4.110266E-1,5.5982304E-1,1.5443335E2,3.5178876E-1,4.4358227E-1,1.1599113E2,5.609869E-1,3.5083487E-3,8.4350706E-4,-5.9074315E-4,-2.2847645E-3,-1.2101978E-4,-9.3223824E-4,7.572766E-4,1.0393207E-4,2.6720078E-3,1.2092062E-3],"split_indices":[0,0,1,0,0,0,2,0,0,2,0,0,0,0,0,0,0,0,0,0,0],"split_type":[0,0,0,0,0,0,0,0,0,0,0,0,0,0,0,0,0,0,0,0,0],"sum_hessian":[9E1,2.8E1,6.2E1,5E0,2.3E1,5E1,1.2E1,1.9E1,4E0,2.7E1,2.3E1,1.1E1,1E0,2E0,1.7E1,1E0,3E0,6E0,2.1E1,1E0,2.2E1],"tree_param":{"num_deleted":"0","num_feature":"4","num_nodes":"21","size_leaf_vector":"1"}},{"base_weights":[1.4062354E-3,-4.6068557E-2,2.4026426E-2,-3.2547023E-3,-3.3909086E-2,1.12805795E-2,5.6680545E-2,-3.2929704E-4,-3.4945946E-2,2.9403397E-3,2.3855664E-2,2.9039797E-3,8.2241895E-4,-1.8408109E-3,-6.0378364E-4,4.8735738E-4,2.2245686E-5,2.6052073E-3,9.695815E-4],"categories":[],"categories_nodes":[],"categories_segments":[],"categories_sizes":[],"default_left":[0,0,0,0,0,0,0,0,0,0,0,0,0,0,0,0,0,0,0],"id":22,"left_children":[1,3,5,-1,7,9,11,-1,13,15,17,-1,-1,-1,-1,-1,-1,-1,-1],"loss_changes":[1.031263E-1,4.964255E-3,2.6413899E-2,0E0,3.6478415E-4,4.9640588E-3,5.7838857E-5,0E0,4.1089207E-4,5.0523994E-4,1.3855565E-3,0E0,0E0,0E0,0E0,0E0,0E0,0E0,0E0],"parents":[2147483647,0,0,1,1,2,2,4,4,5,5,6,6,8,8,9,9,10,10],"right_children":[2,4,6,-1,8,10,12,-1,14,16,18,-1,-1,-1,-1,-1,-1,-1,-1],"split_conditions":[4.744885E-1,9.0726616E1,6.2354654E-1,-3.2547023E-3,3.413059E-1,5.5699974E-1,1.5443335E2,-3.2929704E-4,4.41558E-1,1.1430147E2,5.643461E-1,2.9039797E-3,8.2241895E-4,-1.8408109E-3,-6.0378364E-4,4.8735738E-4,2.2245686E-5,2.6052073E-3,9.695815E-4],"split_indices":[1,2,1,0,1,1,2,0,3,2,1,0,0,0,0,0,0,0,0],"split_type":[0,0,0,0,0,0,0,0,0,0,0,0,0,0,0,0,0,0,0],"sum_hessian":[9.4E1,3E1,6.4E1,1E1,2E1,4.7E1,1.7E1,1E0,1.9E1,2.9E1,1.8E1,1.6E1,1E0,1.7E1,2E0,7E0,2.2E1,1E0,1.7E1],"tree_param":{"num_deleted":"0","num_feature":"4","num_nodes":"19","size_leaf_vector":"1"}},{"base_weights":[-2.8813825E-4,-3.8279623E-2,2.926613E-2,-5.08609E-2,-1.465624E-2,1.5812457E-2,5.321698E-2,-3.6724997E-3,-4.238838E-2,-9.253287E-3,-1.7492304E-3,5.847318E-3,2.442088E-2,3.7181083E-2,3.3451703E-3,-3.210649E-4,-2.1897664E-3,-9.441687E-4,1.6484968E-5,7.403953E-5,5.5601896E-4,1.9662043E-3,1.0177189E-3,1.9842437E-3,3.0357987E-4],"categories":[],"categories_nodes":[],"categories_segments":[],"categories_sizes":[],"default_left":[0,0,0,0,0,0,0,0,0,0,0,0,0,0,0,0,0,0,0,0,0,0,0,0,0],"id":23,"left_children":[1,3,5,7,9,11,13,-1,15,17,-1,19,21,23,-1,-1,-1,-1,-1,-1,-1,-1,-1,-1,-1],"loss_changes":[1.07787296E-1,1.1737492E-2,1.6558763E-2,2.0540059E-3,1.4336088E-3,2.9454324E-3,1.6824603E-3,0E0,8.3205476E-4,1.2982157E-3,0E0,3.9798248E-4,3.5105646E-4,6.1585754E-4,0E0,0E0,0E0,0E0,0E0,0E0,0E0,0E0,0E0,0E0,0E0],"parents":[2147483647,0,0,1,1,2,2,3,3,4,4,5,5,6,6,8,8,9,9,11,11,12,12,13,13],"right_children":[2,4,6,8,10,12,14,-1,16,18,-1,20,22,24,-1,-1,-1,-1,-1,-1,-1,-1,-1,-1,-1],"split_conditions":[5.12095E-1,3.9794505E-1,6.2354654E-1,3.2630247E-1,1.176629E2,5.5699974E-1,6.7175907E-1,-3.6724997E-3,3.413059E-1,4.744885E-1,-1.7492304E-3,1.2126484E2,5.643461E-1,6.68133E-1,3.3451703E-3,-3.210649E-4,-2.1897664E-3,-9.441687E-4,1.6484968E-5,7.403953E-5,5.5601896E-4,1.9662043E-3,1.0177189E-3,1.9842437E-3,3.0357987E-4],"split_indices":[1,1,1,1,2,1,3,0,1,1,0,2,1,3,0,0,0,0,0,0,0,0,0,0,0],"split_type":[0,0,0,0,0,0,0,0,0,0,0,0,0,0,0,0,0,0,0,0,0,0,0,0,0],"sum_hessian":[9.4E1,4.1E1,5.3E1,2.6E1,1.5E1,3.5E1,1.8E1,5E0,2.1E1,1.3E1,2E0,1.7E1,1.8E1,1E1,8E0,1E0,2E1,6E0,7E0,1E1,7E0,2E0,1.6E1,9E0,1E0],"tree_param":{"num_deleted":"0","num_feature":"4","num_nodes":"25","size_leaf_vector":"1"}},{"base_weights":[5.596453E-4,-3.389304E-2,2.8376052E-2,-4.7292255E-2,-9.163549E-3,1.5312761E-2,5.025899E-2,-3.231886E-3,-3.6586914E-2,4.9835183E-3,-2.0720549E-2,6.2642028E-3,2.3007913E-2,3.1807333E-2,5.8371846E-2,-3.911689E-4,-1.887513E-3,-1.0621324E-4,8.768956E-4,-6.0735387E-4,-1.6909232E-3,3.6567292E-4,-5.350709E-5,2.4909228E-3,9.2501624E-4,1.7329932E-3,2.959907E-4,3.053332E-3,7.182285E-4],"categories":[],"categories_nodes":[],"categories_segments":[],"categories_sizes":[],"default_left":[0,0,0,0,0,0,0,0,0,0,0,0,0,0,0,0,0,0,0,0,0,0,0,0,0,0,0,0,0],"id":24,"left_children":[1,3,5,7,9,11,13,-1,15,17,19,21,23,25,27,-1,-1,-1,-1,-1,-1,-1,-1,-1,-1,-1,-1,-1,-1],"loss_changes":[9.008829E-2,1.34835765E-2,1.4095284E-2,2.648715E-3,2.7192235E-3,2.2232942E-3,9.875633E-4,0E0,3.4044124E-4,7.5112644E-4,5.998553E-4,1.3865164E-4,1.2536589E-3,3.8557965E-4,5.4588914E-4,0E0,0E0,0E0,0E0,0E0,0E0,0E0,0E0,0E0,0E0,0E0,0E0,0E0,0E0],"parents":[2147483647,0,0,1,1,2,2,3,3,4,4,5,5,6,6,8,8,9,9,10,10,11,11,12,12,13,13,14,14],"right_children":[2,4,6,8,10,12,14,-1,16,18,20,22,24,26,28,-1,-1,-1,-1,-1,-1,-1,-1,-1,-1,-1,-1,-1,-1],"split_conditions":[5.082627E-1,4.3636653E-1,6.3090974E-1,3.3553642E-1,1.1374466E2,5.5982304E-1,6.671906E-1,-3.231886E-3,3.5178876E-1,4.9314487E-1,1.176629E2,1.2247517E2,5.609869E-1,6.6416353E-1,1.5443335E2,-3.911689E-4,-1.887513E-3,-1.0621324E-4,8.768956E-4,-6.0735387E-4,-1.6909232E-3,3.6567292E-4,-5.350709E-5,2.4909228E-3,9.2501624E-4,1.7329932E-3,2.959907E-4,3.053332E-3,7.182285E-4],"split_indices":[3,0,3,3,2,0,0,0,0,0,2,2,0,0,2,0,0,0,0,0,0,0,0,0,0,0,0,0,0],"split_type":[0,0,0,0,0,0,0,0,0,0,0,0,0,0,0,0,0,0,0,0,0,0,0,0,0,0,0,0,0],"sum_hessian":[9.2E1,4.1E1,5.1E1,2.6E1,1.5E1,3.3E1,1.8E1,8E0,1.8E1,7E0,8E0,1.6E1,1.7E1,7E0,1.1E1,1E0,1.7E1,5E0,2E0,6E0,2E0,1.4E1,2E0,1E0,1.6E1,6E0,1E0,1E1,1E0],"tree_param":{"num_deleted":"0","num_feature":"4","num_nodes":"29","size_leaf_vector":"1"}},{"base_weights":[4.9327277E-3,-3.8924295E-2,2.2134999E-2,-2.930315E-3,-3.3808976E-2,8.966523E-3,4.4806223E-2,-2.322413E-4,-3.492349E-2,-1.2235028E-3,1.5050371E-2,3.0814786E-2,5.6229766E-2,-3.8139E-4,-1.793003E-3,2.3825958E-4,-4.2782165E-4,4.2826284E-4,9.833723E-4,6.63355E-5,1.6580783E-3,2.9397558E-3,7.002726E-4],"categories":[],"categories_nodes":[],"categories_segments":[],"categories_sizes":[],"default_left":[0,0,0,0,0,0,0,0,0,0,0,0,0,0,0,0,0,0,0,0,0,0,0],"id":25,"left_children":[1,3,5,-1,7,9,11,-1,13,15,17,19,21,-1,-1,-1,-1,-1,-1,-1,-1,-1,-1],"loss_changes":[6.951566E-2,6.362535E-4,1.9302249E-2,0E0,5.8537535E-4,2.6841806E-3,2.1032505E-3,0E0,2.888795E-4,7.873226E-4,6.399844E-4,8.556312E-4,4.7639385E-4,0E0,0E0,0E0,0E0,0E0,0E0,0E0,0E0,0E0,0E0],"parents":[2147483647,0,0,1,1,2,2,4,4,5,5,6,6,8,8,9,9,10,10,11,11,12,12],"right_children":[2,4,6,-1,8,10,12,-1,14,16,18,20,22,-1,-1,-1,-1,-1,-1,-1,-1,-1,-1],"split_conditions":[4.6905676E-1,3.4268898E-1,6.0269874E-1,-2.930315E-3,3.43807E-1,5.2109516E-1,6.6458595E-1,-2.322413E-4,8.91444E1,5.10622E-1,5.5787E-1,1.3937122E2,1.5443335E2,-3.8139E-4,-1.793003E-3,2.3825958E-4,-4.2782165E-4,4.2826284E-4,9.833723E-4,6.63355E-5,1.6580783E-3,2.9397558E-3,7.002726E-4],"split_indices":[0,0,0,0,0,1,1,0,2,0,0,2,2,0,0,0,0,0,0,0,0,0,0],"split_type":[0,0,0,0,0,0,0,0,0,0,0,0,0,0,0,0,0,0,0,0,0,0,0],"sum_hessian":[9E1,2.5E1,6.5E1,3E0,2.2E1,4.2E1,2.3E1,1E0,2.1E1,1.6E1,2.6E1,1.2E1,1.1E1,1E0,2E1,9E0,7E0,1.2E1,1.4E1,1E0,1.1E1,1E1,1E0],"tree_param":{"num_deleted":"0","num_feature":"4","num_nodes":"23","size_leaf_vector":"1"}},{"base_weights":[2.3610818E-3,-3.6775466E-2,2.0057939E-2,-2.237035E-3,-2.5045527E-2,5.3376528E-3,4.280808E-2,-1.3408576E-3,-9.610514E-3,3.455929E-4,1.1419859E-2,2.80298E-2,5.2417457E-2,-3.1814725E-5,-6.889738E-4,5.1384995E-4,-1.8820693E-4,9.120566E-4,4.0839936E-4,6.4677E-5,1.5171388E-3,2.7174377E-3,6.8276527E-4],"categories":[],"categories_nodes":[],"categories_segments":[],"categories_sizes":[],"default_left":[0,0,0,0,0,0,0,0,0,0,0,0,0,0,0,0,0,0,0,0,0,0,0],"id":26,"left_children":[1,3,5,-1,7,9,11,-1,13,15,17,19,21,-1,-1,-1,-1,-1,-1,-1,-1,-1,-1],"loss_changes":[6.445628E-2,1.5889667E-3,2.1204377E-2,0E0,1.2510456E-4,1.2105627E-3,2.0809993E-3,0E0,1.0347174E-4,9.774385E-4,2.502813E-4,7.028328E-4,3.0590966E-4,0E0,0E0,0E0,0E0,0E0,0E0,0E0,0E0,0E0,0E0],"parents":[2147483647,0,0,1,1,2,2,4,4,5,5,6,6,8,8,9,9,10,10,11,11,12,12],"right_children":[2,4,6,-1,8,10,12,-1,14,16,18,20,22,-1,-1,-1,-1,-1,-1,-1,-1,-1,-1],"split_conditions":[4.6905676E-1,3.6801106E-1,6.0269874E-1,-2.237035E-3,4.41558E-1,5.389531E-1,6.566516E-1,-1.3408576E-3,4.4358227E-1,1.1430147E2,1.1768967E2,1.3937122E2,1.5443335E2,-3.1814725E-5,-6.889738E-4,5.1384995E-4,-1.8820693E-4,9.120566E-4,4.0839936E-4,6.4677E-5,1.5171388E-3,2.7174377E-3,6.8276527E-4],"split_indices":[0,3,0,0,3,0,3,0,0,2,2,2,2,0,0,0,0,0,0,0,0,0,0],"split_type":[0,0,0,0,0,0,0,0,0,0,0,0,0,0,0,0,0,0,0,0,0,0,0],"sum_hessian":[9.1E1,2.8E1,6.3E1,1.5E1,1.3E1,3.9E1,2.4E1,1.1E1,2E0,2.2E1,1.7E1,1.1E1,1.3E1,1E0,1E0,6E0,1.6E1,4E0,1.3E1,1E0,1E1,1.2E1,1E0],"tree_param":{"num_deleted":"0","num_feature":"4","num_nodes":"23","size_leaf_vector":"1"}},{"base_weights":[-9.919024E-4,-3.1087527E-2,2.3102632E-2,-4.2180713E-2,-1.2720666E-2,1.32750105E-2,2.6916128E-3,-3.1277721E-3,-3.4706663E-2,-8.258155E-3,-1.6140252E-3,3.8289002E-3,2.1322547E-2,-1.7050952E-4,-1.8017292E-3,-8.1387535E-4,-1.0613435E-5,4.3738456E-4,-2.9458353E-5,2.3938552E-3,8.969644E-4],"categories":[],"categories_nodes":[],"categories_segments":[],"categories_sizes":[],"default_left":[0,0,0,0,0,0,0,0,0,0,0,0,0,0,0,0,0,0,0,0,0],"id":27,"left_children":[1,3,5,7,9,11,-1,-1,13,15,-1,17,19,-1,-1,-1,-1,-1,-1,-1,-1],"loss_changes":[7.178193E-2,8.428305E-3,1.5895326E-2,1.9405149E-3,1.3045704E-3,3.1871279E-3,0E0,0E0,7.914137E-4,1.0289096E-3,0E0,4.6151635E-4,1.2074597E-3,0E0,0E0,0E0,0E0,0E0,0E0,0E0,0E0],"parents":[2147483647,0,0,1,1,2,2,3,3,4,4,5,5,8,8,9,9,11,11,12,12],"right_children":[2,4,6,8,10,12,-1,-1,14,16,-1,18,20,-1,-1,-1,-1,-1,-1,-1,-1],"split_conditions":[5.12095E-1,3.982044E-1,6.6458595E-1,3.4268898E-1,1.1752649E2,5.5982304E-1,2.6916128E-3,-3.1277721E-3,3.43807E-1,4.6905676E-1,-1.6140252E-3,5.2294075E-1,5.609869E-1,-1.7050952E-4,-1.8017292E-3,-8.1387535E-4,-1.0613435E-5,4.3738456E-4,-2.9458353E-5,2.3938552E-3,8.969644E-4],"split_indices":[1,1,1,0,2,0,0,0,0,0,0,0,0,0,0,0,0,0,0,0,0],"split_type":[0,0,0,0,0,0,0,0,0,0,0,0,0,0,0,0,0,0,0,0,0],"sum_hessian":[9.7E1,4.3E1,5.4E1,2.6E1,1.7E1,4.2E1,1.2E1,5E0,2.1E1,1.5E1,2E0,2E1,2.2E1,1E0,2E1,7E0,8E0,9E0,1.1E1,1E0,2.1E1],"tree_param":{"num_deleted":"0","num_feature":"4","num_nodes":"21","size_leaf_vector":"1"}},{"base_weights":[1.141641E-3,-2.7098933E-2,2.447247E-2,-2.4056626E-3,-1.5295015E-2,1.591694E-2,2.5832243E-3,-1.1139192E-3,-4.9863756E-3,7.1194977E-3,2.3191119E-2,2.3621843E-4,-1.4008321E-3,1.9122958E-4,5.7918916E-4,2.3340092E-3,9.924864E-4],"categories":[],"categories_nodes":[],"categories_segments":[],"categories_sizes":[],"default_left":[0,0,0,0,0,0,0,0,0,0,0,0,0,0,0,0,0],"id":28,"left_children":[1,3,5,-1,7,9,-1,-1,11,13,15,-1,-1,-1,-1,-1,-1],"loss_changes":[6.259751E-2,9.930313E-3,1.1275049E-2,0E0,1.9765939E-3,2.4586516E-3,0E0,0E0,3.0396944E-3,2.498849E-4,8.001076E-4,0E0,0E0,0E0,0E0,0E0,0E0],"parents":[2147483647,0,0,1,1,2,2,4,4,5,5,8,8,9,9,10,10],"right_children":[2,4,6,-1,8,10,-1,-1,12,14,16,-1,-1,-1,-1,-1,-1],"split_conditions":[5.12095E-1,3.7099764E-1,6.671906E-1,-2.4056626E-3,4.6905676E-1,5.5982304E-1,2.5832243E-3,-1.1139192E-3,5.1340735E-1,5.389531E-1,5.609869E-1,2.3621843E-4,-1.4008321E-3,1.9122958E-4,5.7918916E-4,2.3340092E-3,9.924864E-4],"split_indices":[1,1,0,0,0,0,0,0,0,0,0,0,0,0,0,0,0],"split_type":[0,0,0,0,0,0,0,0,0,0,0,0,0,0,0,0,0],"sum_hessian":[9.3E1,4.2E1,5.1E1,1.4E1,2.8E1,4E1,1.1E1,1.6E1,1.2E1,1.9E1,2.1E1,9E0,3E0,1.2E1,7E0,1E0,2E1],"tree_param":{"num_deleted":"0","num_feature":"4","num_nodes":"17","size_leaf_vector":"1"}},{"base_weights":[9.7292394E-4,-2.5125284E-2,2.4590679E-2,-3.687719E-2,-6.828758E-3,1.7295932E-2,4.807307E-2,-2.4480468E-3,-2.6772622E-2,3.6768317E-3,-1.4138888E-2,6.7289206E-3,2.4212344E-2,5.0502166E-2,5.338252E-4,-1.0610521E-4,-1.4048911E-3,-2.022202E-4,7.1697385E-4,-4.4017137E-4,-1.1304476E-3,8.794606E-4,2.1360294E-4,2.2756592E-3,1.0714213E-3,5.708158E-4,2.663456E-3],"categories":[],"categories_nodes":[],"categories_segments":[],"categories_sizes":[],"default_left":[0,0,0,0,0,0,0,0,0,0,0,0,0,0,0,0,0,0,0,0,0,0,0,0,0,0,0],"id":29,"left_children":[1,3,5,7,9,11,13,-1,15,17,19,21,23,25,-1,-1,-1,-1,-1,-1,-1,-1,-1,-1,-1,-1,-1],"loss_changes":[6.225595E-2,1.0069089E-2,8.247331E-3,2.2301152E-3,1.5879308E-3,2.90668E-3,5.508922E-4,0E0,5.283775E-4,7.9895376E-4,3.4326385E-4,4.0513813E-4,5.0721783E-4,5.814973E-4,0E0,0E0,0E0,0E0,0E0,0E0,0E0,0E0,0E0,0E0,0E0,0E0,0E0],"parents":[2147483647,0,0,1,1,2,2,3,3,4,4,5,5,6,6,8,8,9,9,10,10,11,11,12,12,13,13],"right_children":[2,4,6,8,10,12,14,-1,16,18,20,22,24,26,-1,-1,-1,-1,-1,-1,-1,-1,-1,-1,-1,-1,-1],"split_conditions":[5.2109516E-1,4.3636653E-1,6.671906E-1,9.146615E1,1.1430147E2,5.5982304E-1,1.541392E2,-2.4480468E-3,3.43807E-1,4.9314487E-1,1.176629E2,5.2229154E-1,5.609869E-1,1.23319565E2,5.338252E-4,-1.0610521E-4,-1.4048911E-3,-2.022202E-4,7.1697385E-4,-4.4017137E-4,-1.1304476E-3,8.794606E-4,2.1360294E-4,2.2756592E-3,1.0714213E-3,5.708158E-4,2.663456E-3],"split_indices":[1,0,0,2,2,0,2,0,0,0,2,1,0,2,0,0,0,0,0,0,0,0,0,0,0,0,0],"split_type":[0,0,0,0,0,0,0,0,0,0,0,0,0,0,0,0,0,0,0,0,0,0,0,0,0,0,0],"sum_hessian":[9.9E1,4.7E1,5.2E1,2.8E1,1.9E1,4.1E1,1.1E1,1.1E1,1.7E1,8E0,1.1E1,1.7E1,2.4E1,1E1,1E0,1E0,1.6E1,5E0,3E0,8E0,3E0,2E0,1.5E1,1E0,2.3E1,1E0,9E0],"tree_param":{"num_deleted":"0","num_feature":"4","num_nodes":"27","size_leaf_vector":"1"}},{"base_weights":[-6.219438E-5,-2.7784236E-2,2.3476562E-2,-3.7561104E-2,-9.471681E-3,1.4990568E-2,3.9144292E-2,-2.836948E-3,-3.1201595E-2,-3.989686E-3,-1.3145373E-3,5.9150704E-3,1.8747184E-2,2.0111122E-3,5.204797E-4,-1.4954359E-4,-1.6149055E-3,-6.679559E-4,5.469993E-5,4.6471026E-4,-1.5833751E-4,7.935499E-4,1.2604971E-3],"categories":[],"categories_nodes":[],"categories_segments":[],"categories_sizes":[],"default_left":[0,0,0,0,0,0,0,0,0,0,0,0,0,0,0,0,0,0,0,0,0,0,0],"id":30,"left_children":[1,3,5,7,9,11,13,-1,15,17,-1,19,21,-1,-1,-1,-1,-1,-1,-1,-1,-1,-1],"loss_changes":[6.394889E-2,7.701006E-3,6.459886E-3,1.7665438E-3,1.4625427E-3,1.1164639E-3,1.3884343E-4,0E0,6.4580515E-4,6.8145216E-4,0E0,3.9769677E-4,6.45956E-5,0E0,0E0,0E0,0E0,0E0,0E0,0E0,0E0,0E0,0E0],"parents":[2147483647,0,0,1,1,2,2,3,3,4,4,5,5,6,6,8,8,9,9,11,11,12,12],"right_children":[2,4,6,8,10,12,14,-1,16,18,-1,20,22,-1,-1,-1,-1,-1,-1,-1,-1,-1,-1],"split_conditions":[5.082627E-1,4.3636653E-1,6.30497E-1,3.2995626E-1,5.1340735E-1,5.383879E-1,1.5443335E2,-2.836948E-3,8.91444E1,4.6905676E-1,-1.3145373E-3,5.2294075E-1,1.3937122E2,2.0111122E-3,5.204797E-4,-1.4954359E-4,-1.6149055E-3,-6.679559E-4,5.469993E-5,4.6471026E-4,-1.5833751E-4,7.935499E-4,1.2604971E-3],"split_indices":[3,0,0,0,0,0,2,0,2,0,0,0,2,0,0,0,0,0,0,0,0,0,0],"split_type":[0,0,0,0,0,0,0,0,0,0,0,0,0,0,0,0,0,0,0,0,0,0,0],"sum_hessian":[9.6E1,4.4E1,5.2E1,2.8E1,1.6E1,3.5E1,1.7E1,5E0,2.3E1,1.3E1,3E0,1.1E1,2.4E1,1.6E1,1E0,1E0,2.2E1,4E0,9E0,8E0,3E0,1.9E1,5E0],"tree_param":{"num_deleted":"0","num_feature":"4","num_nodes":"23","size_leaf_vector":"1"}},{"base_weights":[7.256462E-4,-2.4969717E-2,2.0334367E-2,-4.2264592E-2,-1.5759444E-2,1.0309723E-2,4.036782E-2,-2.6275194E-3,-3.0711332E-2,-1.0478188E-3,-6.650761E-3,3.6996603E-3,1.8257467E-2,4.1548353E-2,5.07468E-4,-1.4580488E-4,-1.6910613E-3,1.1894554E-4,-1.2652416E-3,3.953436E-4,8.937716E-6,2.1989287E-3,6.9506187E-4,1.3115444E-3,2.3759354E-3],"categories":[],"categories_nodes":[],"categories_segments":[],"categories_sizes":[],"default_left":[0,0,0,0,0,0,0,0,0,0,0,0,0,0,0,0,0,0,0,0,0,0,0,0,0],"id":31,"left_children":[1,3,5,7,9,11,13,-1,15,-1,17,19,21,23,-1,-1,-1,-1,-1,-1,-1,-1,-1,-1,-1],"loss_changes":[4.8877653E-2,6.024139E-3,1.0629371E-2,4.9790367E-5,1.2334026E-3,1.9287867E-3,2.2044219E-4,0E0,6.7933556E-4,0E0,2.0814794E-3,3.2447692E-4,1.2934431E-3,3.0820444E-4,0E0,0E0,0E0,0E0,0E0,0E0,0E0,0E0,0E0,0E0,0E0],"parents":[2147483647,0,0,1,1,2,2,3,3,4,4,5,5,6,6,8,8,10,10,11,11,12,12,13,13],"right_children":[2,4,6,8,10,12,14,-1,16,-1,18,20,22,24,-1,-1,-1,-1,-1,-1,-1,-1,-1,-1,-1],"split_conditions":[5.082627E-1,3.619488E-1,6.316019E-1,3.4268898E-1,4.6905676E-1,5.5982304E-1,1.5443335E2,-2.6275194E-3,8.91444E1,-1.0478188E-3,5.1340735E-1,5.2294075E-1,5.609869E-1,6.657221E-1,5.07468E-4,-1.4580488E-4,-1.6910613E-3,1.1894554E-4,-1.2652416E-3,3.953436E-4,8.937716E-6,2.1989287E-3,6.9506187E-4,1.3115444E-3,2.3759354E-3],"split_indices":[3,3,0,0,0,0,2,0,2,0,0,0,0,3,0,0,0,0,0,0,0,0,0,0,0],"split_type":[0,0,0,0,0,0,0,0,0,0,0,0,0,0,0,0,0,0,0,0,0,0,0,0,0],"sum_hessian":[9.5E1,4.1E1,5.4E1,1.3E1,2.8E1,3.7E1,1.7E1,5E0,8E0,1.7E1,1.1E1,2.1E1,1.6E1,1.6E1,1E0,1E0,7E0,8E0,3E0,9E0,1.2E1,1E0,1.5E1,6E0,1E1],"tree_param":{"num_deleted":"0","num_feature":"4","num_nodes":"25","size_leaf_vector":"1"}},{"base_weights":[-2.3316022E-3,-2.5818568E-2,1.8898439E-2,-4.122746E-2,-1.44404415E-2,7.4337763E-3,3.253221E-2,-2.63273E-3,-3.1903043E-2,-2.0682452E-2,-7.6518697E-3,3.057225E-3,1.3379122E-2,2.34657E-2,2.2014184E-3,-1.4216006E-4,-1.7043883E-3,-1.6016365E-4,-1.08903E-3,-7.231E-5,-1.2177955E-3,4.5996267E-4,-3.9019684E-5,1.5816897E-3,3.2824042E-4,1.2783619E-3,3.2685697E-4],"categories":[],"categories_nodes":[],"categories_segments":[],"categories_sizes":[],"default_left":[0,0,0,0,0,0,0,0,0,0,0,0,0,0,0,0,0,0,0,0,0,0,0,0,0,0,0],"id":32,"left_children":[1,3,5,7,9,11,13,-1,15,17,19,21,23,25,-1,-1,-1,-1,-1,-1,-1,-1,-1,-1,-1,-1,-1],"loss_changes":[4.835634E-2,7.469574E-3,7.7297986E-3,3.4463406E-4,1.0282225E-3,7.136802E-4,1.3641343E-3,0E0,7.284209E-4,1.9895611E-4,1.5196729E-3,4.3145276E-4,1.2850468E-3,3.6650244E-4,0E0,0E0,0E0,0E0,0E0,0E0,0E0,0E0,0E0,0E0,0E0,0E0,0E0],"parents":[2147483647,0,0,1,1,2,2,3,3,4,4,5,5,6,6,8,8,9,9,10,10,11,11,12,12,13,13],"right_children":[2,4,6,8,10,12,14,-1,16,18,20,22,24,26,-1,-1,-1,-1,-1,-1,-1,-1,-1,-1,-1,-1,-1],"split_conditions":[5.12095E-1,3.7099764E-1,5.949333E-1,3.385137E-1,4.3738684E-1,5.5310035E-1,6.9288003E-1,-2.63273E-3,8.91444E1,9.219313E1,5.02714E-1,5.2229154E-1,5.643461E-1,6.68133E-1,2.2014184E-3,-1.4216006E-4,-1.7043883E-3,-1.6016365E-4,-1.08903E-3,-7.231E-5,-1.2177955E-3,4.5996267E-4,-3.9019684E-5,1.5816897E-3,3.2824042E-4,1.2783619E-3,3.2685697E-4],"split_indices":[1,1,1,1,3,1,1,0,2,2,3,1,1,3,0,0,0,0,0,0,0,0,0,0,0,0,0],"split_type":[0,0,0,0,0,0,0,0,0,0,0,0,0,0,0,0,0,0,0,0,0,0,0,0,0,0,0],"sum_hessian":[9.5E1,4.5E1,5E1,1.8E1,2.7E1,2.8E1,2.2E1,6E0,1.2E1,1.3E1,1.4E1,1.7E1,1.1E1,1.4E1,8E0,1E0,1.1E1,1E0,1.2E1,1.1E1,3E0,6E0,1.1E1,2E0,9E0,1.2E1,2E0],"tree_param":{"num_deleted":"0","num_feature":"4","num_nodes":"27","size_leaf_vector":"1"}},{"base_weights":[-1.4554749E-3,-3.15484E-2,1.2245179E-2,-2.5198983E-3,-2.473609E-2,2.5859632E-4,2.752949E-2,2.180636E-5,-2.5849497E-2,-5.286171E-3,4.531435E-3,1.703621E-2,3.9133813E-2,-1.3860613E-4,-1.3386231E-3,2.8261004E-4,-6.7541254E-4,2.9871272E-4,-3.2989186E-4,9.029897E-4,1.6471744E-5,8.511017E-4,2.0803341E-3],"categories":[],"categories_nodes":[],"categories_segments":[],"categories_sizes":[],"default_left":[0,0,0,0,0,0,0,0,0,0,0,0,0,0,0,0,0,0,0,0,0,0,0],"id":33,"left_children":[1,3,5,-1,7,9,11,-1,13,15,17,19,21,-1,-1,-1,-1,-1,-1,-1,-1,-1,-1],"loss_changes":[3.9554127E-2,2.6056226E-3,1.2084518E-2,0E0,6.839186E-4,9.242461E-4,2.8645657E-3,0E0,4.156744E-4,1.6052662E-3,3.9268265E-4,2.8476398E-4,2.6021153E-6,0E0,0E0,0E0,0E0,0E0,0E0,0E0,0E0,0E0,0E0],"parents":[2147483647,0,0,1,1,2,2,4,4,5,5,6,6,8,8,9,9,10,10,11,11,12,12],"right_children":[2,4,6,-1,8,10,12,-1,14,16,18,20,22,-1,-1,-1,-1,-1,-1,-1,-1,-1,-1],"split_conditions":[4.3608534E-1,3.385137E-1,5.7103056E-1,-2.5198983E-3,3.413059E-1,5.1531214E-1,6.565821E-1,2.180636E-5,8.91444E1,1.1374466E2,5.6739146E-1,6.4597166E-1,1.23319565E2,-1.3860613E-4,-1.3386231E-3,2.8261004E-4,-6.7541254E-4,2.9871272E-4,-3.2989186E-4,9.029897E-4,1.6471744E-5,8.511017E-4,2.0803341E-3],"split_indices":[3,1,1,0,1,1,1,0,2,2,1,1,2,0,0,0,0,0,0,0,0,0,0],"split_type":[0,0,0,0,0,0,0,0,0,0,0,0,0,0,0,0,0,0,0,0,0,0,0],"sum_hessian":[9.4E1,2.9E1,6.5E1,6E0,2.3E1,3.7E1,2.8E1,1E0,2.2E1,1.6E1,2.1E1,1.6E1,1.2E1,1E0,2.1E1,7E0,9E0,1.9E1,2E0,1.5E1,1E0,2E0,1E1],"tree_param":{"num_deleted":"0","num_feature":"4","num_nodes":"23","size_leaf_vector":"1"}},{"base_weights":[1.1107633E-3,-1.2977845E-2,2.6769087E-2,-2.7699048E-2,-1.5764476E-3,1.7466411E-2,3.881102E-2,-1.8301627E-3,-2.121343E-2,-7.7411705E-3,1.4456772E-3,1.8469084E-2,-6.4675514E-5,4.2024255E-4,4.0503427E-2,2.1260978E-5,-1.1255653E-3,1.05210835E-4,-6.4634456E-4,2.978352E-4,-1.2620901E-4,7.143937E-4,1.2921965E-3,2.1215023E-3,4.346013E-4],"categories":[],"categories_nodes":[],"categories_segments":[],"categories_sizes":[],"default_left":[0,0,0,0,0,0,0,0,0,0,0,0,0,0,0,0,0,0,0,0,0,0,0,0,0],"id":34,"left_children":[1,3,5,7,9,11,13,-1,15,17,19,21,-1,-1,23,-1,-1,-1,-1,-1,-1,-1,-1,-1,-1],"loss_changes":[3.468896E-2,1.0362556E-2,3.1308662E-3,7.827487E-4,6.818915E-4,4.189005E-4,3.800094E-4,0E0,5.1508844E-4,6.3986605E-4,4.627391E-4,2.4746126E-4,0E0,0E0,4.2794645E-4,0E0,0E0,0E0,0E0,0E0,0E0,0E0,0E0,0E0,0E0],"parents":[2147483647,0,0,1,1,2,2,3,3,4,4,5,5,6,6,8,8,9,9,10,10,11,11,14,14],"right_children":[2,4,6,8,10,12,14,-1,16,18,20,22,-1,-1,24,-1,-1,-1,-1,-1,-1,-1,-1,-1,-1],"split_conditions":[5.748719E-1,4.3636653E-1,6.671906E-1,9.146615E1,5.0751376E-1,6.6416353E-1,1.23319565E2,-1.8301627E-3,3.43807E-1,1.1430147E2,1.1915807E2,1.4422984E2,-6.4675514E-5,4.2024255E-4,1.5443335E2,2.1260978E-5,-1.1255653E-3,1.05210835E-4,-6.4634456E-4,2.978352E-4,-1.2620901E-4,7.143937E-4,1.2921965E-3,2.1215023E-3,4.346013E-4],"split_indices":[0,0,0,2,3,0,2,0,0,2,2,2,0,0,2,0,0,0,0,0,0,0,0,0,0],"split_type":[0,0,0,0,0,0,0,0,0,0,0,0,0,0,0,0,0,0,0,0,0,0,0,0,0],"sum_hessian":[9.4E1,6.1E1,3.3E1,2.6E1,3.5E1,2E1,1.3E1,9E0,1.7E1,1.1E1,2.4E1,1.9E1,1E0,1E0,1.2E1,1E0,1.6E1,4E0,7E0,1.1E1,1.3E1,1.4E1,5E0,1.1E1,1E0],"tree_param":{"num_deleted":"0","num_feature":"4","num_nodes":"25","size_leaf_vector":"1"}},{"base_weights":[5.9231516E-4,-1.05225295E-2,2.5867743E-2,-2.3354841E-2,-4.5254044E-4,1.8857945E-2,1.9674876E-3,-2.031423E-3,-1.97991E-2,6.476417E-3,-3.5153164E-3,1.992696E-2,-6.305874E-5,2.072975E-5,-1.0312116E-3,-9.80705E-5,4.1800618E-4,-4.3424903E-4,1.3600451E-4,5.4256717E-4,1.1114371E-3],"categories":[],"categories_nodes":[],"categories_segments":[],"categories_sizes":[],"default_left":[0,0,0,0,0,0,0,0,0,0,0,0,0,0,0,0,0,0,0,0,0],"id":35,"left_children":[1,3,5,7,9,11,-1,-1,13,15,17,19,-1,-1,-1,-1,-1,-1,-1,-1,-1],"loss_changes":[2.6679846E-2,8.518034E-3,1.998622E-3,9.767879E-4,8.2919677E-4,4.7679245E-4,0E0,0E0,4.4220313E-4,2.0713033E-4,8.9396787E-4,1.7658994E-4,0E0,0E0,0E0,0E0,0E0,0E0,0E0,0E0,0E0],"parents":[2147483647,0,0,1,1,2,2,3,3,4,4,5,5,8,8,9,9,10,10,11,11],"right_children":[2,4,6,8,10,12,-1,-1,14,16,18,20,-1,-1,-1,-1,-1,-1,-1,-1,-1],"split_conditions":[5.7103056E-1,1.10047455E2,6.7175907E-1,3.385137E-1,1.1599113E2,6.68133E-1,1.9674876E-3,-2.031423E-3,3.413059E-1,4.834845E-1,1.2122221E2,1.22262245E2,-6.305874E-5,2.072975E-5,-1.0312116E-3,-9.80705E-5,4.1800618E-4,-4.3424903E-4,1.3600451E-4,5.4256717E-4,1.1114371E-3],"split_indices":[1,2,3,1,2,3,0,0,1,1,2,2,0,0,0,0,0,0,0,0,0],"split_type":[0,0,0,0,0,0,0,0,0,0,0,0,0,0,0,0,0,0,0,0,0],"sum_hessian":[9.3E1,6.5E1,2.8E1,2.8E1,3.7E1,2E1,8E0,3E0,2.5E1,1.1E1,2.6E1,1.9E1,1E0,1E0,2.4E1,2E0,9E0,1.4E1,1.2E1,5E0,1.4E1],"tree_param":{"num_deleted":"0","num_feature":"4","num_nodes":"21","size_leaf_vector":"1"}},{"base_weights":[1.2970944E-3,-1.7953562E-2,1.7771186E-2,-3.1372875E-2,-8.488875E-3,1.1521294E-2,3.608158E-2,-2.2143254E-3,-2.230165E-2,-5.9141205E-3,-2.1171495E-2,6.051831E-3,1.4825212E-2,1.8999862E-3,3.7454962E-4,2.021119E-5,-1.2201284E-3,-6.507292E-4,1.5074923E-4,-1.5745164E-4,-1.3064652E-3,7.840902E-4,1.777996E-4,2.1003545E-3,5.84013E-4],"categories":[],"categories_nodes":[],"categories_segments":[],"categories_sizes":[],"default_left":[0,0,0,0,0,0,0,0,0,0,0,0,0,0,0,0,0,0,0,0,0,0,0,0,0],"id":36,"left_children":[1,3,5,7,9,11,13,-1,15,17,19,21,23,-1,-1,-1,-1,-1,-1,-1,-1,-1,-1,-1,-1],"loss_changes":[2.8861394E-2,5.0680824E-3,5.1917527E-3,1.0037608E-3,7.238097E-4,5.969652E-4,3.734352E-4,0E0,5.82302E-4,1.497457E-3,2.751255E-4,3.2879348E-4,1.4755176E-3,0E0,0E0,0E0,0E0,0E0,0E0,0E0,0E0,0E0,0E0,0E0,0E0],"parents":[2147483647,0,0,1,1,2,2,3,3,4,4,5,5,6,6,8,8,9,9,10,10,11,11,12,12],"right_children":[2,4,6,8,10,12,14,-1,16,18,20,22,24,-1,-1,-1,-1,-1,-1,-1,-1,-1,-1,-1,-1],"split_conditions":[5.2109516E-1,3.7594575E-1,6.671906E-1,3.4268898E-1,1.1752649E2,5.5982304E-1,1.5443335E2,-2.2143254E-3,3.43807E-1,4.6905676E-1,5.139014E-1,5.2229154E-1,5.609869E-1,1.8999862E-3,3.7454962E-4,2.021119E-5,-1.2201284E-3,-6.507292E-4,1.5074923E-4,-1.5745164E-4,-1.3064652E-3,7.840902E-4,1.777996E-4,2.1003545E-3,5.84013E-4],"split_indices":[1,0,0,0,2,0,2,0,0,0,0,1,0,0,0,0,0,0,0,0,0,0,0,0,0],"split_type":[0,0,0,0,0,0,0,0,0,0,0,0,0,0,0,0,0,0,0,0,0,0,0,0,0],"sum_hessian":[8.9E1,4.1E1,4.8E1,1.6E1,2.5E1,3.7E1,1.1E1,5E0,1.1E1,2.2E1,3E0,1.5E1,2.2E1,1E1,1E0,1E0,1E1,1.2E1,1E1,1E0,2E0,2E0,1.3E1,1E0,2.1E1],"tree_param":{"num_deleted":"0","num_feature":"4","num_nodes":"25","size_leaf_vector":"1"}},{"base_weights":[8.6408725E-4,-2.5992638E-2,1.3246206E-2,-2.1515072E-3,-1.9940339E-2,4.159732E-3,2.9658038E-2,1.9706042E-5,-2.0841582E-2,1.1492074E-3,1.0313733E-2,2.1164712E-2,1.849971E-3,-3.310293E-5,-1.086437E-3,2.2818233E-4,-4.405478E-4,6.3386833E-4,6.176531E-5,1.203666E-3,1.722455E-4],"categories":[],"categories_nodes":[],"categories_segments":[],"categories_sizes":[],"default_left":[0,0,0,0,0,0,0,0,0,0,0,0,0,0,0,0,0,0,0,0,0],"id":37,"left_children":[1,3,5,-1,7,9,11,-1,13,15,17,19,-1,-1,-1,-1,-1,-1,-1,-1,-1],"loss_changes":[3.160336E-2,2.2354461E-3,9.5697995E-3,0E0,4.4804532E-4,7.8479847E-4,6.5103173E-4,0E0,3.9736927E-4,1.0604613E-3,2.847527E-4,5.87089E-4,0E0,0E0,0E0,0E0,0E0,0E0,0E0,0E0,0E0],"parents":[2147483647,0,0,1,1,2,2,4,4,5,5,6,6,8,8,9,9,10,10,11,11],"right_children":[2,4,6,-1,8,10,12,-1,14,16,18,20,-1,-1,-1,-1,-1,-1,-1,-1,-1],"split_conditions":[1.10047455E2,3.4268898E-1,6.0269874E-1,-2.1515072E-3,3.43807E-1,1.2126484E2,6.813071E-1,1.9706042E-5,8.91444E1,1.1810973E2,1.3684123E2,6.6416353E-1,1.849971E-3,-3.310293E-5,-1.086437E-3,2.2818233E-4,-4.405478E-4,6.3386833E-4,6.176531E-5,1.203666E-3,1.722455E-4],"split_indices":[2,0,0,0,0,2,0,0,2,2,2,0,0,0,0,0,0,0,0,0,0],"split_type":[0,0,0,0,0,0,0,0,0,0,0,0,0,0,0,0,0,0,0,0,0],"sum_hessian":[9.3E1,2.9E1,6.4E1,6E0,2.3E1,4.2E1,2.2E1,1E0,2.2E1,2.9E1,1.3E1,1.2E1,1E1,1E0,2.1E1,2.2E1,7E0,1E1,3E0,1E1,2E0],"tree_param":{"num_deleted":"0","num_feature":"4","num_nodes":"21","size_leaf_vector":"1"}},{"base_weights":[-2.1023164E-3,-1.9965626E-2,1.1651696E-2,-2.0592993E-3,-1.5411354E-2,1.4281054E-3,2.2579696E-2,-1.847404E-2,-6.4928154E-3,3.9017939E-3,-9.116948E-3,1.625727E-2,3.1702094E-2,1.9213558E-5,-9.60707E-4,-1.3407394E-4,-1.1151545E-3,6.2042254E-4,1.08888744E-4,-5.3123833E-4,-3.9446353E-5,8.701365E-4,-8.038879E-5,3.3014416E-4,1.6878622E-3],"categories":[],"categories_nodes":[],"categories_segments":[],"categories_sizes":[],"default_left":[0,0,0,0,0,0,0,0,0,0,0,0,0,0,0,0,0,0,0,0,0,0,0,0,0],"id":38,"left_children":[1,3,5,-1,7,9,11,13,15,17,19,21,23,-1,-1,-1,-1,-1,-1,-1,-1,-1,-1,-1,-1],"loss_changes":[2.4310468E-2,3.520932E-3,6.2242635E-3,0E0,8.906955E-4,8.181277E-4,1.0418538E-3,3.8422365E-4,6.030358E-4,3.3961816E-4,6.6960696E-5,3.9632572E-4,2.9293168E-4,0E0,0E0,0E0,0E0,0E0,0E0,0E0,0E0,0E0,0E0,0E0,0E0],"parents":[2147483647,0,0,1,1,2,2,4,4,5,5,6,6,7,7,8,8,9,9,10,10,11,11,12,12],"right_children":[2,4,6,-1,8,10,12,14,16,18,20,22,24,-1,-1,-1,-1,-1,-1,-1,-1,-1,-1,-1,-1],"split_conditions":[5.032826E-1,3.4268898E-1,5.748719E-1,-2.0592993E-3,4.4025064E-1,5.564887E-1,6.671906E-1,3.43807E-1,5.0495976E-1,5.10622E-1,5.676773E-1,6.6416353E-1,1.23319565E2,1.9213558E-5,-9.60707E-4,-1.3407394E-4,-1.1151545E-3,6.2042254E-4,1.08888744E-4,-5.3123833E-4,-3.9446353E-5,8.701365E-4,-8.038879E-5,3.3014416E-4,1.6878622E-3],"split_indices":[1,0,0,0,0,0,0,0,0,0,1,0,2,0,0,0,0,0,0,0,0,0,0,0,0],"split_type":[0,0,0,0,0,0,0,0,0,0,0,0,0,0,0,0,0,0,0,0,0,0,0,0,0],"sum_hessian":[9.7E1,4.2E1,5.5E1,6E0,3.6E1,2.9E1,2.6E1,2.6E1,1E1,2.4E1,5E0,1.7E1,9E0,1E0,2.5E1,9E0,1E0,3E0,2.1E1,4E0,1E0,1.6E1,1E0,1E0,8E0],"tree_param":{"num_deleted":"0","num_feature":"4","num_nodes":"25","size_leaf_vector":"1"}},{"base_weights":[-5.829416E-4,-1.944351E-2,1.2331884E-2,-2.4030665E-2,-7.1198544E-3,9.356474E-3,1.612409E-3,-1.8432162E-3,-1.9637942E-2,-3.8133832E-3,-1.0872759E-3,4.180357E-3,1.4172726E-2,1.8732995E-5,-1.0282318E-3,-5.0729275E-4,6.272899E-5,7.7877345E-4,1.5507669E-4,2.0721406E-3,5.712105E-4],"categories":[],"categories_nodes":[],"categories_segments":[],"categories_sizes":[],"default_left":[0,0,0,0,0,0,0,0,0,0,0,0,0,0,0,0,0,0,0,0,0],"id":39,"left_children":[1,3,5,7,9,11,-1,-1,13,15,-1,17,19,-1,-1,-1,-1,-1,-1,-1,-1],"loss_changes":[2.3379967E-2,2.033596E-3,3.076044E-3,8.545518E-4,4.9738795E-4,1.2121564E-3,0E0,0E0,4.3425243E-4,3.6574883E-4,0E0,2.7131825E-4,1.4753081E-3,0E0,0E0,0E0,0E0,0E0,0E0,0E0,0E0],"parents":[2147483647,0,0,1,1,2,2,3,3,4,4,5,5,8,8,9,9,11,11,12,12],"right_children":[2,4,6,8,10,12,-1,-1,14,16,-1,18,20,-1,-1,-1,-1,-1,-1,-1,-1],"split_conditions":[5.032826E-1,4.3608534E-1,6.9288003E-1,3.385137E-1,5.009657E-1,5.615335E-1,1.612409E-3,-1.8432162E-3,3.413059E-1,4.744885E-1,-1.0872759E-3,5.036245E-1,5.643461E-1,1.8732995E-5,-1.0282318E-3,-5.0729275E-4,6.272899E-5,7.7877345E-4,1.5507669E-4,2.0721406E-3,5.712105E-4],"split_indices":[1,3,1,1,1,3,0,0,1,1,0,1,1,0,0,0,0,0,0,0,0],"split_type":[0,0,0,0,0,0,0,0,0,0,0,0,0,0,0,0,0,0,0,0,0],"sum_hessian":[9.4E1,3.8E1,5.6E1,2.7E1,1.1E1,5E1,6E0,5E0,2.2E1,1E1,1E0,2.5E1,2.5E1,1E0,2.1E1,4E0,6E0,1E0,2.4E1,1E0,2.4E1],"tree_param":{"num_deleted":"0","num_feature":"4","num_nodes":"21","size_leaf_vector":"1"}},{"base_weights":[-5.658353E-4,-2.1022625E-2,1.0991478E-2,-2.7004445E-2,-1.1246568E-2,6.459247E-3,3.1417347E-2,-1.8891545E-3,-2.1274675E-2,-4.982859E-3,-1.3071293E-2,1.7085703E-3,1.1521635E-2,3.0761064E-4,1.6664321E-3,1.8264354E-5,-1.1370847E-3,-3.892012E-4,-1.1682809E-4,-7.997619E-4,-3.1817556E-4,1.2245857E-4,-4.5719146E-4,1.5117158E-3,4.289955E-4],"categories":[],"categories_nodes":[],"categories_segments":[],"categories_sizes":[],"default_left":[0,0,0,0,0,0,0,0,0,0,0,0,0,0,0,0,0,0,0,0,0,0,0,0,0],"id":40,"left_children":[1,3,5,7,9,11,13,-1,15,17,19,21,23,-1,-1,-1,-1,-1,-1,-1,-1,-1,-1,-1,-1],"loss_changes":[2.2927921E-2,1.7430447E-3,5.5367034E-3,4.9311854E-4,1.06310705E-4,1.2309025E-3,3.261352E-4,0E0,5.1624654E-4,1.8875726E-5,1.1395919E-4,2.474392E-4,1.1167815E-3,0E0,0E0,0E0,0E0,0E0,0E0,0E0,0E0,0E0,0E0,0E0,0E0],"parents":[2147483647,0,0,1,1,2,2,3,3,4,4,5,5,6,6,8,8,9,9,10,10,11,11,12,12],"right_children":[2,4,6,8,10,12,14,-1,16,18,20,22,24,-1,-1,-1,-1,-1,-1,-1,-1,-1,-1,-1,-1],"split_conditions":[4.6905676E-1,3.8191035E-1,6.671906E-1,3.2995626E-1,9.819378E1,5.5310035E-1,1.23319565E2,-1.8891545E-3,3.43807E-1,3.7296677E-1,4.4025064E-1,5.566955E-1,5.643461E-1,3.0761064E-4,1.6664321E-3,1.8264354E-5,-1.1370847E-3,-3.892012E-4,-1.1682809E-4,-7.997619E-4,-3.1817556E-4,1.2245857E-4,-4.5719146E-4,1.5117158E-3,4.289955E-4],"split_indices":[0,1,0,0,2,1,2,0,0,0,0,0,1,0,0,0,0,0,0,0,0,0,0,0,0],"split_type":[0,0,0,0,0,0,0,0,0,0,0,0,0,0,0,0,0,0,0,0,0,0,0,0,0],"sum_hessian":[9.5E1,3.4E1,6.1E1,2E1,1.4E1,5.1E1,1E1,5E0,1.5E1,4E0,1E1,2.7E1,2.4E1,1E0,9E0,1E0,1.4E1,1E0,3E0,6E0,4E0,2.6E1,1E0,2E0,2.2E1],"tree_param":{"num_deleted":"0","num_feature":"4","num_nodes":"25","size_leaf_vector":"1"}},{"base_weights":[4.7503583E-4,-1.7983876E-2,1.365149E-2,-2.8304078E-2,-9.924405E-3,4.8729777E-3,2.2255968E-2,-1.5560918E-3,-1.5317088E-2,-1.2799708E-2,-3.7100448E-3,1.349781E-2,-1.1476311E-3,1.624969E-2,3.0061154E-2,1.7807633E-5,-9.6622185E-4,-2.470744E-4,-7.9612E-4,5.709883E-5,-1.0631554E-3,3.7578156E-4,1.9825443E-3,-5.166258E-4,2.1529272E-4,8.7244035E-4,-1.03382765E-4,1.6092036E-3,2.2079945E-4],"categories":[],"categories_nodes":[],"categories_segments":[],"categories_sizes":[],"default_left":[0,0,0,0,0,0,0,0,0,0,0,0,0,0,0,0,0,0,0,0,0,0,0,0,0,0,0,0,0],"id":41,"left_children":[1,3,5,7,9,11,13,-1,15,17,19,21,23,25,27,-1,-1,-1,-1,-1,-1,-1,-1,-1,-1,-1,-1,-1,-1],"loss_changes":[2.3351694E-2,3.046114E-3,4.1214796E-3,1.4540553E-4,3.8134865E-4,1.5213657E-3,8.241581E-4,0E0,3.2092317E-4,3.1394046E-4,7.907925E-4,1.5794274E-3,9.4610377E-4,4.3144217E-4,4.5674387E-4,0E0,0E0,0E0,0E0,0E0,0E0,0E0,0E0,0E0,0E0,0E0,0E0,0E0,0E0],"parents":[2147483647,0,0,1,1,2,2,3,3,4,4,5,5,6,6,8,8,9,9,10,10,11,11,12,12,13,13,14,14],"right_children":[2,4,6,8,10,12,14,-1,16,18,20,22,24,26,28,-1,-1,-1,-1,-1,-1,-1,-1,-1,-1,-1,-1,-1,-1],"split_conditions":[5.032826E-1,3.619488E-1,5.7103056E-1,9.2526924E1,4.744885E-1,1.1872619E2,6.7175907E-1,-1.5560918E-3,3.413059E-1,9.819378E1,5.017381E-1,1.1810973E2,1.2122221E2,6.68133E-1,1.541392E2,1.7807633E-5,-9.6622185E-4,-2.470744E-4,-7.9612E-4,5.709883E-5,-1.0631554E-3,3.7578156E-4,1.9825443E-3,-5.166258E-4,2.1529272E-4,8.7244035E-4,-1.03382765E-4,1.6092036E-3,2.2079945E-4],"split_indices":[1,3,1,2,1,2,3,0,1,2,1,2,2,3,2,0,0,0,0,0,0,0,0,0,0,0,0,0,0],"split_type":[0,0,0,0,0,0,0,0,0,0,0,0,0,0,0,0,0,0,0,0,0,0,0,0,0,0,0,0,0],"sum_hessian":[9.4E1,3.9E1,5.5E1,1.6E1,2.3E1,2.8E1,2.7E1,1.2E1,4E0,1.5E1,8E0,1.1E1,1.7E1,1.7E1,1E1,1E0,3E0,5E0,1E1,7E0,1E0,1E1,1E0,6E0,1.1E1,1.6E1,1E0,9E0,1E0],"tree_param":{"num_deleted":"0","num_feature":"4","num_nodes":"29","size_leaf_vector":"1"}},{"base_weights":[-4.863615E-5,-1.6356945E-2,1.1396645E-2,-1.7580184E-3,-1.2004566E-2,7.2858497E-3,1.3102487E-3,-1.5574988E-2,-7.9655815E-3,1.5535638E-3,1.1262141E-2,1.7362088E-5,-8.2959153E-4,-2.997571E-4,-1.0365762E-3,5.648583E-4,-4.1521736E-5,1.4368942E-3,4.3572832E-4],"categories":[],"categories_nodes":[],"categories_segments":[],"categories_sizes":[],"default_left":[0,0,0,0,0,0,0,0,0,0,0,0,0,0,0,0,0,0,0],"id":42,"left_children":[1,3,5,-1,7,9,-1,11,13,15,17,-1,-1,-1,-1,-1,-1,-1,-1],"loss_changes":[1.810512E-2,2.8515002E-3,3.2788925E-3,0E0,3.6624586E-4,1.0309925E-3,0E0,2.8099818E-4,3.2849296E-4,4.7395623E-4,9.5162215E-4,0E0,0E0,0E0,0E0,0E0,0E0,0E0,0E0],"parents":[2147483647,0,0,1,1,2,2,4,4,5,5,7,7,8,8,9,9,10,10],"right_children":[2,4,6,-1,8,10,-1,12,14,16,18,-1,-1,-1,-1,-1,-1,-1,-1],"split_conditions":[5.032826E-1,3.4268898E-1,6.671906E-1,-1.7580184E-3,3.8504514E-1,5.5310035E-1,1.3102487E-3,3.43807E-1,5.0495976E-1,5.10622E-1,5.643461E-1,1.7362088E-5,-8.2959153E-4,-2.997571E-4,-1.0365762E-3,5.648583E-4,-4.1521736E-5,1.4368942E-3,4.3572832E-4],"split_indices":[1,0,0,0,1,1,0,0,0,0,1,0,0,0,0,0,0,0,0],"split_type":[0,0,0,0,0,0,0,0,0,0,0,0,0,0,0,0,0,0,0],"sum_hessian":[9.5E1,3.9E1,5.6E1,6E0,3.3E1,4.5E1,1.1E1,1.6E1,1.7E1,1.9E1,2.6E1,1E0,1.5E1,1.6E1,1E0,3E0,1.6E1,2E0,2.4E1],"tree_param":{"num_deleted":"0","num_feature":"4","num_nodes":"19","size_leaf_vector":"1"}},{"base_weights":[9.180439E-4,-9.261825E-3,1.525073E-2,-1.9172901E-2,-2.5763696E-3,4.8859715E-3,2.1525122E-2,-1.4981497E-3,-1.5892202E-2,6.163001E-4,-1.0300407E-2,9.679839E-4,2.6304126E-3,1.6355634E-2,1.3563422E-3,1.05517356E-4,-8.504793E-4,-4.0810904E-4,1.6095147E-4,-1.175708E-3,-2.028849E-4,3.6772002E-5,3.1366348E-4,8.7776687E-4,2.8525194E-4],"categories":[],"categories_nodes":[],"categories_segments":[],"categories_sizes":[],"default_left":[0,0,0,0,0,0,0,0,0,0,0,0,0,0,0,0,0,0,0,0,0,0,0,0,0],"id":43,"left_children":[1,3,5,7,9,11,13,-1,15,17,19,-1,21,23,-1,-1,-1,-1,-1,-1,-1,-1,-1,-1,-1],"loss_changes":[1.3710403E-2,3.5949075E-3,2.4310993E-3,3.0260067E-4,8.447984E-4,4.7141683E-4,2.5131553E-4,0E0,4.1809538E-4,5.974745E-4,7.2948285E-4,0E0,9.89331E-5,9.150896E-5,0E0,0E0,0E0,0E0,0E0,0E0,0E0,0E0,0E0,0E0,0E0],"parents":[2147483647,0,0,1,1,2,2,3,3,4,4,5,5,6,6,8,8,9,9,10,10,12,12,13,13],"right_children":[2,4,6,8,10,12,14,-1,16,18,20,-1,22,24,-1,-1,-1,-1,-1,-1,-1,-1,-1,-1,-1],"split_conditions":[1.2126484E2,3.982044E-1,6.0340387E-1,3.229797E-1,1.1768967E2,1.2160687E2,6.9288003E-1,-1.4981497E-3,8.91444E1,1.10047455E2,5.0685376E-1,9.679839E-4,5.7214916E-1,6.608602E-1,1.3563422E-3,1.05517356E-4,-8.504793E-4,-4.0810904E-4,1.6095147E-4,-1.175708E-3,-2.028849E-4,3.6772002E-5,3.1366348E-4,8.7776687E-4,2.8525194E-4],"split_indices":[2,1,3,1,2,2,1,0,2,2,1,0,3,1,0,0,0,0,0,0,0,0,0,0,0],"split_type":[0,0,0,0,0,0,0,0,0,0,0,0,0,0,0,0,0,0,0,0,0,0,0,0,0],"sum_hessian":[9.2E1,5.4E1,3.8E1,2.1E1,3.3E1,1.5E1,2.3E1,3E0,1.8E1,2.4E1,9E0,1E0,1.4E1,1.4E1,9E0,1E0,1.7E1,5E0,1.9E1,2E0,7E0,1E1,4E0,1.2E1,2E0],"tree_param":{"num_deleted":"0","num_feature":"4","num_nodes":"25","size_leaf_vector":"1"}},{"base_weights":[1.804458E-3,-1.5729172E-2,1.1447074E-2,-1.4043775E-3,-1.1145324E-2,3.8926797E-3,1.8368086E-2,1.0287911E-4,-1.1781178E-2,1.6092403E-3,5.6473967E-3,1.4170002E-2,2.6589168E-2,-6.398575E-4,-2.6805283E-4,3.231246E-4,-2.0836123E-4,5.301644E-4,8.067668E-5,1.9021303E-3,5.610829E-4,1.4010161E-3,3.7849843E-4],"categories":[],"categories_nodes":[],"categories_segments":[],"categories_sizes":[],"default_left":[0,0,0,0,0,0,0,0,0,0,0,0,0,0,0,0,0,0,0,0,0,0,0],"id":44,"left_children":[1,3,5,-1,7,9,11,-1,13,15,17,19,21,-1,-1,-1,-1,-1,-1,-1,-1,-1,-1],"loss_changes":[1.5227288E-2,1.4997208E-3,2.9609734E-3,0E0,2.341189E-4,1.07108935E-4,6.5861456E-4,0E0,8.793757E-5,4.194156E-4,3.027534E-4,1.1215606E-3,3.2861717E-5,0E0,0E0,0E0,0E0,0E0,0E0,0E0,0E0,0E0,0E0],"parents":[2147483647,0,0,1,1,2,2,4,4,5,5,6,6,8,8,9,9,10,10,11,11,12,12],"right_children":[2,4,6,-1,8,10,12,-1,14,16,18,20,22,-1,-1,-1,-1,-1,-1,-1,-1,-1,-1],"split_conditions":[4.744885E-1,3.452954E-1,5.615335E-1,-1.4043775E-3,3.472559E-1,1.1676731E2,6.7175907E-1,1.0287911E-4,1.10047455E2,1.1430147E2,1.2160687E2,5.643461E-1,1.541392E2,-6.398575E-4,-2.6805283E-4,3.231246E-4,-2.0836123E-4,5.301644E-4,8.067668E-5,1.9021303E-3,5.610829E-4,1.4010161E-3,3.7849843E-4],"split_indices":[1,1,3,0,1,2,3,0,2,2,2,1,2,0,0,0,0,0,0,0,0,0,0],"split_type":[0,0,0,0,0,0,0,0,0,0,0,0,0,0,0,0,0,0,0,0,0,0,0],"sum_hessian":[8.8E1,3.1E1,5.7E1,7E0,2.4E1,2.8E1,2.9E1,1E0,2.3E1,1.3E1,1.5E1,2.1E1,8E0,1.9E1,4E0,7E0,6E0,6E0,9E0,1E0,2E1,7E0,1E0],"tree_param":{"num_deleted":"0","num_feature":"4","num_nodes":"23","size_leaf_vector":"1"}},{"base_weights":[-4.7727558E-4,-7.3533105E-3,1.583915E-2,-1.698867E-2,-1.5337503E-3,9.244786E-3,1.229526E-3,-1.0212414E-3,-1.1070956E-2,-4.3954895E-4,-1.1545226E-2,1.0154709E-2,-1.3284982E-4,6.621331E-6,-6.102269E-4,-2.2890964E-4,1.9700259E-4,-7.22752E-4,-7.039458E-5,3.1814934E-4,7.0603914E-4],"categories":[],"categories_nodes":[],"categories_segments":[],"categories_sizes":[],"default_left":[0,0,0,0,0,0,0,0,0,0,0,0,0,0,0,0,0,0,0,0,0],"id":45,"left_children":[1,3,5,7,9,11,-1,-1,13,15,17,19,-1,-1,-1,-1,-1,-1,-1,-1,-1],"loss_changes":[1.0213778E-2,3.5626513E-3,1.3308278E-3,2.6189862E-4,4.440627E-4,2.1108612E-4,0E0,0E0,1.4131563E-4,7.0681144E-4,9.763992E-5,1.507618E-4,0E0,0E0,0E0,0E0,0E0,0E0,0E0,0E0,0E0],"parents":[2147483647,0,0,1,1,2,2,3,3,4,4,5,5,8,8,9,9,10,10,11,11],"right_children":[2,4,6,8,10,12,-1,-1,14,16,18,20,-1,-1,-1,-1,-1,-1,-1,-1,-1],"split_conditions":[5.748719E-1,3.982044E-1,6.671906E-1,3.619488E-1,5.6989753E-1,6.6416353E-1,1.229526E-3,-1.0212414E-3,3.6273667E-1,5.12095E-1,5.676773E-1,6.2354654E-1,-1.3284982E-4,6.621331E-6,-6.102269E-4,-2.2890964E-4,1.9700259E-4,-7.22752E-4,-7.039458E-5,3.1814934E-4,7.0603914E-4],"split_indices":[0,1,0,3,0,0,0,0,3,1,1,1,0,0,0,0,0,0,0,0,0],"split_type":[0,0,0,0,0,0,0,0,0,0,0,0,0,0,0,0,0,0,0,0,0],"sum_hessian":[8.9E1,6.3E1,2.6E1,2.3E1,4E1,1.6E1,1E1,1.3E1,1E1,3.7E1,3E0,1.5E1,1E0,1E0,9E0,1.9E1,1.8E1,2E0,1E0,9E0,6E0],"tree_param":{"num_deleted":"0","num_feature":"4","num_nodes":"21","size_leaf_vector":"1"}},{"base_weights":[-4.8371992E-4,-1.3622509E-2,9.080558E-3,-1.5222249E-3,-1.0349526E-2,4.728115E-3,1.6460929E-2,-1.2311704E-2,-3.3130413E-3,1.398921E-4,6.487436E-3,1.1935096E-2,1.0878894E-3,9.882972E-5,-6.468639E-4,6.084144E-5,-9.888001E-4,6.253282E-4,-1.9989377E-4,4.7781924E-4,1.05531515E-4,7.669462E-4,1.7105938E-4],"categories":[],"categories_nodes":[],"categories_segments":[],"categories_sizes":[],"default_left":[0,0,0,0,0,0,0,0,0,0,0,0,0,0,0,0,0,0,0,0,0,0,0],"id":46,"left_children":[1,3,5,-1,7,9,11,13,15,17,19,21,-1,-1,-1,-1,-1,-1,-1,-1,-1,-1,-1],"loss_changes":[1.1936025E-2,1.8872381E-3,1.6889162E-3,0E0,4.424504E-4,2.896901E-4,2.1977257E-4,2.6690774E-4,6.9523964E-4,6.128743E-4,3.29067E-4,3.2426137E-4,0E0,0E0,0E0,0E0,0E0,0E0,0E0,0E0,0E0,0E0,0E0],"parents":[2147483647,0,0,1,1,2,2,4,4,5,5,6,6,7,7,8,8,9,9,10,10,11,11],"right_children":[2,4,6,-1,8,10,12,14,16,18,20,22,-1,-1,-1,-1,-1,-1,-1,-1,-1,-1,-1],"split_conditions":[5.032826E-1,3.2995626E-1,6.0269874E-1,-1.5222249E-3,4.6905676E-1,5.2111894E-1,6.813071E-1,3.43807E-1,5.0495976E-1,5.10622E-1,5.6989753E-1,6.513832E-1,1.0878894E-3,9.882972E-5,-6.468639E-4,6.084144E-5,-9.888001E-4,6.253282E-4,-1.9989377E-4,4.7781924E-4,1.05531515E-4,7.669462E-4,1.7105938E-4],"split_indices":[1,0,0,0,0,3,0,0,0,0,0,0,0,0,0,0,0,0,0,0,0,0,0],"split_type":[0,0,0,0,0,0,0,0,0,0,0,0,0,0,0,0,0,0,0,0,0,0,0],"sum_hessian":[9.3E1,3.9E1,5.4E1,5E0,3.4E1,3.5E1,1.9E1,2.6E1,8E0,1E1,2.5E1,1.2E1,7E0,1E0,2.5E1,7E0,1E0,2E0,8E0,1.4E1,1.1E1,8E0,4E0],"tree_param":{"num_deleted":"0","num_feature":"4","num_nodes":"23","size_leaf_vector":"1"}},{"base_weights":[-1.379995E-3,-8.604894E-3,1.5359601E-2,-2.0856954E-2,-4.0220553E-3,1.0955274E-2,9.968799E-4,-1.4379903E-3,-1.5605103E-2,-8.058186E-3,-2.8541905E-4,1.1974491E-2,-1.3380498E-4,-3.657285E-4,-8.680403E-4,7.446061E-5,-4.496911E-4,7.107124E-4,-6.9490015E-5,4.3599817E-4,7.456588E-4],"categories":[],"categories_nodes":[],"categories_segments":[],"categories_sizes":[],"default_left":[0,0,0,0,0,0,0,0,0,0,0,0,0,0,0,0,0,0,0,0,0],"id":47,"left_children":[1,3,5,7,9,11,-1,-1,13,15,17,19,-1,-1,-1,-1,-1,-1,-1,-1,-1],"loss_changes":[1.1621648E-2,3.678111E-3,3.6630454E-4,2.9828213E-4,7.5177755E-4,2.682316E-4,0E0,0E0,6.2237494E-5,2.2778322E-4,4.521103E-4,2.2982247E-5,0E0,0E0,0E0,0E0,0E0,0E0,0E0,0E0,0E0],"parents":[2147483647,0,0,1,1,2,2,3,3,4,4,5,5,8,8,9,9,10,10,11,11],"right_children":[2,4,6,8,10,12,-1,-1,14,16,18,20,-1,-1,-1,-1,-1,-1,-1,-1,-1],"split_conditions":[5.748719E-1,3.7594575E-1,6.671906E-1,3.4268898E-1,5.032826E-1,6.6416353E-1,9.968799E-4,-1.4379903E-3,3.472559E-1,3.8064212E-1,5.036245E-1,6.316019E-1,-1.3380498E-4,-3.657285E-4,-8.680403E-4,7.446061E-5,-4.496911E-4,7.107124E-4,-6.9490015E-5,4.3599817E-4,7.456588E-4],"split_indices":[0,0,0,0,1,0,0,0,1,0,1,0,0,0,0,0,0,0,0,0,0],"split_type":[0,0,0,0,0,0,0,0,0,0,0,0,0,0,0,0,0,0,0,0,0],"sum_hessian":[9.4E1,6.6E1,2.8E1,1.7E1,4.9E1,1.6E1,1.2E1,5E0,1.2E1,2.3E1,2.6E1,1.5E1,1E0,3E0,9E0,2E0,2.1E1,1E0,2.5E1,9E0,6E0],"tree_param":{"num_deleted":"0","num_feature":"4","num_nodes":"21","size_leaf_vector":"1"}},{"base_weights":[7.8911224E-4,-1.4964932E-2,8.265804E-3,-1.2984726E-3,-1.2165431E-2,4.456163E-3,2.0737013E-2,1.5115291E-4,-1.2924246E-2,4.595456E-4,8.1146695E-3,2.2962347E-2,2.4616718E-4,1.05502455E-4,-6.834826E-4,4.033987E-4,-1.262409E-4,9.415353E-4,2.5884097E-4,1.6425848E-4,1.2226265E-3],"categories":[],"categories_nodes":[],"categories_segments":[],"categories_sizes":[],"default_left":[0,0,0,0,0,0,0,0,0,0,0,0,0,0,0,0,0,0,0,0,0],"id":48,"left_children":[1,3,5,-1,7,9,11,-1,13,15,17,19,-1,-1,-1,-1,-1,-1,-1,-1,-1],"loss_changes":[1.0606841E-2,5.7747774E-4,2.8057531E-3,0E0,3.2720203E-4,6.9811003E-4,3.796178E-4,0E0,2.978039E-4,5.6532177E-4,6.895695E-4,2.715406E-4,0E0,0E0,0E0,0E0,0E0,0E0,0E0,0E0,0E0],"parents":[2147483647,0,0,1,1,2,2,4,4,5,5,6,6,8,8,9,9,10,10,11,11],"right_children":[2,4,6,-1,8,10,12,-1,14,16,18,20,-1,-1,-1,-1,-1,-1,-1,-1,-1],"split_conditions":[4.6905676E-1,3.4268898E-1,6.58849E-1,-1.2984726E-3,8.91444E1,5.400302E-1,1.541392E2,1.5115291E-4,3.43807E-1,1.1430147E2,5.643461E-1,1.23319565E2,2.4616718E-4,1.05502455E-4,-6.834826E-4,4.033987E-4,-1.262409E-4,9.415353E-4,2.5884097E-4,1.6425848E-4,1.2226265E-3],"split_indices":[0,0,0,0,2,1,2,0,0,2,1,2,0,0,0,0,0,0,0,0,0],"split_type":[0,0,0,0,0,0,0,0,0,0,0,0,0,0,0,0,0,0,0,0,0],"sum_hessian":[8.8E1,2.8E1,6E1,4E0,2.4E1,4.7E1,1.3E1,1E0,2.3E1,2.3E1,2.4E1,1.1E1,2E0,1E0,2.2E1,6E0,1.7E1,4E0,2E1,1E0,1E1],"tree_param":{"num_deleted":"0","num_feature":"4","num_nodes":"21","size_leaf_vector":"1"}},{"base_weights":[-5.245398E-4,-1.1664364E-2,9.125779E-3,-2.0668177E-2,-6.4735175E-3,4.3028775E-3,1.6627278E-2,-1.1542707E-3,-1.0733175E-2,-4.260511E-3,-9.896465E-4,-9.972453E-4,6.0388064E-3,1.9333888E-2,7.0895455E-3,1.0286495E-4,-7.2225597E-4,-3.965315E-4,1.9804538E-4,-1.8758127E-4,1.6918183E-4,1.1609748E-3,1.3202768E-4,5.808264E-4,1.2317256E-3,-1.6102493E-4,4.897827E-4],"categories":[],"categories_nodes":[],"categories_segments":[],"categories_sizes":[],"default_left":[0,0,0,0,0,0,0,0,0,0,0,0,0,0,0,0,0,0,0,0,0,0,0,0,0,0,0],"id":49,"left_children":[1,3,5,7,9,11,13,-1,15,17,-1,19,21,23,25,-1,-1,-1,-1,-1,-1,-1,-1,-1,-1,-1,-1],"loss_changes":[1.0426721E-2,1.9693878E-3,1.8097628E-3,1.3646437E-4,7.999502E-4,3.0964316E-4,3.7922943E-4,0E0,2.6710553E-4,8.4609934E-4,0E0,1.2129367E-4,1.3982959E-3,3.2743486E-4,1.9894747E-4,0E0,0E0,0E0,0E0,0E0,0E0,0E0,0E0,0E0,0E0,0E0,0E0],"parents":[2147483647,0,0,1,1,2,2,3,3,4,4,5,5,6,6,8,8,9,9,11,11,12,12,13,13,14,14],"right_children":[2,4,6,8,10,12,14,-1,16,18,-1,20,22,24,26,-1,-1,-1,-1,-1,-1,-1,-1,-1,-1,-1,-1],"split_conditions":[5.156987E-1,3.619488E-1,6.0269874E-1,9.2526924E1,5.139014E-1,1.1745087E2,1.4643326E2,-1.1542707E-3,3.43807E-1,4.9314487E-1,-9.896465E-4,5.335207E-1,1.1872619E2,6.566516E-1,1.4643895E2,1.0286495E-4,-7.2225597E-4,-3.965315E-4,1.9804538E-4,-1.8758127E-4,1.6918183E-4,1.1609748E-3,1.3202768E-4,5.808264E-4,1.2317256E-3,-1.6102493E-4,4.897827E-4],"split_indices":[3,3,0,2,0,2,2,0,0,0,0,0,2,3,2,0,0,0,0,0,0,0,0,0,0,0,0],"split_type":[0,0,0,0,0,0,0,0,0,0,0,0,0,0,0,0,0,0,0,0,0,0,0,0,0,0,0],"sum_hessian":[9.5E1,4.4E1,5.1E1,1.5E1,2.9E1,3.2E1,1.9E1,1.1E1,4E0,2.6E1,3E0,8E0,2.4E1,1.4E1,5E0,1E0,3E0,1.8E1,8E0,5E0,3E0,3E0,2.1E1,7E0,7E0,1E0,4E0],"tree_param":{"num_deleted":"0","num_feature":"4","num_nodes":"27","size_leaf_vector":"1"}},{"base_weights":[-1.5985466E-3,-1.4598916E-2,5.4428997E-3,-1.3170178E-3,-1.1142166E-2,1.4980808E-3,1.3849357E-2,1.7623082E-4,-1.1815922E-2,4.2253244E-3,-1.9858778E-3,8.569246E-3,1.7390424E-2,1.00293015E-4,-6.212339E-4,3.0102989E-5,1.1548474E-3,-5.9565564E-4,1.559794E-4,-3.674999E-4,5.577359E-4,9.4353856E-4,6.467402E-5],"categories":[],"categories_nodes":[],"categories_segments":[],"categories_sizes":[],"default_left":[0,0,0,0,0,0,0,0,0,0,0,0,0,0,0,0,0,0,0,0,0,0,0],"id":50,"left_children":[1,3,5,-1,7,9,11,-1,13,15,17,19,21,-1,-1,-1,-1,-1,-1,-1,-1,-1,-1],"loss_changes":[8.867435E-3,1.0864767E-3,2.0684558E-3,0E0,3.1833746E-4,4.2646154E-4,2.2492139E-4,0E0,2.5210273E-4,1.6955164E-3,1.0508271E-3,4.935747E-4,2.37711E-4,0E0,0E0,0E0,0E0,0E0,0E0,0E0,0E0,0E0,0E0],"parents":[2147483647,0,0,1,1,2,2,4,4,5,5,6,6,8,8,9,9,10,10,11,11,12,12],"right_children":[2,4,6,-1,8,10,12,-1,14,16,18,20,22,-1,-1,-1,-1,-1,-1,-1,-1,-1,-1],"split_conditions":[4.4025064E-1,3.4268898E-1,6.0269874E-1,-1.3170178E-3,8.91444E1,1.1915807E2,6.566516E-1,1.7623082E-4,3.43807E-1,1.176629E2,1.2122221E2,1.3937122E2,1.4825122E2,1.00293015E-4,-6.212339E-4,3.0102989E-5,1.1548474E-3,-5.9565564E-4,1.559794E-4,-3.674999E-4,5.577359E-4,9.4353856E-4,6.467402E-5],"split_indices":[0,0,0,0,2,2,3,0,0,2,2,2,2,0,0,0,0,0,0,0,0,0,0],"split_type":[0,0,0,0,0,0,0,0,0,0,0,0,0,0,0,0,0,0,0,0,0,0,0],"sum_hessian":[9.5E1,3.3E1,6.2E1,6E0,2.7E1,4.3E1,1.9E1,1E0,2.6E1,2.4E1,1.9E1,9E0,1E1,1E0,2.5E1,2.1E1,3E0,6E0,1.3E1,1E0,8E0,9E0,1E0],"tree_param":{"num_deleted":"0","num_feature":"4","num_nodes":"23","size_leaf_vector":"1"}},{"base_weights":[4.179932E-4,-8.746438E-3,8.895837E-3,-1.260574E-3,-5.9282165E-3,5.730764E-3,9.21858E-4,-8.8818045E-3,-1.9398198E-3,2.3356644E-3,7.946005E-3,-3.664084E-5,-4.9798604E-4,1.07417814E-4,-7.31701E-4,6.735236E-4,5.0954523E-6,1.7580122E-3,2.673534E-4],"categories":[],"categories_nodes":[],"categories_segments":[],"categories_sizes":[],"default_left":[0,0,0,0,0,0,0,0,0,0,0,0,0,0,0,0,0,0,0],"id":51,"left_children":[1,3,5,-1,7,9,-1,11,13,15,17,-1,-1,-1,-1,-1,-1,-1,-1],"loss_changes":[8.080351E-3,2.1706477E-3,1.5250864E-3,0E0,5.010945E-4,2.9732112E-4,0E0,2.122994E-4,1.0693615E-3,4.4633108E-4,1.580198E-3,0E0,0E0,0E0,0E0,0E0,0E0,0E0,0E0],"parents":[2147483647,0,0,1,1,2,2,4,4,5,5,7,7,8,8,9,9,10,10],"right_children":[2,4,6,-1,8,10,-1,12,14,16,18,-1,-1,-1,-1,-1,-1,-1,-1],"split_conditions":[5.2109516E-1,3.4268898E-1,6.671906E-1,-1.260574E-3,4.4025064E-1,5.5982304E-1,9.21858E-4,3.472559E-1,5.139014E-1,5.2229154E-1,5.609869E-1,-3.664084E-5,-4.9798604E-4,1.07417814E-4,-7.31701E-4,6.735236E-4,5.0954523E-6,1.7580122E-3,2.673534E-4],"split_indices":[1,0,0,0,0,0,0,1,0,1,0,0,0,0,0,0,0,0,0],"split_type":[0,0,0,0,0,0,0,0,0,0,0,0,0,0,0,0,0,0,0],"sum_hessian":[1.02E2,4.9E1,5.3E1,6E0,4.3E1,4.1E1,1.2E1,2.4E1,1.9E1,1.7E1,2.4E1,3E0,2.1E1,1.5E1,4E0,2E0,1.5E1,1E0,2.3E1],"tree_param":{"num_deleted":"0","num_feature":"4","num_nodes":"19","size_leaf_vector":"1"}},{"base_weights":[-5.493572E-4,-1.0245778E-2,7.327915E-3,-1.2065492E-3,-7.3419344E-3,5.2183154E-3,9.271063E-4,-5.795724E-3,-1.8649235E-2,3.8471962E-3,8.077502E-3,-5.078718E-4,1.01572965E-4,-1.0658279E-3,-2.6618168E-4,3.2030683E-4,-9.265298E-5,5.257566E-4,-3.226772E-5],"categories":[],"categories_nodes":[],"categories_segments":[],"categories_sizes":[],"default_left":[0,0,0,0,0,0,0,0,0,0,0,0,0,0,0,0,0,0,0],"id":52,"left_children":[1,3,5,-1,7,9,-1,11,13,15,17,-1,-1,-1,-1,-1,-1,-1,-1],"loss_changes":[7.3313084E-3,1.5566121E-3,1.1570889E-3,0E0,5.3880224E-4,1.4925736E-4,0E0,1.1813918E-3,2.8693234E-5,4.932292E-4,3.0446926E-4,0E0,0E0,0E0,0E0,0E0,0E0,0E0,0E0],"parents":[2147483647,0,0,1,1,2,2,4,4,5,5,7,7,8,8,9,9,10,10],"right_children":[2,4,6,-1,8,10,-1,12,14,16,18,-1,-1,-1,-1,-1,-1,-1,-1],"split_conditions":[5.12095E-1,3.4268898E-1,6.989444E-1,-1.2065492E-3,5.1340735E-1,6.0269874E-1,9.271063E-4,4.3738684E-1,5.0685376E-1,5.657942E-1,6.6545224E-1,-5.078718E-4,1.01572965E-4,-1.0658279E-3,-2.6618168E-4,3.2030683E-4,-9.265298E-5,5.257566E-4,-3.226772E-5],"split_indices":[1,0,0,0,0,0,0,3,1,1,3,0,0,0,0,0,0,0,0],"split_type":[0,0,0,0,0,0,0,0,0,0,0,0,0,0,0,0,0,0,0],"sum_hessian":[9.4E1,4.2E1,5.2E1,6E0,3.6E1,4.5E1,7E0,3.3E1,3E0,3.2E1,1.3E1,2.1E1,1.2E1,2E0,1E0,2.2E1,1E1,1E1,3E0],"tree_param":{"num_deleted":"0","num_feature":"4","num_nodes":"19","size_leaf_vector":"1"}},{"base_weights":[-2.4642513E-4,-1.2701429E-2,6.8442915E-3,-1.0949622E-3,-7.107102E-3,6.1641214E-4,1.1222311E-2,1.3448953E-3,-9.06004E-3,6.719306E-4,-4.7778836E-4,1.7060534E-3,9.494439E-3,-1.9449145E-4,1.8130169E-4,-3.2955792E-4,-7.080451E-4,-3.6494614E-4,6.2569234E-5,2.7642303E-4,8.461904E-4],"categories":[],"categories_nodes":[],"categories_segments":[],"categories_sizes":[],"default_left":[0,0,0,0,0,0,0,0,0,0,0,0,0,0,0,0,0,0,0,0,0],"id":53,"left_children":[1,3,5,-1,7,9,11,13,15,-1,17,-1,19,-1,-1,-1,-1,-1,-1,-1,-1],"loss_changes":[8.035274E-3,1.5423936E-3,1.5744979E-3,0E0,3.7532183E-4,3.5717225E-4,1.0212883E-3,7.3810304E-5,1.333449E-4,0E0,2.9221186E-4,0E0,8.7877293E-4,0E0,0E0,0E0,0E0,0E0,0E0,0E0,0E0],"parents":[2147483647,0,0,1,1,2,2,4,4,5,5,6,6,7,7,8,8,10,10,12,12],"right_children":[2,4,6,-1,8,10,12,14,16,-1,18,-1,20,-1,-1,-1,-1,-1,-1,-1,-1],"split_conditions":[5.032826E-1,3.5676742E-1,5.615335E-1,-1.0949622E-3,9.388232E1,5.036245E-1,5.643461E-1,8.987385E1,1.13559006E2,6.719306E-4,5.12095E-1,1.7060534E-3,6.7175907E-1,-1.9449145E-4,1.8130169E-4,-3.2955792E-4,-7.080451E-4,-3.6494614E-4,6.2569234E-5,2.7642303E-4,8.461904E-4],"split_indices":[1,3,3,0,2,1,1,2,2,0,1,0,3,0,0,0,0,0,0,0,0],"split_type":[0,0,0,0,0,0,0,0,0,0,0,0,0,0,0,0,0,0,0,0,0],"sum_hessian":[8.9E1,3.2E1,5.7E1,1.1E1,2.1E1,2.4E1,3.3E1,4E0,1.7E1,1E0,2.3E1,1E0,3.2E1,1E0,3E0,1.3E1,4E0,4E0,1.9E1,2.2E1,1E1],"tree_param":{"num_deleted":"0","num_feature":"4","num_nodes":"21","size_leaf_vector":"1"}},{"base_weights":[1.2376656E-4,-7.708453E-3,1.1281585E-2,-1.5622844E-2,-4.238866E-3,9.208212E-3,9.212028E-4,-1.0449336E-3,-1.1683027E-2,-5.1914817E-3,2.1833081E-3,1.463459E-2,6.886387E-3,2.1281168E-4,-6.7594904E-4,-1.8242214E-4,-8.3118415E-4,2.1353588E-4,-6.6383676E-5,4.0734521E-4,1.6634017E-3,-1.2381418E-4,4.9866753E-4],"categories":[],"categories_nodes":[],"categories_segments":[],"categories_sizes":[],"default_left":[0,0,0,0,0,0,0,0,0,0,0,0,0,0,0,0,0,0,0,0,0,0,0],"id":54,"left_children":[1,3,5,7,9,11,-1,-1,13,15,17,19,21,-1,-1,-1,-1,-1,-1,-1,-1,-1,-1],"loss_changes":[8.476451E-3,1.4989779E-3,4.2270776E-4,1.0919897E-4,2.6216713E-4,3.14991E-4,0E0,0E0,4.0870486E-4,5.744014E-4,4.9643255E-5,8.1695954E-4,7.472524E-4,0E0,0E0,0E0,0E0,0E0,0E0,0E0,0E0,0E0,0E0],"parents":[2147483647,0,0,1,1,2,2,3,3,4,4,5,5,8,8,9,9,10,10,11,11,12,12],"right_children":[2,4,6,8,10,12,-1,-1,14,16,18,20,22,-1,-1,-1,-1,-1,-1,-1,-1,-1,-1],"split_conditions":[5.389531E-1,3.619488E-1,7.0005393E-1,3.4268898E-1,1.2122221E2,1.1872619E2,9.212028E-4,-1.0449336E-3,8.91444E1,1.176629E2,5.220266E-1,1.1810973E2,5.677738E-1,2.1281168E-4,-6.7594904E-4,-1.8242214E-4,-8.3118415E-4,2.1353588E-4,-6.6383676E-5,4.0734521E-4,1.6634017E-3,-1.2381418E-4,4.9866753E-4],"split_indices":[0,3,0,0,2,2,0,0,2,2,0,2,3,0,0,0,0,0,0,0,0,0,0],"split_type":[0,0,0,0,0,0,0,0,0,0,0,0,0,0,0,0,0,0,0,0,0,0,0],"sum_hessian":[9.5E1,5.6E1,3.9E1,1.6E1,4E1,3.2E1,7E0,5E0,1.1E1,3.5E1,5E0,8E0,2.4E1,1E0,1E1,3.2E1,3E0,3E0,2E0,7E0,1E0,6E0,1.8E1],"tree_param":{"num_deleted":"0","num_feature":"4","num_nodes":"23","size_leaf_vector":"1"}},{"base_weights":[-5.2859786E-4,-1.0411061E-2,4.8993435E-3,-1.0013948E-3,-8.06237E-3,3.33488E-6,9.201796E-3,2.0749122E-4,-8.646728E-3,7.1476228E-3,-2.0805548E-3,1.6218171E-3,7.4620806E-3,1.5567095E-4,-4.5988002E-4,9.2982875E-5,5.3243415E-4,-4.924331E-4,-2.5092066E-5,-1.6612156E-4,5.0393E-4],"categories":[],"categories_nodes":[],"categories_segments":[],"categories_sizes":[],"default_left":[0,0,0,0,0,0,0,0,0,0,0,0,0,0,0,0,0,0,0,0,0],"id":55,"left_children":[1,3,5,-1,7,9,11,-1,13,15,17,-1,19,-1,-1,-1,-1,-1,-1,-1,-1],"loss_changes":[5.146944E-3,6.064847E-4,1.3059893E-3,0E0,2.4283503E-4,4.6150826E-4,1.0918668E-3,0E0,2.1002954E-4,1.0979152E-4,2.893843E-4,0E0,9.3645754E-4,0E0,0E0,0E0,0E0,0E0,0E0,0E0,0E0],"parents":[2147483647,0,0,1,1,2,2,4,4,5,5,6,6,8,8,9,9,10,10,12,12],"right_children":[2,4,6,-1,8,10,12,-1,14,16,18,-1,20,-1,-1,-1,-1,-1,-1,-1,-1],"split_conditions":[1.10047455E2,3.385137E-1,5.616263E-1,-1.0013948E-3,8.91444E1,1.1407132E2,5.643461E-1,2.0749122E-4,3.413059E-1,4.834845E-1,1.1449502E2,1.6218171E-3,5.7103056E-1,1.5567095E-4,-4.5988002E-4,9.2982875E-5,5.3243415E-4,-4.924331E-4,-2.5092066E-5,-1.6612156E-4,5.0393E-4],"split_indices":[2,1,1,0,2,2,1,0,1,1,2,0,1,0,0,0,0,0,0,0,0],"split_type":[0,0,0,0,0,0,0,0,0,0,0,0,0,0,0,0,0,0,0,0,0],"sum_hessian":[9.4E1,3.3E1,6.1E1,5E0,2.8E1,2.9E1,3.2E1,1E0,2.7E1,6E0,2.3E1,1E0,3.1E1,1E0,2.6E1,3E0,3E0,3E0,2E1,6E0,2.5E1],"tree_param":{"num_deleted":"0","num_feature":"4","num_nodes":"21","size_leaf_vector":"1"}},{"base_weights":[-1.0503078E-3,-5.7111527E-3,1.1708829E-2,-1.6424207E-2,-2.09361E-3,7.829473E-3,1.5581107E-2,-9.018303E-4,-7.4809566E-3,-5.754614E-4,-5.1927525E-3,9.859876E-3,-2.2251606E-3,9.3438104E-4,2.1033685E-3,1.517795E-4,-5.999168E-4,-1.11157286E-4,4.3833317E-4,-4.150619E-5,-3.6455275E-4,6.948465E-4,2.7838562E-4,-2.1844059E-4,5.1553547E-5,-5.403161E-6,1.631558E-4],"categories":[],"categories_nodes":[],"categories_segments":[],"categories_sizes":[],"default_left":[0,0,0,0,0,0,0,0,0,0,0,0,0,0,0,0,0,0,0,0,0,0,0,0,0,0,0],"id":56,"left_children":[1,3,5,7,9,11,13,-1,15,17,19,21,23,-1,25,-1,-1,-1,-1,-1,-1,-1,-1,-1,-1,-1,-1],"loss_changes":[4.883808E-3,2.2909099E-3,2.0849053E-4,8.1370585E-5,2.1343988E-4,2.8733432E-4,3.79381E-4,0E0,2.2645092E-4,5.1206147E-4,1.312592E-4,1.1323043E-4,2.5445228E-5,0E0,8.04673E-6,0E0,0E0,0E0,0E0,0E0,0E0,0E0,0E0,0E0,0E0,0E0,0E0],"parents":[2147483647,0,0,1,1,2,2,3,3,4,4,5,5,6,6,8,8,9,9,10,10,11,11,12,12,14,14],"right_children":[2,4,6,8,10,12,14,-1,16,18,20,22,24,-1,26,-1,-1,-1,-1,-1,-1,-1,-1,-1,-1,-1,-1],"split_conditions":[5.7103056E-1,3.619488E-1,6.7175907E-1,9.2526924E1,5.2552307E-1,6.608602E-1,1.4825122E2,-9.018303E-4,3.413059E-1,1.2122221E2,1.1935386E2,5.983184E-1,6.6458595E-1,9.3438104E-4,6.9288003E-1,1.517795E-4,-5.999168E-4,-1.11157286E-4,4.3833317E-4,-4.150619E-5,-3.6455275E-4,6.948465E-4,2.7838562E-4,-2.1844059E-4,5.1553547E-5,-5.403161E-6,1.631558E-4],"split_indices":[1,3,3,2,1,1,2,0,1,2,2,1,1,0,1,0,0,0,0,0,0,0,0,0,0,0,0],"split_type":[0,0,0,0,0,0,0,0,0,0,0,0,0,0,0,0,0,0,0,0,0,0,0,0,0,0,0],"sum_hessian":[8E1,5.9E1,2.1E1,1.4E1,4.5E1,1.2E1,9E0,1.1E1,3E0,3.1E1,1.4E1,1E1,2E0,7E0,2E0,1E0,2E0,2.7E1,4E0,5E0,9E0,4E0,6E0,1E0,1E0,1E0,1E0],"tree_param":{"num_deleted":"0","num_feature":"4","num_nodes":"27","size_leaf_vector":"1"}},{"base_weights":[3.8232183E-4,-8.345431E-3,7.357572E-3,-6.8667193E-4,-5.3732456E-3,5.673538E-3,7.6672336E-4,-3.4502635E-3,-1.7010063E-2,2.5256528E-3,7.540306E-3,-2.9547026E-4,4.2759208E-4,-9.80169E-4,-2.3075267E-4,4.6557846E-4,4.765193E-6,1.5823081E-3,2.7745814E-4],"categories":[],"categories_nodes":[],"categories_segments":[],"categories_sizes":[],"default_left":[0,0,0,0,0,0,0,0,0,0,0,0,0,0,0,0,0,0,0],"id":57,"left_children":[1,3,5,-1,7,9,-1,11,13,15,17,-1,-1,-1,-1,-1,-1,-1,-1],"loss_changes":[6.0274717E-3,6.308297E-4,6.518343E-4,0E0,6.126325E-4,2.5714538E-4,0E0,8.474381E-4,3.810611E-5,3.1246326E-4,1.2163386E-3,0E0,0E0,0E0,0E0,0E0,0E0,0E0,0E0],"parents":[2147483647,0,0,1,1,2,2,4,4,5,5,7,7,8,8,9,9,10,10],"right_children":[2,4,6,-1,8,10,-1,12,14,16,18,-1,-1,-1,-1,-1,-1,-1,-1],"split_conditions":[5.12095E-1,3.619488E-1,6.989444E-1,-6.8667193E-4,5.098161E-1,5.5982304E-1,7.6672336E-4,4.986761E-1,5.0685376E-1,5.2229154E-1,5.609869E-1,-2.9547026E-4,4.2759208E-4,-9.80169E-4,-2.3075267E-4,4.6557846E-4,4.765193E-6,1.5823081E-3,2.7745814E-4],"split_indices":[1,3,0,0,0,0,0,1,1,1,0,0,0,0,0,0,0,0,0],"split_type":[0,0,0,0,0,0,0,0,0,0,0,0,0,0,0,0,0,0,0],"sum_hessian":[9.7E1,4.3E1,5.4E1,1.4E1,2.9E1,4.6E1,8E0,2.6E1,3E0,1.8E1,2.8E1,2.2E1,4E0,2E0,1E0,4E0,1.4E1,1E0,2.7E1],"tree_param":{"num_deleted":"0","num_feature":"4","num_nodes":"19","size_leaf_vector":"1"}},{"base_weights":[3.504491E-5,-8.418913E-3,5.7216156E-3,-7.275713E-3,-9.474968E-4,7.138938E-4,8.34475E-3,-9.404528E-3,-1.7760694E-3,5.1377774E-3,-3.3727179E-3,2.234598E-2,6.863913E-3,-8.4481057E-4,-3.807463E-4,4.258241E-5,-2.5498302E-4,9.3291535E-5,8.646324E-4,-2.7571534E-4,1.5002489E-5,1.331985E-4,1.54275E-3,-1.706183E-4,3.9842338E-4],"categories":[],"categories_nodes":[],"categories_segments":[],"categories_sizes":[],"default_left":[0,0,0,0,0,0,0,0,0,0,0,0,0,0,0,0,0,0,0,0,0,0,0,0,0],"id":58,"left_children":[1,3,5,7,-1,9,11,13,15,17,19,21,23,-1,-1,-1,-1,-1,-1,-1,-1,-1,-1,-1,-1],"loss_changes":[4.4229063E-3,3.075709E-4,7.165186E-4,3.930675E-4,0E0,3.7890216E-4,5.9302617E-4,2.0651496E-4,1.00411155E-4,3.6543573E-4,8.81757E-5,4.2022695E-4,4.1311583E-4,0E0,0E0,0E0,0E0,0E0,0E0,0E0,0E0,0E0,0E0,0E0,0E0],"parents":[2147483647,0,0,1,1,2,2,3,3,5,5,6,6,7,7,8,8,9,9,10,10,11,11,12,12],"right_children":[2,4,6,8,-1,10,12,14,16,18,20,22,24,-1,-1,-1,-1,-1,-1,-1,-1,-1,-1,-1,-1],"split_conditions":[5.082627E-1,1.1752649E2,5.545548E-1,4.3738684E-1,-9.474968E-4,5.2294075E-1,5.609869E-1,3.4268898E-1,1.13559006E2,5.222023E-1,5.4555535E-1,5.564887E-1,5.7293266E-1,-8.4481057E-4,-3.807463E-4,4.258241E-5,-2.5498302E-4,9.3291535E-5,8.646324E-4,-2.7571534E-4,1.5002489E-5,1.331985E-4,1.54275E-3,-1.706183E-4,3.9842338E-4],"split_indices":[3,2,3,3,0,0,0,0,2,0,0,0,0,0,0,0,0,0,0,0,0,0,0,0,0],"split_type":[0,0,0,0,0,0,0,0,0,0,0,0,0,0,0,0,0,0,0,0,0,0,0,0,0],"sum_hessian":[9E1,3.6E1,5.4E1,3.4E1,2E0,1.9E1,3.5E1,2.4E1,1E1,9E0,1E1,2E0,3.3E1,3E0,2.1E1,6E0,4E0,8E0,1E0,6E0,4E0,1E0,1E0,3E0,3E1],"tree_param":{"num_deleted":"0","num_feature":"4","num_nodes":"25","size_leaf_vector":"1"}},{"base_weights":[9.088644E-4,-5.2929274E-3,8.055182E-3,-1.1774214E-2,-2.5952372E-3,4.526975E-3,1.2644994E-2,-8.97007E-4,-7.901138E-3,-4.3714046E-4,-5.2354075E-3,1.0843681E-2,1.2965893E-3,1.3879025E-2,1.4371475E-3,2.5153533E-4,-4.8486964E-4,-2.5585282E-4,3.4456502E-4,-5.73154E-4,1.3513565E-5,2.3391172E-4,1.5041813E-3,-2.4702013E-4,3.7019613E-4,3.336817E-5,7.331522E-4,-2.2163988E-5,1.2995004E-4],"categories":[],"categories_nodes":[],"categories_segments":[],"categories_sizes":[],"default_left":[0,0,0,0,0,0,0,0,0,0,0,0,0,0,0,0,0,0,0,0,0,0,0,0,0,0,0,0,0],"id":59,"left_children":[1,3,5,7,9,11,13,-1,15,17,19,21,23,25,27,-1,-1,-1,-1,-1,-1,-1,-1,-1,-1,-1,-1,-1,-1],"loss_changes":[4.2973533E-3,8.786373E-4,6.7147776E-4,2.1646917E-4,2.1422561E-4,5.368859E-4,2.4283957E-4,0E0,3.043025E-4,7.89786E-4,5.859867E-4,9.2686736E-4,7.603146E-4,1.6630371E-4,7.706427E-6,0E0,0E0,0E0,0E0,0E0,0E0,0E0,0E0,0E0,0E0,0E0,0E0,0E0,0E0],"parents":[2147483647,0,0,1,1,2,2,3,3,4,4,5,5,6,6,8,8,9,9,10,10,11,11,12,12,13,13,14,14],"right_children":[2,4,6,8,10,12,14,-1,16,18,20,22,24,26,28,-1,-1,-1,-1,-1,-1,-1,-1,-1,-1,-1,-1,-1,-1],"split_conditions":[5.3377986E-1,3.7099764E-1,6.3508844E-1,3.385137E-1,1.1430147E2,1.1872619E2,1.541392E2,-8.97007E-4,8.91444E1,1.10047455E2,5.12095E-1,1.1810973E2,5.7103056E-1,1.23319565E2,6.9288003E-1,2.5153533E-4,-4.8486964E-4,-2.5585282E-4,3.4456502E-4,-5.73154E-4,1.3513565E-5,2.3391172E-4,1.5041813E-3,-2.4702013E-4,3.7019613E-4,3.336817E-5,7.331522E-4,-2.2163988E-5,1.2995004E-4],"split_indices":[1,1,1,1,2,2,2,0,2,2,1,2,1,2,1,0,0,0,0,0,0,0,0,0,0,0,0,0,0],"split_type":[0,0,0,0,0,0,0,0,0,0,0,0,0,0,0,0,0,0,0,0,0,0,0,0,0,0,0,0,0],"sum_hessian":[9.5E1,5.1E1,4.4E1,1.4E1,3.7E1,2.6E1,1.8E1,4E0,1E1,2.1E1,1.6E1,8E0,1.8E1,1.6E1,2E0,1E0,9E0,1.3E1,8E0,7E0,9E0,7E0,1E0,9E0,9E0,1E0,1.5E1,1E0,1E0],"tree_param":{"num_deleted":"0","num_feature":"4","num_nodes":"29","size_leaf_vector":"1"}},{"base_weights":[-2.7224014E-4,-7.276E-3,6.4512077E-3,-8.7748555E-4,-5.344488E-3,4.716909E-3,1.2743282E-2,-4.146696E-3,-1.1640494E-2,3.377537E-3,9.652205E-3,1.3596084E-2,1.2670159E-4,-3.125467E-4,6.0196497E-5,-8.9680805E-4,-2.0043105E-4,3.3905538E-4,-5.794108E-5,6.2247005E-4,-2.482042E-4,3.5132095E-4,7.8549236E-4],"categories":[],"categories_nodes":[],"categories_segments":[],"categories_sizes":[],"default_left":[0,0,0,0,0,0,0,0,0,0,0,0,0,0,0,0,0,0,0,0,0,0,0],"id":60,"left_children":[1,3,5,-1,7,9,11,13,15,17,19,21,-1,-1,-1,-1,-1,-1,-1,-1,-1,-1,-1],"loss_changes":[4.520433E-3,8.388639E-4,4.7459593E-4,0E0,2.60924E-4,2.3180724E-4,5.2611693E-5,4.128493E-4,2.1638715E-4,5.1737204E-4,3.8887677E-4,1.4596502E-5,0E0,0E0,0E0,0E0,0E0,0E0,0E0,0E0,0E0,0E0,0E0],"parents":[2147483647,0,0,1,1,2,2,4,4,5,5,6,6,7,7,8,8,9,9,10,10,11,11],"right_children":[2,4,6,-1,8,10,12,14,16,18,20,22,-1,-1,-1,-1,-1,-1,-1,-1,-1,-1,-1],"split_conditions":[5.2109516E-1,3.4268898E-1,6.6458595E-1,-8.7748555E-4,5.139014E-1,1.4422984E2,1.4825122E2,1.10047455E2,5.0685376E-1,5.6739146E-1,6.6416353E-1,7.0005393E-1,1.2670159E-4,-3.125467E-4,6.0196497E-5,-8.9680805E-4,-2.0043105E-4,3.3905538E-4,-5.794108E-5,6.2247005E-4,-2.482042E-4,3.5132095E-4,7.8549236E-4],"split_indices":[1,0,1,0,0,2,2,2,1,1,0,0,0,0,0,0,0,0,0,0,0,0,0],"split_type":[0,0,0,0,0,0,0,0,0,0,0,0,0,0,0,0,0,0,0,0,0,0,0],"sum_hessian":[9.4E1,4.6E1,4.8E1,6E0,4E1,3.9E1,9E0,3.5E1,5E0,3.2E1,7E0,8E0,1E0,2.5E1,1E1,2E0,3E0,1.8E1,1.4E1,6E0,1E0,3E0,5E0],"tree_param":{"num_deleted":"0","num_feature":"4","num_nodes":"23","size_leaf_vector":"1"}},{"base_weights":[5.523151E-4,-7.094819E-3,5.386295E-3,-1.2081349E-2,-3.3174586E-3,3.0330818E-3,1.1668064E-2,-8.1199006E-4,-8.714798E-3,-1.1565089E-3,-8.669143E-4,2.1837906E-3,4.6953262E-4,1.5036231E-2,3.5484135E-3,2.5306045E-4,-5.29926E-4,-1.6118174E-4,3.0515107E-4,1.5837167E-4,-3.8533806E-4,3.1355818E-4,8.1436144E-4,-2.4199933E-4,3.0970454E-4],"categories":[],"categories_nodes":[],"categories_segments":[],"categories_sizes":[],"default_left":[0,0,0,0,0,0,0,0,0,0,0,0,0,0,0,0,0,0,0,0,0,0,0,0,0],"id":61,"left_children":[1,3,5,7,9,11,13,-1,15,17,-1,19,-1,21,23,-1,-1,-1,-1,-1,-1,-1,-1,-1,-1],"loss_changes":[3.623926E-3,6.756856E-4,8.5155026E-4,8.246768E-5,6.7680905E-4,2.2246703E-4,3.8421853E-4,0E0,3.390931E-4,3.348075E-4,0E0,4.2329016E-4,0E0,1.8476043E-5,1.6313732E-4,0E0,0E0,0E0,0E0,0E0,0E0,0E0,0E0,0E0,0E0],"parents":[2147483647,0,0,1,1,2,2,3,3,4,4,5,5,6,6,8,8,9,9,11,11,13,13,14,14],"right_children":[2,4,6,8,10,12,14,-1,16,18,-1,20,-1,22,24,-1,-1,-1,-1,-1,-1,-1,-1,-1,-1],"split_conditions":[5.12095E-1,3.619488E-1,6.565821E-1,3.385137E-1,1.176629E2,1.4422984E2,1.4563986E2,-8.1199006E-4,8.91444E1,4.986761E-1,-8.669143E-4,6.1278975E-1,4.6953262E-4,1.23319565E2,1.4643895E2,2.5306045E-4,-5.29926E-4,-1.6118174E-4,3.0515107E-4,1.5837167E-4,-3.8533806E-4,3.1355818E-4,8.1436144E-4,-2.4199933E-4,3.0970454E-4],"split_indices":[1,3,1,1,2,2,2,0,2,1,0,1,0,2,2,0,0,0,0,0,0,0,0,0,0],"split_type":[0,0,0,0,0,0,0,0,0,0,0,0,0,0,0,0,0,0,0,0,0,0,0,0,0],"sum_hessian":[9.6E1,3.7E1,5.9E1,1.5E1,2.2E1,4.4E1,1.5E1,5E0,1E1,2E1,2E0,4E1,4E0,1E1,5E0,1E0,9E0,1.6E1,4E0,3.7E1,3E0,2E0,8E0,1E0,4E0],"tree_param":{"num_deleted":"0","num_feature":"4","num_nodes":"25","size_leaf_vector":"1"}},{"base_weights":[1.2668436E-3,-4.8114574E-3,8.617475E-3,-1.0574809E-2,-1.6187578E-3,5.2119247E-3,1.0512739E-2,-7.5051136E-4,-7.7142464E-3,1.0936558E-3,-4.090551E-3,1.0881633E-2,-2.5267005E-3,1.0985281E-2,-3.2520296E-5,2.4673418E-4,-4.589774E-4,-1.934424E-4,3.5800395E-4,-4.1654744E-4,-3.1737847E-5,2.8139254E-4,1.4541418E-3,9.661019E-5,-3.734328E-4,6.328708E-4,3.8532182E-4],"categories":[],"categories_nodes":[],"categories_segments":[],"categories_sizes":[],"default_left":[0,0,0,0,0,0,0,0,0,0,0,0,0,0,0,0,0,0,0,0,0,0,0,0,0,0,0],"id":62,"left_children":[1,3,5,7,9,11,13,-1,15,17,19,21,23,25,-1,-1,-1,-1,-1,-1,-1,-1,-1,-1,-1,-1,-1],"loss_changes":[4.151963E-3,9.2131516E-4,2.1629408E-4,1.12587586E-4,2.3242753E-4,7.7338226E-4,1.4429633E-4,0E0,2.8624665E-4,5.394803E-4,2.5848282E-4,7.925775E-4,1.9071662E-4,3.9523235E-5,0E0,0E0,0E0,0E0,0E0,0E0,0E0,0E0,0E0,0E0,0E0,0E0,0E0],"parents":[2147483647,0,0,1,1,2,2,3,3,4,4,5,5,6,6,8,8,9,9,10,10,11,11,12,12,13,13],"right_children":[2,4,6,8,10,12,14,-1,16,18,20,22,24,26,-1,-1,-1,-1,-1,-1,-1,-1,-1,-1,-1,-1,-1],"split_conditions":[5.400302E-1,3.773843E-1,1.2235386E2,3.385137E-1,1.1430147E2,1.1872619E2,1.541392E2,-7.5051136E-4,8.91444E1,1.10047455E2,5.0685376E-1,1.1810973E2,5.653681E-1,1.4327408E2,-3.2520296E-5,2.4673418E-4,-4.589774E-4,-1.934424E-4,3.5800395E-4,-4.1654744E-4,-3.1737847E-5,2.8139254E-4,1.4541418E-3,9.661019E-5,-3.734328E-4,6.328708E-4,3.8532182E-4],"split_indices":[1,1,2,1,2,2,2,0,2,2,1,2,1,2,0,0,0,0,0,0,0,0,0,0,0,0,0],"split_type":[0,0,0,0,0,0,0,0,0,0,0,0,0,0,0,0,0,0,0,0,0,0,0,0,0,0,0],"sum_hessian":[9.1E1,5E1,4.1E1,1.7E1,3.3E1,1.6E1,2.5E1,5E0,1.2E1,1.6E1,1.7E1,9E0,7E0,2.4E1,1E0,1E0,1.1E1,9E0,7E0,7E0,1E1,8E0,1E0,4E0,3E0,1.4E1,1E1],"tree_param":{"num_deleted":"0","num_feature":"4","num_nodes":"27","size_leaf_vector":"1"}},{"base_weights":[-4.4808185E-4,-5.000144E-3,6.64535E-3,-1.0445051E-2,-1.6850547E-3,1.5446365E-2,5.377186E-3,-7.7291386E-4,-7.409209E-3,-1.1925101E-3,-4.7310293E-4,8.456509E-5,1.4177889E-3,-4.2775786E-3,7.6811183E-3,-2.331078E-5,-4.945776E-4,-9.082993E-5,2.049163E-4,2.2331874E-4,-4.3342175E-4,2.9125446E-4,6.6031865E-4],"categories":[],"categories_nodes":[],"categories_segments":[],"categories_sizes":[],"default_left":[0,0,0,0,0,0,0,0,0,0,0,0,0,0,0,0,0,0,0,0,0,0,0],"id":63,"left_children":[1,3,5,7,9,11,13,-1,15,17,-1,-1,-1,19,21,-1,-1,-1,-1,-1,-1,-1,-1],"loss_changes":[2.9715942E-3,9.932192E-4,3.187426E-4,2.0507304E-4,1.2661517E-4,6.6232105E-4,7.6690596E-4,0E0,2.5391154E-4,1.2301328E-4,0E0,0E0,0E0,3.0747056E-4,1.9995763E-4,0E0,0E0,0E0,0E0,0E0,0E0,0E0,0E0],"parents":[2147483647,0,0,1,1,2,2,3,3,4,4,5,5,6,6,8,8,9,9,13,13,14,14],"right_children":[2,4,6,8,10,12,14,-1,16,18,-1,-1,-1,20,22,-1,-1,-1,-1,-1,-1,-1,-1],"split_conditions":[5.5310035E-1,3.7594575E-1,5.643461E-1,