{"learner":{"attributes":{"scikit_learn":"{\"_estimator_type\": \"regressor\"}"},"feature_names":[],"feature_types":[],"gradient_booster":{"model":{"gbtree_model_param":{"num_parallel_tree":"1","num_trees":"1000"},"iteration_indptr":[0,1,2,3,4,5,6,7,8,9,10,11,12,13,14,15,16,17,18,19,20,21,22,23,24,25,26,27,28,29,30,31,32,33,34,35,36,37,38,39,40,41,42,43,44,45,46,47,48,49,50,51,52,53,54,55,56,57,58,59,60,61,62,63,64,65,66,67,68,69,70,71,72,73,74,75,76,77,78,79,80,81,82,83,84,85,86,87,88,89,90,91,92,93,94,95,96,97,98,99,100,101,102,103,104,105,106,107,108,109,110,111,112,113,114,115,116,117,118,119,120,121,122,123,124,125,126,127,128,129,130,131,132,133,134,135,136,137,138,139,140,141,142,143,144,145,146,147,148,149,150,151,152,153,154,155,156,157,158,159,160,161,162,163,164,165,166,167,168,169,170,171,172,173,174,175,176,177,178,179,180,181,182,183,184,185,186,187,188,189,190,191,192,193,194,195,196,197,198,199,200,201,202,203,204,205,206,207,208,209,210,211,212,213,214,215,216,217,218,219,220,221,222,223,224,225,226,227,228,229,230,231,232,233,234,235,236,237,238,239,240,241,242,243,244,245,246,247,248,249,250,251,252,253,254,255,256,257,258,259,260,261,262,263,264,265,266,267,268,269,270,271,272,273,274,275,276,277,278,279,280,281,282,283,284,285,286,287,288,289,290,291,292,293,294,295,296,297,298,299,300,301,302,303,304,305,306,307,308,309,310,311,312,313,314,315,316,317,318,319,320,321,322,323,324,325,326,327,328,329,330,331,332,333,334,335,336,337,338,339,340,341,342,343,344,345,346,347,348,349,350,351,352,353,354,355,356,357,358,359,360,361,362,363,364,365,366,367,368,369,370,371,372,373,374,375,376,377,378,379,380,381,382,383,384,385,386,387,388,389,390,391,392,393,394,395,396,397,398,399,400,401,402,403,404,405,406,407,408,409,410,411,412,413,414,415,416,417,418,419,420,421,422,423,424,425,426,427,428,429,430,431,432,433,434,435,436,437,438,439,440,441,442,443,444,445,446,447,448,449,450,451,452,453,454,455,456,457,458,459,460,461,462,463,464,465,466,467,468,469,470,471,472,473,474,475,476,477,478,479,480,481,482,483,484,485,486,487,488,489,490,491,492,493,494,495,496,497,498,499,500,501,502,503,504,505,506,507,508,509,510,511,512,513,514,515,516,517,518,519,520,521,522,523,524,525,526,527,528,529,530,531,532,533,534,535,536,537,538,539,540,541,542,543,544,545,546,547,548,549,550,551,552,553,554,555,556,557,558,559,560,561,562,563,564,565,566,567,568,569,570,571,572,573,574,575,576,577,578,579,580,581,582,583,584,585,586,587,588,589,590,591,592,593,594,595,596,597,598,599,600,601,602,603,604,605,606,607,608,609,610,611,612,613,614,615,616,617,618,619,620,621,622,623,624,625,626,627,628,629,630,631,632,633,634,635,636,637,638,639,640,641,642,643,644,645,646,647,648,649,650,651,652,653,654,655,656,657,658,659,660,661,662,663,664,665,666,667,668,669,670,671,672,673,674,675,676,677,678,679,680,681,682,683,684,685,686,687,688,689,690,691,692,693,694,695,696,697,698,699,700,701,702,703,704,705,706,707,708,709,710,711,712,713,714,715,716,717,718,719,720,721,722,723,724,725,726,727,728,729,730,731,732,733,734,735,736,737,738,739,740,741,742,743,744,745,746,747,748,749,750,751,752,753,754,755,756,757,758,759,760,761,762,763,764,765,766,767,768,769,770,771,772,773,774,775,776,777,778,779,780,781,782,783,784,785,786,787,788,789,790,791,792,793,794,795,796,797,798,799,800,801,802,803,804,805,806,807,808,809,810,811,812,813,814,815,816,817,818,819,820,821,822,823,824,825,826,827,828,829,830,831,832,833,834,835,836,837,838,839,840,841,842,843,844,845,846,847,848,849,850,851,852,853,854,855,856,857,858,859,860,861,862,863,864,865,866,867,868,869,870,871,872,873,874,875,876,877,878,879,880,881,882,883,884,885,886,887,888,889,890,891,892,893,894,895,896,897,898,899,900,901,902,903,904,905,906,907,908,909,910,911,912,913,914,915,916,917,918,919,920,921,922,923,924,925,926,927,928,929,930,931,932,933,934,935,936,937,938,939,940,941,942,943,944,945,946,947,948,949,950,951,952,953,954,955,956,957,958,959,960,961,962,963,964,965,966,967,968,969,970,971,972,973,974,975,976,977,978,979,980,981,982,983,984,985,986,987,988,989,990,991,992,993,994,995,996,997,998,999,1000],"tree_info":[0,0,0,0,0,0,0,0,0,0,0,0,0,0,0,0,0,0,0,0,0,0,0,0,0,0,0,0,0,0,0,0,0,0,0,0,0,0,0,0,0,0,0,0,0,0,0,0,0,0,0,0,0,0,0,0,0,0,0,0,0,0,0,0,0,0,0,0,0,0,0,0,0,0,0,0,0,0,0,0,0,0,0,0,0,0,0,0,0,0,0,0,0,0,0,0,0,0,0,0,0,0,0,0,0,0,0,0,0,0,0,0,0,0,0,0,0,0,0,0,0,0,0,0,0,0,0,0,0,0,0,0,0,0,0,0,0,0,0,0,0,0,0,0,0,0,0,0,0,0,0,0,0,0,0,0,0,0,0,0,0,0,0,0,0,0,0,0,0,0,0,0,0,0,0,0,0,0,0,0,0,0,0,0,0,0,0,0,0,0,0,0,0,0,0,0,0,0,0,0,0,0,0,0,0,0,0,0,0,0,0,0,0,0,0,0,0,0,0,0,0,0,0,0,0,0,0,0,0,0,0,0,0,0,0,0,0,0,0,0,0,0,0,0,0,0,0,0,0,0,0,0,0,0,0,0,0,0,0,0,0,0,0,0,0,0,0,0,0,0,0,0,0,0,0,0,0,0,0,0,0,0,0,0,0,0,0,0,0,0,0,0,0,0,0,0,0,0,0,0,0,0,0,0,0,0,0,0,0,0,0,0,0,0,0,0,0,0,0,0,0,0,0,0,0,0,0,0,0,0,0,0,0,0,0,0,0,0,0,0,0,0,0,0,0,0,0,0,0,0,0,0,0,0,0,0,0,0,0,0,0,0,0,0,0,0,0,0,0,0,0,0,0,0,0,0,0,0,0,0,0,0,0,0,0,0,0,0,0,0,0,0,0,0,0,0,0,0,0,0,0,0,0,0,0,0,0,0,0,0,0,0,0,0,0,0,0,0,0,0,0,0,0,0,0,0,0,0,0,0,0,0,0,0,0,0,0,0,0,0,0,0,0,0,0,0,0,0,0,0,0,0,0,0,0,0,0,0,0,0,0,0,0,0,0,0,0,0,0,0,0,0,0,0,0,0,0,0,0,0,0,0,0,0,0,0,0,0,0,0,0,0,0,0,0,0,0,0,0,0,0,0,0,0,0,0,0,0,0,0,0,0,0,0,0,0,0,0,0,0,0,0,0,0,0,0,0,0,0,0,0,0,0,0,0,0,0,0,0,0,0,0,0,0,0,0,0,0,0,0,0,0,0,0,0,0,0,0,0,0,0,0,0,0,0,0,0,0,0,0,0,0,0,0,0,0,0,0,0,0,0,0,0,0,0,0,0,0,0,0,0,0,0,0,0,0,0,0,0,0,0,0,0,0,0,0,0,0,0,0,0,0,0,0,0,0,0,0,0,0,0,0,0,0,0,0,0,0,0,0,0,0,0,0,0,0,0,0,0,0,0,0,0,0,0,0,0,0,0,0,0,0,0,0,0,0,0,0,0,0,0,0,0,0,0,0,0,0,0,0,0,0,0,0,0,0,0,0,0,0,0,0,0,0,0,0,0,0,0,0,0,0,0,0,0,0,0,0,0,0,0,0,0,0,0,0,0,0,0,0,0,0,0,0,0,0,0,0,0,0,0,0,0,0,0,0,0,0,0,0,0,0,0,0,0,0,0,0,0,0,0,0,0,0,0,0,0,0,0,0,0,0,0,0,0,0,0,0,0,0,0,0,0,0,0,0,0,0,0,0,0,0,0,0,0,0,0,0,0,0,0,0,0,0,0,0,0,0,0,0,0,0,0,0,0,0,0,0,0,0,0,0,0,0,0,0,0,0,0,0,0,0,0,0,0,0,0,0,0,0,0,0,0,0,0,0,0,0,0,0,0,0,0,0,0,0,0,0,0,0,0,0,0,0,0,0,0,0,0,0,0,0,0,0,0,0,0,0,0,0,0,0,0,0,0,0,0,0,0,0,0,0,0,0,0,0,0,0,0,0,0,0,0,0,0,0,0,0,0,0,0,0,0,0,0,0,0,0,0,0,0,0,0,0,0,0,0,0,0,0,0,0,0,0,0,0,0,0,0,0,0,0,0,0,0,0,0,0,0,0,0,0,0,0,0,0,0,0,0,0,0,0,0,0,0,0,0,0,0,0,0,0,0,0,0,0,0,0,0,0,0,0,0,0,0,0,0,0,0,0,0,0,0,0,0,0,0,0,0,0,0,0,0,0,0,0,0,0,0,0,0,0,0,0,0,0,0,0,0,0],"trees":[{"base_weights":[4.3621445E-1,-5.9523706E0,1.4253915E1,-6.7042696E-1,-3.5956647E0,3.0865535E-1,7.729268E-1,-4.715164E0,-3.3520338E-1,-2.4966574E-1,3.5103608E-2,-6.5410614E-2,6.040554E-2],"categories":[],"categories_nodes":[],"categories_segments":[],"categories_sizes":[],"default_left":[0,0,0,0,0,0,0,0,0,0,0,0,0],"id":0,"left_children":[1,3,5,-1,7,-1,-1,9,11,-1,-1,-1,-1],"loss_changes":[5.028276E3,6.370952E2,7.979004E1,0E0,1.1157205E2,0E0,0E0,3.8162292E1,1.5095392E1,0E0,0E0,0E0,0E0],"parents":[2147483647,0,0,1,1,2,2,4,4,7,7,8,8],"right_children":[2,4,6,-1,8,-1,-1,10,12,-1,-1,-1,-1],"split_conditions":[1.9425414E2,1.7921504E2,1.9851094E2,-6.7042696E-1,2.3313062E2,3.0865535E-1,7.729268E-1,1.9300237E2,1.8919807E2,-2.4966574E-1,3.5103608E-2,-6.5410614E-2,6.040554E-2],"split_indices":[0,0,0,0,2,0,0,0,0,0,0,0,0],"split_type":[0,0,0,0,0,0,0,0,0,0,0,0,0],"sum_hessian":[5.5E1,3.8E1,1.7E1,8E0,3E1,3E0,1.4E1,2.2E1,8E0,2.1E1,1E0,5E0,3E0],"tree_param":{"num_deleted":"0","num_feature":"3","num_nodes":"13","size_leaf_vector":"1"}},{"base_weights":[-8.700535E-1,-6.049015E0,1.2307986E1,-6.748444E-1,-3.2721968E0,2.9632416E-1,7.453045E-1,-4.4753046E0,-5.387619E-1,-2.6659334E-1,-1.2619887E-1,-4.548145E-2,6.997605E-2],"categories":[],"categories_nodes":[],"categories_segments":[],"categories_sizes":[],"default_left":[0,0,0,0,0,0,0,0,0,0,0,0,0],"id":1,"left_children":[1,3,5,-1,7,-1,-1,9,11,-1,-1,-1,-1],"loss_changes":[3.6233767E3,7.4172815E2,1.6035645E2,0E0,9.295877E1,0E0,0E0,1.9971191E1,8.461498E0,0E0,0E0,0E0,0E0],"parents":[2147483647,0,0,1,1,2,2,4,4,7,7,8,8],"right_children":[2,4,6,-1,8,-1,-1,10,12,-1,-1,-1,-1],"split_conditions":[1.9307945E2,1.7921504E2,2.3296278E2,-6.748444E-1,1.8788063E2,2.9632416E-1,7.453045E-1,2.2920714E2,1.9300237E2,-2.6659334E-1,-1.2619887E-1,-4.548145E-2,6.997605E-2],"split_indices":[0,0,2,0,0,0,0,2,0,0,0,0,0],"split_type":[0,0,0,0,0,0,0,0,0,0,0,0,0],"sum_hessian":[5.1E1,3.7E1,1.4E1,9E0,2.8E1,5E0,9E0,1.9E1,9E0,1.2E1,7E0,8E0,1E0],"tree_param":{"num_deleted":"0","num_feature":"3","num_nodes":"13","size_leaf_vector":"1"}},{"base_weights":[-8.803394E-2,-4.875291E0,1.2912237E1,-1.2140286E1,-1.4658372E0,3.6620015E-1,7.601517E-1,-6.7177117E-1,-1.8882014E-1,-2.523156E0,2.655304E0,-1.8465208E-1,-3.749947E-2,2.0211425E-1,-1.06990054E-1],"categories":[],"categories_nodes":[],"categories_segments":[],"categories_sizes":[],"default_left":[0,0,0,0,0,0,0,0,0,0,0,0,0,0,0],"id":2,"left_children":[1,3,5,7,9,-1,-1,-1,-1,11,13,-1,-1,-1,-1],"loss_changes":[3.2369683E3,9.234515E2,6.787427E1,7.92511E1,1.2434845E2,0E0,0E0,0E0,0E0,4.286708E1,4.8554005E1,0E0,0E0,0E0,0E0],"parents":[2147483647,0,0,1,1,2,2,3,3,4,4,9,9,10,10],"right_children":[2,4,6,8,10,-1,-1,-1,-1,12,14,-1,-1,-1,-1],"split_conditions":[1.9489558E2,2.2442375E2,2.3428972E2,1.9020319E2,1.9171616E2,3.6620015E-1,7.601517E-1,-6.7177117E-1,-1.8882014E-1,2.3313062E2,1.9385573E2,-1.8465208E-1,-3.749947E-2,2.0211425E-1,-1.06990054E-1],"split_indices":[1,2,2,1,1,0,0,0,0,2,1,0,0,0,0],"split_type":[0,0,0,0,0,0,0,0,0,0,0,0,0,0,0],"sum_hessian":[5E1,3.7E1,1.3E1,1.1E1,2.6E1,5E0,8E0,9E0,2E0,2.1E1,5E0,1.2E1,9E0,4E0,1E0],"tree_param":{"num_deleted":"0","num_feature":"3","num_nodes":"15","size_leaf_vector":"1"}},{"base_weights":[-1.0198482E-1,-5.407124E0,1.2188969E1,-6.356601E-1,-2.8843598E0,2.5397608E-1,6.6022605E-1,-3.464789E0,4.0177408E-1,-2.556649E-1,-1.0866475E-1,-6.88427E-2,5.1643528E-2],"categories":[],"categories_nodes":[],"categories_segments":[],"categories_sizes":[],"default_left":[0,0,0,0,0,0,0,0,0,0,0,0,0],"id":3,"left_children":[1,3,5,-1,7,-1,-1,9,11,-1,-1,-1,-1],"loss_changes":[4.108631E3,7.7431726E2,7.010742E1,0E0,6.6242584E1,0E0,0E0,5.0629456E1,8.157026E0,0E0,0E0,0E0,0E0],"parents":[2147483647,0,0,1,1,2,2,4,4,7,7,8,8],"right_children":[2,4,6,-1,8,-1,-1,10,12,-1,-1,-1,-1],"split_conditions":[1.9307945E2,1.7921504E2,1.9774808E2,-6.356601E-1,1.8937451E2,2.5397608E-1,6.6022605E-1,2.2715102E2,2.2559322E2,-2.556649E-1,-1.0866475E-1,-6.88427E-2,5.1643528E-2],"split_indices":[0,0,0,0,0,0,0,2,2,0,0,0,0],"split_type":[0,0,0,0,0,0,0,0,0,0,0,0,0],"sum_hessian":[6.1E1,4.3E1,1.8E1,1E1,3.3E1,3E0,1.5E1,2.8E1,5E0,1.1E1,1.7E1,1E0,4E0],"tree_param":{"num_deleted":"0","num_feature":"3","num_nodes":"13","size_leaf_vector":"1"}},{"base_weights":[-1.9540049E-1,-4.9236293E0,1.1110668E1,-5.917272E-1,-2.746195E0,6.115884E0,6.549202E-1,-3.6464615E0,1.5970697E-1,8.9826584E-2,3.2681772E-1,-2.3499052E-1,-1.1157943E-1,-7.806835E-2,6.402359E-2],"categories":[],"categories_nodes":[],"categories_segments":[],"categories_sizes":[],"default_left":[0,0,0,0,0,0,0,0,0,0,0,0,0,0,0],"id":4,"left_children":[1,3,5,-1,7,9,-1,11,13,-1,-1,-1,-1,-1,-1],"loss_changes":[3.2621658E3,6.1456665E2,9.860132E1,0E0,8.95293E1,9.703064E-1,0E0,2.82612E1,1.9359558E1,0E0,0E0,0E0,0E0,0E0,0E0],"parents":[2147483647,0,0,1,1,2,2,4,4,5,5,7,7,8,8],"right_children":[2,4,6,-1,8,10,-1,12,14,-1,-1,-1,-1,-1,-1],"split_conditions":[1.9425414E2,1.7921504E2,2.3428972E2,-5.917272E-1,1.8937451E2,2.2697093E2,6.549202E-1,2.3113484E2,2.2559322E2,8.9826584E-2,3.2681772E-1,-2.3499052E-1,-1.1157943E-1,-7.806835E-2,6.402359E-2],"split_indices":[0,0,2,0,0,2,0,2,2,0,0,0,0,0,0],"split_type":[0,0,0,0,0,0,0,0,0,0,0,0,0,0,0],"sum_hessian":[5.9E1,4.2E1,1.7E1,9E0,3.3E1,6E0,1.1E1,2.5E1,8E0,1E0,5E0,1.3E1,1.2E1,3E0,5E0],"tree_param":{"num_deleted":"0","num_feature":"3","num_nodes":"15","size_leaf_vector":"1"}},{"base_weights":[-1.7123649E-1,-4.0930843E0,1.1142986E1,-9.899172E0,-1.4878161E0,3.132005E-1,1.26538925E1,-5.327589E-1,-1.6617101E-1,-2.3120406E0,2.1393738E0,6.848775E-1,2.4785359E-1,-1.6035257E-1,-2.7796382E-2,5.274506E-3,2.4080276E-1],"categories":[],"categories_nodes":[],"categories_segments":[],"categories_sizes":[],"default_left":[0,0,0,0,0,0,0,0,0,0,0,0,0,0,0,0,0],"id":5,"left_children":[1,3,5,7,9,-1,11,-1,-1,13,15,-1,-1,-1,-1,-1,-1],"loss_changes":[2.9298323E3,7.264661E2,4.6054443E1,3.915796E1,1.0958297E2,0E0,2.849414E1,0E0,0E0,4.3797577E1,3.760037E1,0E0,0E0,0E0,0E0,0E0,0E0],"parents":[2147483647,0,0,1,1,2,2,3,3,4,4,6,6,9,9,10,10],"right_children":[2,4,6,8,10,-1,12,-1,-1,14,16,-1,-1,-1,-1,-1,-1],"split_conditions":[1.9489558E2,2.2442375E2,2.3428972E2,1.9253552E2,1.9171616E2,3.132005E-1,2.0512599E2,-5.327589E-1,-1.6617101E-1,2.3313062E2,2.2715102E2,6.848775E-1,2.4785359E-1,-1.6035257E-1,-2.7796382E-2,5.274506E-3,2.4080276E-1],"split_indices":[1,2,2,1,1,0,1,0,0,2,2,0,0,0,0,0,0],"split_type":[0,0,0,0,0,0,0,0,0,0,0,0,0,0,0,0,0],"sum_hessian":[6.4E1,4.8E1,1.6E1,1.4E1,3.4E1,5E0,1.1E1,1.2E1,2E0,2.8E1,6E0,9E0,2E0,1.8E1,1E1,4E0,2E0],"tree_param":{"num_deleted":"0","num_feature":"3","num_nodes":"17","size_leaf_vector":"1"}},{"base_weights":[-2.633886E-1,-4.50801E0,1.0364626E1,-9.884141E0,-1.2330105E0,2.1235275E-1,5.467602E-1,-5.3317E-1,-1.6063207E-1,-2.4937668E0,2.5452945E0,-1.7071803E-1,-3.430405E-2,4.4067386E-3,2.1830654E-1],"categories":[],"categories_nodes":[],"categories_segments":[],"categories_sizes":[],"default_left":[0,0,0,0,0,0,0,0,0,0,0,0,0,0,0],"id":6,"left_children":[1,3,5,7,9,-1,-1,-1,-1,11,13,-1,-1,-1,-1],"loss_changes":[2.5278782E3,6.920857E2,9.406372E0,4.372461E1,1.3019894E2,0E0,0E0,0E0,0E0,3.0940353E1,3.0933796E1,0E0,0E0,0E0,0E0],"parents":[2147483647,0,0,1,1,2,2,3,3,4,4,9,9,10,10],"right_children":[2,4,6,8,10,-1,-1,-1,-1,12,14,-1,-1,-1,-1],"split_conditions":[1.942573E2,2.2442375E2,2.3239246E2,1.9253552E2,1.9148755E2,2.1235275E-1,5.467602E-1,-5.3317E-1,-1.6063207E-1,2.3313062E2,2.2669745E2,-1.7071803E-1,-3.430405E-2,4.4067386E-3,2.1830654E-1],"split_indices":[1,2,2,1,1,0,0,0,0,2,2,0,0,0,0],"split_type":[0,0,0,0,0,0,0,0,0,0,0,0,0,0,0],"sum_hessian":[5.4E1,3.9E1,1.5E1,1.4E1,2.5E1,2E0,1.3E1,1.2E1,2E0,1.9E1,6E0,1.2E1,7E0,3E0,3E0],"tree_param":{"num_deleted":"0","num_feature":"3","num_nodes":"15","size_leaf_vector":"1"}},{"base_weights":[1.6048498E-1,-3.7571683E0,1.0434295E1,-5.1337767E-1,-2.1617327E0,3.2466784E-1,6.3889927E-1,-2.7513585E0,1.7217445E-1,-1.8274216E-1,-1.02318786E-1,9.0628624E-2,-5.8728945E-2],"categories":[],"categories_nodes":[],"categories_segments":[],"categories_sizes":[],"default_left":[0,0,0,0,0,0,0,0,0,0,0,0,0],"id":7,"left_children":[1,3,5,-1,7,-1,-1,9,11,-1,-1,-1,-1],"loss_changes":[2.3334092E3,4.1405414E2,6.4809326E1,0E0,4.8638336E1,0E0,0E0,1.0355179E1,1.98027E1,0E0,0E0,0E0,0E0],"parents":[2147483647,0,0,1,1,2,2,4,4,7,7,8,8],"right_children":[2,4,6,-1,8,-1,-1,10,12,-1,-1,-1,-1],"split_conditions":[1.9425414E2,1.7835165E2,2.0393488E2,-5.1337767E-1,1.8937451E2,3.2466784E-1,6.3889927E-1,1.8594714E2,1.9166452E2,-1.8274216E-1,-1.02318786E-1,9.0628624E-2,-5.8728945E-2],"split_indices":[0,0,0,0,0,0,0,0,1,0,0,0,0],"split_type":[0,0,0,0,0,0,0,0,0,0,0,0,0],"sum_hessian":[5.6E1,4.1E1,1.5E1,7E0,3.4E1,7E0,8E0,2.7E1,7E0,1E1,1.7E1,3E0,4E0],"tree_param":{"num_deleted":"0","num_feature":"3","num_nodes":"13","size_leaf_vector":"1"}},{"base_weights":[1.2872512E0,-3.3894718E0,1.0080661E1,-5.3609043E-1,-1.5656108E0,5.3052926E0,5.7035995E-1,-2.3816617E0,3.0465698E-1,7.387467E-2,2.887677E-1,-1.6825333E-1,-6.818428E-2,-2.7113214E-2,6.300156E-2],"categories":[],"categories_nodes":[],"categories_segments":[],"categories_sizes":[],"default_left":[0,0,0,0,0,0,0,0,0,0,0,0,0,0,0],"id":8,"left_children":[1,3,5,-1,7,9,-1,11,13,-1,-1,-1,-1,-1,-1],"loss_changes":[2.2548823E3,4.6464764E2,5.9841064E1,0E0,4.6512596E1,2.2627563E0,0E0,1.6433853E1,8.774536E0,0E0,0E0,0E0,0E0,0E0,0E0],"parents":[2147483647,0,0,1,1,2,2,4,4,5,5,7,7,8,8],"right_children":[2,4,6,-1,8,10,-1,12,14,-1,-1,-1,-1,-1,-1],"split_conditions":[1.9425414E2,1.7798865E2,2.3296278E2,-5.3609043E-1,1.8788063E2,2.2697093E2,5.7035995E-1,2.2827708E2,1.9076062E2,7.387467E-2,2.887677E-1,-1.6825333E-1,-6.818428E-2,-2.7113214E-2,6.300156E-2],"split_indices":[0,0,2,0,0,2,0,2,0,0,0,0,0,0,0],"split_type":[0,0,0,0,0,0,0,0,0,0,0,0,0,0,0],"sum_hessian":[5.3E1,3.5E1,1.8E1,6E0,2.9E1,5E0,1.3E1,2E1,9E0,1E0,4E0,9E0,1.1E1,5E0,4E0],"tree_param":{"num_deleted":"0","num_feature":"3","num_nodes":"15","size_leaf_vector":"1"}},{"base_weights":[3.8212764E-1,-3.497387E0,9.628628E0,-8.180103E0,-1.4208483E0,2.6060933E-1,1.0926321E1,-4.255775E-1,-1.0506859E-1,-2.2825477E0,1.8596278E0,5.697966E-1,1.3227463E-1,-1.547875E-1,-2.464413E-2,-6.964111E-4,2.1811727E-1],"categories":[],"categories_nodes":[],"categories_segments":[],"categories_sizes":[],"default_left":[0,0,0,0,0,0,0,0,0,0,0,0,0,0,0,0,0],"id":9,"left_children":[1,3,5,7,9,-1,11,-1,-1,13,15,-1,-1,-1,-1,-1,-1],"loss_changes":[2.185991E3,4.065025E2,4.6211426E1,8.306152E0,9.1874985E1,0E0,2.0406128E1,0E0,0E0,3.4858154E1,3.288363E1,0E0,0E0,0E0,0E0,0E0,0E0],"parents":[2147483647,0,0,1,1,2,2,3,3,4,4,6,6,9,9,10,10],"right_children":[2,4,6,8,10,-1,12,-1,-1,14,16,-1,-1,-1,-1,-1,-1],"split_conditions":[1.9489558E2,2.2442375E2,2.3428972E2,1.9253552E2,1.9171616E2,2.6060933E-1,2.0512599E2,-4.255775E-1,-1.0506859E-1,2.3313062E2,2.2715102E2,5.697966E-1,1.3227463E-1,-1.547875E-1,-2.464413E-2,-6.964111E-4,2.1811727E-1],"split_indices":[1,2,2,1,1,0,1,0,0,2,2,0,0,0,0,0,0],"split_type":[0,0,0,0,0,0,0,0,0,0,0,0,0,0,0,0,0],"sum_hessian":[5.9E1,4.2E1,1.7E1,1.2E1,3E1,5E0,1.2E1,1.1E1,1E0,2.4E1,6E0,1.1E1,1E0,1.6E1,8E0,4E0,2E0],"tree_param":{"num_deleted":"0","num_feature":"3","num_nodes":"17","size_leaf_vector":"1"}},{"base_weights":[-1.1264531E-1,-3.494974E0,8.913156E0,-8.356438E0,-1.0319921E0,2.733406E-1,1.06093E1,-4.580402E-1,-1.8265687E-1,-1.7680765E0,1.9546182E0,5.57718E-1,1.2896767E-1,-1.2717353E-1,-2.0450315E-2,-2.312851E-2,1.941576E-1],"categories":[],"categories_nodes":[],"categories_segments":[],"categories_sizes":[],"default_left":[0,0,0,0,0,0,0,0,0,0,0,0,0,0,0,0,0],"id":10,"left_children":[1,3,5,7,9,-1,11,-1,-1,13,15,-1,-1,-1,-1,-1,-1],"loss_changes":[2.0154857E3,5.661136E2,4.721985E1,2.7065186E1,7.600303E1,0E0,1.937378E1,0E0,0E0,2.7412704E1,3.4427635E1,0E0,0E0,0E0,0E0,0E0,0E0],"parents":[2147483647,0,0,1,1,2,2,3,3,4,4,6,6,9,9,10,10],"right_children":[2,4,6,8,10,-1,12,-1,-1,14,16,-1,-1,-1,-1,-1,-1],"split_conditions":[1.942573E2,2.2442375E2,2.3994328E2,1.9020319E2,1.9171616E2,2.733406E-1,2.0512599E2,-4.580402E-1,-1.8265687E-1,2.3313062E2,2.2669745E2,5.57718E-1,1.2896767E-1,-1.2717353E-1,-2.0450315E-2,-2.312851E-2,1.941576E-1],"split_indices":[1,2,2,1,1,0,1,0,0,2,2,0,0,0,0,0,0],"split_type":[0,0,0,0,0,0,0,0,0,0,0,0,0,0,0,0,0],"sum_hessian":[6.4E1,4.7E1,1.7E1,1.5E1,3.2E1,7E0,1E1,1.2E1,3E0,2.6E1,6E0,9E0,1E0,1.6E1,1E1,3E0,3E0],"tree_param":{"num_deleted":"0","num_feature":"3","num_nodes":"17","size_leaf_vector":"1"}},{"base_weights":[-9.732131E-1,-3.7877517E0,8.411277E0,-8.651208E0,-1.3918803E0,2.505783E-1,9.909651E0,-4.7518325E-1,-2.0720749E-1,-2.129654E0,1.3364694E0,5.3033906E-1,1.257435E-1,-1.5487365E-1,9.658433E-3,1.3235566E-1,-6.467133E-2],"categories":[],"categories_nodes":[],"categories_segments":[],"categories_sizes":[],"default_left":[0,0,0,0,0,0,0,0,0,0,0,0,0,0,0,0,0],"id":11,"left_children":[1,3,5,7,9,-1,11,-1,-1,13,15,-1,-1,-1,-1,-1,-1],"loss_changes":[1.4845753E3,4.8900378E2,1.6559631E1,1.4404297E1,6.323335E1,0E0,1.4566345E1,0E0,0E0,5.4552063E1,2.7551842E1,0E0,0E0,0E0,0E0,0E0,0E0],"parents":[2147483647,0,0,1,1,2,2,3,3,4,4,6,6,9,9,10,10],"right_children":[2,4,6,8,10,-1,12,-1,-1,14,16,-1,-1,-1,-1,-1,-1],"split_conditions":[1.9489558E2,2.2442375E2,2.3994328E2,1.8525305E2,1.9162386E2,2.505783E-1,2.0512599E2,-4.7518325E-1,-2.0720749E-1,2.3313062E2,1.9308122E2,5.3033906E-1,1.257435E-1,-1.5487365E-1,9.658433E-3,1.3235566E-1,-6.467133E-2],"split_indices":[1,2,2,1,1,0,1,0,0,2,1,0,0,0,0,0,0],"split_type":[0,0,0,0,0,0,0,0,0,0,0,0,0,0,0,0,0],"sum_hessian":[5.4E1,4.2E1,1.2E1,1.3E1,2.9E1,5E0,7E0,1E1,3E0,2.3E1,6E0,6E0,1E0,1.6E1,7E0,4E0,2E0],"tree_param":{"num_deleted":"0","num_feature":"3","num_nodes":"17","size_leaf_vector":"1"}},{"base_weights":[-1.9791184E-1,-3.615774E0,8.056809E0,-4.4798675E-1,-1.8327932E0,2.578148E-1,5.031061E-1,-2.072384E0,1.1740469E0,-1.4775263E-1,-8.085466E-2,7.374878E-2,1.4304734E-2],"categories":[],"categories_nodes":[],"categories_segments":[],"categories_sizes":[],"default_left":[0,0,0,0,0,0,0,0,0,0,0,0,0],"id":12,"left_children":[1,3,5,-1,7,-1,-1,9,11,-1,-1,-1,-1],"loss_changes":[1.637301E3,3.7423407E2,4.6996216E1,0E0,2.5486244E1,0E0,0E0,7.277542E0,3.796482E-1,0E0,0E0,0E0,0E0],"parents":[2147483647,0,0,1,1,2,2,4,4,7,7,8,8],"right_children":[2,4,6,-1,8,-1,-1,10,12,-1,-1,-1,-1],"split_conditions":[1.9425414E2,1.7921504E2,2.0393488E2,-4.4798675E-1,1.9300237E2,2.578148E-1,5.031061E-1,1.8594714E2,1.9307945E2,-1.4775263E-1,-8.085466E-2,7.374878E-2,1.4304734E-2],"split_indices":[0,0,0,0,0,0,0,0,0,0,0,0,0],"split_type":[0,0,0,0,0,0,0,0,0,0,0,0,0],"sum_hessian":[5.6E1,4E1,1.6E1,9E0,3.1E1,8E0,8E0,2.9E1,2E0,8E0,2.1E1,1E0,1E0],"tree_param":{"num_deleted":"0","num_feature":"3","num_nodes":"13","size_leaf_vector":"1"}},{"base_weights":[-3.4352952E-1,-3.362319E0,7.7909374E0,-6.9492407E0,-1.5763448E0,2.1717834E-1,8.963055E0,-3.7421998E-1,-1.2460963E-1,-2.275634E0,3.0817837E-1,4.6933085E-1,1.1818581E-1,-1.7359422E-1,-5.901965E-2,-2.4599647E-2,1.6773872E-1],"categories":[],"categories_nodes":[],"categories_segments":[],"categories_sizes":[],"default_left":[0,0,0,0,0,0,0,0,0,0,0,0,0,0,0,0,0],"id":13,"left_children":[1,3,5,7,9,-1,11,-1,-1,13,15,-1,-1,-1,-1,-1,-1],"loss_changes":[1.4504576E3,2.6451004E2,2.571991E1,1.4740601E1,4.0236115E1,0E0,8.560303E0,0E0,0E0,2.4725807E1,2.3590715E1,0E0,0E0,0E0,0E0,0E0,0E0],"parents":[2147483647,0,0,1,1,2,2,3,3,4,4,6,6,9,9,10,10],"right_children":[2,4,6,8,10,-1,12,-1,-1,14,16,-1,-1,-1,-1,-1,-1],"split_conditions":[1.9489558E2,2.2442375E2,2.3428972E2,1.9253552E2,1.9162386E2,2.1717834E-1,2.0512599E2,-3.7421998E-1,-1.2460963E-1,2.3113484E2,2.2715102E2,4.6933085E-1,1.1818581E-1,-1.7359422E-1,-5.901965E-2,-2.4599647E-2,1.6773872E-1],"split_indices":[1,2,2,1,1,0,1,0,0,2,2,0,0,0,0,0,0],"split_type":[0,0,0,0,0,0,0,0,0,0,0,0,0,0,0,0,0],"sum_hessian":[5.7E1,4.2E1,1.5E1,1.3E1,2.9E1,5E0,1E1,1.1E1,2E0,2.1E1,8E0,9E0,1E0,9E0,1.2E1,7E0,1E0],"tree_param":{"num_deleted":"0","num_feature":"3","num_nodes":"17","size_leaf_vector":"1"}},{"base_weights":[7.733993E-2,-3.169295E0,7.250042E0,-4.0655684E-1,-1.5696675E0,1.1585255E-1,4.015081E-1,-2.1833131E0,6.2088966E-1,-1.5687655E-1,-5.7065148E-2,-9.231072E-2,6.1853897E-2],"categories":[],"categories_nodes":[],"categories_segments":[],"categories_sizes":[],"default_left":[0,0,0,0,0,0,0,0,0,0,0,0,0],"id":14,"left_children":[1,3,5,-1,7,-1,-1,9,11,-1,-1,-1,-1],"loss_changes":[1.4202063E3,3.2059506E2,5.451178E1,0E0,4.571505E1,0E0,0E0,2.227105E1,1.4445515E1,0E0,0E0,0E0,0E0],"parents":[2147483647,0,0,1,1,2,2,4,4,7,7,8,8],"right_children":[2,4,6,-1,8,-1,-1,10,12,-1,-1,-1,-1],"split_conditions":[1.9425414E2,1.7921504E2,1.9851094E2,-4.0655684E-1,1.8937451E2,1.1585255E-1,4.015081E-1,2.2715102E2,2.252905E2,-1.5687655E-1,-5.7065148E-2,-9.231072E-2,6.1853897E-2],"split_indices":[0,0,0,0,0,0,0,2,2,0,0,0,0],"split_type":[0,0,0,0,0,0,0,0,0,0,0,0,0],"sum_hessian":[5.9E1,4.1E1,1.8E1,9E0,3.2E1,3E0,1.5E1,2.5E1,7E0,1.2E1,1.3E1,1E0,6E0],"tree_param":{"num_deleted":"0","num_feature":"3","num_nodes":"13","size_leaf_vector":"1"}},{"base_weights":[1.1591902E-1,-3.026548E0,7.2217164E0,-6.4719424E0,-1.3178121E0,2.1179526E-1,8.273945E0,-3.3562204E-1,-8.363648E-2,-1.9252738E0,5.933666E-1,4.5103198E-1,1.3890406E-1,-1.2001628E-1,1.3248901E-2,8.933449E-2,-9.955343E-2],"categories":[],"categories_nodes":[],"categories_segments":[],"categories_sizes":[],"default_left":[0,0,0,0,0,0,0,0,0,0,0,0,0,0,0,0,0],"id":15,"left_children":[1,3,5,7,9,-1,11,-1,-1,13,15,-1,-1,-1,-1,-1,-1],"loss_changes":[1.3839706E3,2.4462372E2,2.464569E1,4.930847E0,3.5971428E1,0E0,2.8288513E1,0E0,0E0,2.4567139E1,2.8229952E1,0E0,0E0,0E0,0E0,0E0,0E0],"parents":[2147483647,0,0,1,1,2,2,3,3,4,4,6,6,9,9,10,10],"right_children":[2,4,6,8,10,-1,12,-1,-1,14,16,-1,-1,-1,-1,-1,-1],"split_conditions":[1.9489558E2,2.2442375E2,2.3555661E2,1.9253552E2,1.9162386E2,2.1179526E-1,2.0512599E2,-3.3562204E-1,-8.363648E-2,2.3446645E2,1.9385573E2,4.5103198E-1,1.3890406E-1,-1.2001628E-1,1.3248901E-2,8.933449E-2,-9.955343E-2],"split_indices":[1,2,2,1,1,0,1,0,0,2,1,0,0,0,0,0,0],"split_type":[0,0,0,0,0,0,0,0,0,0,0,0,0,0,0,0,0],"sum_hessian":[6E1,4.2E1,1.8E1,1.3E1,2.9E1,6E0,1.2E1,1.2E1,1E0,2.2E1,7E0,1E1,2E0,1.8E1,4E0,5E0,2E0],"tree_param":{"num_deleted":"0","num_feature":"3","num_nodes":"17","size_leaf_vector":"1"}},{"base_weights":[-5.870305E-1,-3.3693032E0,5.164698E0,-3.6158726E-1,-1.6709267E0,2.5757034E0,7.467504E0,-1.2668769E0,-1.4369774E-1,1.334638E0,1.7749207E-1,3.946168E-1,1.0172119E-1,-8.185912E-2,1.6273843E-1,7.9675294E-2,1.0074616E-3],"categories":[],"categories_nodes":[],"categories_segments":[],"categories_sizes":[],"default_left":[0,0,0,0,0,0,0,0,0,0,0,0,0,0,0,0,0],"id":16,"left_children":[1,3,5,-1,7,9,11,13,-1,15,-1,-1,-1,-1,-1,-1,-1],"loss_changes":[8.815569E2,2.3063184E2,8.8081024E1,0E0,9.483292E0,7.3519363E0,4.7170105E0,4.2165222E1,0E0,2.0095654E0,0E0,0E0,0E0,0E0,0E0,0E0,0E0],"parents":[2147483647,0,0,1,1,2,2,4,4,5,5,6,6,7,7,9,9],"right_children":[2,4,6,-1,8,10,12,14,-1,16,-1,-1,-1,-1,-1,-1,-1],"split_conditions":[1.9076062E2,1.8182542E2,2.0344376E2,-3.6158726E-1,1.9202364E2,1.9373453E2,2.0512599E2,1.9162386E2,-1.4369774E-1,1.9308122E2,1.7749207E-1,3.946168E-1,1.0172119E-1,-8.185912E-2,1.6273843E-1,7.9675294E-2,1.0074616E-3],"split_indices":[0,0,0,0,1,1,1,1,0,1,0,0,0,0,0,0,0],"split_type":[0,0,0,0,0,0,0,0,0,0,0,0,0,0,0,0,0],"sum_hessian":[5.3E1,3.6E1,1.7E1,1E1,2.6E1,9E0,8E0,2.1E1,5E0,5E0,4E0,7E0,1E0,2E1,1E0,4E0,1E0],"tree_param":{"num_deleted":"0","num_feature":"3","num_nodes":"17","size_leaf_vector":"1"}},{"base_weights":[-3.536121E-1,-2.6497076E0,6.0990295E0,-5.681419E0,-9.3094414E-1,2.6617393E0,6.7365403E0,-3.2006186E-1,-1.4807679E-1,-1.630925E0,1.9074732E0,4.624354E-2,1.9680862E-1,3.6530623E-1,1.2962061E-1,-1.5529226E-1,-3.1862233E-2,1.5027873E-1,3.0351449E-2],"categories":[],"categories_nodes":[],"categories_segments":[],"categories_sizes":[],"default_left":[0,0,0,0,0,0,0,0,0,0,0,0,0,0,0,0,0,0,0],"id":17,"left_children":[1,3,5,7,9,11,13,-1,-1,15,17,-1,-1,-1,-1,-1,-1,-1,-1],"loss_changes":[8.4585004E2,2.1356424E2,1.4938721E1,1.0409821E1,5.874241E1,5.21364E0,9.384705E0,0E0,0E0,3.1729599E1,6.7436466E0,0E0,0E0,0E0,0E0,0E0,0E0,0E0,0E0],"parents":[2147483647,0,0,1,1,2,2,3,3,4,4,5,5,6,6,9,9,10,10],"right_children":[2,4,6,8,10,12,14,-1,-1,16,18,-1,-1,-1,-1,-1,-1,-1,-1],"split_conditions":[1.9403928E2,2.252905E2,2.3239246E2,1.9020319E2,1.9162386E2,2.0459505E2,2.0408313E2,-3.2006186E-1,-1.4807679E-1,2.3113484E2,1.9202364E2,4.624354E-2,1.9680862E-1,3.6530623E-1,1.2962061E-1,-1.5529226E-1,-3.1862233E-2,1.5027873E-1,3.0351449E-2],"split_indices":[1,2,2,1,1,1,1,0,0,2,1,0,0,0,0,0,0,0,0],"split_type":[0,0,0,0,0,0,0,0,0,0,0,0,0,0,0,0,0,0,0],"sum_hessian":[5.5E1,4.1E1,1.4E1,1.4E1,2.7E1,3E0,1.1E1,1E1,4E0,2.2E1,5E0,2E0,1E0,9E0,2E0,8E0,1.4E1,2E0,3E0],"tree_param":{"num_deleted":"0","num_feature":"3","num_nodes":"19","size_leaf_vector":"1"}},{"base_weights":[4.1637295E-1,-2.4500456E0,5.9764314E0,-6.05032E0,-1.2482347E0,7.544174E-2,6.413276E0,-6.527939E-2,-3.2401067E-1,-1.4919775E0,6.481514E-1,3.9756649E0,3.5488212E-1,-1.1395196E-1,-5.0777942E-2,4.3061066E-2,2.2354127E-4,2.322176E-1,8.794301E-2],"categories":[],"categories_nodes":[],"categories_segments":[],"categories_sizes":[],"default_left":[0,0,0,0,0,0,0,0,0,0,0,0,0,0,0,0,0,0,0],"id":18,"left_children":[1,3,5,7,9,-1,11,-1,-1,13,15,17,-1,-1,-1,-1,-1,-1,-1],"loss_changes":[8.912026E2,1.525412E2,2.7404724E1,9.897064E0,1.4371704E1,0E0,1.418457E-1,0E0,0E0,7.434742E0,5.4474556E-1,7.2533417E-1,0E0,0E0,0E0,0E0,0E0,0E0,0E0],"parents":[2147483647,0,0,1,1,2,2,3,3,4,4,6,6,9,9,10,10,11,11],"right_children":[2,4,6,8,10,-1,12,-1,-1,14,16,18,-1,-1,-1,-1,-1,-1,-1],"split_conditions":[1.9190094E2,1.7921504E2,2.2697093E2,2.163484E2,1.8937451E2,7.544174E-2,2.0344376E2,-6.527939E-2,-3.2401067E-1,2.2668213E2,1.9070723E2,2.0163023E2,3.5488212E-1,-1.1395196E-1,-5.0777942E-2,4.3061066E-2,2.2354127E-4,2.322176E-1,8.794301E-2],"split_indices":[0,0,2,2,0,0,0,0,0,2,0,0,0,0,0,0,0,0,0],"split_type":[0,0,0,0,0,0,0,0,0,0,0,0,0,0,0,0,0,0,0],"sum_hessian":[5.4E1,3.6E1,1.8E1,8E0,2.8E1,2E0,1.6E1,1E0,7E0,2.5E1,3E0,5E0,1.1E1,8E0,1.7E1,2E0,1E0,3E0,2E0],"tree_param":{"num_deleted":"0","num_feature":"3","num_nodes":"19","size_leaf_vector":"1"}},{"base_weights":[-4.0461105E-1,-2.816067E0,4.8426886E0,-3.5141647E-1,-1.3181107E0,1.5499665E0,5.672755E0,-1.5235682E0,-2.423528E-1,8.620053E-2,2.1344757E-2,3.0143082E-1,1.1791941E-1,-6.32653E-2,-1.281559E-1,7.392426E-2,-7.3619656E-2],"categories":[],"categories_nodes":[],"categories_segments":[],"categories_sizes":[],"default_left":[0,0,0,0,0,0,0,0,0,0,0,0,0,0,0,0,0],"id":19,"left_children":[1,3,5,-1,7,9,11,13,15,-1,-1,-1,-1,-1,-1,-1,-1],"loss_changes":[7.2224066E2,2.368176E2,4.0404602E1,0E0,6.2614326E0,2.4134731E-1,2.2945862E0,3.4687805E0,1.48771105E1,0E0,0E0,0E0,0E0,0E0,0E0,0E0,0E0],"parents":[2147483647,0,0,1,1,2,2,4,4,5,5,6,6,7,7,8,8],"right_children":[2,4,6,-1,8,10,12,14,16,-1,-1,-1,-1,-1,-1,-1,-1],"split_conditions":[1.9300237E2,1.7921504E2,1.9851094E2,-3.5141647E-1,1.8937451E2,1.9720584E2,2.0577496E2,1.9202364E2,1.9136214E2,8.620053E-2,2.1344757E-2,3.0143082E-1,1.1791941E-1,-6.32653E-2,-1.281559E-1,7.392426E-2,-7.3619656E-2],"split_indices":[0,0,0,0,0,0,1,1,1,0,0,0,0,0,0,0,0],"split_type":[0,0,0,0,0,0,0,0,0,0,0,0,0,0,0,0,0],"sum_hessian":[5.5E1,3.8E1,1.7E1,9E0,2.9E1,4E0,1.3E1,2.4E1,5E0,3E0,1E0,1.1E1,2E0,2.1E1,3E0,2E0,3E0],"tree_param":{"num_deleted":"0","num_feature":"3","num_nodes":"17","size_leaf_vector":"1"}},{"base_weights":[-6.244822E-2,-2.4891005E0,5.8728375E0,-3.2108697E-1,-9.8362267E-1,1.7155876E0,3.2949576E-1,-2.387516E0,-5.1382387E-1,1.0049845E-1,2.0811081E-2,-1.5268962E-2,-1.5153326E-1,-4.928597E-2,3.35578E-2],"categories":[],"categories_nodes":[],"categories_segments":[],"categories_sizes":[],"default_left":[0,0,0,0,0,0,0,0,0,0,0,0,0,0,0],"id":20,"left_children":[1,3,5,-1,7,9,-1,11,13,-1,-1,-1,-1,-1,-1],"loss_changes":[8.9319336E2,2.5418542E2,4.2353638E1,0E0,2.0538307E1,6.9344425E-1,0E0,9.787491E0,1.5200422E1,0E0,0E0,0E0,0E0,0E0,0E0],"parents":[2147483647,0,0,1,1,2,2,4,4,5,5,7,7,8,8],"right_children":[2,4,6,-1,8,10,-1,12,14,-1,-1,-1,-1,-1,-1],"split_conditions":[1.9425414E2,1.7921504E2,1.9851094E2,-3.2108697E-1,2.252905E2,1.9774808E2,3.2949576E-1,1.8439256E2,1.8919807E2,1.0049845E-1,2.0811081E-2,-1.5268962E-2,-1.5153326E-1,-4.928597E-2,3.35578E-2],"split_indices":[0,0,0,0,2,0,0,0,0,0,0,0,0,0,0],"split_type":[0,0,0,0,0,0,0,0,0,0,0,0,0,0,0],"sum_hessian":[6E1,4.3E1,1.7E1,1.1E1,3.2E1,3E0,1.4E1,7E0,2.5E1,2E0,1E0,2E0,5E0,1.8E1,7E0],"tree_param":{"num_deleted":"0","num_feature":"3","num_nodes":"15","size_leaf_vector":"1"}},{"base_weights":[-2.029692E-1,-2.2092853E0,5.5620017E0,-6.207177E0,-1.1181335E0,1.7324524E0,6.3750176E0,-8.186684E-2,-3.28687E-1,-2.0466206E0,-6.0730106E-1,1.0196966E-1,2.0290757E-2,3.3343223E-1,7.862816E-2,-1.47598265E-2,-1.18369296E-1,1.5899621E-1,-4.5511033E-2],"categories":[],"categories_nodes":[],"categories_segments":[],"categories_sizes":[],"default_left":[0,0,0,0,0,0,0,0,0,0,0,0,0,0,0,0,0,0,0],"id":21,"left_children":[1,3,5,7,9,11,13,-1,-1,15,17,-1,-1,-1,-1,-1,-1,-1,-1],"loss_changes":[6.7157025E2,1.806387E2,3.5657837E1,4.312805E0,1.5357632E1,8.01178E-1,6.4346924E0,0E0,0E0,6.0427055E0,3.0427818E1,0E0,0E0,0E0,0E0,0E0,0E0,0E0,0E0],"parents":[2147483647,0,0,1,1,2,2,3,3,4,4,5,5,6,6,9,9,10,10],"right_children":[2,4,6,8,10,12,14,-1,-1,16,18,-1,-1,-1,-1,-1,-1,-1,-1],"split_conditions":[1.9425414E2,1.7921504E2,1.9851094E2,1.805633E2,1.8594714E2,1.9774808E2,2.0577496E2,-8.186684E-2,-3.28687E-1,1.8292583E2,1.8595073E2,1.0196966E-1,2.0290757E-2,3.3343223E-1,7.862816E-2,-1.47598265E-2,-1.18369296E-1,1.5899621E-1,-4.5511033E-2],"split_indices":[0,0,0,1,0,0,1,0,0,1,0,0,0,0,0,0,0,0,0],"split_type":[0,0,0,0,0,0,0,0,0,0,0,0,0,0,0,0,0,0,0],"sum_hessian":[5.6E1,4.2E1,1.4E1,8E0,3.4E1,3E0,1.1E1,1E0,7E0,1.1E1,2.3E1,2E0,1E0,1E1,1E0,2E0,9E0,1E0,2.2E1],"tree_param":{"num_deleted":"0","num_feature":"3","num_nodes":"19","size_leaf_vector":"1"}},{"base_weights":[2.2354634E-1,-2.0083694E0,5.145489E0,-4.972254E0,-6.57074E-1,1.4258325E-1,5.9848185E0,-5.402513E0,-8.686092E-2,-2.3406813E0,6.154147E-2,3.262708E-1,1.00384526E-1,-7.982025E-2,-2.8117415E-1,-1.5200043E-2,-1.2786332E-1,-2.475977E-2,6.626456E-2],"categories":[],"categories_nodes":[],"categories_segments":[],"categories_sizes":[],"default_left":[0,0,0,0,0,0,0,0,0,0,0,0,0,0,0,0,0,0,0],"id":22,"left_children":[1,3,5,7,9,-1,11,13,-1,15,17,-1,-1,-1,-1,-1,-1,-1,-1],"loss_changes":[6.694558E2,1.6494637E2,1.951358E1,8.709412E0,3.6440033E1,0E0,1.4849304E1,2.7404785E-1,0E0,3.1926193E0,1.613495E1,0E0,0E0,0E0,0E0,0E0,0E0,0E0,0E0],"parents":[2147483647,0,0,1,1,2,2,3,3,4,4,6,6,7,7,9,9,10,10],"right_children":[2,4,6,8,10,-1,12,14,-1,16,18,-1,-1,-1,-1,-1,-1,-1,-1],"split_conditions":[1.9489558E2,2.2442375E2,2.3555661E2,1.9253552E2,1.8929944E2,1.4258325E-1,2.0512599E2,1.805633E2,-8.686092E-2,2.2446614E2,1.9171616E2,3.262708E-1,1.00384526E-1,-7.982025E-2,-2.8117415E-1,-1.5200043E-2,-1.2786332E-1,-2.475977E-2,6.626456E-2],"split_indices":[1,2,2,1,1,0,1,1,0,2,1,0,0,0,0,0,0,0,0],"split_type":[0,0,0,0,0,0,0,0,0,0,0,0,0,0,0,0,0,0,0],"sum_hessian":[5.9E1,4.1E1,1.8E1,1.2E1,2.9E1,6E0,1.2E1,1E1,2E0,8E0,2.1E1,1E1,2E0,1E0,9E0,1E0,7E0,1.5E1,6E0],"tree_param":{"num_deleted":"0","num_feature":"3","num_nodes":"19","size_leaf_vector":"1"}},{"base_weights":[2.1303196E-1,-1.6785587E0,5.2076526E0,-4.626945E0,-7.0396423E-1,5.513853E0,9.703827E-2,-4.8452363E0,-6.110077E-2,-1.1460391E0,9.312935E-1,1.4190857E-1,3.1144065E-1,-1.4134796E-1,-2.8597972E-1,-9.026053E-2,1.8395163E-3,1.0669174E-1,-8.921102E-2],"categories":[],"categories_nodes":[],"categories_segments":[],"categories_sizes":[],"default_left":[0,0,0,0,0,0,0,0,0,0,0,0,0,0,0,0,0,0,0],"id":23,"left_children":[1,3,5,7,9,11,-1,13,-1,15,17,-1,-1,-1,-1,-1,-1,-1,-1],"loss_changes":[5.850558E2,1.26049446E2,6.3043823E0,2.2549744E0,2.6369024E1,1.1016663E1,0E0,1.4779053E0,0E0,2.1897655E1,2.9931374E1,0E0,0E0,0E0,0E0,0E0,0E0,0E0,0E0],"parents":[2147483647,0,0,1,1,2,2,3,3,4,4,5,5,7,7,9,9,10,10],"right_children":[2,4,6,8,10,12,-1,14,-1,16,18,-1,-1,-1,-1,-1,-1,-1,-1],"split_conditions":[1.9489558E2,2.2442375E2,2.0577496E2,1.9253552E2,1.9162386E2,2.3555661E2,9.703827E-2,1.8206395E2,-6.110077E-2,2.3313062E2,1.9385573E2,1.4190857E-1,3.1144065E-1,-1.4134796E-1,-2.8597972E-1,-9.026053E-2,1.8395163E-3,1.0669174E-1,-8.921102E-2],"split_indices":[1,2,1,1,1,2,0,1,0,2,1,0,0,0,0,0,0,0,0],"split_type":[0,0,0,0,0,0,0,0,0,0,0,0,0,0,0,0,0,0,0],"sum_hessian":[6E1,4.4E1,1.6E1,1E1,3.4E1,1.4E1,2E0,9E0,1E0,2.7E1,7E0,4E0,1E1,4E0,5E0,1.7E1,1E1,5E0,2E0],"tree_param":{"num_deleted":"0","num_feature":"3","num_nodes":"19","size_leaf_vector":"1"}},{"base_weights":[4.302297E-2,-2.1435986E0,4.7783127E0,-2.5513986E-1,-1.0857457E0,1.9416077E0,2.725057E-1,-1.9678923E0,-2.9540476E-1,1.1501484E-1,1.267128E-2,4.360962E-3,-1.0663434E-1,8.634796E-2,-3.40092E-2],"categories":[],"categories_nodes":[],"categories_segments":[],"categories_sizes":[],"default_left":[0,0,0,0,0,0,0,0,0,0,0,0,0,0,0],"id":24,"left_children":[1,3,5,-1,7,9,-1,11,13,-1,-1,-1,-1,-1,-1],"loss_changes":[5.900828E2,1.16545135E2,2.3720642E1,0E0,2.0334572E1,2.4447079E0,0E0,4.92741E0,1.4403429E1,0E0,0E0,0E0,0E0,0E0,0E0],"parents":[2147483647,0,0,1,1,2,2,4,4,5,5,7,7,8,8],"right_children":[2,4,6,-1,8,10,-1,12,14,-1,-1,-1,-1,-1,-1],"split_conditions":[1.9425414E2,1.7921504E2,1.9851094E2,-2.5513986E-1,2.2715102E2,1.9774808E2,2.725057E-1,1.8036438E2,2.2841405E2,1.1501484E-1,1.267128E-2,4.360962E-3,-1.0663434E-1,8.634796E-2,-3.40092E-2],"split_indices":[0,0,0,0,2,0,0,0,2,0,0,0,0,0,0],"split_type":[0,0,0,0,0,0,0,0,0,0,0,0,0,0,0],"sum_hessian":[5.5E1,3.8E1,1.7E1,9E0,2.9E1,4E0,1.3E1,1.3E1,1.6E1,3E0,1E0,1E0,1.2E1,2E0,1.4E1],"tree_param":{"num_deleted":"0","num_feature":"3","num_nodes":"15","size_leaf_vector":"1"}},{"base_weights":[-3.685245E-1,-1.8833859E0,4.526996E0,-4.5765653E0,-6.462641E-1,1.112828E-1,5.2249665E0,-5.1021576E0,-9.935226E-2,-1.0259078E0,1.1698431E0,5.5170116E0,6.491394E-2,-6.7912675E-2,-2.6703614E-1,-7.663972E-2,7.908801E-3,-3.5514068E-2,1.643364E-1,2.902852E-1,8.0186844E-2],"categories":[],"categories_nodes":[],"categories_segments":[],"categories_sizes":[],"default_left":[0,0,0,0,0,0,0,0,0,0,0,0,0,0,0,0,0,0,0,0,0],"id":25,"left_children":[1,3,5,7,9,-1,11,13,-1,15,17,19,-1,-1,-1,-1,-1,-1,-1,-1,-1],"loss_changes":[4.3865616E2,1.4697292E2,1.0858765E1,8.916229E0,2.3263302E1,0E0,4.305084E0,2.5707397E0,0E0,1.6447752E1,2.6214542E1,8.56781E-1,0E0,0E0,0E0,0E0,0E0,0E0,0E0,0E0,0E0],"parents":[2147483647,0,0,1,1,2,2,3,3,4,4,6,6,7,7,9,9,10,10,11,11],"right_children":[2,4,6,8,10,-1,12,14,-1,16,18,20,-1,-1,-1,-1,-1,-1,-1,-1,-1],"split_conditions":[1.9489558E2,2.2442375E2,2.3555661E2,1.9020319E2,1.9171616E2,1.112828E-1,2.0512599E2,1.805633E2,-9.935226E-2,2.3313062E2,2.2715102E2,2.5038174E2,6.491394E-2,-6.7912675E-2,-2.6703614E-1,-7.663972E-2,7.908801E-3,-3.5514068E-2,1.643364E-1,2.902852E-1,8.0186844E-2],"split_indices":[1,2,2,1,1,0,1,1,0,2,2,2,0,0,0,0,0,0,0,0,0],"split_type":[0,0,0,0,0,0,0,0,0,0,0,0,0,0,0,0,0,0,0,0,0],"sum_hessian":[5.7E1,4.4E1,1.3E1,1.3E1,3.1E1,4E0,9E0,1E1,3E0,2.6E1,5E0,8E0,1E0,1E0,9E0,1.8E1,8E0,3E0,2E0,7E0,1E0],"tree_param":{"num_deleted":"0","num_feature":"3","num_nodes":"21","size_leaf_vector":"1"}},{"base_weights":[-8.1103235E-2,-1.577519E0,4.413937E0,-2.4255581E-1,-7.8419626E-1,4.5671844E0,6.054306E-2,-1.8596746E0,-2.796179E-1,2.3567657E0,2.4973169E-1,1.0927582E-2,-1.0446762E-1,-3.9443567E-2,5.7129342E-2,1.5919241E-1,-3.11203E-3],"categories":[],"categories_nodes":[],"categories_segments":[],"categories_sizes":[],"default_left":[0,0,0,0,0,0,0,0,0,0,0,0,0,0,0,0,0],"id":26,"left_children":[1,3,5,-1,7,9,-1,11,13,15,-1,-1,-1,-1,-1,-1,-1],"loss_changes":[3.7691782E2,1.0527057E2,1.3418274E0,0E0,1.8473207E1,5.117798E-1,0E0,5.70718E0,1.9007921E1,8.201035E0,0E0,0E0,0E0,0E0,0E0,0E0,0E0],"parents":[2147483647,0,0,1,1,2,2,4,4,5,5,7,7,8,8,9,9],"right_children":[2,4,6,-1,8,10,-1,12,14,16,-1,-1,-1,-1,-1,-1,-1],"split_conditions":[1.9851094E2,1.7835165E2,2.0937364E2,-2.4255581E-1,2.2593195E2,2.3075432E2,6.054306E-2,1.8036438E2,1.8937451E2,2.3074756E2,2.4973169E-1,1.0927582E-2,-1.0446762E-1,-3.9443567E-2,5.7129342E-2,1.5919241E-1,-3.11203E-3],"split_indices":[0,0,0,0,2,2,0,0,0,2,0,0,0,0,0,0,0],"split_type":[0,0,0,0,0,0,0,0,0,0,0,0,0,0,0,0,0],"sum_hessian":[5.4E1,4.1E1,1.3E1,7E0,3.4E1,1.2E1,1E0,1E1,2.4E1,3E0,9E0,1E0,9E0,1.8E1,6E0,2E0,1E0],"tree_param":{"num_deleted":"0","num_feature":"3","num_nodes":"17","size_leaf_vector":"1"}},{"base_weights":[2.2630869E-1,-1.7434132E0,3.9673831E0,-1.9990616E-1,-9.598482E-1,2.64835E0,4.925745E0,-1.1242212E0,-2.3568071E-1,3.4950256E-2,2.773384E0,5.1822023E0,5.902939E-2,3.522746E-3,-6.1558466E-2,5.2755482E-2,-4.8150938E-2,1.5708292E-1,7.177792E-2,1.7631891E-1,3.392172E-1],"categories":[],"categories_nodes":[],"categories_segments":[],"categories_sizes":[],"default_left":[0,0,0,0,0,0,0,0,0,0,0,0,0,0,0,0,0,0,0,0,0],"id":27,"left_children":[1,3,5,-1,7,9,11,13,15,-1,17,19,-1,-1,-1,-1,-1,-1,-1,-1,-1],"loss_changes":[4.4904938E2,6.683087E1,1.3501221E1,0E0,3.4250832E0,7.424774E-1,4.4471436E0,3.2809544E0,7.5879774E0,0E0,4.1682434E-1,2.6044922E0,0E0,0E0,0E0,0E0,0E0,0E0,0E0,0E0,0E0],"parents":[2147483647,0,0,1,1,2,2,4,4,5,5,6,6,7,7,8,8,10,10,11,11],"right_children":[2,4,6,-1,8,10,12,14,16,-1,18,20,-1,-1,-1,-1,-1,-1,-1,-1,-1],"split_conditions":[1.9425414E2,1.7921504E2,2.0393488E2,-1.9990616E-1,1.8937451E2,1.9308122E2,2.0512599E2,1.8292583E2,1.9113774E2,3.4950256E-2,2.0163023E2,2.0253468E2,5.902939E-2,3.522746E-3,-6.1558466E-2,5.2755482E-2,-4.8150938E-2,1.5708292E-1,7.177792E-2,1.7631891E-1,3.392172E-1],"split_indices":[0,0,0,0,0,1,1,1,1,0,0,1,0,0,0,0,0,0,0,0,0],"split_type":[0,0,0,0,0,0,0,0,0,0,0,0,0,0,0,0,0,0,0,0,0],"sum_hessian":[5.9E1,3.9E1,2E1,9E0,3E1,1E1,1E1,2.4E1,6E0,1E0,9E0,9E0,1E0,2E0,2.2E1,2E0,4E0,6E0,3E0,6E0,3E0],"tree_param":{"num_deleted":"0","num_feature":"3","num_nodes":"21","size_leaf_vector":"1"}},{"base_weights":[-3.8568425E-1,-2.4373157E0,3.2239547E0,-2.2861421E-1,-1.1246239E0,8.9938134E-1,4.155959E0,-2.0291169E0,-3.9822716E-1,1.2640259E0,-8.153279E-3,1.19580686E-1,4.6225357E0,-2.4135971E-2,-1.0736517E-1,-3.3033308E-2,3.9213564E-2,1.3626099E-3,7.832032E-2,4.217148E-3,-4.828644E-3,2.4180059E-1,6.7531206E-2],"categories":[],"categories_nodes":[],"categories_segments":[],"categories_sizes":[],"default_left":[0,0,0,0,0,0,0,0,0,0,0,0,0,0,0,0,0,0,0,0,0,0,0],"id":28,"left_children":[1,3,5,-1,7,9,11,13,15,17,19,-1,21,-1,-1,-1,-1,-1,-1,-1,-1,-1,-1],"loss_changes":[4.0776282E2,9.294736E1,3.9592453E1,0E0,1.4303425E1,2.326798E0,4.6951294E-1,7.910919E-1,4.862813E0,1.8271933E0,3.268068E-2,0E0,4.5310974E-1,0E0,0E0,0E0,0E0,0E0,0E0,0E0,0E0,0E0,0E0],"parents":[2147483647,0,0,1,1,2,2,4,4,5,5,6,6,7,7,8,8,9,9,10,10,12,12],"right_children":[2,4,6,-1,8,10,12,14,16,18,20,-1,22,-1,-1,-1,-1,-1,-1,-1,-1,-1,-1],"split_conditions":[1.9076062E2,1.8182542E2,2.3239246E2,-2.2861421E-1,2.3113484E2,2.2949576E2,2.3555661E2,1.8499486E2,1.8919807E2,1.9190094E2,1.9851094E2,1.19580686E-1,2.5038174E2,-2.4135971E-2,-1.0736517E-1,-3.3033308E-2,3.9213564E-2,1.3626099E-3,7.832032E-2,4.217148E-3,-4.828644E-3,2.4180059E-1,6.7531206E-2],"split_indices":[0,0,2,0,2,2,2,0,0,0,0,0,2,0,0,0,0,0,0,0,0,0,0],"split_type":[0,0,0,0,0,0,0,0,0,0,0,0,0,0,0,0,0,0,0,0,0,0,0],"sum_hessian":[5.3E1,3.4E1,1.9E1,1.2E1,2.2E1,6E0,1.3E1,9E0,1.3E1,4E0,2E0,4E0,9E0,1E0,8E0,1.1E1,2E0,1E0,3E0,1E0,1E0,8E0,1E0],"tree_param":{"num_deleted":"0","num_feature":"3","num_nodes":"23","size_leaf_vector":"1"}},{"base_weights":[-7.2166445E-3,-1.9708807E0,3.4741523E0,-4.434366E0,-9.6849376E-1,2.1658947E0,2.2927551E-1,-4.9438097E-2,-2.3400255E-1,-4.61861E-1,-1.0215133E-1,2.4210725E0,5.93338E-1,-3.9868757E-2,5.8170892E-2,4.8547745E-2,1.4519218E-1,-4.7080996E-3,4.920845E-2],"categories":[],"categories_nodes":[],"categories_segments":[],"categories_sizes":[],"default_left":[0,0,0,0,0,0,0,0,0,0,0,0,0,0,0,0,0,0,0],"id":29,"left_children":[1,3,5,7,9,11,-1,-1,-1,13,-1,15,17,-1,-1,-1,-1,-1,-1],"loss_changes":[4.170215E2,9.201059E1,2.2054993E1,4.684387E0,1.4843819E1,3.3788643E0,0E0,0E0,0E0,1.2379065E1,0E0,4.1812477E0,8.987603E-1,0E0,0E0,0E0,0E0,0E0,0E0],"parents":[2147483647,0,0,1,1,2,2,3,3,4,4,5,5,9,9,11,11,12,12],"right_children":[2,4,6,8,10,12,-1,-1,-1,14,-1,16,18,-1,-1,-1,-1,-1,-1],"split_conditions":[1.9300237E2,1.7921504E2,2.0344376E2,1.805633E2,1.9141145E2,2.0163023E2,2.2927551E-1,-4.9438097E-2,-2.3400255E-1,1.8919807E2,-1.0215133E-1,1.9308122E2,2.018728E2,-3.9868757E-2,5.8170892E-2,4.8547745E-2,1.4519218E-1,-4.7080996E-3,4.920845E-2],"split_indices":[0,0,0,1,1,0,0,0,0,0,0,1,0,0,0,0,0,0,0],"split_type":[0,0,0,0,0,0,0,0,0,0,0,0,0,0,0,0,0,0,0],"sum_hessian":[5.9E1,3.8E1,2.1E1,1E1,2.8E1,1.1E1,1E1,1E0,9E0,2E1,8E0,9E0,2E0,1.7E1,3E0,3E0,6E0,1E0,1E0],"tree_param":{"num_deleted":"0","num_feature":"3","num_nodes":"19","size_leaf_vector":"1"}},{"base_weights":[3.0116217E-2,-1.8242829E0,4.046308E0,-4.07375E0,-9.081305E-1,4.31771E0,6.2503055E-2,-4.8202135E-2,-2.1441582E-1,-1.4645706E0,-5.8450395E-1,1.5887493E-1,5.688479E0,1.727829E-2,-8.520465E-2,1.5219307E-1,-4.678369E-2,8.400154E-2,3.077081E-1],"categories":[],"categories_nodes":[],"categories_segments":[],"categories_sizes":[],"default_left":[0,0,0,0,0,0,0,0,0,0,0,0,0,0,0,0,0,0,0],"id":30,"left_children":[1,3,5,7,9,11,-1,-1,-1,13,15,-1,17,-1,-1,-1,-1,-1,-1],"loss_changes":[4.2444843E2,7.667384E1,8.262939E0,3.2055054E0,4.3662395E0,6.9323425E0,0E0,0E0,0E0,4.9245586E0,2.8331509E1,0E0,8.608246E-1,0E0,0E0,0E0,0E0,0E0,0E0],"parents":[2147483647,0,0,1,1,2,2,3,3,4,4,5,5,9,9,10,10,12,12],"right_children":[2,4,6,8,10,12,-1,-1,-1,14,16,-1,18,-1,-1,-1,-1,-1,-1],"split_conditions":[1.9300237E2,1.7921504E2,2.0512599E2,1.805633E2,1.8594714E2,2.0631482E2,6.2503055E-2,-4.8202135E-2,-2.1441582E-1,1.8036438E2,1.8595073E2,1.5887493E-1,2.0033325E2,1.727829E-2,-8.520465E-2,1.5219307E-1,-4.678369E-2,8.400154E-2,3.077081E-1],"split_indices":[0,0,1,1,0,0,0,0,0,0,0,0,1,0,0,0,0,0,0],"split_type":[0,0,0,0,0,0,0,0,0,0,0,0,0,0,0,0,0,0,0],"sum_hessian":[5.5E1,3.8E1,1.7E1,1E1,2.8E1,1.5E1,2E0,1E0,9E0,9E0,1.9E1,1E1,5E0,1E0,8E0,1E0,1.8E1,1E0,4E0],"tree_param":{"num_deleted":"0","num_feature":"3","num_nodes":"19","size_leaf_vector":"1"}},{"base_weights":[-1.19034566E-1,-1.7131511E0,3.234562E0,-4.5320816E0,-8.070161E-1,1.6688899E0,4.633345E0,-4.699707E-2,-2.4133852E-1,-1.4894087E0,-5.290741E-1,1.9914006E0,8.835968E-1,1.2862276E-1,2.7892646E-1,1.6846467E-2,-8.799086E-2,1.483883E-1,-3.9921634E-2,4.0769197E-2,1.3347836E-1,-8.034515E-3,8.166759E-2],"categories":[],"categories_nodes":[],"categories_segments":[],"categories_sizes":[],"default_left":[0,0,0,0,0,0,0,0,0,0,0,0,0,0,0,0,0,0,0,0,0,0,0],"id":31,"left_children":[1,3,5,7,9,11,13,-1,-1,15,17,19,21,-1,-1,-1,-1,-1,-1,-1,-1,-1,-1],"loss_changes":[3.3164874E2,1.03624466E2,3.606816E1,6.048752E0,5.470957E0,1.0263233E0,5.1286774E0,0E0,0E0,5.037649E0,2.5917156E1,3.406023E0,4.17726E0,0E0,0E0,0E0,0E0,0E0,0E0,0E0,0E0,0E0,0E0],"parents":[2147483647,0,0,1,1,2,2,3,3,4,4,5,5,6,6,9,9,10,10,11,11,12,12],"right_children":[2,4,6,8,10,12,14,-1,-1,16,18,20,22,-1,-1,-1,-1,-1,-1,-1,-1,-1,-1],"split_conditions":[1.9300237E2,1.7835165E2,2.0393488E2,1.805633E2,1.8594714E2,2.00852E2,2.0168373E2,-4.699707E-2,-2.4133852E-1,1.8036438E2,1.8595073E2,1.9308122E2,2.018728E2,1.2862276E-1,2.7892646E-1,1.6846467E-2,-8.799086E-2,1.483883E-1,-3.9921634E-2,4.0769197E-2,1.3347836E-1,-8.034515E-3,8.166759E-2],"split_indices":[0,0,0,1,0,1,1,0,0,0,0,1,0,0,0,0,0,0,0,0,0,0,0],"split_type":[0,0,0,0,0,0,0,0,0,0,0,0,0,0,0,0,0,0,0,0,0,0,0],"sum_hessian":[6E1,4.1E1,1.9E1,9E0,3.2E1,1E1,9E0,1E0,8E0,8E0,2.4E1,6E0,4E0,4E0,5E0,1E0,7E0,1E0,2.3E1,3E0,3E0,2E0,2E0],"tree_param":{"num_deleted":"0","num_feature":"3","num_nodes":"23","size_leaf_vector":"1"}},{"base_weights":[-1.24617234E-1,-1.6378108E0,3.413091E0,-3.4570627E0,-4.99076E-1,1.2271551E0,4.159439E0,-3.7014432E0,-5.82133E-2,-8.7318856E-1,6.9455826E-1,8.1119284E-2,6.239433E-1,2.3094599E-1,5.440979E-2,-4.5822144E-2,-1.9225892E-1,-5.9049733E-2,3.6511805E-2,-2.5590261E-2,6.397324E-2,-7.76647E-3,7.404404E-2],"categories":[],"categories_nodes":[],"categories_segments":[],"categories_sizes":[],"default_left":[0,0,0,0,0,0,0,0,0,0,0,0,0,0,0,0,0,0,0,0,0,0,0],"id":32,"left_children":[1,3,5,7,9,11,13,15,-1,17,19,-1,21,-1,-1,-1,-1,-1,-1,-1,-1,-1,-1],"loss_changes":[3.21431E2,8.528378E1,2.4262161E1,4.6555786E0,1.2663427E1,4.1816998E-1,1.3319031E1,2.0803528E0,0E0,1.1226828E1,5.594105E0,0E0,2.901176E0,0E0,0E0,0E0,0E0,0E0,0E0,0E0,0E0,0E0,0E0],"parents":[2147483647,0,0,1,1,2,2,3,3,4,4,5,5,6,6,7,7,9,9,10,10,12,12],"right_children":[2,4,6,8,10,12,14,16,-1,18,20,-1,22,-1,-1,-1,-1,-1,-1,-1,-1,-1,-1],"split_conditions":[1.942573E2,2.252905E2,2.3555661E2,1.9253552E2,1.9162386E2,2.0171504E2,2.0512599E2,1.805633E2,-5.82133E-2,2.3446645E2,2.2559322E2,8.1119284E-2,2.0459505E2,2.3094599E-1,5.440979E-2,-4.5822144E-2,-1.9225892E-1,-5.9049733E-2,3.6511805E-2,-2.5590261E-2,6.397324E-2,-7.76647E-3,7.404404E-2],"split_indices":[1,2,2,1,1,1,1,1,0,2,2,0,1,0,0,0,0,0,0,0,0,0,0],"split_type":[0,0,0,0,0,0,0,0,0,0,0,0,0,0,0,0,0,0,0,0,0,0,0],"sum_hessian":[5.8E1,4.1E1,1.7E1,1.5E1,2.6E1,5E0,1.2E1,1.3E1,2E0,2E1,6E0,2E0,3E0,1E1,2E0,1E0,1.2E1,1.7E1,3E0,2E0,4E0,2E0,1E0],"tree_param":{"num_deleted":"0","num_feature":"3","num_nodes":"23","size_leaf_vector":"1"}},{"base_weights":[-1.5049444E-1,-1.5633564E0,2.6151166E0,-3.6864777E0,-6.6199595E-1,1.2182399E0,3.0926514E0,-4.467659E-2,-1.9295758E-1,-1.5339224E-1,-1.0419052E0,1.4419098E0,-3.0944825E-3,1.6628465E-1,5.259603E-2,-4.2358782E-2,6.3242644E-2,-2.5717994E-2,-8.610306E-2,3.7960626E-2,9.357681E-2],"categories":[],"categories_nodes":[],"categories_segments":[],"categories_sizes":[],"default_left":[0,0,0,0,0,0,0,0,0,0,0,0,0,0,0,0,0,0,0,0,0],"id":33,"left_children":[1,3,5,7,9,11,13,-1,-1,15,17,19,-1,-1,-1,-1,-1,-1,-1,-1,-1],"loss_changes":[2.4244139E2,7.602115E1,1.0240601E1,2.3389587E0,5.636878E0,2.093526E0,3.6352844E0,0E0,0E0,1.4846922E1,5.2140617E0,3.389349E-1,0E0,0E0,0E0,0E0,0E0,0E0,0E0,0E0,0E0],"parents":[2147483647,0,0,1,1,2,2,3,3,4,4,5,5,6,6,9,9,10,10,11,11],"right_children":[2,4,6,8,10,12,14,-1,-1,16,18,20,-1,-1,-1,-1,-1,-1,-1,-1,-1],"split_conditions":[1.9300237E2,1.7921504E2,1.9851094E2,1.805633E2,1.8624567E2,1.9774808E2,2.0577496E2,-4.467659E-2,-1.9295758E-1,1.8594714E2,1.9141145E2,1.9308122E2,-3.0944825E-3,1.6628465E-1,5.259603E-2,-4.2358782E-2,6.3242644E-2,-2.5717994E-2,-8.610306E-2,3.7960626E-2,9.357681E-2],"split_indices":[0,0,0,1,0,0,1,0,0,0,1,1,0,0,0,0,0,0,0,0,0],"split_type":[0,0,0,0,0,0,0,0,0,0,0,0,0,0,0,0,0,0,0,0,0],"sum_hessian":[6E1,4E1,2E1,1.1E1,2.9E1,6E0,1.4E1,1E0,1E1,1.3E1,1.6E1,5E0,1E0,1.2E1,2E0,9E0,4E0,1E1,6E0,3E0,2E0],"tree_param":{"num_deleted":"0","num_feature":"3","num_nodes":"21","size_leaf_vector":"1"}},{"base_weights":[1.5703413E-1,-8.0294573E-1,2.7065115E0,-1.9155192E0,-1.3019386E-1,1.4333985E0,3.0391526E0,-1.4256592E-1,-2.5472689E0,-5.8581835E-1,1.4861908E0,-2.0454915E-1,1.2967734E-1,3.1859803E0,3.927193E-2,-7.5099565E-2,2.8639412E-2,-1.6668539E-1,-4.6840057E-2,-4.4604626E-2,2.8633881E-2,1.1453781E-1,-6.341591E-2,-3.0170442E-3,-1.2324142E-2,1.6773249E-1,4.169884E-2],"categories":[],"categories_nodes":[],"categories_segments":[],"categories_sizes":[],"default_left":[0,0,0,0,0,0,0,0,0,0,0,0,0,0,0,0,0,0,0,0,0,0,0,0,0,0,0],"id":34,"left_children":[1,3,5,7,9,11,13,15,17,19,21,23,-1,25,-1,-1,-1,-1,-1,-1,-1,-1,-1,-1,-1,-1,-1],"loss_changes":[1.3433531E2,2.9690046E1,1.9960403E0,1.643779E1,2.0018711E1,1.00318165E1,1.1375809E0,5.7226763E0,1.0808853E1,7.9620476E0,1.6202503E1,3.2685697E-3,0E0,1.1694183E0,0E0,0E0,0E0,0E0,0E0,0E0,0E0,0E0,0E0,0E0,0E0,0E0,0E0],"parents":[2147483647,0,0,1,1,2,2,3,3,4,4,5,5,6,6,7,7,8,8,9,9,10,10,11,11,13,13],"right_children":[2,4,6,8,10,12,14,16,18,20,22,24,-1,26,-1,-1,-1,-1,-1,-1,-1,-1,-1,-1,-1,-1,-1],"split_conditions":[1.9489558E2,2.2593195E2,2.3239246E2,1.8292583E2,1.9162386E2,2.0459505E2,2.5038174E2,1.8110016E2,1.9253552E2,2.3446645E2,1.9385573E2,2.0340425E2,1.2967734E-1,2.0512599E2,3.927193E-2,-7.5099565E-2,2.8639412E-2,-1.6668539E-1,-4.6840057E-2,-4.4604626E-2,2.8633881E-2,1.1453781E-1,-6.341591E-2,-3.0170442E-3,-1.2324142E-2,1.6773249E-1,4.169884E-2],"split_indices":[1,2,2,1,1,1,2,1,1,2,1,1,0,1,0,0,0,0,0,0,0,0,0,0,0,0,0],"split_type":[0,0,0,0,0,0,0,0,0,0,0,0,0,0,0,0,0,0,0,0,0,0,0,0,0,0,0],"sum_hessian":[5.3E1,3.9E1,1.4E1,1.4E1,2.5E1,4E0,1E1,4E0,1E1,2E1,5E0,2E0,2E0,9E0,1E0,1E0,3E0,6E0,4E0,1.6E1,4E0,4E0,1E0,1E0,1E0,8E0,1E0],"tree_param":{"num_deleted":"0","num_feature":"3","num_nodes":"27","size_leaf_vector":"1"}},{"base_weights":[-7.341821E-2,-1.3819174E0,2.765742E0,-1.8787062E-1,-6.476795E-1,1.5253799E0,3.8366175E0,3.6261496E-1,-7.2985893E-1,9.695091E-2,7.23938E-1,8.619767E-2,4.6056237E0,2.1574784E-2,5.621338E-3,-6.3108735E-2,-2.5155708E-2,-9.971619E-3,7.029979E-2,2.6292834E-1,3.3522796E-2],"categories":[],"categories_nodes":[],"categories_segments":[],"categories_sizes":[],"default_left":[0,0,0,0,0,0,0,0,0,0,0,0,0,0,0,0,0,0,0,0,0],"id":35,"left_children":[1,3,5,-1,7,9,11,13,15,-1,17,-1,19,-1,-1,-1,-1,-1,-1,-1,-1],"loss_changes":[2.118642E2,6.5589355E1,1.805661E1,0E0,2.8384466E0,1.9113445E0,6.6819916E0,3.1877458E-3,2.8652744E0,0E0,3.4293602E0,0E0,1.1890991E1,0E0,0E0,0E0,0E0,0E0,0E0,0E0,0E0],"parents":[2147483647,0,0,1,1,2,2,4,4,5,5,6,6,7,7,8,8,10,10,12,12],"right_children":[2,4,6,-1,8,10,12,14,16,-1,18,-1,20,-1,-1,-1,-1,-1,-1,-1,-1],"split_conditions":[1.9300237E2,1.7921504E2,2.0393488E2,-1.8787062E-1,1.8292583E2,2.0171504E2,2.0168373E2,1.8036438E2,1.8594714E2,9.695091E-2,2.018728E2,8.619767E-2,2.0512599E2,2.1574784E-2,5.621338E-3,-6.3108735E-2,-2.5155708E-2,-9.971619E-3,7.029979E-2,2.6292834E-1,3.3522796E-2],"split_indices":[0,0,0,0,1,1,1,0,0,0,0,0,1,0,0,0,0,0,0,0,0],"split_type":[0,0,0,0,0,0,0,0,0,0,0,0,0,0,0,0,0,0,0,0,0],"sum_hessian":[5.5E1,3.8E1,1.7E1,8E0,3E1,9E0,8E0,2E0,2.8E1,5E0,4E0,3E0,5E0,1E0,1E0,7E0,2.1E1,2E0,2E0,4E0,1E0],"tree_param":{"num_deleted":"0","num_feature":"3","num_nodes":"21","size_leaf_vector":"1"}},{"base_weights":[2.1085631E-2,-1.3736341E0,3.0554118E0,-1.6286431E-1,-4.5142424E-1,5.8140438E-2,1.8735479E-1,-1.2925156E0,3.6183384E-1,5.480957E-3,-7.092476E-2,8.7685905E-2,-8.145015E-4],"categories":[],"categories_nodes":[],"categories_segments":[],"categories_sizes":[],"default_left":[0,0,0,0,0,0,0,0,0,0,0,0,0],"id":36,"left_children":[1,3,5,-1,7,-1,-1,9,11,-1,-1,-1,-1],"loss_changes":[2.2849487E2,6.280311E1,1.7897263E1,0E0,1.8252312E1,0E0,0E0,2.4518166E0,7.3968325E0,0E0,0E0,0E0,0E0],"parents":[2147483647,0,0,1,1,2,2,4,4,7,7,8,8],"right_children":[2,4,6,-1,8,-1,-1,10,12,-1,-1,-1,-1],"split_conditions":[1.9300237E2,1.8393002E2,2.3555661E2,-1.6286431E-1,2.2715102E2,5.8140438E-2,1.8735479E-1,1.8439256E2,2.2841405E2,5.480957E-3,-7.092476E-2,8.7685905E-2,-8.145015E-4],"split_indices":[0,0,2,0,2,0,0,0,2,0,0,0,0],"split_type":[0,0,0,0,0,0,0,0,0,0,0,0,0],"sum_hessian":[5.2E1,3.6E1,1.6E1,1.1E1,2.5E1,5E0,1.1E1,1.2E1,1.3E1,1E0,1.1E1,2E0,1.1E1],"tree_param":{"num_deleted":"0","num_feature":"3","num_nodes":"13","size_leaf_vector":"1"}},{"base_weights":[6.402096E-2,-9.968598E-1,2.9774418E0,-2.8179824E0,-4.4805732E-1,9.859177E-2,3.9886737E0,-3.291397E-2,-1.4924036E-1,-6.8306124E-1,5.895386E-1,4.466779E0,2.8001023E-2,-2.472406E-2,-7.446747E-2,6.80072E-2,-4.4565838E-2,5.7723235E-2,2.4491744E-1],"categories":[],"categories_nodes":[],"categories_segments":[],"categories_sizes":[],"default_left":[0,0,0,0,0,0,0,0,0,0,0,0,0,0,0,0,0,0,0],"id":37,"left_children":[1,3,5,7,9,-1,11,-1,-1,13,15,17,-1,-1,-1,-1,-1,-1,-1],"loss_changes":[1.8532483E2,4.2712597E1,8.405411E0,1.6380768E0,8.937059E0,0E0,8.973305E0,0E0,0E0,3.6729898E0,9.200405E0,2.9220123E0,0E0,0E0,0E0,0E0,0E0,0E0,0E0],"parents":[2147483647,0,0,1,1,2,2,3,3,4,4,6,6,9,9,10,10,11,11],"right_children":[2,4,6,8,10,-1,12,-1,-1,14,16,18,-1,-1,-1,-1,-1,-1,-1],"split_conditions":[1.9425414E2,1.7835165E2,2.0575351E2,1.805633E2,1.8937451E2,9.859177E-2,2.0512599E2,-3.291397E-2,-1.4924036E-1,1.9202364E2,1.9166452E2,2.0033325E2,2.8001023E-2,-2.472406E-2,-7.446747E-2,6.80072E-2,-4.4565838E-2,5.7723235E-2,2.4491744E-1],"split_indices":[0,0,0,1,0,0,1,0,0,1,1,1,0,0,0,0,0,0,0],"split_type":[0,0,0,0,0,0,0,0,0,0,0,0,0,0,0,0,0,0,0],"sum_hessian":[5.8E1,4.3E1,1.5E1,9E0,3.4E1,9E0,6E0,1E0,8E0,2.8E1,6E0,5E0,1E0,2.4E1,4E0,4E0,2E0,1E0,4E0],"tree_param":{"num_deleted":"0","num_feature":"3","num_nodes":"19","size_leaf_vector":"1"}},{"base_weights":[9.8779246E-2,-8.9602417E-1,3.2182486E0,-2.195934E0,8.8372454E-2,1.5840034E0,3.5199516E0,-2.50902E0,-8.174896E-1,-3.9142644E-1,1.7529398E0,5.17746E-1,1.195694E-1,2.406334E0,2.4335995E-1,-3.209114E-2,-1.2982734E-1,-2.7297975E-3,-4.9728204E-2,-4.629841E-2,1.4458314E-2,3.1911086E-2,1.3274588E-1,5.451584E-2,-1.5684891E-2,1.302681E-1,2.5328446E-2],"categories":[],"categories_nodes":[],"categories_segments":[],"categories_sizes":[],"default_left":[0,0,0,0,0,0,0,0,0,0,0,0,0,0,0,0,0,0,0,0,0,0,0,0,0,0,0],"id":38,"left_children":[1,3,5,7,9,11,13,15,17,19,21,23,-1,25,-1,-1,-1,-1,-1,-1,-1,-1,-1,-1,-1,-1,-1],"loss_changes":[1.7976938E2,5.6497646E1,1.327179E0,6.148758E0,2.1451244E1,2.205388E0,4.791397E0,7.8492737E-1,6.211457E-1,7.9076676E0,4.3382797E0,1.7702112E0,0E0,1.705059E0,0E0,0E0,0E0,0E0,0E0,0E0,0E0,0E0,0E0,0E0,0E0,0E0,0E0],"parents":[2147483647,0,0,1,1,2,2,3,3,4,4,5,5,6,6,7,7,8,8,9,9,10,10,11,11,13,13],"right_children":[2,4,6,8,10,12,14,16,18,20,22,24,-1,26,-1,-1,-1,-1,-1,-1,-1,-1,-1,-1,-1,-1,-1],"split_conditions":[1.942573E2,2.2593195E2,2.3428972E2,1.9253552E2,1.9162386E2,2.0459505E2,2.0253468E2,1.805633E2,1.927248E2,2.3313062E2,2.2697093E2,2.0171504E2,1.195694E-1,2.5038174E2,2.4335995E-1,-3.209114E-2,-1.2982734E-1,-2.7297975E-3,-4.9728204E-2,-4.629841E-2,1.4458314E-2,3.1911086E-2,1.3274588E-1,5.451584E-2,-1.5684891E-2,1.302681E-1,2.5328446E-2],"split_indices":[1,2,2,1,1,1,1,1,1,2,2,1,0,2,0,0,0,0,0,0,0,0,0,0,0,0,0],"split_type":[0,0,0,0,0,0,0,0,0,0,0,0,0,0,0,0,0,0,0,0,0,0,0,0,0,0,0],"sum_hessian":[5.6E1,4.3E1,1.3E1,1.8E1,2.5E1,3E0,1E1,1.4E1,4E0,2E1,5E0,2E0,1E0,7E0,3E0,1E0,1.3E1,1E0,3E0,1.1E1,9E0,3E0,2E0,1E0,1E0,6E0,1E0],"tree_param":{"num_deleted":"0","num_feature":"3","num_nodes":"27","size_leaf_vector":"1"}},{"base_weights":[-4.8055187E-2,-9.61285E-1,2.633956E0,-3.2292852E0,-3.6758253E-1,1.4474617E-1,3.1255595E-2,-3.128891E-2,-3.4765015E0,-6.249474E-1,3.6406097E-1,-1.8648486E-1,-4.2603303E-2,-1.2345314E-2,-5.384617E-2,6.4533845E-2,-2.343979E-2],"categories":[],"categories_nodes":[],"categories_segments":[],"categories_sizes":[],"default_left":[0,0,0,0,0,0,0,0,0,0,0,0,0,0,0,0,0],"id":39,"left_children":[1,3,5,7,9,-1,-1,-1,11,13,15,-1,-1,-1,-1,-1,-1],"loss_changes":[1.4459094E2,5.805974E1,6.053993E0,3.6171417E0,7.006296E0,0E0,0E0,0E0,2.1380234E0,4.3474703E0,8.322447E0,0E0,0E0,0E0,0E0,0E0,0E0],"parents":[2147483647,0,0,1,1,2,2,3,3,4,4,8,8,9,9,10,10],"right_children":[2,4,6,8,10,-1,-1,-1,12,14,16,-1,-1,-1,-1,-1,-1],"split_conditions":[1.9489558E2,1.7921504E2,2.0512599E2,1.805633E2,1.8937451E2,1.4474617E-1,3.1255595E-2,-3.128891E-2,1.83516E2,1.8624567E2,1.9166452E2,-1.8648486E-1,-4.2603303E-2,-1.2345314E-2,-5.384617E-2,6.4533845E-2,-2.343979E-2],"split_indices":[1,0,1,1,0,0,0,0,1,0,1,0,0,0,0,0,0],"split_type":[0,0,0,0,0,0,0,0,0,0,0,0,0,0,0,0,0],"sum_hessian":[5.7E1,4.3E1,1.4E1,8E0,3.5E1,1.2E1,2E0,1E0,7E0,2.6E1,9E0,6E0,1E0,1.5E1,1.1E1,4E0,5E0],"tree_param":{"num_deleted":"0","num_feature":"3","num_nodes":"17","size_leaf_vector":"1"}},{"base_weights":[9.786849E-2,-8.9018506E-1,1.8714714E0,-2.300122E0,-3.350163E-1,8.586382E-1,2.2442114E0,-3.0506516E-2,-1.21005334E-1,-6.585207E-1,1.24240875E-1,1.0673243E0,-9.83696E-3,2.353964E0,2.0435715E-2,-3.9535523E-3,-6.1404325E-2,3.0928422E-2,-3.457657E-2,2.5933838E-2,7.215398E-2,8.950979E-2,1.8182297E-1],"categories":[],"categories_nodes":[],"categories_segments":[],"categories_sizes":[],"default_left":[0,0,0,0,0,0,0,0,0,0,0,0,0,0,0,0,0,0,0,0,0,0,0],"id":40,"left_children":[1,3,5,7,9,11,13,-1,-1,15,17,19,-1,21,-1,-1,-1,-1,-1,-1,-1,-1,-1],"loss_changes":[9.804876E1,2.7408527E1,5.6235046E0,5.5114746E-1,4.093251E0,1.7516828E0,1.8582077E0,0E0,0E0,5.1834483E0,5.266864E0,4.8845148E-1,0E0,2.889412E0,0E0,0E0,0E0,0E0,0E0,0E0,0E0,0E0,0E0],"parents":[2147483647,0,0,1,1,2,2,3,3,4,4,5,5,6,6,9,9,10,10,11,11,13,13],"right_children":[2,4,6,8,10,12,14,-1,-1,16,18,20,-1,22,-1,-1,-1,-1,-1,-1,-1,-1,-1],"split_conditions":[1.9300237E2,1.7921504E2,1.9851094E2,1.805633E2,1.9020319E2,1.9774808E2,2.0577496E2,-3.0506516E-2,-1.21005334E-1,1.8839565E2,1.9202364E2,1.9308122E2,-9.83696E-3,2.0855267E2,2.0435715E-2,-3.9535523E-3,-6.1404325E-2,3.0928422E-2,-3.457657E-2,2.5933838E-2,7.215398E-2,8.950979E-2,1.8182297E-1],"split_indices":[0,0,0,1,1,0,1,0,0,1,1,1,0,0,0,0,0,0,0,0,0,0,0],"split_type":[0,0,0,0,0,0,0,0,0,0,0,0,0,0,0,0,0,0,0,0,0,0,0],"sum_hessian":[5.4E1,3.5E1,1.9E1,9E0,2.6E1,6E0,1.3E1,1E0,8E0,1.5E1,1.1E1,5E0,1E0,1.2E1,1E0,8E0,7E0,7E0,4E0,3E0,2E0,1E1,2E0],"tree_param":{"num_deleted":"0","num_feature":"3","num_nodes":"23","size_leaf_vector":"1"}},{"base_weights":[-2.512171E-1,-9.294952E-1,2.546395E0,-2.7157238E0,-2.7172357E-1,2.9153748E0,2.9532878E-2,-2.9743958E-2,-1.427224E-1,-5.585931E-1,3.0075327E-1,1.4405396E0,3.807135E0,-3.192208E-3,-4.6712905E-2,5.628338E-2,-4.9646166E-3,9.212749E-2,2.791748E-2,5.027237E-2,2.1280976E-1],"categories":[],"categories_nodes":[],"categories_segments":[],"categories_sizes":[],"default_left":[0,0,0,0,0,0,0,0,0,0,0,0,0,0,0,0,0,0,0,0,0],"id":41,"left_children":[1,3,5,7,9,11,-1,-1,-1,13,15,17,19,-1,-1,-1,-1,-1,-1,-1,-1],"loss_changes":[1.0673262E2,5.2133945E1,6.215912E0,1.8324966E0,5.7516875E0,6.3524704E0,0E0,0E0,0E0,4.215131E0,4.0718107E0,7.4445915E-1,2.0112457E0,0E0,0E0,0E0,0E0,0E0,0E0,0E0,0E0],"parents":[2147483647,0,0,1,1,2,2,3,3,4,4,5,5,9,9,10,10,11,11,12,12],"right_children":[2,4,6,8,10,12,-1,-1,-1,14,16,18,20,-1,-1,-1,-1,-1,-1,-1,-1],"split_conditions":[2.018728E2,1.8182542E2,2.0481052E2,1.805633E2,1.8937451E2,2.0128519E2,2.9532878E-2,-2.9743958E-2,-1.427224E-1,1.8624272E2,1.9136214E2,2.0033325E2,2.0393488E2,-3.192208E-3,-4.6712905E-2,5.628338E-2,-4.9646166E-3,9.212749E-2,2.791748E-2,5.027237E-2,2.1280976E-1],"split_indices":[0,0,1,1,0,1,0,0,0,0,1,1,0,0,0,0,0,0,0,0,0],"split_type":[0,0,0,0,0,0,0,0,0,0,0,0,0,0,0,0,0,0,0,0,0],"sum_hessian":[5.4E1,4.4E1,1E1,1.1E1,3.3E1,8E0,2E0,1E0,1E1,2.2E1,1.1E1,4E0,4E0,1E1,1.2E1,3E0,8E0,2E0,2E0,1E0,3E0],"tree_param":{"num_deleted":"0","num_feature":"3","num_nodes":"21","size_leaf_vector":"1"}},{"base_weights":[-7.054848E-2,-1.04497E0,1.8331009E0,-1.5559529E-1,-5.748633E-1,1.4309415E0,3.0840034E0,-1.0462316E0,-2.916232E-1,5.0294113E-1,1.5938742E0,1.9280905E-1,1.9186784E-2,-4.615021E-3,-6.769765E-2,1.3398552E-1,-2.8036028E-2,3.9470673E-2,7.2156275E-3,8.303311E-2,1.8140793E-2],"categories":[],"categories_nodes":[],"categories_segments":[],"categories_sizes":[],"default_left":[0,0,0,0,0,0,0,0,0,0,0,0,0,0,0,0,0,0,0,0,0],"id":42,"left_children":[1,3,5,-1,7,9,11,13,15,17,19,-1,-1,-1,-1,-1,-1,-1,-1,-1,-1],"loss_changes":[1.0950303E2,3.6106617E1,5.6482162E0,0E0,4.1007376E0,1.7688065E0,6.860592E0,3.3975687E0,1.9093283E1,2.970264E-1,5.485611E-1,0E0,0E0,0E0,0E0,0E0,0E0,0E0,0E0,0E0,0E0],"parents":[2147483647,0,0,1,1,2,2,4,4,5,5,6,6,7,7,8,8,9,9,10,10],"right_children":[2,4,6,-1,8,10,12,14,16,18,20,-1,-1,-1,-1,-1,-1,-1,-1,-1,-1],"split_conditions":[1.9300237E2,1.7724998E2,2.0728235E2,-1.5559529E-1,1.8594714E2,1.9308122E2,2.0512599E2,1.8292583E2,1.8595073E2,1.9307945E2,2.0633952E2,1.9280905E-1,1.9186784E-2,-4.615021E-3,-6.769765E-2,1.3398552E-1,-2.8036028E-2,3.9470673E-2,7.2156275E-3,8.303311E-2,1.8140793E-2],"split_indices":[0,0,0,0,0,1,1,1,0,0,0,0,0,0,0,0,0,0,0,0,0],"split_type":[0,0,0,0,0,0,0,0,0,0,0,0,0,0,0,0,0,0,0,0,0],"sum_hessian":[5.7E1,3.8E1,1.9E1,6E0,3.2E1,1.6E1,3E0,1.1E1,2.1E1,3E0,1.3E1,2E0,1E0,3E0,8E0,1E0,2E1,1E0,2E0,1.2E1,1E0],"tree_param":{"num_deleted":"0","num_feature":"3","num_nodes":"21","size_leaf_vector":"1"}},{"base_weights":[6.909969E-2,-8.631607E-1,2.0281162E0,-2.4637468E0,-3.860221E-1,1.3833171E0,3.1946285E0,-2.5110627E-2,-2.646162E0,2.8580476E-2,-4.6891785E-1,4.894638E-1,1.5825986E0,3.6838958E0,1.8707275E-2,-1.4170848E-1,-3.3252716E-2,-4.913271E-2,-1.1871927E-2,3.848381E-2,6.975047E-3,1.08392335E-1,3.6679205E-2,4.004364E-2,2.1022168E-1],"categories":[],"categories_nodes":[],"categories_segments":[],"categories_sizes":[],"default_left":[0,0,0,0,0,0,0,0,0,0,0,0,0,0,0,0,0,0,0,0,0,0,0,0,0],"id":43,"left_children":[1,3,5,7,9,11,13,-1,15,-1,17,19,21,23,-1,-1,-1,-1,-1,-1,-1,-1,-1,-1,-1],"loss_changes":[1.0767678E2,2.9596998E1,9.871971E0,1.8913879E0,2.808313E0,1.7191715E0,6.901512E0,0E0,1.0948296E0,0E0,3.334259E0,2.8488517E-1,3.8754292E0,4.1363907E0,0E0,0E0,0E0,0E0,0E0,0E0,0E0,0E0,0E0,0E0,0E0],"parents":[2147483647,0,0,1,1,2,2,3,3,4,4,5,5,6,6,8,8,10,10,11,11,12,12,13,13],"right_children":[2,4,6,8,10,12,14,-1,16,-1,18,20,22,24,-1,-1,-1,-1,-1,-1,-1,-1,-1,-1,-1],"split_conditions":[1.9300237E2,1.7921504E2,2.0728235E2,1.805633E2,1.8292583E2,1.9308122E2,2.0512599E2,-2.5110627E-2,1.83516E2,2.8580476E-2,1.8594714E2,1.9307945E2,2.0163023E2,2.0033325E2,1.8707275E-2,-1.4170848E-1,-3.3252716E-2,-4.913271E-2,-1.1871927E-2,3.848381E-2,6.975047E-3,1.08392335E-1,3.6679205E-2,4.004364E-2,2.1022168E-1],"split_indices":[0,0,0,1,1,1,1,0,1,0,0,0,0,1,0,0,0,0,0,0,0,0,0,0,0],"split_type":[0,0,0,0,0,0,0,0,0,0,0,0,0,0,0,0,0,0,0,0,0,0,0,0,0],"sum_hessian":[5.7E1,3.9E1,1.8E1,8E0,3.1E1,1.3E1,5E0,1E0,7E0,2E0,2.9E1,3E0,1E1,4E0,1E0,6E0,1E0,8E0,2.1E1,1E0,2E0,5E0,5E0,1E0,3E0],"tree_param":{"num_deleted":"0","num_feature":"3","num_nodes":"25","size_leaf_vector":"1"}},{"base_weights":[9.3473285E-2,-6.342945E-1,2.3255687E0,-2.6760228E0,-2.6616123E-1,1.6179979E0,3.134082E0,-4.2181652E-2,-1.6906548E-1,6.236687E-2,-3.4736228E-1,1.0816403E-1,9.848099E-1,3.9042663E-2,1.763588E-1,-5.0285548E-2,-1.5572866E-3,-2.4018098E-2,6.8695836E-2],"categories":[],"categories_nodes":[],"categories_segments":[],"categories_sizes":[],"default_left":[0,0,0,0,0,0,0,0,0,0,0,0,0,0,0,0,0,0,0],"id":44,"left_children":[1,3,5,7,9,11,13,-1,-1,-1,15,-1,17,-1,-1,-1,-1,-1,-1],"loss_changes":[8.594634E1,2.9352867E1,2.3661041E0,4.901581E0,4.734697E0,9.769764E-1,1.8709908E0,0E0,0E0,0E0,7.0468216E0,0E0,4.0806265E0,0E0,0E0,0E0,0E0,0E0,0E0],"parents":[2147483647,0,0,1,1,2,2,3,3,4,4,5,5,6,6,10,10,12,12],"right_children":[2,4,6,8,10,12,14,-1,-1,-1,16,-1,18,-1,-1,-1,-1,-1,-1],"split_conditions":[1.9851094E2,1.7578557E2,2.0631482E2,1.8110016E2,1.7588266E2,2.0163023E2,2.0033325E2,-4.2181652E-2,-1.6906548E-1,6.236687E-2,1.8594714E2,1.0816403E-1,2.018728E2,3.9042663E-2,1.763588E-1,-5.0285548E-2,-1.5572866E-3,-2.4018098E-2,6.8695836E-2],"split_indices":[0,0,0,1,0,0,1,0,0,0,0,0,0,0,0,0,0,0,0],"split_type":[0,0,0,0,0,0,0,0,0,0,0,0,0,0,0,0,0,0,0],"sum_hessian":[5.1E1,3.9E1,1.2E1,5E0,3.4E1,8E0,4E0,2E0,3E0,1E0,3.3E1,3E0,5E0,1E0,3E0,1E1,2.3E1,1E0,4E0],"tree_param":{"num_deleted":"0","num_feature":"3","num_nodes":"19","size_leaf_vector":"1"}},{"base_weights":[5.150332E-2,-7.5136626E-1,1.7881927E0,-1.2725226E0,7.732868E-2,9.344962E-1,2.1371663E0,-1.5075265E-1,-1.0656712E0,1.6998037E0,-2.75868E-1,1.6093476E0,-2.5087738E-2,2.2865045E0,1.2361146E-2,-4.5691174E-3,-6.656151E-2,-3.486252E-3,1.3097154E-1,-2.5494767E-2,3.7609864E-2,3.377889E-2,1.0033341E-1,7.266363E-2,1.3693263E-1],"categories":[],"categories_nodes":[],"categories_segments":[],"categories_sizes":[],"default_left":[0,0,0,0,0,0,0,0,0,0,0,0,0,0,0,0,0,0,0,0,0,0,0,0,0],"id":45,"left_children":[1,3,5,7,9,11,13,-1,15,17,19,21,-1,23,-1,-1,-1,-1,-1,-1,-1,-1,-1,-1,-1],"loss_changes":[7.942635E1,1.6941708E1,3.3653412E0,5.437626E0,9.637766E0,7.5922885E0,2.8216133E0,0E0,5.8291626E0,5.064558E0,3.7518766E0,4.9936962E-1,0E0,1.6418076E-1,0E0,0E0,0E0,0E0,0E0,0E0,0E0,0E0,0E0,0E0,0E0],"parents":[2147483647,0,0,1,1,2,2,3,3,4,4,5,5,6,6,8,8,9,9,10,10,11,11,13,13],"right_children":[2,4,6,8,10,12,14,-1,16,18,20,22,-1,24,-1,-1,-1,-1,-1,-1,-1,-1,-1,-1,-1],"split_conditions":[1.9300237E2,2.2715102E2,2.3239246E2,2.1366628E2,2.2841405E2,2.3074756E2,2.4959122E2,-1.5075265E-1,2.2135672E2,1.8461105E2,1.8937451E2,1.9774808E2,-2.5087738E-2,2.3994328E2,1.2361146E-2,-4.5691174E-3,-6.656151E-2,-3.486252E-3,1.3097154E-1,-2.5494767E-2,3.7609864E-2,3.377889E-2,1.0033341E-1,7.266363E-2,1.3693263E-1],"split_indices":[0,2,2,2,2,2,2,0,2,0,0,0,0,2,0,0,0,0,0,0,0,0,0,0,0],"split_type":[0,0,0,0,0,0,0,0,0,0,0,0,0,0,0,0,0,0,0,0,0,0,0,0,0],"sum_hessian":[5.5E1,3.8E1,1.7E1,2.3E1,1.5E1,6E0,1.1E1,1E0,2.2E1,2E0,1.3E1,4E0,2E0,1E1,1E0,5E0,1.7E1,1E0,1E0,1.1E1,2E0,2E0,2E0,5E0,5E0],"tree_param":{"num_deleted":"0","num_feature":"3","num_nodes":"25","size_leaf_vector":"1"}},{"base_weights":[6.525072E-2,-1.8061227E0,9.30881E-1,-1.3438211E-1,-9.206862E-1,3.565879E-1,2.675531E0,3.371773E-2,-1.1476257E0,-4.946213E-2,9.538504E-1,3.0941773E-2,1.5561752E-1,-6.292131E-2,-3.7605285E-3,-2.918603E-2,1.1060006E-2,7.507083E-2,2.1197224E-2],"categories":[],"categories_nodes":[],"categories_segments":[],"categories_sizes":[],"default_left":[0,0,0,0,0,0,0,0,0,0,0,0,0,0,0,0,0,0,0],"id":46,"left_children":[1,3,5,-1,7,9,11,-1,13,15,17,-1,-1,-1,-1,-1,-1,-1,-1],"loss_changes":[9.725642E1,1.2355591E1,4.0125496E1,0E0,4.755662E0,7.8077707E0,7.058014E0,0E0,1.0935946E0,3.0211914E0,3.135542E0,0E0,0E0,0E0,0E0,0E0,0E0,0E0,0E0],"parents":[2147483647,0,0,1,1,2,2,4,4,5,5,6,6,8,8,9,9,10,10],"right_children":[2,4,6,-1,8,10,12,-1,14,16,18,-1,-1,-1,-1,-1,-1,-1,-1],"split_conditions":[2.2593195E2,1.7921504E2,2.3994328E2,-1.3438211E-1,1.8036438E2,1.8848563E2,2.0344376E2,3.371773E-2,1.9300237E2,1.8594714E2,1.9720584E2,3.0941773E-2,1.5561752E-1,-6.292131E-2,-3.7605285E-3,-2.918603E-2,1.1060006E-2,7.507083E-2,2.1197224E-2],"split_indices":[2,0,2,0,0,0,0,0,0,0,0,0,0,0,0,0,0,0,0],"split_type":[0,0,0,0,0,0,0,0,0,0,0,0,0,0,0,0,0,0,0],"sum_hessian":[5.8E1,1.8E1,4E1,8E0,1E1,3.1E1,9E0,1E0,9E0,1.9E1,1.2E1,2E0,7E0,8E0,1E0,6E0,1.3E1,5E0,7E0],"tree_param":{"num_deleted":"0","num_feature":"3","num_nodes":"19","size_leaf_vector":"1"}},{"base_weights":[2.0739035E-1,-5.885386E-1,2.008818E0,-1.8953761E0,-1.0583693E-1,8.3208007E-1,2.2855945E0,-1.9954681E-2,-2.005095E0,8.5908204E-2,-7.755214E-1,5.906334E-2,-1.4116669E-2,2.4260736E0,1.1484146E-2,-1.3322297E-1,-6.709366E-2,-6.144015E-3,1.2742081E-1,-5.6362458E-2,3.4599304E-3,8.488549E-2,1.6259567E-1],"categories":[],"categories_nodes":[],"categories_segments":[],"categories_sizes":[],"default_left":[0,0,0,0,0,0,0,0,0,0,0,0,0,0,0,0,0,0,0,0,0,0,0],"id":47,"left_children":[1,3,5,7,9,11,13,-1,15,17,19,-1,-1,21,-1,-1,-1,-1,-1,-1,-1,-1,-1],"loss_changes":[8.434315E1,2.5662714E1,3.9606857E0,1.0056534E0,4.0472946E0,2.279203E0,3.486145E0,0E0,7.976799E-1,1.3166734E1,2.157784E0,0E0,0E0,2.298851E0,0E0,0E0,0E0,0E0,0E0,0E0,0E0,0E0,0E0],"parents":[2147483647,0,0,1,1,2,2,3,3,4,4,5,5,6,6,8,8,9,9,10,10,13,13],"right_children":[2,4,6,8,10,12,14,-1,16,18,20,-1,-1,22,-1,-1,-1,-1,-1,-1,-1,-1,-1],"split_conditions":[1.9425414E2,1.7921504E2,2.0042265E2,1.805633E2,1.9202364E2,2.0171504E2,2.0577496E2,-1.9954681E-2,1.8081656E2,1.9171616E2,1.9076062E2,5.906334E-2,-1.4116669E-2,2.0728235E2,1.1484146E-2,-1.3322297E-1,-6.709366E-2,-6.144015E-3,1.2742081E-1,-5.6362458E-2,3.4599304E-3,8.488549E-2,1.6259567E-1],"split_indices":[0,0,0,1,1,1,1,0,1,1,0,0,0,0,0,0,0,0,0,0,0,0,0],"split_type":[0,0,0,0,0,0,0,0,0,0,0,0,0,0,0,0,0,0,0,0,0,0,0],"sum_hessian":[5.7E1,4E1,1.7E1,1E1,3E1,4E0,1.3E1,1E0,9E0,2.4E1,6E0,3E0,1E0,1.2E1,1E0,3E0,6E0,2.3E1,1E0,4E0,2E0,8E0,4E0],"tree_param":{"num_deleted":"0","num_feature":"3","num_nodes":"23","size_leaf_vector":"1"}},{"base_weights":[1.3534123E-1,-5.8695984E-1,2.0524547E0,-1.7503451E0,-2.5853839E-2,2.289329E0,1.7092388E-2,-9.118118E-1,-2.160452E0,-2.8920323E-1,4.0743187E-1,1.5344177E0,1.8021373E-1,-1.1787949E-1,6.599147E-2,-1.5267411E-1,-5.069687E-2,-2.986363E-4,-5.12204E-2,1.2423515E-1,-2.4382782E-3,8.3903335E-2,6.039429E-3],"categories":[],"categories_nodes":[],"categories_segments":[],"categories_sizes":[],"default_left":[0,0,0,0,0,0,0,0,0,0,0,0,0,0,0,0,0,0,0,0,0,0,0],"id":48,"left_children":[1,3,5,7,9,11,-1,13,15,17,19,21,-1,-1,-1,-1,-1,-1,-1,-1,-1,-1,-1],"loss_changes":[7.598029E1,2.6066046E1,5.2953835E0,2.500618E0,3.3127851E0,7.3742065E0,0E0,2.2470362E1,5.0949364E0,3.7420645E0,1.0545272E1,1.8279743E0,0E0,0E0,0E0,0E0,0E0,0E0,0E0,0E0,0E0,0E0,0E0],"parents":[2147483647,0,0,1,1,2,2,3,3,4,4,5,5,7,7,8,8,9,9,10,10,11,11],"right_children":[2,4,6,8,10,12,-1,14,16,18,20,22,-1,-1,-1,-1,-1,-1,-1,-1,-1,-1,-1],"split_conditions":[2.3446645E2,2.2442375E2,2.0512599E2,1.8206395E2,1.9171616E2,2.0253468E2,1.7092388E-2,1.8081656E2,1.83516E2,1.9136214E2,1.9202364E2,2.5038174E2,1.8021373E-1,-1.1787949E-1,6.599147E-2,-1.5267411E-1,-5.069687E-2,-2.986363E-4,-5.12204E-2,1.2423515E-1,-2.4382782E-3,8.3903335E-2,6.039429E-3],"split_indices":[2,2,1,1,1,1,0,1,1,1,1,2,0,0,0,0,0,0,0,0,0,0,0],"split_type":[0,0,0,0,0,0,0,0,0,0,0,0,0,0,0,0,0,0,0,0,0,0,0],"sum_hessian":[5.3E1,3.9E1,1.4E1,1.2E1,2.7E1,1.2E1,2E0,5E0,7E0,1.7E1,1E1,9E0,3E0,3E0,2E0,3E0,4E0,1.3E1,4E0,1E0,9E0,8E0,1E0],"tree_param":{"num_deleted":"0","num_feature":"3","num_nodes":"23","size_leaf_vector":"1"}},{"base_weights":[1.4254278E-1,-5.988959E-1,1.655365E0,-1.1461978E0,9.514818E-2,1.1750021E0,2.8614533E0,-1.3734666E-1,-9.485765E-1,1.2112923E-1,-1.6874187E-1,-3.6922456E-3,1.2631816E0,1.0769653E-2,1.73456E-1,2.0049794E-2,-5.517918E-2,-2.3642069E-2,5.069084E-2,7.026802E-2,1.130066E-2],"categories":[],"categories_nodes":[],"categories_segments":[],"categories_sizes":[],"default_left":[0,0,0,0,0,0,0,0,0,0,0,0,0,0,0,0,0,0,0,0,0],"id":49,"left_children":[1,3,5,7,9,11,13,-1,15,-1,17,-1,19,-1,-1,-1,-1,-1,-1,-1,-1],"loss_changes":[6.829128E1,1.5682976E1,8.224983E0,4.67013E0,1.207835E1,1.8552437E0,7.2923927E0,0E0,5.0447826E0,0E0,6.9524546E0,0E0,1.8943176E0,0E0,0E0,0E0,0E0,0E0,0E0,0E0,0E0],"parents":[2147483647,0,0,1,1,2,2,3,3,4,4,5,5,6,6,8,8,10,10,12,12],"right_children":[2,4,6,8,10,12,14,-1,16,-1,18,-1,20,-1,-1,-1,-1,-1,-1,-1,-1],"split_conditions":[1.9300237E2,2.2715102E2,2.0728235E2,2.1366628E2,2.2841405E2,2.2555893E2,2.3994328E2,-1.3734666E-1,2.163484E2,1.2112923E-1,1.8937451E2,-3.6922456E-3,2.0575351E2,1.0769653E-2,1.73456E-1,2.0049794E-2,-5.517918E-2,-2.3642069E-2,5.069084E-2,7.026802E-2,1.130066E-2],"split_indices":[0,2,0,2,2,2,2,0,2,0,0,0,0,0,0,0,0,0,0,0,0],"split_type":[0,0,0,0,0,0,0,0,0,0,0,0,0,0,0,0,0,0,0,0,0],"sum_hessian":[5.9E1,4E1,1.9E1,2.2E1,1.8E1,1.5E1,4E0,1E0,2.1E1,1E0,1.7E1,1E0,1.4E1,1E0,3E0,2E0,1.9E1,1.4E1,3E0,1.2E1,2E0],"tree_param":{"num_deleted":"0","num_feature":"3","num_nodes":"21","size_leaf_vector":"1"}},{"base_weights":[-1.9598437E-2,-1.4414171E0,6.917775E-1,-1.6248151E0,-5.295807E-1,-1.6252717E-1,1.4758058E0,-9.736023E-1,-1.9833038E0,-3.5999299E-3,-3.1298827E-2,-5.3374535E-1,6.5615845E-1,-7.200241E-2,1.7239861E0,-9.709536E-2,6.437709E-2,-1.3717233E-1,-6.328038E-2,-1.4636055E-2,-7.0013426E-2,4.2728934E-2,-1.335907E-2,2.8718567E-2,-5.0278094E-2,1.4496027E-1,7.075918E-2],"categories":[],"categories_nodes":[],"categories_segments":[],"categories_sizes":[],"default_left":[0,0,0,0,0,0,0,0,0,0,0,0,0,0,0,0,0,0,0,0,0,0,0,0,0,0,0],"id":50,"left_children":[1,3,5,7,9,11,13,15,17,-1,-1,19,21,23,25,-1,-1,-1,-1,-1,-1,-1,-1,-1,-1,-1,-1],"loss_changes":[6.3706898E1,2.6513367E0,2.837142E1,2.0377388E0,1.7547572E-1,6.732352E0,8.575115E0,2.0016102E1,1.9833908E0,0E0,0E0,2.722908E0,1.5107923E0,2.991279E0,2.7923965E0,0E0,0E0,0E0,0E0,0E0,0E0,0E0,0E0,0E0,0E0,0E0,0E0],"parents":[2147483647,0,0,1,1,2,2,3,3,4,4,5,5,6,6,7,7,8,8,11,11,12,12,13,13,14,14],"right_children":[2,4,6,8,10,12,14,16,18,-1,-1,20,22,24,26,-1,-1,-1,-1,-1,-1,-1,-1,-1,-1,-1,-1],"split_conditions":[2.2593195E2,1.9253552E2,1.9162386E2,1.8206395E2,1.927248E2,2.3337274E2,2.2715102E2,1.8110016E2,2.2179161E2,-3.5999299E-3,-3.1298827E-2,1.9124121E2,2.350246E2,1.9308122E2,2.3074756E2,-9.709536E-2,6.437709E-2,-1.3717233E-1,-6.328038E-2,-1.4636055E-2,-7.0013426E-2,4.2728934E-2,-1.335907E-2,2.8718567E-2,-5.0278094E-2,1.4496027E-1,7.075918E-2],"split_indices":[2,1,1,1,1,2,2,1,2,0,0,1,2,1,2,0,0,0,0,0,0,0,0,0,0,0,0],"split_type":[0,0,0,0,0,0,0,0,0,0,0,0,0,0,0,0,0,0,0,0,0,0,0,0,0,0,0],"sum_hessian":[6.1E1,2E1,4.1E1,1.6E1,4E0,2E1,2.1E1,7E0,9E0,1E0,3E0,1.4E1,6E0,3E0,1.8E1,5E0,2E0,3E0,6E0,1.2E1,2E0,5E0,1E0,2E0,1E0,2E0,1.6E1],"tree_param":{"num_deleted":"0","num_feature":"3","num_nodes":"27","size_leaf_vector":"1"}},{"base_weights":[9.766579E-3,-6.647599E-1,1.422595E0,-2.0636094E0,-2.460955E-1,9.6361226E-1,2.6986175E0,-4.0835824E-2,-2.273243E0,-6.3410646E-1,4.2774018E-2,-3.509903E-3,1.0326128E0,8.731461E-3,1.6429786E-1,-1.2035751E-1,-3.3397295E-2,3.1148529E-2,-3.841978E-2,7.287114E-2,-9.142143E-3,5.456111E-2,3.8368225E-3],"categories":[],"categories_nodes":[],"categories_segments":[],"categories_sizes":[],"default_left":[0,0,0,0,0,0,0,0,0,0,0,0,0,0,0,0,0,0,0,0,0,0,0],"id":51,"left_children":[1,3,5,7,9,11,13,-1,15,17,19,-1,21,-1,-1,-1,-1,-1,-1,-1,-1,-1,-1],"loss_changes":[6.1937057E1,2.5260685E1,9.6987E0,7.573166E-1,3.9500823E0,1.2851553E0,6.8383713E0,0E0,1.1184311E-1,3.0108638E0,6.969021E0,0E0,8.126373E-1,0E0,0E0,0E0,0E0,0E0,0E0,0E0,0E0,0E0,0E0],"parents":[2147483647,0,0,1,1,2,2,3,3,4,4,5,5,6,6,8,8,9,9,10,10,12,12],"right_children":[2,4,6,8,10,12,14,-1,16,18,20,-1,22,-1,-1,-1,-1,-1,-1,-1,-1,-1,-1],"split_conditions":[1.9300237E2,1.7921504E2,2.0728235E2,1.732708E2,2.2715102E2,2.2555893E2,2.3994328E2,-4.0835824E-2,1.7835165E2,1.8036438E2,2.2841405E2,-3.509903E-3,2.0633952E2,8.731461E-3,1.6429786E-1,-1.2035751E-1,-3.3397295E-2,3.1148529E-2,-3.841978E-2,7.287114E-2,-9.142143E-3,5.456111E-2,3.8368225E-3],"split_indices":[0,0,0,0,2,2,2,0,0,0,2,0,0,0,0,0,0,0,0,0,0,0,0],"split_type":[0,0,0,0,0,0,0,0,0,0,0,0,0,0,0,0,0,0,0,0,0,0,0],"sum_hessian":[6.3E1,4.3E1,2E1,9E0,3.4E1,1.6E1,4E0,2E0,7E0,1.4E1,2E1,1E0,1.5E1,1E0,3E0,6E0,1E0,1E0,1.3E1,2E0,1.8E1,1.4E1,1E0],"tree_param":{"num_deleted":"0","num_feature":"3","num_nodes":"23","size_leaf_vector":"1"}},{"base_weights":[1.1024915E-1,-4.9942762E-1,1.6458875E0,-1.4875783E0,-2.1643067E-2,1.8183044E0,1.1758677E-2,-7.2946674E-1,-1.8276994E0,-2.5416565E-1,6.4956474E-1,1.3839989E0,2.666645E0,-5.591599E-2,3.036995E-2,-1.3713971E-1,-4.5650993E-2,-2.9159242E-2,1.6122013E-2,-8.337784E-3,1.032842E-1,1.1081505E-2,8.734148E-2,3.2461166E-2,1.5613556E-1],"categories":[],"categories_nodes":[],"categories_segments":[],"categories_sizes":[],"default_left":[0,0,0,0,0,0,0,0,0,0,0,0,0,0,0,0,0,0,0,0,0,0,0,0,0],"id":52,"left_children":[1,3,5,7,9,11,-1,13,15,17,19,21,23,-1,-1,-1,-1,-1,-1,-1,-1,-1,-1,-1,-1],"loss_changes":[5.606034E1,2.02691E1,3.7073097E0,2.2766514E0,4.847226E0,1.8359566E0,0E0,3.798331E0,5.0289383E0,4.5514736E0,9.592521E0,4.673765E0,1.6529732E0,0E0,0E0,0E0,0E0,0E0,0E0,0E0,0E0,0E0,0E0,0E0,0E0],"parents":[2147483647,0,0,1,1,2,2,3,3,4,4,5,5,7,7,8,8,9,9,10,10,11,11,12,12],"right_children":[2,4,6,8,10,12,-1,14,16,18,20,22,24,-1,-1,-1,-1,-1,-1,-1,-1,-1,-1,-1,-1],"split_conditions":[1.9489558E2,2.2442375E2,2.0577496E2,1.8206395E2,1.9162386E2,2.0340425E2,1.1758677E-2,1.8110016E2,1.83516E2,2.3337274E2,2.2715102E2,2.3555661E2,2.2949576E2,-5.591599E-2,3.036995E-2,-1.3713971E-1,-4.5650993E-2,-2.9159242E-2,1.6122013E-2,-8.337784E-3,1.032842E-1,1.1081505E-2,8.734148E-2,3.2461166E-2,1.5613556E-1],"split_indices":[1,2,1,1,1,1,0,1,1,2,2,2,2,0,0,0,0,0,0,0,0,0,0,0,0],"split_type":[0,0,0,0,0,0,0,0,0,0,0,0,0,0,0,0,0,0,0,0,0,0,0,0,0],"sum_hessian":[5.8E1,4.2E1,1.6E1,1.3E1,2.9E1,1.4E1,2E0,5E0,8E0,2.2E1,7E0,1.1E1,3E0,4E0,1E0,3E0,5E0,1.4E1,8E0,5E0,2E0,3E0,8E0,1E0,2E0],"tree_param":{"num_deleted":"0","num_feature":"3","num_nodes":"25","size_leaf_vector":"1"}},{"base_weights":[1.7938125E-1,-4.7491655E-1,1.413578E0,-1.8408966E0,-2.60069E-1,7.9591525E-1,1.8465825E0,-8.295059E-3,-2.2181702E0,6.270599E-2,-3.9389706E-1,8.139827E-2,3.8440704E-1,8.140625E-1,2.3202994E0,-1.2795182E-1,-2.9889299E-2,-5.709381E-2,-2.5781381E-3,-3.5362497E-2,4.330839E-2,5.0100137E-2,1.557541E-3,1.3240725E-1,8.830643E-3],"categories":[],"categories_nodes":[],"categories_segments":[],"categories_sizes":[],"default_left":[0,0,0,0,0,0,0,0,0,0,0,0,0,0,0,0,0,0,0,0,0,0,0,0,0],"id":53,"left_children":[1,3,5,7,9,11,13,-1,15,-1,17,-1,19,21,23,-1,-1,-1,-1,-1,-1,-1,-1,-1,-1],"loss_changes":[4.6700672E1,1.0673384E1,3.8792953E0,2.7916603E0,7.3837867E0,2.798153E0,3.4914742E0,0E0,6.795807E-1,0E0,8.135008E0,0E0,4.819936E0,7.0448995E-1,4.451889E0,0E0,0E0,0E0,0E0,0E0,0E0,0E0,0E0,0E0,0E0],"parents":[2147483647,0,0,1,1,2,2,3,3,4,4,5,5,6,6,8,8,10,10,12,12,13,13,14,14],"right_children":[2,4,6,8,10,12,14,-1,16,-1,18,-1,20,22,24,-1,-1,-1,-1,-1,-1,-1,-1,-1,-1],"split_conditions":[1.942573E2,1.8110016E2,2.3994328E2,1.805633E2,1.8206395E2,2.3074756E2,2.0065933E2,-8.295059E-3,1.8081656E2,6.270599E-2,2.2593195E2,8.139827E-2,2.3239246E2,2.0033325E2,2.0512599E2,-1.2795182E-1,-2.9889299E-2,-5.709381E-2,-2.5781381E-3,-3.5362497E-2,4.330839E-2,5.0100137E-2,1.557541E-3,1.3240725E-1,8.830643E-3],"split_indices":[1,1,2,1,1,2,1,0,1,0,2,0,2,1,1,0,0,0,0,0,0,0,0,0,0],"split_type":[0,0,0,0,0,0,0,0,0,0,0,0,0,0,0,0,0,0,0,0,0,0,0,0,0],"sum_hessian":[5.6E1,3.7E1,1.9E1,4E0,3.3E1,9E0,1E1,1E0,3E0,2E0,3.1E1,2E0,7E0,4E0,6E0,2E0,1E0,9E0,2.2E1,2E0,5E0,3E0,1E0,5E0,1E0],"tree_param":{"num_deleted":"0","num_feature":"3","num_nodes":"25","size_leaf_vector":"1"}},{"base_weights":[1.3622895E-1,-6.056087E-1,1.129617E0,-2.1174443E0,-2.8305462E-1,-6.563873E-1,1.3058001E0,-2.3108246E0,-2.8763581E-2,9.061347E-2,-7.7866775E-1,-4.7442626E-2,-1.7864228E-3,1.1318977E0,1.3263893E-1,-2.9141998E-2,-1.2985554E-1,-1.5010998E-2,5.8341216E-2,-4.879074E-2,1.0188039E-2,6.0501605E-2,1.0382843E-2],"categories":[],"categories_nodes":[],"categories_segments":[],"categories_sizes":[],"default_left":[0,0,0,0,0,0,0,0,0,0,0,0,0,0,0,0,0,0,0,0,0,0,0],"id":54,"left_children":[1,3,5,7,9,11,13,15,-1,17,19,-1,-1,21,-1,-1,-1,-1,-1,-1,-1,-1,-1],"loss_changes":[4.4900063E1,1.6468353E1,9.038372E0,4.600029E-1,5.6264024E0,5.106622E-1,2.6191597E0,9.597912E-1,0E0,7.921449E0,2.716711E0,0E0,0E0,1.4096737E0,0E0,0E0,0E0,0E0,0E0,0E0,0E0,0E0,0E0],"parents":[2147483647,0,0,1,1,2,2,3,3,4,4,5,5,6,6,7,7,9,9,10,10,13,13],"right_children":[2,4,6,8,10,12,14,16,-1,18,20,-1,-1,22,-1,-1,-1,-1,-1,-1,-1,-1,-1],"split_conditions":[1.8937451E2,1.7578557E2,2.2555893E2,2.2442375E2,1.8624567E2,1.9300237E2,2.507644E2,2.1600566E2,-2.8763581E-2,1.8594714E2,2.3446645E2,-4.7442626E-2,-1.7864228E-3,2.5019174E2,1.3263893E-1,-2.9141998E-2,-1.2985554E-1,-1.5010998E-2,5.8341216E-2,-4.879074E-2,1.0188039E-2,6.0501605E-2,1.0382843E-2],"split_indices":[0,0,2,2,0,0,2,2,0,0,2,0,0,2,0,0,0,0,0,0,0,0,0],"split_type":[0,0,0,0,0,0,0,0,0,0,0,0,0,0,0,0,0,0,0,0,0,0,0],"sum_hessian":[5.9E1,3.4E1,2.5E1,5E0,2.9E1,2E0,2.3E1,4E0,1E0,1.7E1,1.2E1,1E0,1E0,2.2E1,1E0,1E0,3E0,1.3E1,4E0,1E1,2E0,2E1,2E0],"tree_param":{"num_deleted":"0","num_feature":"3","num_nodes":"23","size_leaf_vector":"1"}},{"base_weights":[2.4580273E-3,-1.0078367E0,7.3714334E-1,-2.261945E0,-5.587584E-1,5.202942E-2,1.2392257E0,-1.24498904E-1,-2.804451E-2,-6.937965E-1,3.9271036E-1,1.086792E-1,-2.547662E-1,1.3495923E0,2.0073955E-1,5.5211387E-4,-3.942556E-2,3.1195069E-2,-1.7417908E-3,-5.3048708E-2,-1.5991846E-3,4.4825938E-2,1.0154038E-1,1.2592316E-3,1.37962345E-2],"categories":[],"categories_nodes":[],"categories_segments":[],"categories_sizes":[],"default_left":[0,0,0,0,0,0,0,0,0,0,0,0,0,0,0,0,0,0,0,0,0,0,0,0,0],"id":55,"left_children":[1,3,5,7,9,11,13,-1,-1,15,17,-1,19,21,23,-1,-1,-1,-1,-1,-1,-1,-1,-1,-1],"loss_changes":[4.230884E1,1.22527485E1,1.12869835E1,9.307766E-1,2.7136679E0,1.0317011E1,1.9067535E0,0E0,0E0,1.1436024E0,3.1826857E-1,0E0,2.4805923E0,3.4262314E0,3.2648303E-2,0E0,0E0,0E0,0E0,0E0,0E0,0E0,0E0,0E0,0E0],"parents":[2147483647,0,0,1,1,2,2,3,3,4,4,5,5,6,6,9,9,10,10,12,12,13,13,14,14],"right_children":[2,4,6,8,10,12,14,-1,-1,16,18,-1,20,22,24,-1,-1,-1,-1,-1,-1,-1,-1,-1,-1],"split_conditions":[2.2827708E2,1.7724998E2,1.9022096E2,2.2442375E2,1.9300237E2,2.2841405E2,2.5019174E2,-1.24498904E-1,-2.804451E-2,2.2135672E2,1.9307945E2,1.086792E-1,2.3113484E2,2.3994328E2,2.0728235E2,5.5211387E-4,-3.942556E-2,3.1195069E-2,-1.7417908E-3,-5.3048708E-2,-1.5991846E-3,4.4825938E-2,1.0154038E-1,1.2592316E-3,1.37962345E-2],"split_indices":[2,0,0,2,0,2,2,0,0,2,0,0,2,2,0,0,0,0,0,0,0,0,0,0,0],"split_type":[0,0,0,0,0,0,0,0,0,0,0,0,0,0,0,0,0,0,0,0,0,0,0,0,0],"sum_hessian":[5.5E1,2.3E1,3.2E1,5E0,1.8E1,1.4E1,1.8E1,4E0,1E0,1.6E1,2E0,1E0,1.3E1,1.6E1,2E0,2E0,1.4E1,1E0,1E0,2E0,1.1E1,1.1E1,5E0,1E0,1E0],"tree_param":{"num_deleted":"0","num_feature":"3","num_nodes":"25","size_leaf_vector":"1"}},{"base_weights":[1.17090374E-1,-2.998632E-1,1.6984502E0,-9.3279946E-1,1.6784546E-1,1.842448E-2,1.9530538E0,-1.2351837E-1,-6.9703853E-1,3.5239372E-1,-3.5704914E-1,2.1743927E0,4.558563E-3,1.9669151E-2,-4.7939952E-2,2.1787372E-3,5.071195E-2,-3.053309E-2,2.9115677E-2,6.0115356E-2,1.4229508E-1],"categories":[],"categories_nodes":[],"categories_segments":[],"categories_sizes":[],"default_left":[0,0,0,0,0,0,0,0,0,0,0,0,0,0,0,0,0,0,0,0,0],"id":56,"left_children":[1,3,5,7,9,-1,11,-1,13,15,17,19,-1,-1,-1,-1,-1,-1,-1,-1,-1],"loss_changes":[3.4795692E1,1.2589816E1,3.0050583E0,4.803028E0,2.5475311E0,0E0,3.5107193E0,0E0,5.229474E0,3.839222E0,2.0232368E0,1.8004646E0,0E0,0E0,0E0,0E0,0E0,0E0,0E0,0E0,0E0],"parents":[2147483647,0,0,1,1,2,2,3,3,4,4,6,6,8,8,9,9,10,10,11,11],"right_children":[2,4,6,8,10,-1,12,-1,14,16,18,20,-1,-1,-1,-1,-1,-1,-1,-1,-1],"split_conditions":[2.3761848E2,1.8929944E2,2.0033325E2,2.1366628E2,1.9373453E2,1.842448E-2,2.0512599E2,-1.2351837E-1,2.1673668E2,1.9148755E2,2.3239246E2,2.0253468E2,4.558563E-3,1.9669151E-2,-4.7939952E-2,2.1787372E-3,5.071195E-2,-3.053309E-2,2.9115677E-2,6.0115356E-2,1.4229508E-1],"split_indices":[2,1,1,2,1,0,1,0,2,1,2,1,0,0,0,0,0,0,0,0,0],"split_type":[0,0,0,0,0,0,0,0,0,0,0,0,0,0,0,0,0,0,0,0,0],"sum_hessian":[5.1E1,4.1E1,1E1,1.7E1,2.4E1,2E0,8E0,1E0,1.6E1,1.8E1,6E0,7E0,1E0,3E0,1.3E1,1.3E1,5E0,5E0,1E0,4E0,3E0],"tree_param":{"num_deleted":"0","num_feature":"3","num_nodes":"21","size_leaf_vector":"1"}},{"base_weights":[1.3462906E-1,-3.248528E-1,1.6675589E0,-1.6639841E0,-8.8297404E-2,1.2213516E0,2.226462E0,-3.7350973E-1,-2.1054718E0,6.587639E-2,-1.5638122E-1,6.7914076E-2,-2.7542116E-4,4.3891906E-3,1.3695927E-1,-2.5792694E-2,-2.2205354E-3,-1.185196E-1,-2.6144791E-2,-2.4749205E-2,5.7705757E-3],"categories":[],"categories_nodes":[],"categories_segments":[],"categories_sizes":[],"default_left":[0,0,0,0,0,0,0,0,0,0,0,0,0,0,0,0,0,0,0,0,0],"id":57,"left_children":[1,3,5,7,9,11,13,15,17,-1,19,-1,-1,-1,-1,-1,-1,-1,-1,-1,-1],"loss_changes":[4.280292E1,1.4741674E1,7.721214E-1,3.2016888E0,4.1303086E0,1.6874199E0,5.2422943E0,1.1762655E-1,8.5681343E-1,0E0,3.7383187E0,0E0,0E0,0E0,0E0,0E0,0E0,0E0,0E0,0E0,0E0],"parents":[2147483647,0,0,1,1,2,2,3,3,4,4,5,5,6,6,7,7,8,8,10,10],"right_children":[2,4,6,8,10,12,14,16,18,-1,20,-1,-1,-1,-1,-1,-1,-1,-1,-1,-1],"split_conditions":[2.0042265E2,1.7578557E2,2.0728235E2,2.1673668E2,1.7588266E2,2.0633952E2,2.3994328E2,1.7236853E2,2.2442375E2,6.587639E-2,2.2715102E2,6.7914076E-2,-2.7542116E-4,4.3891906E-3,1.3695927E-1,-2.5792694E-2,-2.2205354E-3,-1.185196E-1,-2.6144791E-2,-2.4749205E-2,5.7705757E-3],"split_indices":[0,0,0,2,0,0,2,0,2,0,2,0,0,0,0,0,0,0,0,0,0],"split_type":[0,0,0,0,0,0,0,0,0,0,0,0,0,0,0,0,0,0,0,0,0],"sum_hessian":[5.9E1,4.6E1,1.3E1,6E0,4E1,9E0,4E0,2E0,4E0,1E0,3.9E1,8E0,1E0,1E0,3E0,1E0,1E0,3E0,1E0,1.7E1,2.2E1],"tree_param":{"num_deleted":"0","num_feature":"3","num_nodes":"21","size_leaf_vector":"1"}},{"base_weights":[-1.0424805E-2,-7.0584184E-1,1.2228338E0,-1.8517212E0,-5.219779E-1,5.1652336E-1,1.5180105E0,-2.514801E-2,-2.0631714E0,6.4229585E-2,-6.128944E-1,-4.9502563E-2,5.4746248E-2,1.2778778E0,1.2199669E-1,-1.20550536E-1,-2.5491333E-2,-4.2457618E-2,-1.0736465E-2,6.9057466E-3,-1.9999314E-2,7.299315E-2,6.198883E-3],"categories":[],"categories_nodes":[],"categories_segments":[],"categories_sizes":[],"default_left":[0,0,0,0,0,0,0,0,0,0,0,0,0,0,0,0,0,0,0,0,0,0,0],"id":58,"left_children":[1,3,5,7,9,11,13,-1,15,-1,17,19,-1,21,-1,-1,-1,-1,-1,-1,-1,-1,-1],"loss_changes":[5.2320873E1,7.2501926E0,3.8026123E0,3.8828468E-1,6.535964E0,2.6733239E0,2.0282364E-1,0E0,9.3205833E-1,0E0,3.0160303E0,3.8402846E-1,0E0,2.7589111E0,0E0,0E0,0E0,0E0,0E0,0E0,0E0,0E0,0E0],"parents":[2147483647,0,0,1,1,2,2,3,3,4,4,5,5,6,6,8,8,10,10,11,11,13,13],"right_children":[2,4,6,8,10,12,14,-1,16,-1,18,20,-1,22,-1,-1,-1,-1,-1,-1,-1,-1,-1],"split_conditions":[1.9076062E2,1.734778E2,1.9851094E2,2.1600566E2,2.163484E2,2.3239246E2,2.507644E2,-2.514801E-2,2.2179161E2,6.4229585E-2,2.3113484E2,1.9774808E2,5.4746248E-2,2.4959122E2,1.2199669E-1,-1.20550536E-1,-2.5491333E-2,-4.2457618E-2,-1.0736465E-2,6.9057466E-3,-1.9999314E-2,7.299315E-2,6.198883E-3],"split_indices":[0,0,0,2,2,2,2,0,2,0,2,0,0,2,0,0,0,0,0,0,0,0,0],"split_type":[0,0,0,0,0,0,0,0,0,0,0,0,0,0,0,0,0,0,0,0,0,0,0],"sum_hessian":[5.9E1,3.8E1,2.1E1,4E0,3.4E1,7E0,1.4E1,1E0,3E0,1E0,3.3E1,4E0,3E0,1.3E1,1E0,2E0,1E0,2E1,1.3E1,3E0,1E0,1.1E1,2E0],"tree_param":{"num_deleted":"0","num_feature":"3","num_nodes":"23","size_leaf_vector":"1"}},{"base_weights":[-7.39341E-2,-2.0342422E0,3.538271E-1,-2.472496E-2,-2.1503804E0,-3.4517176E-2,1.3422793E0,-1.2065201E-1,-8.207143E-1,2.8416952E-1,-1.9928774E-1,7.55032E-1,2.1308684E0,-1.0416794E-2,-5.113678E-2,-1.2780084E-2,7.1380615E-2,-1.6979618E-2,1.868637E-2,8.555018E-2,1.1873408E-2,9.412003E-3,1.2847328E-1],"categories":[],"categories_nodes":[],"categories_segments":[],"categories_sizes":[],"default_left":[0,0,0,0,0,0,0,0,0,0,0,0,0,0,0,0,0,0,0,0,0,0,0],"id":59,"left_children":[1,3,5,-1,7,9,11,-1,13,15,17,19,21,-1,-1,-1,-1,-1,-1,-1,-1,-1,-1],"loss_changes":[4.683968E1,7.248688E-1,1.770388E1,0E0,1.1628304E0,1.841978E0,4.4113846E0,0E0,1.5806794E-1,7.77127E0,1.9760388E0,4.0466785E0,3.7764816E0,0E0,0E0,0E0,0E0,0E0,0E0,0E0,0E0,0E0,0E0],"parents":[2147483647,0,0,1,1,2,2,4,4,5,5,6,6,8,8,9,9,10,10,11,11,12,12],"right_children":[2,4,6,-1,8,10,12,-1,14,16,18,20,22,-1,-1,-1,-1,-1,-1,-1,-1,-1,-1],"split_conditions":[1.8182542E2,1.8061348E2,1.9851094E2,-2.472496E-2,1.83516E2,1.8624272E2,2.0728235E2,-1.2065201E-1,1.7798865E2,1.8594714E2,1.9425414E2,2.0163023E2,2.0033325E2,-1.0416794E-2,-5.113678E-2,-1.2780084E-2,7.1380615E-2,-1.6979618E-2,1.868637E-2,8.555018E-2,1.1873408E-2,9.412003E-3,1.2847328E-1],"split_indices":[0,1,0,0,1,0,0,0,0,0,0,0,1,0,0,0,0,0,0,0,0,0,0],"split_type":[0,0,0,0,0,0,0,0,0,0,0,0,0,0,0,0,0,0,0,0,0,0,0],"sum_hessian":[5.4E1,9E0,4.5E1,1E0,8E0,3.3E1,1.2E1,6E0,2E0,1.1E1,2.2E1,8E0,4E0,1E0,1E0,8E0,3E0,1.8E1,4E0,2E0,6E0,1E0,3E0],"tree_param":{"num_deleted":"0","num_feature":"3","num_nodes":"23","size_leaf_vector":"1"}},{"base_weights":[1.8366847E-2,-3.9139113E-1,1.1184435E0,-1.1840095E-1,-2.8794715E-1,5.2880555E-1,1.8010057E0,-5.470314E-1,5.447227E-2,6.98705E-2,1.3697815E-1,2.0970078E0,6.248474E-4,2.1825982E-2,-3.5416268E-2,-3.5481264E-3,2.099411E-2,3.4839783E-2,-2.9851913E-2,4.4827018E-2,1.2365532E-1],"categories":[],"categories_nodes":[],"categories_segments":[],"categories_sizes":[],"default_left":[0,0,0,0,0,0,0,0,0,0,0,0,0,0,0,0,0,0,0,0,0],"id":60,"left_children":[1,3,5,-1,7,9,11,13,15,-1,17,19,-1,-1,-1,-1,-1,-1,-1,-1,-1],"loss_changes":[2.658213E1,8.110356E0,5.487051E0,0E0,3.7558482E0,3.212016E0,3.6796093E0,4.1165776E0,9.0066314E-1,0E0,3.7033358E0,4.9172592E-1,0E0,0E0,0E0,0E0,0E0,0E0,0E0,0E0,0E0],"parents":[2147483647,0,0,1,1,2,2,4,4,5,5,6,6,7,7,8,8,10,10,11,11],"right_children":[2,4,6,-1,8,10,12,14,16,-1,18,20,-1,-1,-1,-1,-1,-1,-1,-1,-1],"split_conditions":[2.0065933E2,2.1366628E2,2.3994328E2,-1.1840095E-1,2.3113484E2,2.3074756E2,2.0512599E2,2.1673668E2,1.9148755E2,6.98705E-2,2.0171504E2,2.0253468E2,6.248474E-4,2.1825982E-2,-3.5416268E-2,-3.5481264E-3,2.099411E-2,3.4839783E-2,-2.9851913E-2,4.4827018E-2,1.2365532E-1],"split_indices":[1,2,2,0,2,2,1,2,1,0,1,1,0,0,0,0,0,0,0,0,0],"split_type":[0,0,0,0,0,0,0,0,0,0,0,0,0,0,0,0,0,0,0,0,0],"sum_hessian":[5.7E1,4.2E1,1.5E1,1E0,4.1E1,9E0,6E0,2.3E1,1.8E1,2E0,7E0,5E0,1E0,3E0,2E1,1.4E1,4E0,4E0,3E0,2E0,3E0],"tree_param":{"num_deleted":"0","num_feature":"3","num_nodes":"21","size_leaf_vector":"1"}},{"base_weights":[-1.5933482E-2,-3.757736E-1,6.7023504E-1,-7.411108E-1,-1.2692688E-1,-3.692665E-1,8.640001E-1,4.2015457E-1,-1.0414147E0,-3.6768654E-1,3.4194437E-1,1.2033844E-2,-3.264033E-2,9.705057E-1,7.970174E-3,-1.53862005E-2,6.509476E-2,-6.1884534E-2,-1.4518547E-2,-8.158772E-3,-6.338399E-2,6.2456515E-2,-3.168152E-2,5.4399382E-2,4.9377442E-3,6.0920714E-4,-1.1444092E-5],"categories":[],"categories_nodes":[],"categories_segments":[],"categories_sizes":[],"default_left":[0,0,0,0,0,0,0,0,0,0,0,0,0,0,0,0,0,0,0,0,0,0,0,0,0,0,0],"id":61,"left_children":[1,3,5,7,9,11,13,15,17,19,21,-1,-1,23,25,-1,-1,-1,-1,-1,-1,-1,-1,-1,-1,-1,-1],"loss_changes":[1.5066516E1,3.5424519E0,4.548847E0,6.017276E0,2.9478607E0,8.488891E-1,1.6333609E0,2.9678245E0,1.5569649E0,2.9221425E0,8.756735E0,0E0,0E0,1.5311937E0,1.06440435E-4,0E0,0E0,0E0,0E0,0E0,0E0,0E0,0E0,0E0,0E0,0E0,0E0],"parents":[2147483647,0,0,1,1,2,2,3,3,4,4,5,5,6,6,7,7,8,8,9,9,10,10,13,13,14,14],"right_children":[2,4,6,8,10,12,14,16,18,20,22,-1,-1,24,26,-1,-1,-1,-1,-1,-1,-1,-1,-1,-1,-1,-1],"split_conditions":[2.3337274E2,2.2593195E2,1.9088017E2,2.1673668E2,1.9162386E2,2.3401518E2,2.031468E2,1.8110016E2,1.9253552E2,1.9128645E2,1.9385573E2,1.2033844E-2,-3.264033E-2,2.4959122E2,2.058499E2,-1.53862005E-2,6.509476E-2,-6.1884534E-2,-1.4518547E-2,-8.158772E-3,-6.338399E-2,6.2456515E-2,-3.168152E-2,5.4399382E-2,4.9377442E-3,6.0920714E-4,-1.1444092E-5],"split_indices":[2,2,1,2,1,2,1,1,1,1,1,0,0,2,1,0,0,0,0,0,0,0,0,0,0,0,0],"split_type":[0,0,0,0,0,0,0,0,0,0,0,0,0,0,0,0,0,0,0,0,0,0,0,0,0,0,0],"sum_hessian":[5.9E1,3.9E1,2E1,1.5E1,2.4E1,3E0,1.7E1,3E0,1.2E1,1.6E1,8E0,1E0,2E0,1.5E1,2E0,2E0,1E0,9E0,3E0,1.4E1,2E0,4E0,4E0,1.3E1,2E0,1E0,1E0],"tree_param":{"num_deleted":"0","num_feature":"3","num_nodes":"27","size_leaf_vector":"1"}},{"base_weights":[-6.852609E-3,-6.911456E-1,5.2314365E-1,-1.865654E0,-4.34518E-1,-1.7517471E-1,1.1887655E0,-2.1674348E-2,-1.0992737E-1,7.853584E-1,-6.8146175E-1,7.9956055E-3,-7.306824E-2,1.0302391E-1,8.2910275E-1,-2.1664048E-2,6.679993E-2,-5.593055E-2,-1.848348E-2,-1.2146412E-2,2.7921448E-2,6.126343E-2,-1.8429374E-2],"categories":[],"categories_nodes":[],"categories_segments":[],"categories_sizes":[],"default_left":[0,0,0,0,0,0,0,0,0,0,0,0,0,0,0,0,0,0,0,0,0,0,0],"id":62,"left_children":[1,3,5,7,9,11,13,-1,-1,15,17,19,-1,-1,21,-1,-1,-1,-1,-1,-1,-1,-1],"loss_changes":[1.9945896E1,6.423209E0,1.4617536E1,9.5399475E-1,6.86125E0,3.781154E0,3.308014E0,0E0,0E0,3.2629902E0,2.039877E0,2.207411E0,0E0,0E0,6.6199102E0,0E0,0E0,0E0,0E0,0E0,0E0,0E0,0E0],"parents":[2147483647,0,0,1,1,2,2,3,3,4,4,5,5,6,6,9,9,10,10,11,11,14,14],"right_children":[2,4,6,8,10,12,14,-1,-1,16,18,20,-1,-1,22,-1,-1,-1,-1,-1,-1,-1,-1],"split_conditions":[2.2715102E2,1.8081656E2,1.9162386E2,1.8061348E2,1.8206395E2,1.9141145E2,2.3074756E2,-2.1674348E-2,-1.0992737E-1,1.8110016E2,2.2442375E2,1.9088017E2,-7.306824E-2,1.0302391E-1,2.0408313E2,-2.1664048E-2,6.679993E-2,-5.593055E-2,-1.848348E-2,-1.2146412E-2,2.7921448E-2,6.126343E-2,-1.8429374E-2],"split_indices":[2,1,1,1,1,1,2,0,0,1,2,1,0,0,1,0,0,0,0,0,0,0,0],"split_type":[0,0,0,0,0,0,0,0,0,0,0,0,0,0,0,0,0,0,0,0,0,0,0],"sum_hessian":[5.3E1,2.3E1,3E1,3E0,2E1,1.5E1,1.5E1,1E0,2E0,3E0,1.7E1,1.4E1,1E0,3E0,1.2E1,1E0,2E0,6E0,1.1E1,1E1,4E0,9E0,3E0],"tree_param":{"num_deleted":"0","num_feature":"3","num_nodes":"23","size_leaf_vector":"1"}},{"base_weights":[1.2760787E-1,-4.6818173E-1,9.7688824E-1,-1.805275E0,-2.7429658E-1,-1.4523315E-1,1.2207682E0,-2.1132661E-2,-1.0626322E-1,6.457316E-2,-4.3226025E-1,4.525757E-2,-1.4365642E-2,1.360848E0,1.003011E-3,-6.002472E-2,-1.271003E-2,-3.8528442E-4,3.779602E-3,5.2788436E-2,1.0442066E-1],"categories":[],"categories_nodes":[],"categories_segments":[],"categories_sizes":[],"default_left":[0,0,0,0,0,0,0,0,0,0,0,0,0,0,0,0,0,0,0,0,0],"id":63,"left_children":[1,3,5,7,9,11,13,-1,-1,-1,15,17,-1,19,-1,-1,-1,-1,-1,-1,-1],"loss_changes":[2.8286943E1,8.059823E0,6.4715424E0,8.7144756E-1,7.978243E0,1.4832735E-1,3.1684055E0,0E0,0E0,0E0,3.5249958E0,5.402326E-3,0E0,1.5685234E0,0E0,0E0,0E0,0E0,0E0,0E0,0E0],"parents":[2147483647,0,0,1,1,2,2,3,3,4,4,5,5,6,6,10,10,11,11,13,13],"right_children":[2,4,6,8,10,12,14,-1,-1,-1,16,18,-1,20,-1,-1,-1,-1,-1,-1,-1],"split_conditions":[1.9171616E2,1.8081656E2,2.2697093E2,1.8061348E2,2.2135672E2,1.9308122E2,2.0577496E2,-2.1132661E-2,-1.0626322E-1,6.457316E-2,2.2442375E2,1.927248E2,-1.4365642E-2,2.0340425E2,1.003011E-3,-6.002472E-2,-1.271003E-2,-3.8528442E-4,3.779602E-3,5.2788436E-2,1.0442066E-1],"split_indices":[1,1,2,1,2,1,1,0,0,0,2,1,0,1,0,0,0,0,0,0,0],"split_type":[0,0,0,0,0,0,0,0,0,0,0,0,0,0,0,0,0,0,0,0,0],"sum_hessian":[5.4E1,3.2E1,2.2E1,3E0,2.9E1,4E0,1.8E1,1E0,2E0,2E0,2.7E1,2E0,2E0,1.6E1,2E0,4E0,2.3E1,1E0,1E0,1.3E1,3E0],"tree_param":{"num_deleted":"0","num_feature":"3","num_nodes":"21","size_leaf_vector":"1"}},{"base_weights":[7.4525535E-2,-1.373897E0,2.7186733E-1,-4.4413376E-1,-9.80093E-2,-4.498291E-2,7.266526E-1,-2.989146E-2,4.2381286E-4,8.0502623E-1,-2.0072597E-1,5.273689E-1,1.2588867E0,-2.0604325E-2,6.0616303E-2,-3.610611E-2,8.934403E-4,3.9326817E-2,1.0480246E-2,1.08486176E-1,2.4437333E-2],"categories":[],"categories_nodes":[],"categories_segments":[],"categories_sizes":[],"default_left":[0,0,0,0,0,0,0,0,0,0,0,0,0,0,0,0,0,0,0,0,0],"id":64,"left_children":[1,3,5,7,-1,9,11,-1,-1,13,15,17,19,-1,-1,-1,-1,-1,-1,-1,-1],"loss_changes":[1.6666073E1,2.9451857E0,7.3817263E0,2.833237E-1,0E0,4.2654634E0,1.5634804E0,0E0,0E0,2.9782321E0,3.0902147E0,1.2351575E0,2.4469142E0,0E0,0E0,0E0,0E0,0E0,0E0,0E0,0E0],"parents":[2147483647,0,0,1,1,2,2,3,3,5,5,6,6,9,9,10,10,11,11,12,12],"right_children":[2,4,6,8,-1,10,12,-1,-1,14,16,18,20,-1,-1,-1,-1,-1,-1,-1,-1],"split_conditions":[1.7578557E2,1.8115149E2,1.9300237E2,1.732708E2,-9.80093E-2,1.8292583E2,2.0728235E2,-2.989146E-2,4.2381286E-4,1.8061348E2,1.8594714E2,2.0163023E2,2.0751761E2,-2.0604325E-2,6.0616303E-2,-3.610611E-2,8.934403E-4,3.9326817E-2,1.0480246E-2,1.08486176E-1,2.4437333E-2],"split_indices":[0,1,0,0,0,1,0,0,0,1,0,0,0,0,0,0,0,0,0,0,0],"split_type":[0,0,0,0,0,0,0,0,0,0,0,0,0,0,0,0,0,0,0,0,0],"sum_hessian":[5.6E1,6E0,5E1,3E0,3E0,3E1,2E1,2E0,1E0,4E0,2.6E1,1.6E1,4E0,1E0,3E0,7E0,1.9E1,8E0,8E0,1E0,3E0],"tree_param":{"num_deleted":"0","num_feature":"3","num_nodes":"21","size_leaf_vector":"1"}},{"base_weights":[6.251345E-2,-5.2181005E-1,8.780658E-1,-1.2889737E0,-1.6338561E-1,4.828881E-1,1.6574574E0,-1.402182E0,-3.922272E-3,1.8843746E-1,-7.09964E-1,6.4511216E-1,-6.791687E-2,9.476515E-2,-1.865387E-4,-4.6250697E-2,-9.433403E-2,-1.4129045E-2,3.4738924E-2,-1.5632058E-2,-7.664185E-2,1.9155186E-2,7.390544E-2,-3.9853286E-2,1.5681839E-2],"categories":[],"categories_nodes":[],"categories_segments":[],"categories_sizes":[],"default_left":[0,0,0,0,0,0,0,0,0,0,0,0,0,0,0,0,0,0,0,0,0,0,0,0,0],"id":65,"left_children":[1,3,5,7,9,11,13,15,-1,17,19,21,23,-1,-1,-1,-1,-1,-1,-1,-1,-1,-1,-1,-1],"loss_changes":[2.857442E1,9.413357E0,6.8995876E0,1.3974667E0,4.9412556E0,1.6521835E0,3.167921E0,5.6666565E-1,0E0,4.012265E0,2.790234E0,2.4892612E0,1.6410362E0,0E0,0E0,0E0,0E0,0E0,0E0,0E0,0E0,0E0,0E0,0E0,0E0],"parents":[2147483647,0,0,1,1,2,2,3,3,4,4,5,5,6,6,7,7,9,9,10,10,11,11,12,12],"right_children":[2,4,6,8,10,12,14,16,-1,18,20,22,24,-1,-1,-1,-1,-1,-1,-1,-1,-1,-1,-1,-1],"split_conditions":[1.8937451E2,1.7921504E2,2.048885E2,1.83516E2,1.8720021E2,2.0163023E2,2.0512599E2,1.8167146E2,-3.922272E-3,1.8594714E2,1.9141145E2,2.0042265E2,2.018728E2,9.476515E-2,-1.865387E-4,-4.6250697E-2,-9.433403E-2,-1.4129045E-2,3.4738924E-2,-1.5632058E-2,-7.664185E-2,1.9155186E-2,7.390544E-2,-3.9853286E-2,1.5681839E-2],"split_indices":[0,0,0,1,0,0,1,1,0,0,1,0,0,0,0,0,0,0,0,0,0,0,0,0,0],"split_type":[0,0,0,0,0,0,0,0,0,0,0,0,0,0,0,0,0,0,0,0,0,0,0,0,0],"sum_hessian":[5.8E1,3.4E1,2.4E1,1E1,2.4E1,1.7E1,7E0,9E0,1E0,1.5E1,9E0,1.3E1,4E0,6E0,1E0,6E0,3E0,8E0,7E0,7E0,2E0,1.1E1,2E0,1E0,3E0],"tree_param":{"num_deleted":"0","num_feature":"3","num_nodes":"25","size_leaf_vector":"1"}},{"base_weights":[-1.2180752E-2,-5.2649075E-1,6.5264386E-1,-1.10010915E-1,-3.9735922E-1,-1.9384329E-1,9.455753E-1,5.982361E-2,-4.935766E-1,-1.902649E-2,1.8191528E-1,9.370213E-2,6.349457E-1,-4.591772E-2,-1.1083744E-2,2.2232055E-3,1.1420441E-2,-4.1065726E-2,4.6108186E-2],"categories":[],"categories_nodes":[],"categories_segments":[],"categories_sizes":[],"default_left":[0,0,0,0,0,0,0,0,0,0,0,0,0,0,0,0,0,0,0],"id":66,"left_children":[1,3,5,-1,7,9,11,-1,13,-1,15,-1,17,-1,-1,-1,-1,-1,-1],"loss_changes":[1.880761E1,5.8257837E0,6.1344004E0,0E0,5.191178E0,5.6026757E-1,4.0014534E0,0E0,3.1458602E0,0E0,9.015769E-3,0E0,7.031349E0,0E0,0E0,0E0,0E0,0E0,0E0],"parents":[2147483647,0,0,1,1,2,2,4,4,5,5,6,6,8,8,10,10,12,12],"right_children":[2,4,6,-1,8,10,12,-1,14,-1,16,-1,18,-1,-1,-1,-1,-1,-1],"split_conditions":[1.9171616E2,2.1366628E2,2.2697093E2,-1.10010915E-1,2.163484E2,2.2559322E2,2.3074756E2,5.982361E-2,2.2593195E2,-1.902649E-2,1.9308122E2,9.370213E-2,2.3239246E2,-4.591772E-2,-1.1083744E-2,2.2232055E-3,1.1420441E-2,-4.1065726E-2,4.6108186E-2],"split_indices":[1,2,2,0,2,2,2,0,2,0,1,0,2,0,0,0,0,0,0],"split_type":[0,0,0,0,0,0,0,0,0,0,0,0,0,0,0,0,0,0,0],"sum_hessian":[5.3E1,3E1,2.3E1,1E0,2.9E1,6E0,1.7E1,1E0,2.8E1,4E0,2E0,3E0,1.4E1,1E1,1.8E1,1E0,1E0,2E0,1.2E1],"tree_param":{"num_deleted":"0","num_feature":"3","num_nodes":"19","size_leaf_vector":"1"}},{"base_weights":[-1.9241333E-2,-9.706787E-1,4.040473E-1,-1.5615115E0,-4.4666418E-1,1.7026323E-1,1.1111741E0,-9.048702E-2,-4.6180725E-1,2.086436E-1,-5.985901E-1,-1.6639017E-2,4.518051E-1,5.2015686E-1,8.581818E-2,-3.1959154E-2,-2.6763917E-3,-1.7785264E-2,3.3433534E-2,-3.2952372E-2,-1.3618469E-3,1.1515911E-2,-2.3880197E-2,3.910553E-2,-1.49583435E-2,3.3010613E-2,-8.004379E-3],"categories":[],"categories_nodes":[],"categories_segments":[],"categories_sizes":[],"default_left":[0,0,0,0,0,0,0,0,0,0,0,0,0,0,0,0,0,0,0,0,0,0,0,0,0,0,0],"id":67,"left_children":[1,3,5,7,9,11,13,-1,15,17,19,21,23,25,-1,-1,-1,-1,-1,-1,-1,-1,-1,-1,-1,-1,-1],"loss_changes":[2.616709E1,5.494627E0,7.249983E0,1.6210537E0,1.3195906E0,1.8492459E0,3.0416727E0,0E0,1.8304259E-1,1.0166969E0,3.2747483E-1,2.6144502E0,3.7066836E0,7.725949E-1,0E0,0E0,0E0,0E0,0E0,0E0,0E0,0E0,0E0,0E0,0E0,0E0,0E0],"parents":[2147483647,0,0,1,1,2,2,3,3,4,4,5,5,6,6,8,8,9,9,10,10,11,11,12,12,13,13],"right_children":[2,4,6,8,10,12,14,-1,16,18,20,22,24,26,-1,-1,-1,-1,-1,-1,-1,-1,-1,-1,-1,-1,-1],"split_conditions":[2.2593195E2,1.7835165E2,2.3994328E2,2.2179161E2,1.8036438E2,1.8919807E2,2.0728235E2,-9.048702E-2,1.7578557E2,1.7921504E2,1.9300237E2,