{"learner":{"attributes":{"scikit_learn":"{\"_estimator_type\": \"regressor\"}"},"feature_names":[],"feature_types":[],"gradient_booster":{"model":{"gbtree_model_param":{"num_parallel_tree":"1","num_trees":"1000"},"iteration_indptr":[0,1,2,3,4,5,6,7,8,9,10,11,12,13,14,15,16,17,18,19,20,21,22,23,24,25,26,27,28,29,30,31,32,33,34,35,36,37,38,39,40,41,42,43,44,45,46,47,48,49,50,51,52,53,54,55,56,57,58,59,60,61,62,63,64,65,66,67,68,69,70,71,72,73,74,75,76,77,78,79,80,81,82,83,84,85,86,87,88,89,90,91,92,93,94,95,96,97,98,99,100,101,102,103,104,105,106,107,108,109,110,111,112,113,114,115,116,117,118,119,120,121,122,123,124,125,126,127,128,129,130,131,132,133,134,135,136,137,138,139,140,141,142,143,144,145,146,147,148,149,150,151,152,153,154,155,156,157,158,159,160,161,162,163,164,165,166,167,168,169,170,171,172,173,174,175,176,177,178,179,180,181,182,183,184,185,186,187,188,189,190,191,192,193,194,195,196,197,198,199,200,201,202,203,204,205,206,207,208,209,210,211,212,213,214,215,216,217,218,219,220,221,222,223,224,225,226,227,228,229,230,231,232,233,234,235,236,237,238,239,240,241,242,243,244,245,246,247,248,249,250,251,252,253,254,255,256,257,258,259,260,261,262,263,264,265,266,267,268,269,270,271,272,273,274,275,276,277,278,279,280,281,282,283,284,285,286,287,288,289,290,291,292,293,294,295,296,297,298,299,300,301,302,303,304,305,306,307,308,309,310,311,312,313,314,315,316,317,318,319,320,321,322,323,324,325,326,327,328,329,330,331,332,333,334,335,336,337,338,339,340,341,342,343,344,345,346,347,348,349,350,351,352,353,354,355,356,357,358,359,360,361,362,363,364,365,366,367,368,369,370,371,372,373,374,375,376,377,378,379,380,381,382,383,384,385,386,387,388,389,390,391,392,393,394,395,396,397,398,399,400,401,402,403,404,405,406,407,408,409,410,411,412,413,414,415,416,417,418,419,420,421,422,423,424,425,426,427,428,429,430,431,432,433,434,435,436,437,438,439,440,441,442,443,444,445,446,447,448,449,450,451,452,453,454,455,456,457,458,459,460,461,462,463,464,465,466,467,468,469,470,471,472,473,474,475,476,477,478,479,480,481,482,483,484,485,486,487,488,489,490,491,492,493,494,495,496,497,498,499,500,501,502,503,504,505,506,507,508,509,510,511,512,513,514,515,516,517,518,519,520,521,522,523,524,525,526,527,528,529,530,531,532,533,534,535,536,537,538,539,540,541,542,543,544,545,546,547,548,549,550,551,552,553,554,555,556,557,558,559,560,561,562,563,564,565,566,567,568,569,570,571,572,573,574,575,576,577,578,579,580,581,582,583,584,585,586,587,588,589,590,591,592,593,594,595,596,597,598,599,600,601,602,603,604,605,606,607,608,609,610,611,612,613,614,615,616,617,618,619,620,621,622,623,624,625,626,627,628,629,630,631,632,633,634,635,636,637,638,639,640,641,642,643,644,645,646,647,648,649,650,651,652,653,654,655,656,657,658,659,660,661,662,663,664,665,666,667,668,669,670,671,672,673,674,675,676,677,678,679,680,681,682,683,684,685,686,687,688,689,690,691,692,693,694,695,696,697,698,699,700,701,702,703,704,705,706,707,708,709,710,711,712,713,714,715,716,717,718,719,720,721,722,723,724,725,726,727,728,729,730,731,732,733,734,735,736,737,738,739,740,741,742,743,744,745,746,747,748,749,750,751,752,753,754,755,756,757,758,759,760,761,762,763,764,765,766,767,768,769,770,771,772,773,774,775,776,777,778,779,780,781,782,783,784,785,786,787,788,789,790,791,792,793,794,795,796,797,798,799,800,801,802,803,804,805,806,807,808,809,810,811,812,813,814,815,816,817,818,819,820,821,822,823,824,825,826,827,828,829,830,831,832,833,834,835,836,837,838,839,840,841,842,843,844,845,846,847,848,849,850,851,852,853,854,855,856,857,858,859,860,861,862,863,864,865,866,867,868,869,870,871,872,873,874,875,876,877,878,879,880,881,882,883,884,885,886,887,888,889,890,891,892,893,894,895,896,897,898,899,900,901,902,903,904,905,906,907,908,909,910,911,912,913,914,915,916,917,918,919,920,921,922,923,924,925,926,927,928,929,930,931,932,933,934,935,936,937,938,939,940,941,942,943,944,945,946,947,948,949,950,951,952,953,954,955,956,957,958,959,960,961,962,963,964,965,966,967,968,969,970,971,972,973,974,975,976,977,978,979,980,981,982,983,984,985,986,987,988,989,990,991,992,993,994,995,996,997,998,999,1000],"tree_info":[0,0,0,0,0,0,0,0,0,0,0,0,0,0,0,0,0,0,0,0,0,0,0,0,0,0,0,0,0,0,0,0,0,0,0,0,0,0,0,0,0,0,0,0,0,0,0,0,0,0,0,0,0,0,0,0,0,0,0,0,0,0,0,0,0,0,0,0,0,0,0,0,0,0,0,0,0,0,0,0,0,0,0,0,0,0,0,0,0,0,0,0,0,0,0,0,0,0,0,0,0,0,0,0,0,0,0,0,0,0,0,0,0,0,0,0,0,0,0,0,0,0,0,0,0,0,0,0,0,0,0,0,0,0,0,0,0,0,0,0,0,0,0,0,0,0,0,0,0,0,0,0,0,0,0,0,0,0,0,0,0,0,0,0,0,0,0,0,0,0,0,0,0,0,0,0,0,0,0,0,0,0,0,0,0,0,0,0,0,0,0,0,0,0,0,0,0,0,0,0,0,0,0,0,0,0,0,0,0,0,0,0,0,0,0,0,0,0,0,0,0,0,0,0,0,0,0,0,0,0,0,0,0,0,0,0,0,0,0,0,0,0,0,0,0,0,0,0,0,0,0,0,0,0,0,0,0,0,0,0,0,0,0,0,0,0,0,0,0,0,0,0,0,0,0,0,0,0,0,0,0,0,0,0,0,0,0,0,0,0,0,0,0,0,0,0,0,0,0,0,0,0,0,0,0,0,0,0,0,0,0,0,0,0,0,0,0,0,0,0,0,0,0,0,0,0,0,0,0,0,0,0,0,0,0,0,0,0,0,0,0,0,0,0,0,0,0,0,0,0,0,0,0,0,0,0,0,0,0,0,0,0,0,0,0,0,0,0,0,0,0,0,0,0,0,0,0,0,0,0,0,0,0,0,0,0,0,0,0,0,0,0,0,0,0,0,0,0,0,0,0,0,0,0,0,0,0,0,0,0,0,0,0,0,0,0,0,0,0,0,0,0,0,0,0,0,0,0,0,0,0,0,0,0,0,0,0,0,0,0,0,0,0,0,0,0,0,0,0,0,0,0,0,0,0,0,0,0,0,0,0,0,0,0,0,0,0,0,0,0,0,0,0,0,0,0,0,0,0,0,0,0,0,0,0,0,0,0,0,0,0,0,0,0,0,0,0,0,0,0,0,0,0,0,0,0,0,0,0,0,0,0,0,0,0,0,0,0,0,0,0,0,0,0,0,0,0,0,0,0,0,0,0,0,0,0,0,0,0,0,0,0,0,0,0,0,0,0,0,0,0,0,0,0,0,0,0,0,0,0,0,0,0,0,0,0,0,0,0,0,0,0,0,0,0,0,0,0,0,0,0,0,0,0,0,0,0,0,0,0,0,0,0,0,0,0,0,0,0,0,0,0,0,0,0,0,0,0,0,0,0,0,0,0,0,0,0,0,0,0,0,0,0,0,0,0,0,0,0,0,0,0,0,0,0,0,0,0,0,0,0,0,0,0,0,0,0,0,0,0,0,0,0,0,0,0,0,0,0,0,0,0,0,0,0,0,0,0,0,0,0,0,0,0,0,0,0,0,0,0,0,0,0,0,0,0,0,0,0,0,0,0,0,0,0,0,0,0,0,0,0,0,0,0,0,0,0,0,0,0,0,0,0,0,0,0,0,0,0,0,0,0,0,0,0,0,0,0,0,0,0,0,0,0,0,0,0,0,0,0,0,0,0,0,0,0,0,0,0,0,0,0,0,0,0,0,0,0,0,0,0,0,0,0,0,0,0,0,0,0,0,0,0,0,0,0,0,0,0,0,0,0,0,0,0,0,0,0,0,0,0,0,0,0,0,0,0,0,0,0,0,0,0,0,0,0,0,0,0,0,0,0,0,0,0,0,0,0,0,0,0,0,0,0,0,0,0,0,0,0,0,0,0,0,0,0,0,0,0,0,0,0,0,0,0,0,0,0,0,0,0,0,0,0,0,0,0,0,0,0,0,0,0,0,0,0,0,0,0,0,0,0,0,0,0,0,0,0,0,0,0,0,0,0,0,0,0,0,0,0,0,0,0,0,0,0,0,0,0,0,0,0,0,0,0,0,0,0,0,0,0,0,0,0,0,0,0,0,0,0,0,0,0,0,0,0,0,0,0,0,0,0,0,0,0,0,0,0,0,0,0,0,0,0,0,0,0,0,0,0,0,0,0,0,0,0,0,0,0,0,0,0,0,0,0,0,0,0,0,0,0,0,0,0,0,0,0,0,0,0,0,0,0,0,0,0,0,0,0,0,0,0,0,0,0,0,0,0,0,0],"trees":[{"base_weights":[-1.8278329E-3,-4.7966022E-2,9.823979E-2,-5.9321027E-2,1.2417002E-2,2.3244855E-3,6.347266E-3,-4.881877E-3,-4.5249753E-2,-1.2391409E-3,1.8127287E-2,-2.5732552E-3,-1.5079337E-3,1.1309684E-4,-2.060324E-4,1.1122935E-3,4.13239E-5],"categories":[],"categories_nodes":[],"categories_segments":[],"categories_sizes":[],"default_left":[0,0,0,0,0,0,0,0,0,0,0,0,0,0,0,0,0],"id":0,"left_children":[1,3,5,7,9,-1,-1,-1,11,13,15,-1,-1,-1,-1,-1,-1],"loss_changes":[2.6326072E-1,2.7476922E-2,2.083759E-2,1.3374284E-2,5.683254E-4,0E0,0E0,0E0,8.8658184E-4,3.9585782E-5,3.3788825E-4,0E0,0E0,0E0,0E0,0E0,0E0],"parents":[2147483647,0,0,1,1,2,2,3,3,4,4,8,8,9,9,10,10],"right_children":[2,4,6,8,10,-1,-1,-1,12,14,16,-1,-1,-1,-1,-1,-1],"split_conditions":[8.6094177E-1,8.108994E-1,2.1110744E2,7.4490976E-1,1.8609807E2,2.3244855E-3,6.347266E-3,-4.881877E-3,7.786153E-1,8.2756865E-1,2.050597E2,-2.5732552E-3,-1.5079337E-3,1.1309684E-4,-2.060324E-4,1.1122935E-3,4.13239E-5],"split_indices":[0,0,2,0,2,0,0,0,0,0,2,0,0,0,0,0,0],"split_type":[0,0,0,0,0,0,0,0,0,0,0,0,0,0,0,0,0],"sum_hessian":[5.5E1,3.8E1,1.7E1,3.2E1,6E0,7E0,1E1,7E0,2.5E1,2E0,4E0,1.6E1,9E0,1E0,1E0,3E0,1E0],"tree_param":{"num_deleted":"0","num_feature":"3","num_nodes":"17","size_leaf_vector":"1"}},{"base_weights":[-3.9297035E-3,-4.49855E-2,1.0034029E-1,-6.620002E-2,-1.1678036E-2,2.660476E-3,6.2924325E-3,-4.306231E-3,-2.6050108E-3,-2.7048241E-2,1.1947691E-2,-3.4414008E-4,-1.7353658E-3,-6.0407325E-5,8.725828E-4],"categories":[],"categories_nodes":[],"categories_segments":[],"categories_sizes":[],"default_left":[0,0,0,0,0,0,0,0,0,0,0,0,0,0,0],"id":1,"left_children":[1,3,5,7,9,-1,-1,-1,-1,11,13,-1,-1,-1,-1],"loss_changes":[2.2712004E-1,2.607777E-2,1.1337072E-2,1.9743517E-3,6.1332807E-3,0E0,0E0,0E0,0E0,1.305602E-3,5.279491E-4,0E0,0E0,0E0,0E0],"parents":[2147483647,0,0,1,1,2,2,3,3,4,4,9,9,10,10],"right_children":[2,4,6,8,10,-1,-1,-1,-1,12,14,-1,-1,-1,-1],"split_conditions":[8.6094177E-1,7.778342E-1,2.1110744E2,7.4490976E-1,8.0650496E-1,2.660476E-3,6.2924325E-3,-4.306231E-3,-2.6050108E-3,1.8662798E2,1.8609807E2,-3.4414008E-4,-1.7353658E-3,-6.0407325E-5,8.725828E-4],"split_indices":[0,0,2,0,0,0,0,0,0,2,2,0,0,0,0],"split_type":[0,0,0,0,0,0,0,0,0,0,0,0,0,0,0],"sum_hessian":[5.1E1,3.7E1,1.4E1,2.2E1,1.5E1,6E0,8E0,7E0,1.5E1,9E0,6E0,3E0,6E0,2E0,4E0],"tree_param":{"num_deleted":"0","num_feature":"3","num_nodes":"15","size_leaf_vector":"1"}},{"base_weights":[5.428027E-3,-4.654441E-2,1.0329663E-1,-7.138492E-2,-1.4137279E-2,2.5658642E-3,6.250493E-3,-4.603896E-3,-2.5820422E-3,-2.8070081E-2,1.3762404E-2,2.4655016E-4,-1.5931645E-3,-5.839467E-5,1.0759764E-3],"categories":[],"categories_nodes":[],"categories_segments":[],"categories_sizes":[],"default_left":[0,0,0,0,0,0,0,0,0,0,0,0,0,0,0],"id":2,"left_children":[1,3,5,7,9,-1,-1,-1,-1,11,13,-1,-1,-1,-1],"loss_changes":[2.6421785E-1,2.6361145E-2,1.390034E-2,3.0077323E-3,6.6058445E-3,0E0,0E0,0E0,0E0,1.5340978E-3,7.2002923E-4,0E0,0E0,0E0,0E0],"parents":[2147483647,0,0,1,1,2,2,3,3,4,4,9,9,10,10],"right_children":[2,4,6,8,10,-1,-1,-1,-1,12,14,-1,-1,-1,-1],"split_conditions":[8.504181E-1,7.618141E-1,9.0609217E-1,7.241416E-1,7.908016E-1,2.5658642E-3,6.250493E-3,-4.603896E-3,-2.5820422E-3,7.6594716E-1,1.8609807E2,2.4655016E-4,-1.5931645E-3,-5.839467E-5,1.0759764E-3],"split_indices":[1,1,1,1,1,0,0,0,0,1,2,0,0,0,0],"split_type":[0,0,0,0,0,0,0,0,0,0,0,0,0,0,0],"sum_hessian":[5E1,3.3E1,1.7E1,1.8E1,1.5E1,6E0,1.1E1,7E0,1.1E1,1E1,5E0,1E0,9E0,2E0,3E0],"tree_param":{"num_deleted":"0","num_feature":"3","num_nodes":"15","size_leaf_vector":"1"}},{"base_weights":[-4.328252E-3,-4.8098598E-2,8.341855E-2,-4.521586E-3,-3.5478108E-2,4.588845E-2,5.6682574E-3,-4.0760312E-2,3.31074E-3,8.8139076E-4,2.5104973E-3,-2.2361192E-3,-1.2137153E-3,-1.9791127E-4,3.058769E-4],"categories":[],"categories_nodes":[],"categories_segments":[],"categories_sizes":[],"default_left":[0,0,0,0,0,0,0,0,0,0,0,0,0,0,0],"id":3,"left_children":[1,3,5,-1,7,9,-1,11,13,-1,-1,-1,-1,-1,-1],"loss_changes":[2.4213621E-1,1.9230776E-2,1.8399715E-2,0E0,7.1012266E-3,4.583206E-4,0E0,8.7396055E-4,1.2622715E-4,0E0,0E0,0E0,0E0,0E0,0E0],"parents":[2147483647,0,0,1,1,2,2,4,4,5,5,7,7,8,8],"right_children":[2,4,6,-1,8,10,-1,12,14,-1,-1,-1,-1,-1,-1],"split_conditions":[8.5183424E-1,7.3303425E-1,2.1110744E2,-4.521586E-3,8.108994E-1,8.640187E-1,5.6682574E-3,7.8592575E-1,1.8187355E2,8.8139076E-4,2.5104973E-3,-2.2361192E-3,-1.2137153E-3,-1.9791127E-4,3.058769E-4],"split_indices":[0,0,2,0,0,0,0,0,2,0,0,0,0,0,0],"split_type":[0,0,0,0,0,0,0,0,0,0,0,0,0,0,0],"sum_hessian":[6.1E1,4.1E1,2E1,8E0,3.3E1,1E1,1E1,2.9E1,4E0,2E0,8E0,2.2E1,7E0,1E0,3E0],"tree_param":{"num_deleted":"0","num_feature":"3","num_nodes":"15","size_leaf_vector":"1"}},{"base_weights":[4.9959254E-3,-4.3781783E-2,7.998673E-2,-6.624994E-2,-2.1371355E-2,4.170641E-2,5.4584793E-3,-4.235414E-3,-2.340149E-3,-2.9004682E-2,7.3295594E-3,8.583911E-4,2.39892E-3,-6.182343E-4,-1.5946776E-3,7.5015327E-4,-1.3935665E-4],"categories":[],"categories_nodes":[],"categories_segments":[],"categories_sizes":[],"default_left":[0,0,0,0,0,0,0,0,0,0,0,0,0,0,0,0,0],"id":4,"left_children":[1,3,5,7,9,11,-1,-1,-1,13,15,-1,-1,-1,-1,-1,-1],"loss_changes":[2.2297476E-1,1.7214425E-2,2.2258028E-2,2.4966523E-3,4.594261E-3,1.0231864E-3,0E0,0E0,0E0,3.7477817E-4,4.2996803E-4,0E0,0E0,0E0,0E0,0E0,0E0],"parents":[2147483647,0,0,1,1,2,2,3,3,4,4,5,5,9,9,10,10],"right_children":[2,4,6,8,10,12,-1,-1,-1,14,16,-1,-1,-1,-1,-1,-1],"split_conditions":[8.5183424E-1,7.7359766E-1,2.1110744E2,7.3303425E-1,8.108994E-1,8.640187E-1,5.4584793E-3,-4.235414E-3,-2.340149E-3,1.8190273E2,8.329182E-1,8.583911E-4,2.39892E-3,-6.182343E-4,-1.5946776E-3,7.5015327E-4,-1.3935665E-4],"split_indices":[0,0,2,0,0,0,0,0,0,2,0,0,0,0,0,0,0],"split_type":[0,0,0,0,0,0,0,0,0,0,0,0,0,0,0,0,0],"sum_hessian":[5.9E1,3.6E1,2.3E1,1.7E1,1.9E1,1.1E1,1.2E1,7E0,1E1,1.5E1,4E0,3E0,8E0,3E0,1.2E1,2E0,2E0],"tree_param":{"num_deleted":"0","num_feature":"3","num_nodes":"17","size_leaf_vector":"1"}},{"base_weights":[-9.094642E-4,-4.6800863E-2,6.54118E-2,-3.902138E-3,-3.4826867E-2,3.3173386E-2,5.1472685E-3,-3.766821E-2,-6.941095E-3,1.4769979E-2,2.292302E-3,-2.1677713E-3,-1.3473121E-3,-5.2063266E-4,8.68395E-5,-1.8948018E-4,8.98136E-4],"categories":[],"categories_nodes":[],"categories_segments":[],"categories_sizes":[],"default_left":[0,0,0,0,0,0,0,0,0,0,0,0,0,0,0,0,0],"id":5,"left_children":[1,3,5,-1,7,9,-1,11,13,15,-1,-1,-1,-1,-1,-1,-1],"loss_changes":[2.0089374E-1,1.1871539E-2,2.9255554E-2,0E0,2.1155328E-3,3.0543748E-3,0E0,4.7814474E-4,1.385877E-4,5.4211915E-4,0E0,0E0,0E0,0E0,0E0,0E0,0E0],"parents":[2147483647,0,0,1,1,2,2,4,4,5,5,7,7,8,8,9,9],"right_children":[2,4,6,-1,8,10,-1,12,14,16,-1,-1,-1,-1,-1,-1,-1],"split_conditions":[8.140471E-1,7.332083E-1,2.1110744E2,-3.902138E-3,7.8798974E-1,8.504181E-1,5.1472685E-3,7.64787E-1,7.9401195E-1,1.8187355E2,2.292302E-3,-2.1677713E-3,-1.3473121E-3,-5.2063266E-4,8.68395E-5,-1.8948018E-4,8.98136E-4],"split_indices":[1,1,2,0,1,1,0,1,1,2,0,0,0,0,0,0,0],"split_type":[0,0,0,0,0,0,0,0,0,0,0,0,0,0,0,0,0],"sum_hessian":[6.4E1,3.8E1,2.6E1,9E0,2.9E1,1.5E1,1.1E1,2.6E1,3E0,7E0,8E0,1.5E1,1.1E1,2E0,1E0,1E0,6E0],"tree_param":{"num_deleted":"0","num_feature":"3","num_nodes":"17","size_leaf_vector":"1"}},{"base_weights":[1.18869E-4,-4.071047E-2,7.962238E-2,-5.160932E-2,-1.0257796E-2,3.8661033E-2,5.0147376E-3,-3.8455797E-3,-2.035882E-3,-1.8092003E-2,2.7616501E-3,7.93462E-4,2.180671E-3,-2.3645163E-4,-9.765496E-4,-1.8474311E-4,2.649747E-4],"categories":[],"categories_nodes":[],"categories_segments":[],"categories_sizes":[],"default_left":[0,0,0,0,0,0,0,0,0,0,0,0,0,0,0,0,0],"id":6,"left_children":[1,3,5,7,9,11,-1,-1,-1,13,15,-1,-1,-1,-1,-1,-1],"loss_changes":[1.8177563E-1,1.1750866E-2,1.2211092E-2,4.309118E-3,1.1719309E-3,2.1087937E-4,0E0,0E0,0E0,4.2241532E-5,1.0150898E-4,0E0,0E0,0E0,0E0,0E0,0E0],"parents":[2147483647,0,0,1,1,2,2,3,3,4,4,5,5,9,9,10,10],"right_children":[2,4,6,8,10,12,-1,-1,-1,14,16,-1,-1,-1,-1,-1,-1],"split_conditions":[8.355051E-1,7.736196E-1,2.0303296E2,7.241416E-1,7.95584E-1,8.504181E-1,5.0147376E-3,-3.8455797E-3,-2.035882E-3,7.7434087E-1,1.8187355E2,7.93462E-4,2.180671E-3,-2.3645163E-4,-9.765496E-4,-1.8474311E-4,2.649747E-4],"split_indices":[1,1,2,1,1,1,0,0,0,1,2,0,0,0,0,0,0],"split_type":[0,0,0,0,0,0,0,0,0,0,0,0,0,0,0,0,0],"sum_hessian":[5.4E1,3.6E1,1.8E1,2.6E1,1E1,7E0,1.1E1,6E0,2E1,6E0,4E0,2E0,5E0,1E0,5E0,1E0,3E0],"tree_param":{"num_deleted":"0","num_feature":"3","num_nodes":"17","size_leaf_vector":"1"}},{"base_weights":[-2.6046508E-3,-4.3795884E-2,6.491758E-2,-3.7880435E-3,-3.1957284E-2,2.932162E-2,4.8923967E-3,-1.9280082E-3,-1.9940099E-2,8.068119E-4,1.9908815E-3,3.963247E-4,-1.1597008E-3],"categories":[],"categories_nodes":[],"categories_segments":[],"categories_sizes":[],"default_left":[0,0,0,0,0,0,0,0,0,0,0,0,0],"id":7,"left_children":[1,3,5,-1,7,9,-1,-1,11,-1,-1,-1,-1],"loss_changes":[1.6137858E-1,1.1202037E-2,2.2919066E-2,0E0,1.4528502E-3,1.0182187E-3,0E0,0E0,1.2719547E-3,0E0,0E0,0E0,0E0],"parents":[2147483647,0,0,1,1,2,2,4,4,5,5,8,8],"right_children":[2,4,6,-1,8,10,-1,-1,12,-1,-1,-1,-1],"split_conditions":[8.2756865E-1,7.3303425E-1,9.2212707E-1,-3.7880435E-3,7.786153E-1,8.640187E-1,4.8923967E-3,-1.9280082E-3,7.6594716E-1,8.068119E-4,1.9908815E-3,3.963247E-4,-1.1597008E-3],"split_indices":[0,0,0,0,0,0,0,0,1,0,0,0,0],"split_type":[0,0,0,0,0,0,0,0,0,0,0,0,0],"sum_hessian":[5.6E1,3.5E1,2.1E1,8E0,2.7E1,1.1E1,1E1,1.6E1,1.1E1,6E0,5E0,1E0,1E1],"tree_param":{"num_deleted":"0","num_feature":"3","num_nodes":"13","size_leaf_vector":"1"}},{"base_weights":[-5.1720935E-4,-4.1996628E-2,5.7215776E-2,-6.4596266E-2,-2.8787874E-2,2.7574006E-2,4.352276E-3,-3.368107E-3,-9.2343986E-4,-3.0362602E-2,1.0703653E-4,3.4440696E-2,4.849583E-4,-1.7237861E-3,-9.68466E-4,7.2067283E-4,1.905185E-3],"categories":[],"categories_nodes":[],"categories_segments":[],"categories_sizes":[],"default_left":[0,0,0,0,0,0,0,0,0,0,0,0,0,0,0,0,0],"id":8,"left_children":[1,3,5,7,9,11,-1,-1,-1,13,-1,15,-1,-1,-1,-1,-1],"loss_changes":[1.3171834E-1,7.692825E-3,1.7936558E-2,1.5931204E-4,1.1364911E-3,1.2615873E-3,0E0,0E0,0E0,2.817791E-4,0E0,1.11031346E-4,0E0,0E0,0E0,0E0,0E0],"parents":[2147483647,0,0,1,1,2,2,3,3,4,4,5,5,9,9,11,11],"right_children":[2,4,6,8,10,12,-1,-1,-1,14,-1,16,-1,-1,-1,-1,-1],"split_conditions":[8.2756865E-1,7.640354E-1,2.1072833E2,1.948792E2,8.108994E-1,2.0303296E2,4.352276E-3,-3.368107E-3,-9.2343986E-4,7.822282E-1,1.0703653E-4,1.8867564E2,4.849583E-4,-1.7237861E-3,-9.68466E-4,7.2067283E-4,1.905185E-3],"split_indices":[0,0,2,2,0,2,0,0,0,0,0,2,0,0,0,0,0],"split_type":[0,0,0,0,0,0,0,0,0,0,0,0,0,0,0,0,0],"sum_hessian":[5.3E1,3.1E1,2.2E1,1E1,2.1E1,1.2E1,1E1,9E0,1E0,2E1,1E0,8E0,4E0,1.3E1,7E0,2E0,6E0],"tree_param":{"num_deleted":"0","num_feature":"3","num_nodes":"17","size_leaf_vector":"1"}},{"base_weights":[3.593713E-3,-2.9703796E-2,7.167392E-2,-3.9805662E-2,5.592555E-3,1.8234038E-3,4.391284E-3,-3.396049E-3,-1.5352584E-3,-3.9978625E-4,9.98909E-3,-7.5968106E-5,7.039234E-4],"categories":[],"categories_nodes":[],"categories_segments":[],"categories_sizes":[],"default_left":[0,0,0,0,0,0,0,0,0,0,0,0,0],"id":9,"left_children":[1,3,5,7,9,-1,-1,-1,-1,-1,11,-1,-1],"loss_changes":[1.3814306E-1,1.4841538E-2,8.169889E-3,6.1020926E-3,6.7728356E-4,0E0,0E0,0E0,0E0,0E0,3.978897E-4,0E0,0E0],"parents":[2147483647,0,0,1,1,2,2,3,3,4,4,10,10],"right_children":[2,4,6,8,10,-1,-1,-1,-1,-1,12,-1,-1],"split_conditions":[8.504181E-1,7.8798974E-1,8.844626E-1,7.241416E-1,7.9401195E-1,1.8234038E-3,4.391284E-3,-3.396049E-3,-1.5352584E-3,-3.9978625E-4,1.8609807E2,-7.5968106E-5,7.039234E-4],"split_indices":[1,1,1,1,1,0,0,0,0,0,2,0,0],"split_type":[0,0,0,0,0,0,0,0,0,0,0,0,0],"sum_hessian":[5.9E1,4E1,1.9E1,3.1E1,9E0,7E0,1.2E1,6E0,2.5E1,2E0,7E0,2E0,5E0],"tree_param":{"num_deleted":"0","num_feature":"3","num_nodes":"13","size_leaf_vector":"1"}},{"base_weights":[-7.3546445E-4,-3.4221094E-2,6.190008E-2,-5.1091634E-2,-1.579505E-2,2.8219549E-2,4.2818724E-3,-3.3190586E-3,-1.8806622E-3,-2.3048893E-2,7.3900125E-3,6.144643E-4,1.6328618E-3,-4.581732E-4,-1.3308226E-3,-7.343491E-5,6.093271E-4],"categories":[],"categories_nodes":[],"categories_segments":[],"categories_sizes":[],"default_left":[0,0,0,0,0,0,0,0,0,0,0,0,0,0,0,0,0],"id":10,"left_children":[1,3,5,7,9,11,-1,-1,-1,13,15,-1,-1,-1,-1,-1,-1],"loss_changes":[1.3844869E-1,1.2559872E-2,1.5971556E-2,2.0369142E-3,3.8703084E-3,3.762953E-4,0E0,0E0,0E0,5.9823133E-4,2.7284477E-4,0E0,0E0,0E0,0E0,0E0,0E0],"parents":[2147483647,0,0,1,1,2,2,3,3,4,4,5,5,9,9,10,10],"right_children":[2,4,6,8,10,12,-1,-1,-1,14,16,-1,-1,-1,-1,-1,-1],"split_conditions":[8.355051E-1,7.5887966E-1,8.844626E-1,7.241416E-1,7.95584E-1,8.504181E-1,4.2818724E-3,-3.3190586E-3,-1.8806622E-3,1.8190273E2,1.8609807E2,6.144643E-4,1.6328618E-3,-4.581732E-4,-1.3308226E-3,-7.343491E-5,6.093271E-4],"split_indices":[1,1,1,1,1,1,0,0,0,2,2,0,0,0,0,0,0],"split_type":[0,0,0,0,0,0,0,0,0,0,0,0,0,0,0,0,0],"sum_hessian":[6.4E1,4.2E1,2.2E1,2.1E1,2.1E1,1E1,1.2E1,8E0,1.3E1,1.6E1,5E0,3E0,7E0,4E0,1.2E1,2E0,3E0],"tree_param":{"num_deleted":"0","num_feature":"3","num_nodes":"17","size_leaf_vector":"1"}},{"base_weights":[7.805824E-5,-3.8410597E-2,5.1393013E-2,-2.8818324E-3,-2.838142E-2,2.7153956E-2,3.8785317E-3,-1.4489436E-3,-3.8093628E-4,-2.1457672E-4,2.9902957E-2,8.145392E-4,1.7071363E-3],"categories":[],"categories_nodes":[],"categories_segments":[],"categories_sizes":[],"default_left":[0,0,0,0,0,0,0,0,0,0,0,0,0],"id":11,"left_children":[1,3,5,-1,7,9,-1,-1,-1,-1,11,-1,-1],"loss_changes":[1.1060145E-1,4.534479E-3,1.3122149E-2,0E0,6.452575E-5,1.3385415E-3,0E0,0E0,0E0,0E0,1.9405037E-4,0E0,0E0],"parents":[2147483647,0,0,1,1,2,2,4,4,5,5,10,10],"right_children":[2,4,6,-1,8,10,-1,-1,-1,-1,12,-1,-1],"split_conditions":[7.9401195E-1,7.332083E-1,2.1110744E2,-2.8818324E-3,7.8798974E-1,1.8187355E2,3.8785317E-3,-1.4489436E-3,-3.8093628E-4,-2.1457672E-4,8.418843E-1,8.145392E-4,1.7071363E-3],"split_indices":[1,1,2,0,1,2,0,0,0,0,1,0,0],"split_type":[0,0,0,0,0,0,0,0,0,0,0,0,0],"sum_hessian":[5.4E1,3.1E1,2.3E1,9E0,2.2E1,1.3E1,1E1,2.1E1,1E0,1E0,1.2E1,4E0,8E0],"tree_param":{"num_deleted":"0","num_feature":"3","num_nodes":"13","size_leaf_vector":"1"}},{"base_weights":[1.4461446E-4,-2.6516406E-2,7.012075E-2,-4.299219E-2,-4.3092906E-3,1.6014845E-3,4.007432E-3,-3.0554247E-3,-1.596896E-3,-1.5938353E-2,1.0382818E-2,5.1556976E-4,-9.797233E-4,8.773208E-5,5.621005E-4],"categories":[],"categories_nodes":[],"categories_segments":[],"categories_sizes":[],"default_left":[0,0,0,0,0,0,0,0,0,0,0,0,0,0,0],"id":12,"left_children":[1,3,5,7,9,-1,-1,-1,-1,11,13,-1,-1,-1,-1],"loss_changes":[1.08200565E-1,1.5181681E-2,3.5444275E-3,2.8546192E-3,3.4117384E-3,0E0,0E0,0E0,0E0,1.2577393E-3,4.6993664E-5,0E0,0E0,0E0,0E0],"parents":[2147483647,0,0,1,1,2,2,3,3,4,4,9,9,10,10],"right_children":[2,4,6,8,10,-1,-1,-1,-1,12,14,-1,-1,-1,-1],"split_conditions":[8.727647E-1,7.778342E-1,8.9295626E-1,7.3303425E-1,8.108994E-1,1.6014845E-3,4.007432E-3,-3.0554247E-3,-1.596896E-3,7.6594716E-1,8.2756865E-1,5.1556976E-4,-9.797233E-4,8.773208E-5,5.621005E-4],"split_indices":[0,0,0,0,0,0,0,0,0,1,0,0,0,0,0],"split_type":[0,0,0,0,0,0,0,0,0,0,0,0,0,0,0],"sum_hessian":[5.6E1,4.1E1,1.5E1,2.3E1,1.8E1,4E0,1.1E1,7E0,1.6E1,1E1,8E0,1E0,9E0,1E0,7E0],"tree_param":{"num_deleted":"0","num_feature":"3","num_nodes":"15","size_leaf_vector":"1"}},{"base_weights":[5.471367E-4,-3.3673055E-2,5.408539E-2,-2.8457416E-3,-2.3817841E-2,2.8781047E-2,3.744131E-3,-1.6167436E-2,-2.9766973E-2,4.8400857E-4,1.5816604E-3,-5.354068E-4,-9.461697E-4,-1.5877296E-3,-9.819865E-5],"categories":[],"categories_nodes":[],"categories_segments":[],"categories_sizes":[],"default_left":[0,0,0,0,0,0,0,0,0,0,0,0,0,0,0],"id":13,"left_children":[1,3,5,-1,7,9,-1,11,13,-1,-1,-1,-1,-1,-1],"loss_changes":[1.08082406E-1,6.890308E-3,9.948783E-3,0E0,7.4760336E-4,3.4752954E-4,0E0,8.004019E-6,7.1129855E-4,0E0,0E0,0E0,0E0,0E0,0E0],"parents":[2147483647,0,0,1,1,2,2,4,4,5,5,7,7,8,8],"right_children":[2,4,6,-1,8,10,-1,12,14,-1,-1,-1,-1,-1,-1],"split_conditions":[7.95584E-1,7.332083E-1,2.1110744E2,-2.8457416E-3,1.904298E2,1.8867564E2,3.744131E-3,7.6594716E-1,7.8798974E-1,4.8400857E-4,1.5816604E-3,-5.354068E-4,-9.461697E-4,-1.5877296E-3,-9.819865E-5],"split_indices":[1,1,2,0,2,2,0,1,1,0,0,0,0,0,0],"split_type":[0,0,0,0,0,0,0,0,0,0,0,0,0,0,0],"sum_hessian":[5.7E1,3.5E1,2.2E1,9E0,2.6E1,1.1E1,1.1E1,1.3E1,1.3E1,2E0,9E0,6E0,7E0,1.2E1,1E0],"tree_param":{"num_deleted":"0","num_feature":"3","num_nodes":"15","size_leaf_vector":"1"}},{"base_weights":[2.582571E-3,-2.2159744E-2,6.1545737E-2,-3.6290206E-2,-2.4007277E-3,3.304386E-2,3.652151E-3,-2.6677067E-3,-1.467826E-3,-1.1631819E-2,9.1484655E-3,3.444031E-4,1.8127576E-3,1.4852062E-4,-8.739479E-4,-2.3536384E-4,5.7344214E-4],"categories":[],"categories_nodes":[],"categories_segments":[],"categories_sizes":[],"default_left":[0,0,0,0,0,0,0,0,0,0,0,0,0,0,0,0,0],"id":14,"left_children":[1,3,5,7,9,11,-1,-1,-1,13,15,-1,-1,-1,-1,-1,-1],"loss_changes":[8.889695E-2,1.1918649E-2,3.4848675E-3,1.3916083E-3,2.1320349E-3,3.3822842E-4,0E0,0E0,0E0,9.911137E-4,3.4334196E-4,0E0,0E0,0E0,0E0,0E0,0E0],"parents":[2147483647,0,0,1,1,2,2,3,3,4,4,5,5,9,9,10,10],"right_children":[2,4,6,8,10,12,-1,-1,-1,14,16,-1,-1,-1,-1,-1,-1],"split_conditions":[8.727647E-1,7.786153E-1,9.3029207E-1,7.3303425E-1,8.0650496E-1,1.8752272E2,3.652151E-3,-2.6677067E-3,-1.467826E-3,1.8662798E2,1.8187355E2,3.444031E-4,1.8127576E-3,1.4852062E-4,-8.739479E-4,-2.3536384E-4,5.7344214E-4],"split_indices":[0,0,0,0,0,2,0,0,0,2,2,0,0,0,0,0,0],"split_type":[0,0,0,0,0,0,0,0,0,0,0,0,0,0,0,0,0],"sum_hessian":[5.9E1,4.2E1,1.7E1,2.4E1,1.8E1,6E0,1.1E1,5E0,1.9E1,1E1,8E0,1E0,5E0,3E0,7E0,1E0,7E0],"tree_param":{"num_deleted":"0","num_feature":"3","num_nodes":"17","size_leaf_vector":"1"}},{"base_weights":[-1.4586605E-3,-2.9690297E-2,4.330221E-2,-2.499933E-3,-2.2608113E-2,1.5869915E-2,3.088157E-3,-1.3065034E-3,-9.656481E-3,1.0745274E-3,4.8270463E-3,-5.6868535E-4,5.9102476E-5,8.3461404E-5,3.1879247E-4],"categories":[],"categories_nodes":[],"categories_segments":[],"categories_sizes":[],"default_left":[0,0,0,0,0,0,0,0,0,0,0,0,0,0,0],"id":15,"left_children":[1,3,5,-1,7,9,-1,-1,11,-1,13,-1,-1,-1,-1],"loss_changes":[7.8369685E-2,4.335068E-3,1.1174038E-2,0E0,1.1161268E-3,5.7901116E-4,0E0,0E0,1.6234198E-4,0E0,1.3811441E-5,0E0,0E0,0E0,0E0],"parents":[2147483647,0,0,1,1,2,2,4,4,5,5,8,8,10,10],"right_children":[2,4,6,-1,8,10,-1,-1,12,-1,14,-1,-1,-1,-1],"split_conditions":[8.140471E-1,7.332083E-1,8.7423664E-1,-2.499933E-3,7.736196E-1,2.0303296E2,3.088157E-3,-1.3065034E-3,7.95584E-1,1.0745274E-3,8.355051E-1,-5.6868535E-4,5.9102476E-5,8.3461404E-5,3.1879247E-4],"split_indices":[1,1,1,0,1,2,0,0,1,0,1,0,0,0,0],"split_type":[0,0,0,0,0,0,0,0,0,0,0,0,0,0,0],"sum_hessian":[6E1,3.7E1,2.3E1,8E0,2.9E1,1E1,1.3E1,2.2E1,7E0,6E0,4E0,6E0,1E0,2E0,2E0],"tree_param":{"num_deleted":"0","num_feature":"3","num_nodes":"15","size_leaf_vector":"1"}},{"base_weights":[-4.0871333E-3,-2.8056554E-2,3.8063712E-2,-2.3189576E-3,-1.9930305E-2,2.167362E-2,2.7843933E-3,-1.0409858E-3,5.7624282E-5,1.2903999E-2,2.6094208E-2,7.5571093E-4,2.827853E-4,1.4359658E-3,2.5858879E-4],"categories":[],"categories_nodes":[],"categories_segments":[],"categories_sizes":[],"default_left":[0,0,0,0,0,0,0,0,0,0,0,0,0,0,0],"id":16,"left_children":[1,3,5,-1,7,9,-1,-1,-1,11,13,-1,-1,-1,-1],"loss_changes":[5.562583E-2,4.2869393E-3,4.5702737E-3,0E0,5.1152706E-4,1.2848293E-4,0E0,0E0,0E0,1.0640477E-5,2.3593567E-4,0E0,0E0,0E0,0E0],"parents":[2147483647,0,0,1,1,2,2,4,4,5,5,9,9,10,10],"right_children":[2,4,6,-1,8,10,-1,-1,-1,12,14,-1,-1,-1,-1],"split_conditions":[8.2756865E-1,7.450442E-1,8.844626E-1,-2.3189576E-3,8.108994E-1,8.640187E-1,2.7843933E-3,-1.0409858E-3,5.7624282E-5,8.54497E-1,8.9295626E-1,7.5571093E-4,2.827853E-4,1.4359658E-3,2.5858879E-4],"split_indices":[0,0,1,0,0,0,0,0,0,0,0,0,0,0,0],"split_type":[0,0,0,0,0,0,0,0,0,0,0,0,0,0,0],"sum_hessian":[5.3E1,3.4E1,1.9E1,9E0,2.5E1,1.1E1,8E0,2.4E1,1E0,5E0,6E0,3E0,2E0,5E0,1E0],"tree_param":{"num_deleted":"0","num_feature":"3","num_nodes":"15","size_leaf_vector":"1"}},{"base_weights":[5.9530884E-4,-2.1222085E-2,5.1895335E-2,-3.6266357E-2,-8.525607E-3,1.2217058E-3,3.2326449E-3,-2.2853855E-3,-1.3868351E-3,-1.2919598E-2,6.0772994E-3,-2.074233E-4,-8.4797293E-4,4.510635E-4,-2.1606385E-4],"categories":[],"categories_nodes":[],"categories_segments":[],"categories_sizes":[],"default_left":[0,0,0,0,0,0,0,0,0,0,0,0,0,0,0],"id":17,"left_children":[1,3,5,7,9,-1,-1,-1,-1,11,13,-1,-1,-1,-1],"loss_changes":[6.377836E-2,7.3311776E-3,4.3760203E-3,1.8178485E-4,1.5543121E-3,0E0,0E0,0E0,0E0,5.6745904E-4,2.2266204E-4,0E0,0E0,0E0,0E0],"parents":[2147483647,0,0,1,1,2,2,3,3,4,4,9,9,10,10],"right_children":[2,4,6,8,10,-1,-1,-1,-1,12,14,-1,-1,-1,-1],"split_conditions":[8.504181E-1,7.5887966E-1,9.0609217E-1,7.241416E-1,8.2629806E-1,1.2217058E-3,3.2326449E-3,-2.2853855E-3,-1.3868351E-3,1.8609807E2,2.050597E2,-2.074233E-4,-8.4797293E-4,4.510635E-4,-2.1606385E-4],"split_indices":[1,1,1,1,1,0,0,0,0,2,2,0,0,0,0],"split_type":[0,0,0,0,0,0,0,0,0,0,0,0,0,0,0],"sum_hessian":[5.5E1,3.9E1,1.6E1,1.7E1,2.2E1,6E0,1E1,6E0,1.1E1,1.7E1,5E0,6E0,1.1E1,4E0,1E0],"tree_param":{"num_deleted":"0","num_feature":"3","num_nodes":"15","size_leaf_vector":"1"}},{"base_weights":[1.7063379E-3,-2.4680283E-2,4.24081E-2,-3.6375567E-2,-9.249616E-3,2.6554005E-2,3.1179008E-3,-2.3697212E-3,-2.5998363E-2,-7.866993E-4,4.179994E-3,3.4629702E-4,2.9248187E-2,-3.6508145E-4,-1.3517141E-3,5.464614E-4,-9.634644E-5,8.379775E-4,1.6698781E-3],"categories":[],"categories_nodes":[],"categories_segments":[],"categories_sizes":[],"default_left":[0,0,0,0,0,0,0,0,0,0,0,0,0,0,0,0,0,0,0],"id":18,"left_children":[1,3,5,7,9,11,-1,-1,13,-1,15,-1,17,-1,-1,-1,-1,-1,-1],"loss_changes":[6.0115654E-2,5.799385E-3,5.3024776E-3,9.403769E-4,1.4590885E-3,5.3777173E-4,0E0,0E0,3.502518E-5,0E0,2.683621E-4,0E0,6.21127E-5,0E0,0E0,0E0,0E0,0E0,0E0],"parents":[2147483647,0,0,1,1,2,2,3,3,4,4,5,5,8,8,10,10,12,12],"right_children":[2,4,6,8,10,12,-1,-1,14,-1,16,-1,18,-1,-1,-1,-1,-1,-1],"split_conditions":[8.5183424E-1,7.7359766E-1,9.505752E-1,7.3303425E-1,8.0650496E-1,1.8867564E2,3.1179008E-3,-2.3697212E-3,1.7590256E2,-7.866993E-4,8.329182E-1,3.4629702E-4,8.729979E-1,-3.6508145E-4,-1.3517141E-3,5.464614E-4,-9.634644E-5,8.379775E-4,1.6698781E-3],"split_indices":[0,0,0,0,0,2,0,0,2,0,0,0,0,0,0,0,0,0,0],"split_type":[0,0,0,0,0,0,0,0,0,0,0,0,0,0,0,0,0,0,0],"sum_hessian":[5.4E1,3.3E1,2.1E1,1.8E1,1.5E1,1.3E1,8E0,7E0,1.1E1,1E1,5E0,2E0,1.1E1,1E0,1E1,2E0,3E0,4E0,7E0],"tree_param":{"num_deleted":"0","num_feature":"3","num_nodes":"19","size_leaf_vector":"1"}},{"base_weights":[-1.871026E-3,-2.1784587E-2,4.927441E-2,-3.8381252E-2,-1.175738E-2,2.0468345E-2,3.025366E-3,-2.241555E-3,-1.2302778E-3,-1.5178978E-2,6.3334466E-3,1.142931E-3,2.1292419E-4,-9.258442E-4,-5.288079E-4,4.770756E-5,3.7198662E-4],"categories":[],"categories_nodes":[],"categories_segments":[],"categories_sizes":[],"default_left":[0,0,0,0,0,0,0,0,0,0,0,0,0,0,0,0,0],"id":19,"left_children":[1,3,5,7,9,11,-1,-1,-1,13,15,-1,-1,-1,-1,-1,-1],"loss_changes":[5.810874E-2,6.371882E-3,3.938731E-3,2.296716E-4,1.7674228E-3,1.3513328E-4,0E0,0E0,0E0,1.5752949E-4,2.2656575E-5,0E0,0E0,0E0,0E0,0E0,0E0],"parents":[2147483647,0,0,1,1,2,2,3,3,4,4,5,5,9,9,10,10],"right_children":[2,4,6,8,10,12,-1,-1,-1,14,16,-1,-1,-1,-1,-1,-1],"split_conditions":[8.640187E-1,7.640354E-1,9.2212707E-1,7.3303425E-1,8.108994E-1,9.0020484E-1,3.025366E-3,-2.241555E-3,-1.2302778E-3,7.778342E-1,8.2756865E-1,1.142931E-3,2.1292419E-4,-9.258442E-4,-5.288079E-4,4.770756E-5,3.7198662E-4],"split_indices":[0,0,0,0,0,0,0,0,0,0,0,0,0,0,0,0,0],"split_type":[0,0,0,0,0,0,0,0,0,0,0,0,0,0,0,0,0],"sum_hessian":[5.5E1,4E1,1.5E1,1.4E1,2.6E1,5E0,1E1,8E0,6E0,2.2E1,4E0,4E0,1E0,1.1E1,1.1E1,1E0,3E0],"tree_param":{"num_deleted":"0","num_feature":"3","num_nodes":"17","size_leaf_vector":"1"}},{"base_weights":[-1.0434164E-3,-1.9910218E-2,4.51334E-2,-3.243697E-2,-7.0624454E-3,2.5293967E-2,2.9237778E-3,-2.2198856E-3,-1.1947723E-3,-1.2421735E-2,4.5389384E-3,2.076015E-4,1.3708853E-3,-5.1867217E-5,-7.484553E-4,-2.7694256E-4,3.3849437E-4],"categories":[],"categories_nodes":[],"categories_segments":[],"categories_sizes":[],"default_left":[0,0,0,0,0,0,0,0,0,0,0,0,0,0,0,0,0],"id":20,"left_children":[1,3,5,7,9,11,-1,-1,-1,13,15,-1,-1,-1,-1,-1,-1],"loss_changes":[5.4042365E-2,6.8523157E-3,3.285531E-3,1.1866819E-3,1.4864103E-3,2.9026018E-4,0E0,0E0,0E0,4.484763E-4,2.1736167E-4,0E0,0E0,0E0,0E0,0E0,0E0],"parents":[2147483647,0,0,1,1,2,2,3,3,4,4,5,5,9,9,10,10],"right_children":[2,4,6,8,10,12,-1,-1,-1,14,16,-1,-1,-1,-1,-1,-1],"split_conditions":[8.640187E-1,7.7359766E-1,9.3029207E-1,7.3303425E-1,8.108994E-1,1.8752272E2,2.9237778E-3,-2.2198856E-3,-1.1947723E-3,1.8190273E2,1.8187355E2,2.076015E-4,1.3708853E-3,-5.1867217E-5,-7.484553E-4,-2.7694256E-4,3.3849437E-4],"split_indices":[0,0,0,0,0,2,0,0,0,2,2,0,0,0,0,0,0],"split_type":[0,0,0,0,0,0,0,0,0,0,0,0,0,0,0,0,0],"sum_hessian":[6E1,4.3E1,1.7E1,2.1E1,2.2E1,8E0,9E0,7E0,1.4E1,1.5E1,7E0,1E0,7E0,3E0,1.2E1,1E0,6E0],"tree_param":{"num_deleted":"0","num_feature":"3","num_nodes":"17","size_leaf_vector":"1"}},{"base_weights":[1.5918403E-3,-2.2166595E-2,3.51833E-2,-2.1107253E-3,-1.6362954E-2,2.0064402E-2,2.7171657E-3,-9.979386E-4,-9.905304E-3,5.7885837E-4,1.3021793E-3,6.104097E-4,-6.512729E-4],"categories":[],"categories_nodes":[],"categories_segments":[],"categories_sizes":[],"default_left":[0,0,0,0,0,0,0,0,0,0,0,0,0],"id":21,"left_children":[1,3,5,-1,7,9,-1,-1,11,-1,-1,-1,-1],"loss_changes":[4.6270482E-2,3.265176E-3,5.86191E-3,0E0,4.5247655E-4,4.5969058E-4,0E0,0E0,9.869874E-4,0E0,0E0,0E0,0E0],"parents":[2147483647,0,0,1,1,2,2,4,4,5,5,8,8],"right_children":[2,4,6,-1,8,10,-1,-1,12,-1,-1,-1,-1],"split_conditions":[8.2756865E-1,7.245466E-1,9.3029207E-1,-2.1107253E-3,7.778342E-1,8.729979E-1,2.7171657E-3,-9.979386E-4,7.6594716E-1,5.7885837E-4,1.3021793E-3,6.104097E-4,-6.512729E-4],"split_indices":[0,0,0,0,0,0,0,0,1,0,0,0,0],"split_type":[0,0,0,0,0,0,0,0,0,0,0,0,0],"sum_hessian":[5.6E1,3.3E1,2.3E1,6E0,2.7E1,1.4E1,9E0,1.6E1,1.1E1,7E0,7E0,1E0,1E1],"tree_param":{"num_deleted":"0","num_feature":"3","num_nodes":"13","size_leaf_vector":"1"}},{"base_weights":[1.6610603E-3,-1.574427E-2,4.0048577E-2,-3.0891636E-2,-5.2346746E-3,2.1787861E-2,2.5674193E-3,-1.6461017E-3,-5.221218E-4,-1.1029806E-2,3.6704866E-3,1.6985685E-4,1.1831031E-3,-9.439111E-5,-6.959908E-4,-2.8449149E-4,2.5877505E-4],"categories":[],"categories_nodes":[],"categories_segments":[],"categories_sizes":[],"default_left":[0,0,0,0,0,0,0,0,0,0,0,0,0,0,0,0,0],"id":22,"left_children":[1,3,5,7,9,11,-1,-1,-1,13,15,-1,-1,-1,-1,-1,-1],"loss_changes":[4.071938E-2,6.524384E-3,2.8017368E-3,3.620535E-4,1.3822559E-3,2.2982713E-4,0E0,0E0,0E0,3.9644854E-4,1.8440925E-4,0E0,0E0,0E0,0E0,0E0,0E0],"parents":[2147483647,0,0,1,1,2,2,3,3,4,4,5,5,9,9,10,10],"right_children":[2,4,6,8,10,12,-1,-1,-1,14,16,-1,-1,-1,-1,-1,-1],"split_conditions":[8.504181E-1,7.5887966E-1,9.121577E-1,1.948792E2,7.8798974E-1,1.8752272E2,2.5674193E-3,-1.6461017E-3,-5.221218E-4,1.8190273E2,1.8187355E2,1.6985685E-4,1.1831031E-3,-9.439111E-5,-6.959908E-4,-2.8449149E-4,2.5877505E-4],"split_indices":[1,1,1,2,1,2,0,0,0,2,2,0,0,0,0,0,0],"split_type":[0,0,0,0,0,0,0,0,0,0,0,0,0,0,0,0,0],"sum_hessian":[5.9E1,4.1E1,1.8E1,1.6E1,2.5E1,8E0,1E1,1.4E1,2E0,1.5E1,1E1,1E0,7E0,4E0,1.1E1,1E0,9E0],"tree_param":{"num_deleted":"0","num_feature":"3","num_nodes":"17","size_leaf_vector":"1"}},{"base_weights":[1.5199888E-3,-1.5226915E-2,3.661249E-2,-2.0114506E-2,4.929198E-3,1.772713E-2,2.270895E-3,-1.5858399E-3,-1.5324693E-2,-2.7737915E-4,6.9322437E-3,9.6566166E-4,1.6561002E-4,-8.3821884E-4,-4.511037E-4,4.6668775E-4,-2.4695843E-4],"categories":[],"categories_nodes":[],"categories_segments":[],"categories_sizes":[],"default_left":[0,0,0,0,0,0,0,0,0,0,0,0,0,0,0,0,0],"id":23,"left_children":[1,3,5,7,9,11,-1,-1,13,-1,15,-1,-1,-1,-1,-1,-1],"loss_changes":[3.6406625E-2,4.2367727E-3,2.52074E-3,1.4034249E-3,2.2732641E-4,1.18939206E-4,0E0,0E0,8.46684E-5,0E0,2.7417563E-4,0E0,0E0,0E0,0E0,0E0,0E0],"parents":[2147483647,0,0,1,1,2,2,3,3,4,4,5,5,8,8,10,10],"right_children":[2,4,6,8,10,12,-1,-1,14,-1,16,-1,-1,-1,-1,-1,-1],"split_conditions":[8.504181E-1,7.95584E-1,2.1110744E2,7.441714E-1,1.8187355E2,8.7579393E-1,2.270895E-3,-1.5858399E-3,7.736196E-1,-2.7737915E-4,2.050597E2,9.6566166E-4,1.6561002E-4,-8.3821884E-4,-4.511037E-4,4.6668775E-4,-2.4695843E-4],"split_indices":[1,1,2,1,2,1,0,0,1,0,2,0,0,0,0,0,0],"split_type":[0,0,0,0,0,0,0,0,0,0,0,0,0,0,0,0,0],"sum_hessian":[6E1,4.1E1,1.9E1,3.3E1,8E0,7E0,1.2E1,8E0,2.5E1,1E0,7E0,6E0,1E0,1.9E1,6E0,6E0,1E0],"tree_param":{"num_deleted":"0","num_feature":"3","num_nodes":"17","size_leaf_vector":"1"}},{"base_weights":[3.2965626E-4,-1.8950837E-2,3.0988185E-2,-2.3860827E-2,-7.5516202E-3,1.6258983E-2,2.0953803E-3,-1.6022943E-3,-1.8605456E-2,6.1846524E-4,-1.0487095E-2,2.6686987E-4,1.8092956E-2,-5.5104966E-4,-1.0870264E-3,-5.840299E-4,3.61979E-5,1.1557043E-3,4.7266186E-4],"categories":[],"categories_nodes":[],"categories_segments":[],"categories_sizes":[],"default_left":[0,0,0,0,0,0,0,0,0,0,0,0,0,0,0,0,0,0,0],"id":24,"left_children":[1,3,5,7,9,11,-1,-1,13,-1,15,-1,17,-1,-1,-1,-1,-1,-1],"loss_changes":[3.3689495E-2,1.7787637E-3,2.856981E-3,4.3614395E-4,8.314468E-4,1.237595E-4,0E0,0E0,1.6462104E-4,0E0,1.5564065E-4,0E0,1.719275E-4,0E0,0E0,0E0,0E0,0E0,0E0],"parents":[2147483647,0,0,1,1,2,2,3,3,4,4,5,5,8,8,10,10,12,12],"right_children":[2,4,6,8,10,12,-1,-1,14,-1,16,-1,18,-1,-1,-1,-1,-1,-1],"split_conditions":[8.2756865E-1,7.778342E-1,2.1110744E2,1.7575903E2,1.8190273E2,1.8867564E2,2.0953803E-3,-1.6022943E-3,1.8698956E2,6.1846524E-4,8.108994E-1,2.6686987E-4,1.9140227E2,-5.5104966E-4,-1.0870264E-3,-5.840299E-4,3.61979E-5,1.1557043E-3,4.7266186E-4],"split_indices":[0,0,2,2,2,2,0,0,2,0,0,0,2,0,0,0,0,0,0],"split_type":[0,0,0,0,0,0,0,0,0,0,0,0,0,0,0,0,0,0,0],"sum_hessian":[5.5E1,3.4E1,2.1E1,2.3E1,1.1E1,1E1,1.1E1,7E0,1.6E1,1E0,1E1,2E0,8E0,6E0,1E1,9E0,1E0,4E0,4E0],"tree_param":{"num_deleted":"0","num_feature":"3","num_nodes":"19","size_leaf_vector":"1"}},{"base_weights":[5.2305026E-4,-1.3125777E-2,3.7171584E-2,-2.5298223E-2,-4.9755042E-3,2.839158E-4,2.0632516E-3,-1.7315801E-3,-8.529482E-4,-1.0141001E-2,3.4598545E-3,-6.230533E-5,-6.391019E-4,-2.771154E-4,2.4571508E-4],"categories":[],"categories_nodes":[],"categories_segments":[],"categories_sizes":[],"default_left":[0,0,0,0,0,0,0,0,0,0,0,0,0,0,0],"id":25,"left_children":[1,3,5,7,9,-1,-1,-1,-1,11,13,-1,-1,-1,-1],"loss_changes":[2.9500058E-2,4.140105E-3,1.828339E-3,7.1652327E-4,1.2115524E-3,0E0,0E0,0E0,0E0,3.834318E-4,1.7126145E-4,0E0,0E0,0E0,0E0],"parents":[2147483647,0,0,1,1,2,2,3,3,4,4,9,9,10,10],"right_children":[2,4,6,8,10,-1,-1,-1,-1,12,14,-1,-1,-1,-1],"split_conditions":[8.556079E-1,7.5887966E-1,1.9105148E2,7.241416E-1,7.8798974E-1,2.839158E-4,2.0632516E-3,-1.7315801E-3,-8.529482E-4,1.8190273E2,1.8187355E2,-6.230533E-5,-6.391019E-4,-2.771154E-4,2.4571508E-4],"split_indices":[1,1,2,1,1,0,0,0,0,2,2,0,0,0,0],"split_type":[0,0,0,0,0,0,0,0,0,0,0,0,0,0,0],"sum_hessian":[5.7E1,4.2E1,1.5E1,1.6E1,2.6E1,2E0,1.3E1,6E0,1E1,1.6E1,1E1,4E0,1.2E1,1E0,9E0],"tree_param":{"num_deleted":"0","num_feature":"3","num_nodes":"15","size_leaf_vector":"1"}},{"base_weights":[2.2959709E-4,-1.4082503E-2,3.0431274E-2,-2.3157435E-2,-5.633394E-3,1.10162E-2,1.8525604E-3,-1.5462314E-3,-1.6696787E-2,-1.2361407E-3,-1.1359049E-2,6.018913E-4,1.4770181E-4,-4.682707E-4,-1.1233628E-3,-1.9115409E-4,1.8337906E-4,-6.390318E-4,3.4123659E-7],"categories":[],"categories_nodes":[],"categories_segments":[],"categories_sizes":[],"default_left":[0,0,0,0,0,0,0,0,0,0,0,0,0,0,0,0,0,0,0],"id":26,"left_children":[1,3,5,7,9,11,-1,-1,13,15,17,-1,-1,-1,-1,-1,-1,-1,-1],"loss_changes":[2.4202265E-2,2.7831984E-3,1.9053128E-3,3.8691796E-4,5.146788E-4,1.3858953E-5,0E0,0E0,2.9725046E-4,1.7893476E-4,1.4550553E-4,0E0,0E0,0E0,0E0,0E0,0E0,0E0,0E0],"parents":[2147483647,0,0,1,1,2,2,3,3,4,4,5,5,8,8,9,9,10,10],"right_children":[2,4,6,8,10,12,-1,-1,14,16,18,-1,-1,-1,-1,-1,-1,-1,-1],"split_conditions":[8.6094177E-1,7.7359766E-1,1.9208093E2,7.3303425E-1,1.9503075E2,8.8969654E-1,1.8525604E-3,-1.5462314E-3,1.8698956E2,1.8843341E2,8.5183424E-1,6.018913E-4,1.4770181E-4,-4.682707E-4,-1.1233628E-3,-1.9115409E-4,1.8337906E-4,-6.390318E-4,3.4123659E-7],"split_indices":[0,0,2,0,2,0,0,0,2,2,0,0,0,0,0,0,0,0,0],"split_type":[0,0,0,0,0,0,0,0,0,0,0,0,0,0,0,0,0,0,0],"sum_hessian":[5.4E1,3.7E1,1.7E1,1.7E1,2E1,5E0,1.2E1,6E0,1.1E1,1.2E1,8E0,4E0,1E0,6E0,5E0,8E0,4E0,7E0,1E0],"tree_param":{"num_deleted":"0","num_feature":"3","num_nodes":"19","size_leaf_vector":"1"}},{"base_weights":[1.3136417E-3,-1.2627318E-2,3.4544066E-2,-2.2940109E-2,-5.0020264E-3,1.0285788E-3,2.1832448E-3,-1.4598215E-3,-7.5077056E-4,-9.330829E-3,4.2113597E-3,-2.0889768E-4,-5.779552E-4,4.5906604E-4,7.398767E-5],"categories":[],"categories_nodes":[],"categories_segments":[],"categories_sizes":[],"default_left":[0,0,0,0,0,0,0,0,0,0,0,0,0,0,0],"id":27,"left_children":[1,3,5,7,9,-1,-1,-1,-1,11,13,-1,-1,-1,-1],"loss_changes":[2.8232036E-2,3.266689E-3,1.3956781E-3,4.5403372E-4,1.0762516E-3,0E0,0E0,0E0,0E0,1.5838305E-4,1.085977E-4,0E0,0E0,0E0,0E0],"parents":[2147483647,0,0,1,1,2,2,3,3,4,4,9,9,10,10],"right_children":[2,4,6,8,10,-1,-1,-1,-1,12,14,-1,-1,-1,-1],"split_conditions":[8.640187E-1,7.5887966E-1,9.3029207E-1,7.450442E-1,8.108994E-1,1.0285788E-3,2.1832448E-3,-1.4598215E-3,-7.5077056E-4,7.6594716E-1,8.329182E-1,-2.0889768E-4,-5.779552E-4,4.5906604E-4,7.398767E-5],"split_indices":[0,1,0,0,0,0,0,0,0,1,0,0,0,0,0],"split_type":[0,0,0,0,0,0,0,0,0,0,0,0,0,0,0],"sum_hessian":[5.9E1,4.2E1,1.7E1,1.7E1,2.5E1,8E0,9E0,8E0,9E0,1.7E1,8E0,6E0,1.1E1,2E0,6E0],"tree_param":{"num_deleted":"0","num_feature":"3","num_nodes":"15","size_leaf_vector":"1"}},{"base_weights":[1.0076165E-3,-1.1905831E-2,2.98137E-2,-1.9545311E-2,-1.7996505E-4,1.8593872E-2,2.0055887E-3,-1.4794882E-3,-1.511131E-2,-1.0749906E-2,3.086168E-3,2.2767286E-4,2.1534793E-2,-5.1213097E-4,-8.639211E-4,-8.6568296E-5,-6.589482E-4,4.230189E-4,-1.2120605E-5,2.4878533E-4,1.1594781E-3],"categories":[],"categories_nodes":[],"categories_segments":[],"categories_sizes":[],"default_left":[0,0,0,0,0,0,0,0,0,0,0,0,0,0,0,0,0,0,0,0,0],"id":28,"left_children":[1,3,5,7,9,11,-1,-1,13,15,17,-1,19,-1,-1,-1,-1,-1,-1,-1,-1],"loss_changes":[2.0442195E-2,3.4005041E-3,1.2183907E-3,5.7721324E-4,5.8554136E-4,3.148599E-4,0E0,0E0,1.29416585E-5,6.480864E-5,2.3460128E-4,0E0,1.0382733E-4,0E0,0E0,0E0,0E0,0E0,0E0,0E0,0E0],"parents":[2147483647,0,0,1,1,2,2,3,3,4,4,5,5,8,8,9,9,10,10,12,12],"right_children":[2,4,6,8,10,12,-1,-1,14,16,18,-1,20,-1,-1,-1,-1,-1,-1,-1,-1],"split_conditions":[8.727647E-1,7.8592575E-1,9.505752E-1,7.3303425E-1,1.8408127E2,1.9105148E2,2.0055887E-3,-1.4794882E-3,1.904298E2,8.004996E-1,1.8912254E2,2.2767286E-4,8.729979E-1,-5.1213097E-4,-8.639211E-4,-8.6568296E-5,-6.589482E-4,4.230189E-4,-1.2120605E-5,2.4878533E-4,1.1594781E-3],"split_indices":[0,0,0,0,2,2,0,0,2,0,2,0,0,0,0,0,0,0,0,0,0],"split_type":[0,0,0,0,0,0,0,0,0,0,0,0,0,0,0,0,0,0,0,0,0],"sum_hessian":[5.3E1,3.7E1,1.6E1,2.2E1,1.5E1,9E0,7E0,5E0,1.7E1,3E0,1.2E1,2E0,7E0,7E0,1E1,1E0,2E0,4E0,8E0,1E0,6E0],"tree_param":{"num_deleted":"0","num_feature":"3","num_nodes":"21","size_leaf_vector":"1"}},{"base_weights":[-8.3263614E-4,-1.0345002E-2,1.7176997E-3,-1.5480361E-2,4.6717618E-3,-1.4075183E-3,-1.1451382E-2,8.593261E-3,3.1775562E-3,-7.093106E-4,-4.1713472E-4,1.1877716E-5,6.3261687E-4,-1.2928694E-4,2.8310047E-4],"categories":[],"categories_nodes":[],"categories_segments":[],"categories_sizes":[],"default_left":[0,0,0,0,0,0,0,0,0,0,0,0,0,0,0],"id":29,"left_children":[1,3,-1,5,7,-1,9,11,13,-1,-1,-1,-1,-1,-1],"loss_changes":[2.0437878E-2,3.7739114E-3,0E0,1.5153373E-3,4.886827E-5,0E0,1.2819888E-4,9.874374E-5,1.7214546E-4,0E0,0E0,0E0,0E0,0E0,0E0],"parents":[2147483647,0,0,1,1,3,3,4,4,6,6,7,7,8,8],"right_children":[2,4,-1,6,8,-1,10,12,14,-1,-1,-1,-1,-1,-1],"split_conditions":[8.844626E-1,8.108994E-1,1.7176997E-3,7.3303425E-1,8.329182E-1,-1.4075183E-3,7.5887966E-1,8.2756865E-1,8.5183424E-1,-7.093106E-4,-4.1713472E-4,1.1877716E-5,6.3261687E-4,-1.2928694E-4,2.8310047E-4],"split_indices":[1,0,0,0,0,0,1,0,0,0,0,0,0,0,0],"split_type":[0,0,0,0,0,0,0,0,0,0,0,0,0,0,0],"sum_hessian":[5.9E1,4.7E1,1.2E1,3.5E1,1.2E1,7E0,2.8E1,2E0,1E1,1.3E1,1.5E1,1E0,1E0,3E0,7E0],"tree_param":{"num_deleted":"0","num_feature":"3","num_nodes":"15","size_leaf_vector":"1"}},{"base_weights":[-2.9574558E-3,-1.33212395E-2,1.7925767E-2,-1.8910225E-2,-6.0606864E-3,7.28299E-3,1.3387984E-3,-1.2572387E-3,-7.370045E-4,-9.615906E-3,-2.924101E-3,2.9433847E-3,9.685497E-3,-8.3294515E-5,-5.2568194E-4,6.3779356E-4,-2.8838427E-4,6.168008E-4,-1.2443885E-4,5.891234E-4,1.8305183E-4],"categories":[],"categories_nodes":[],"categories_segments":[],"categories_sizes":[],"default_left":[0,0,0,0,0,0,0,0,0,0,0,0,0,0,0,0,0,0,0,0,0],"id":30,"left_children":[1,3,5,7,9,11,-1,-1,-1,13,15,17,19,-1,-1,-1,-1,-1,-1,-1,-1],"loss_changes":[1.2358829E-2,1.4273981E-3,1.5946142E-3,1.7534103E-4,1.7260463E-4,7.575116E-5,0E0,0E0,0E0,3.9581268E-5,5.6403235E-4,2.8581303E-4,3.2662647E-5,0E0,0E0,0E0,0E0,0E0,0E0,0E0,0E0],"parents":[2147483647,0,0,1,1,2,2,3,3,4,4,5,5,9,9,10,10,11,11,12,12],"right_children":[2,4,6,8,10,12,-1,-1,-1,14,16,18,20,-1,-1,-1,-1,-1,-1,-1,-1],"split_conditions":[8.2756865E-1,7.5887966E-1,8.729979E-1,7.3303425E-1,7.786153E-1,8.5183424E-1,1.3387984E-3,-1.2572387E-3,-7.370045E-4,7.7128226E-1,7.8160036E-1,8.329182E-1,8.665998E-1,-8.3294515E-5,-5.2568194E-4,6.3779356E-4,-2.8838427E-4,6.168008E-4,-1.2443885E-4,5.891234E-4,1.8305183E-4],"split_indices":[0,1,0,0,0,0,0,0,0,0,0,0,0,0,0,0,0,0,0,0,0],"split_type":[0,0,0,0,0,0,0,0,0,0,0,0,0,0,0,0,0,0,0,0,0],"sum_hessian":[5.5E1,3.7E1,1.8E1,2E1,1.7E1,9E0,9E0,6E0,1.4E1,7E0,1E1,4E0,5E0,1E0,6E0,1E0,9E0,1E0,3E0,3E0,2E0],"tree_param":{"num_deleted":"0","num_feature":"3","num_nodes":"21","size_leaf_vector":"1"}},{"base_weights":[4.7684694E-5,-1.1340026E-2,2.7881661E-2,-1.7609628E-2,-2.9360235E-3,1.6506935E-2,1.8711142E-3,-1.2590565E-3,-6.633101E-4,-7.1580913E-3,4.29184E-3,2.3091138E-4,8.657383E-4,6.218493E-4,-4.9137155E-4,4.1344762E-4,7.939885E-5],"categories":[],"categories_nodes":[],"categories_segments":[],"categories_sizes":[],"default_left":[0,0,0,0,0,0,0,0,0,0,0,0,0,0,0,0,0],"id":31,"left_children":[1,3,5,7,9,11,-1,-1,-1,13,15,-1,-1,-1,-1,-1,-1],"loss_changes":[1.965106E-2,2.2666468E-3,1.3356693E-3,4.880987E-4,6.410519E-4,1.6077189E-5,0E0,0E0,0E0,8.022003E-4,7.289763E-5,0E0,0E0,0E0,0E0,0E0,0E0],"parents":[2147483647,0,0,1,1,2,2,3,3,4,4,5,5,9,9,10,10],"right_children":[2,4,6,8,10,12,-1,-1,-1,14,16,-1,-1,-1,-1,-1,-1],"split_conditions":[8.727647E-1,7.778342E-1,9.505752E-1,7.3303425E-1,8.108994E-1,8.729979E-1,1.8711142E-3,-1.2590565E-3,-6.633101E-4,7.6594716E-1,8.329182E-1,2.3091138E-4,8.657383E-4,6.218493E-4,-4.9137155E-4,4.1344762E-4,7.939885E-5],"split_indices":[0,0,0,0,0,0,0,0,0,1,0,0,0,0,0,0,0],"split_type":[0,0,0,0,0,0,0,0,0,0,0,0,0,0,0,0,0],"sum_hessian":[6E1,4.3E1,1.7E1,2.4E1,1.9E1,9E0,8E0,7E0,1.7E1,1.2E1,7E0,1E0,8E0,1E0,1.1E1,2E0,5E0],"tree_param":{"num_deleted":"0","num_feature":"3","num_nodes":"17","size_leaf_vector":"1"}},{"base_weights":[-4.350523E-4,-1.3185132E-2,2.009486E-2,-1.8696807E-2,-6.979503E-3,7.810974E-3,2.743372E-2,-1.0659514E-3,-4.731079E-4,-3.8636723E-4,-9.306597E-3,1.2961944E-2,6.761551E-5,8.9153944E-4,1.6203534E-3,-2.6570322E-4,6.063029E-4,-5.024252E-4,8.454919E-6,1.7475784E-4,7.078135E-4,2.4088472E-4,-1.1621639E-4],"categories":[],"categories_nodes":[],"categories_segments":[],"categories_sizes":[],"default_left":[0,0,0,0,0,0,0,0,0,0,0,0,0,0,0,0,0,0,0,0,0,0,0],"id":32,"left_children":[1,3,5,7,9,11,13,-1,-1,15,17,19,21,-1,-1,-1,-1,-1,-1,-1,-1,-1,-1],"loss_changes":[1.5708677E-2,1.1350317E-3,1.8591583E-3,2.5836658E-4,2.8791826E-4,3.979816E-4,9.0778805E-5,0E0,0E0,4.343833E-4,1.0012032E-4,1.836021E-5,6.8007495E-5,0E0,0E0,0E0,0E0,0E0,0E0,0E0,0E0,0E0,0E0],"parents":[2147483647,0,0,1,1,2,2,3,3,4,4,5,5,6,6,9,9,10,10,11,11,12,12],"right_children":[2,4,6,8,10,12,14,-1,-1,16,18,20,22,-1,-1,-1,-1,-1,-1,-1,-1,-1,-1],"split_conditions":[8.140471E-1,7.5887966E-1,8.565084E-1,1.948792E2,7.6594716E-1,2.0303296E2,9.121577E-1,-1.0659514E-3,-4.731079E-4,7.6448977E-1,7.95584E-1,1.8867564E2,8.2987005E-1,8.9153944E-4,1.6203534E-3,-2.6570322E-4,6.063029E-4,-5.024252E-4,8.454919E-6,1.7475784E-4,7.078135E-4,2.4088472E-4,-1.1621639E-4],"split_indices":[1,1,1,2,1,2,1,0,0,1,1,2,1,0,0,0,0,0,0,0,0,0,0],"split_type":[0,0,0,0,0,0,0,0,0,0,0,0,0,0,0,0,0,0,0,0,0,0,0],"sum_hessian":[5.8E1,3.6E1,2.2E1,1.8E1,1.8E1,9E0,1.3E1,1.3E1,5E0,5E0,1.3E1,5E0,4E0,6E0,7E0,4E0,1E0,1.2E1,1E0,1E0,4E0,1E0,3E0],"tree_param":{"num_deleted":"0","num_feature":"3","num_nodes":"23","size_leaf_vector":"1"}},{"base_weights":[1.4893824E-3,-1.1632534E-2,2.2203691E-2,-9.899518E-4,-8.415377E-3,1.1998743E-2,1.6586644E-3,-4.9861026E-4,-5.378852E-3,5.9324144E-3,1.3832033E-2,5.911455E-4,-4.0087296E-4,5.388091E-4,-4.4441225E-5,7.667217E-4,2.6074747E-4],"categories":[],"categories_nodes":[],"categories_segments":[],"categories_sizes":[],"default_left":[0,0,0,0,0,0,0,0,0,0,0,0,0,0,0,0,0],"id":33,"left_children":[1,3,5,-1,7,9,-1,-1,11,13,15,-1,-1,-1,-1,-1,-1],"loss_changes":[1.6838782E-2,8.317544E-4,2.2886228E-3,0E0,8.3454186E-5,7.364154E-5,0E0,0E0,6.394539E-4,1.747806E-4,4.9494905E-5,0E0,0E0,0E0,0E0,0E0,0E0],"parents":[2147483647,0,0,1,1,2,2,4,4,5,5,8,8,9,9,10,10],"right_children":[2,4,6,-1,8,10,-1,-1,12,14,16,-1,-1,-1,-1,-1,-1],"split_conditions":[8.2756865E-1,7.450442E-1,9.3029207E-1,-9.899518E-4,7.786153E-1,8.640187E-1,1.6586644E-3,-4.9861026E-4,7.6594716E-1,8.455906E-1,9.018557E-1,5.911455E-4,-4.0087296E-4,5.388091E-4,-4.4441225E-5,7.667217E-4,2.6074747E-4],"split_indices":[0,0,0,0,0,0,0,0,1,0,0,0,0,0,0,0,0],"split_type":[0,0,0,0,0,0,0,0,0,0,0,0,0,0,0,0,0],"sum_hessian":[6E1,3.7E1,2.3E1,9E0,2.8E1,1.3E1,1E1,1.7E1,1.1E1,4E0,9E0,1E0,1E1,2E0,2E0,7E0,2E0],"tree_param":{"num_deleted":"0","num_feature":"3","num_nodes":"17","size_leaf_vector":"1"}},{"base_weights":[2.8851E-3,-8.568643E-3,2.6268622E-2,-2.481829E-2,-5.8469195E-3,1.7723572E-2,3.2844383E-2,-2.2510141E-4,-1.4385924E-3,-7.6536536E-3,1.9571867E-3,9.338435E-4,2.2859723E-4,1.8900031E-3,8.599885E-4,-1.2140796E-4,-4.6805842E-4,1.9281557E-4,-2.3593903E-4],"categories":[],"categories_nodes":[],"categories_segments":[],"categories_sizes":[],"default_left":[0,0,0,0,0,0,0,0,0,0,0,0,0,0,0,0,0,0,0],"id":34,"left_children":[1,3,5,7,9,11,13,-1,-1,15,17,-1,-1,-1,-1,-1,-1,-1,-1],"loss_changes":[1.4687844E-2,1.4912898E-3,4.2930339E-4,2.720761E-4,4.802778E-4,3.9984938E-5,4.761573E-5,0E0,0E0,2.1818012E-4,1.06946536E-4,0E0,0E0,0E0,0E0,0E0,0E0,0E0,0E0],"parents":[2147483647,0,0,1,1,2,2,3,3,4,4,5,5,6,6,9,9,10,10],"right_children":[2,4,6,8,10,12,14,-1,-1,16,18,-1,-1,-1,-1,-1,-1,-1,-1],"split_conditions":[8.565084E-1,7.085303E-1,9.3318844E-1,1.7234929E2,7.95584E-1,9.2956537E-1,2.2339284E2,-2.2510141E-4,-1.4385924E-3,1.8190273E2,2.050597E2,9.338435E-4,2.2859723E-4,1.8900031E-3,8.599885E-4,-1.2140796E-4,-4.6805842E-4,1.9281557E-4,-2.3593903E-4],"split_indices":[1,1,1,2,1,1,2,0,0,2,2,0,0,0,0,0,0,0,0],"split_type":[0,0,0,0,0,0,0,0,0,0,0,0,0,0,0,0,0,0,0],"sum_hessian":[5.3E1,3.6E1,1.7E1,4E0,3.2E1,9E0,8E0,1E0,3E0,2.6E1,6E0,8E0,1E0,5E0,3E0,7E0,1.9E1,5E0,1E0],"tree_param":{"num_deleted":"0","num_feature":"3","num_nodes":"19","size_leaf_vector":"1"}},{"base_weights":[1.6463058E-3,-8.910275E-3,2.2672819E-2,-1.39018055E-2,-4.648171E-3,7.1704015E-4,1.6168371E-3,-1.7961085E-2,-1.0054827E-2,-6.2866607E-3,2.180028E-3,-2.1947325E-4,-9.745722E-4,-2.0242781E-4,-7.192647E-4,6.206214E-5,-4.2630755E-4,5.5505935E-4,-1.4127791E-4],"categories":[],"categories_nodes":[],"categories_segments":[],"categories_sizes":[],"default_left":[0,0,0,0,0,0,0,0,0,0,0,0,0,0,0,0,0,0,0],"id":35,"left_children":[1,3,5,7,9,-1,-1,11,13,15,17,-1,-1,-1,-1,-1,-1,-1,-1],"loss_changes":[1.2632234E-2,7.4380985E-4,1.0661446E-3,8.487585E-5,2.5983976E-4,0E0,0E0,5.9829326E-5,2.2786984E-4,3.140389E-4,2.546452E-4,0E0,0E0,0E0,0E0,0E0,0E0,0E0,0E0],"parents":[2147483647,0,0,1,1,2,2,3,3,4,4,7,7,8,8,9,9,10,10],"right_children":[2,4,6,8,10,-1,-1,12,14,16,18,-1,-1,-1,-1,-1,-1,-1,-1],"split_conditions":[8.5183424E-1,7.7359766E-1,9.528636E-1,7.4490976E-1,8.108994E-1,7.1704015E-4,1.6168371E-3,7.157055E-1,7.6729774E-1,7.6594716E-1,8.329182E-1,-2.1947325E-4,-9.745722E-4,-2.0242781E-4,-7.192647E-4,6.206214E-5,-4.2630755E-4,5.5505935E-4,-1.4127791E-4],"split_indices":[0,0,0,0,0,0,0,0,0,1,0,0,0,0,0,0,0,0,0],"split_type":[0,0,0,0,0,0,0,0,0,0,0,0,0,0,0,0,0,0,0],"sum_hessian":[5.5E1,3.7E1,1.8E1,1.6E1,2.1E1,1.1E1,7E0,6E0,1E1,1.7E1,4E0,1E0,5E0,5E0,5E0,4E0,1.3E1,1E0,3E0],"tree_param":{"num_deleted":"0","num_feature":"3","num_nodes":"19","size_leaf_vector":"1"}},{"base_weights":[-2.802978E-3,-1.3211302E-2,1.2463811E-2,-1.2674833E-3,-1.0571905E-2,6.4398926E-3,1.372714E-3,-6.325278E-3,-1.1954293E-2,-2.8565526E-3,8.636028E-3,-5.002596E-4,5.778507E-4,-7.6246803E-4,-3.5671444E-4,-2.6555508E-4,-1.3400118E-5,2.1549464E-4,6.842946E-4],"categories":[],"categories_nodes":[],"categories_segments":[],"categories_sizes":[],"default_left":[0,0,0,0,0,0,0,0,0,0,0,0,0,0,0,0,0,0,0],"id":36,"left_children":[1,3,5,-1,7,9,-1,11,13,15,17,-1,-1,-1,-1,-1,-1,-1,-1],"loss_changes":[8.586452E-3,7.5722067E-4,1.8098266E-3,0E0,8.8759465E-5,3.717455E-4,0E0,7.078777E-4,2.0885142E-4,2.399151E-5,2.4686486E-4,0E0,0E0,0E0,0E0,0E0,0E0,0E0,0E0],"parents":[2147483647,0,0,1,1,2,2,4,4,5,5,7,7,8,8,9,9,10,10],"right_children":[2,4,6,-1,8,10,-1,12,14,16,18,-1,-1,-1,-1,-1,-1,-1,-1],"split_conditions":[8.108994E-1,7.245466E-1,9.505752E-1,-1.2674833E-3,1.8190273E2,1.8752272E2,1.372714E-3,7.778342E-1,1.948792E2,1.8187355E2,8.8969654E-1,-5.002596E-4,5.778507E-4,-7.6246803E-4,-3.5671444E-4,-2.6555508E-4,-1.3400118E-5,2.1549464E-4,6.842946E-4],"split_indices":[0,0,0,0,2,2,0,0,2,2,0,0,0,0,0,0,0,0,0],"split_type":[0,0,0,0,0,0,0,0,0,0,0,0,0,0,0,0,0,0,0],"sum_hessian":[5.2E1,3.1E1,2.1E1,4E0,2.7E1,1.6E1,5E0,8E0,1.9E1,3E0,1.3E1,7E0,1E0,1E1,9E0,1E0,2E0,8E0,5E0],"tree_param":{"num_deleted":"0","num_feature":"3","num_nodes":"19","size_leaf_vector":"1"}},{"base_weights":[-1.355945E-3,-9.5532825E-3,1.9458259E-2,-1.0527581E-3,-5.4298295E-3,8.34734E-3,1.3200584E-3,-7.4657453E-3,1.8656254E-3,4.8251494E-4,-1.9334257E-5,-4.5076417E-4,-2.0424784E-4,3.4917146E-4,-1.3008714E-4],"categories":[],"categories_nodes":[],"categories_segments":[],"categories_sizes":[],"default_left":[0,0,0,0,0,0,0,0,0,0,0,0,0,0,0],"id":37,"left_children":[1,3,5,-1,7,9,-1,11,13,-1,-1,-1,-1,-1,-1],"loss_changes":[1.0252533E-2,1.9250549E-3,1.0910365E-3,0E0,5.040751E-4,9.477226E-5,0E0,9.9378056E-5,2.01074E-4,0E0,0E0,0E0,0E0,0E0,0E0],"parents":[2147483647,0,0,1,1,2,2,4,4,5,5,7,7,8,8],"right_children":[2,4,6,-1,8,10,-1,12,14,-1,-1,-1,-1,-1,-1],"split_conditions":[8.6094177E-1,7.450442E-1,9.2212707E-1,-1.0527581E-3,7.8798974E-1,9.0020484E-1,1.3200584E-3,7.786153E-1,8.329182E-1,4.8251494E-4,-1.9334257E-5,-4.5076417E-4,-2.0424784E-4,3.4917146E-4,-1.3008714E-4],"split_indices":[0,0,0,0,1,0,0,0,0,0,0,0,0,0,0],"split_type":[0,0,0,0,0,0,0,0,0,0,0,0,0,0,0],"sum_hessian":[5.8E1,4.2E1,1.6E1,1E1,3.2E1,7E0,9E0,2.5E1,7E0,6E0,1E0,1.6E1,9E0,3E0,4E0],"tree_param":{"num_deleted":"0","num_feature":"3","num_nodes":"15","size_leaf_vector":"1"}},{"base_weights":[3.2685304E-4,-7.67063E-3,2.1299817E-2,-1.071729E-3,-4.781233E-3,1.4471873E-2,3.0267745E-2,-7.074548E-3,1.8888414E-3,-1.8851459E-5,7.9972326E-4,1.6509051E-3,4.1289927E-4,-1.2694373E-4,-4.267545E-4,-2.556652E-4,1.6175011E-4],"categories":[],"categories_nodes":[],"categories_segments":[],"categories_sizes":[],"default_left":[0,0,0,0,0,0,0,0,0,0,0,0,0,0,0,0,0],"id":38,"left_children":[1,3,5,-1,7,9,11,13,15,-1,-1,-1,-1,-1,-1,-1,-1],"loss_changes":[9.724044E-3,1.5678359E-3,5.4168934E-4,0E0,5.640396E-4,2.5472767E-4,9.054458E-5,1.5719316E-4,1.1080169E-4,0E0,0E0,0E0,0E0,0E0,0E0,0E0,0E0],"parents":[2147483647,0,0,1,1,2,2,4,4,5,5,6,6,7,7,8,8],"right_children":[2,4,6,-1,8,10,12,14,16,-1,-1,-1,-1,-1,-1,-1,-1],"split_conditions":[8.565084E-1,7.241416E-1,9.3663836E-1,-1.071729E-3,7.95584E-1,1.8752272E2,9.534713E-1,1.8190273E2,1.8187355E2,-1.8851459E-5,7.9972326E-4,1.6509051E-3,4.1289927E-4,-1.2694373E-4,-4.267545E-4,-2.556652E-4,1.6175011E-4],"split_indices":[1,1,1,0,1,2,1,2,2,0,0,0,0,0,0,0,0],"split_type":[0,0,0,0,0,0,0,0,0,0,0,0,0,0,0,0,0],"sum_hessian":[5.6E1,4.1E1,1.5E1,6E0,3.5E1,1E1,5E0,2.6E1,9E0,1E0,9E0,4E0,1E0,7E0,1.9E1,1E0,8E0],"tree_param":{"num_deleted":"0","num_feature":"3","num_nodes":"17","size_leaf_vector":"1"}},{"base_weights":[-8.8117144E-4,-1.0046768E-2,1.5746154E-2,-1.470894E-2,-5.5722026E-3,8.429617E-3,1.1475692E-3,-9.862323E-4,-5.6312705E-4,-8.3329E-4,-7.412215E-3,9.262784E-3,-1.8380582E-5,-2.3917008E-4,5.7168456E-4,-4.247413E-4,-1.2508035E-5,1.6212762E-4,5.557526E-4],"categories":[],"categories_nodes":[],"categories_segments":[],"categories_sizes":[],"default_left":[0,0,0,0,0,0,0,0,0,0,0,0,0,0,0,0,0,0,0],"id":39,"left_children":[1,3,5,7,9,11,-1,-1,-1,13,15,17,-1,-1,-1,-1,-1,-1,-1],"loss_changes":[8.99736E-3,7.1076443E-4,9.135925E-4,8.900091E-5,1.7693639E-4,9.135989E-5,0E0,0E0,0E0,3.938836E-4,1.1418067E-4,8.662068E-5,0E0,0E0,0E0,0E0,0E0,0E0,0E0],"parents":[2147483647,0,0,1,1,2,2,3,3,4,4,5,5,9,9,10,10,11,11],"right_children":[2,4,6,8,10,12,-1,-1,-1,14,16,18,-1,-1,-1,-1,-1,-1,-1],"split_conditions":[8.5183424E-1,7.5887966E-1,8.844626E-1,7.245466E-1,7.6594716E-1,9.0020484E-1,1.1475692E-3,-9.862323E-4,-5.6312705E-4,7.7691346E-1,8.427843E-1,8.640187E-1,-1.8380582E-5,-2.3917008E-4,5.7168456E-4,-4.247413E-4,-1.2508035E-5,1.6212762E-4,5.557526E-4],"split_indices":[0,1,1,0,1,0,0,0,0,0,0,0,0,0,0,0,0,0,0],"split_type":[0,0,0,0,0,0,0,0,0,0,0,0,0,0,0,0,0,0,0],"sum_hessian":[5.7E1,3.7E1,2E1,1.7E1,2E1,1.1E1,9E0,5E0,1.2E1,6E0,1.4E1,1E1,1E0,5E0,1E0,1.2E1,2E0,3E0,7E0],"tree_param":{"num_deleted":"0","num_feature":"3","num_nodes":"19","size_leaf_vector":"1"}},{"base_weights":[1.2351415E-3,-8.965747E-3,1.8177807E-2,-8.964604E-4,-5.1734266E-3,1.2331235E-2,2.8109346E-2,-7.656932E-3,2.6613644E-3,6.3050985E-3,6.9746835E-4,1.5150825E-3,3.7388803E-4,-2.0693641E-4,-5.74855E-4,5.336419E-4,-2.2634367E-5,4.5942864E-4,6.5996246E-5],"categories":[],"categories_nodes":[],"categories_segments":[],"categories_sizes":[],"default_left":[0,0,0,0,0,0,0,0,0,0,0,0,0,0,0,0,0,0,0],"id":40,"left_children":[1,3,5,-1,7,9,11,13,15,17,-1,-1,-1,-1,-1,-1,-1,-1,-1],"loss_changes":[9.668642E-3,1.0969755E-3,8.727517E-4,0E0,5.262793E-4,5.8314065E-5,9.00263E-5,2.2262649E-4,1.7946845E-4,5.9744867E-5,0E0,0E0,0E0,0E0,0E0,0E0,0E0,0E0,0E0],"parents":[2147483647,0,0,1,1,2,2,4,4,5,5,6,6,7,7,8,8,9,9],"right_children":[2,4,6,-1,8,10,12,14,16,18,-1,-1,-1,-1,-1,-1,-1,-1,-1],"split_conditions":[8.6094177E-1,7.450442E-1,9.538682E-1,-8.964604E-4,8.108994E-1,8.729979E-1,9.7419125E-1,7.6605755E-1,8.329182E-1,8.665998E-1,6.9746835E-4,1.5150825E-3,3.7388803E-4,-2.0693641E-4,-5.74855E-4,5.336419E-4,-2.2634367E-5,4.5942864E-4,6.5996246E-5],"split_indices":[0,0,0,0,0,0,0,1,0,0,0,0,0,0,0,0,0,0,0],"split_type":[0,0,0,0,0,0,0,0,0,0,0,0,0,0,0,0,0,0,0],"sum_hessian":[5.4E1,3.4E1,2E1,9E0,2.5E1,1.4E1,6E0,1.9E1,6E0,4E0,1E1,5E0,1E0,1.1E1,8E0,1E0,5E0,2E0,2E0],"tree_param":{"num_deleted":"0","num_feature":"3","num_nodes":"19","size_leaf_vector":"1"}},{"base_weights":[1.3612335E-3,-6.515804E-3,1.6629085E-2,-1.18479375E-2,-1.8890386E-3,8.847318E-3,1.2146229E-3,-7.632379E-4,-8.5965125E-3,4.9022315E-3,-3.7753512E-3,9.37714E-3,8.872747E-5,-2.3053438E-4,-7.209517E-4,2.5106221E-5,5.625665E-4,-4.7908523E-4,1.225243E-4,2.6158988E-4,5.6343677E-4],"categories":[],"categories_nodes":[],"categories_segments":[],"categories_sizes":[],"default_left":[0,0,0,0,0,0,0,0,0,0,0,0,0,0,0,0,0,0,0,0,0],"id":41,"left_children":[1,3,5,7,9,11,-1,-1,13,15,17,19,-1,-1,-1,-1,-1,-1,-1,-1,-1],"loss_changes":[6.7229504E-3,8.9042843E-4,9.181341E-4,5.763839E-5,2.8752728E-4,2.4580106E-5,0E0,0E0,1.8880144E-4,1.34034E-4,6.3801993E-4,1.9457424E-5,0E0,0E0,0E0,0E0,0E0,0E0,0E0,0E0,0E0],"parents":[2147483647,0,0,1,1,2,2,3,3,4,4,5,5,8,8,9,9,10,10,11,11],"right_children":[2,4,6,8,10,12,-1,-1,14,16,18,20,-1,-1,-1,-1,-1,-1,-1,-1,-1],"split_conditions":[8.640187E-1,7.5887966E-1,9.528636E-1,7.3303425E-1,7.6594716E-1,9.2956537E-1,1.2146229E-3,-7.632379E-4,7.578931E-1,7.7672786E-1,8.108994E-1,8.8969654E-1,8.872747E-5,-2.3053438E-4,-7.209517E-4,2.5106221E-5,5.625665E-4,-4.7908523E-4,1.225243E-4,2.6158988E-4,5.6343677E-4],"split_indices":[0,1,0,0,1,1,0,0,1,0,0,0,0,0,0,0,0,0,0,0,0],"split_type":[0,0,0,0,0,0,0,0,0,0,0,0,0,0,0,0,0,0,0,0,0],"sum_hessian":[5.4E1,3.6E1,1.8E1,1.6E1,2E1,1E1,8E0,6E0,1E1,4E0,1.6E1,9E0,1E0,7E0,3E0,3E0,1E0,8E0,8E0,4E0,5E0],"tree_param":{"num_deleted":"0","num_feature":"3","num_nodes":"21","size_leaf_vector":"1"}},{"base_weights":[-1.1981027E-3,-9.183028E-3,1.4432406E-2,-9.868568E-4,-6.6660047E-3,1.0130142E-2,1.0487582E-3,-8.613339E-3,-3.7549813E-3,5.3216016E-4,8.650869E-5,-3.063099E-4,-5.34807E-4,5.4850284E-4,-2.7951726E-4],"categories":[],"categories_nodes":[],"categories_segments":[],"categories_sizes":[],"default_left":[0,0,0,0,0,0,0,0,0,0,0,0,0,0,0],"id":42,"left_children":[1,3,5,-1,7,9,-1,11,13,-1,-1,-1,-1,-1,-1],"loss_changes":[7.3714233E-3,9.0446393E-4,3.5049254E-4,0E0,1.5472516E-4,4.1921157E-5,0E0,3.2897573E-5,4.667134E-4,0E0,0E0,0E0,0E0,0E0,0E0],"parents":[2147483647,0,0,1,1,2,2,4,4,5,5,7,7,8,8],"right_children":[2,4,6,-1,8,10,-1,12,14,-1,-1,-1,-1,-1,-1],"split_conditions":[8.427843E-1,7.245466E-1,9.528636E-1,-9.868568E-4,7.778342E-1,9.2956537E-1,1.0487582E-3,7.687573E-1,7.6594716E-1,5.3216016E-4,8.650869E-5,-3.063099E-4,-5.34807E-4,5.4850284E-4,-2.7951726E-4],"split_indices":[0,0,0,0,0,1,0,0,1,0,0,0,0,0,0],"split_type":[0,0,0,0,0,0,0,0,0,0,0,0,0,0,0],"sum_hessian":[5.7E1,3.8E1,1.9E1,6E0,3.2E1,1.3E1,6E0,1.8E1,1.4E1,1.2E1,1E0,1E1,8E0,1E0,1.3E1],"tree_param":{"num_deleted":"0","num_feature":"3","num_nodes":"15","size_leaf_vector":"1"}},{"base_weights":[5.499443E-4,-7.1526933E-3,1.5542591E-2,-8.1351696E-4,-4.274903E-3,8.108761E-3,9.911373E-4,-7.0878505E-3,-1.5414252E-3,4.7180505E-4,-6.274879E-5,-2.3507576E-4,-4.5717234E-4,5.3479074E-4,-1.4873706E-4],"categories":[],"categories_nodes":[],"categories_segments":[],"categories_sizes":[],"default_left":[0,0,0,0,0,0,0,0,0,0,0,0,0,0,0],"id":43,"left_children":[1,3,5,-1,7,9,-1,11,13,-1,-1,-1,-1,-1,-1],"loss_changes":[6.809181E-3,9.537544E-4,4.7562039E-4,0E0,2.274377E-4,1.2370176E-4,0E0,3.0592026E-5,3.2999442E-4,0E0,0E0,0E0,0E0,0E0,0E0],"parents":[2147483647,0,0,1,1,2,2,4,4,5,5,7,7,8,8],"right_children":[2,4,6,-1,8,10,-1,12,14,-1,-1,-1,-1,-1,-1],"split_conditions":[8.6094177E-1,7.4490976E-1,8.844626E-1,-8.1351696E-4,7.778342E-1,9.0020484E-1,9.911373E-4,7.578931E-1,7.6594716E-1,4.7180505E-4,-6.274879E-5,-2.3507576E-4,-4.5717234E-4,5.3479074E-4,-1.4873706E-4],"split_indices":[0,0,1,0,0,0,0,1,1,0,0,0,0,0,0],"split_type":[0,0,0,0,0,0,0,0,0,0,0,0,0,0,0],"sum_hessian":[5.7E1,3.8E1,1.9E1,8E0,3E1,8E0,1.1E1,1.4E1,1.6E1,7E0,1E0,8E0,6E0,1E0,1.5E1],"tree_param":{"num_deleted":"0","num_feature":"3","num_nodes":"15","size_leaf_vector":"1"}},{"base_weights":[-1.1292318E-3,-8.025614E-3,1.4889229E-2,-1.30955605E-2,-1.9464724E-3,5.908996E-3,9.216986E-4,-8.885637E-4,-5.176119E-4,5.2142143E-4,-3.2878448E-3,7.580233E-3,-6.11797E-5,-2.4325801E-4,7.353723E-5,4.7505103E-4,1.5663505E-4],"categories":[],"categories_nodes":[],"categories_segments":[],"categories_sizes":[],"default_left":[0,0,0,0,0,0,0,0,0,0,0,0,0,0,0,0,0],"id":44,"left_children":[1,3,5,7,9,11,-1,-1,-1,-1,13,15,-1,-1,-1,-1,-1],"loss_changes":[5.8639054E-3,1.1148837E-3,4.003956E-4,7.256749E-5,3.3307535E-4,8.079661E-5,0E0,0E0,0E0,0E0,1.34754E-4,1.2949953E-5,0E0,0E0,0E0,0E0,0E0],"parents":[2147483647,0,0,1,1,2,2,3,3,4,4,5,5,10,10,11,11],"right_children":[2,4,6,8,10,12,-1,-1,-1,-1,14,16,-1,-1,-1,-1,-1],"split_conditions":[8.727647E-1,7.778342E-1,8.844626E-1,7.186779E-1,7.6594716E-1,8.9295626E-1,9.216986E-4,-8.885637E-4,-5.176119E-4,5.2142143E-4,8.5183424E-1,8.7354046E-1,-6.11797E-5,-2.4325801E-4,7.353723E-5,4.7505103E-4,1.5663505E-4],"split_indices":[0,0,1,0,1,0,0,0,0,0,0,0,0,0,0,0,0],"split_type":[0,0,0,0,0,0,0,0,0,0,0,0,0,0,0,0,0],"sum_hessian":[5.1E1,3.6E1,1.5E1,1.9E1,1.7E1,5E0,1E1,5E0,1.4E1,1E0,1.6E1,4E0,1E0,1.2E1,4E0,2E0,2E0],"tree_param":{"num_deleted":"0","num_feature":"3","num_nodes":"17","size_leaf_vector":"1"}},{"base_weights":[-6.255731E-4,-7.726302E-3,1.1576894E-2,-1.4092114E-2,-5.4042083E-3,-2.0229667E-3,1.3955925E-2,-3.3527215E-3,-1.6681552E-2,-1.2991173E-3,-6.4647277E-3,-1.893441E-4,8.171946E-5,9.989913E-3,2.0222962E-2,4.185736E-6,-2.5563987E-4,-1.0397166E-3,-4.199192E-4,-2.452438E-4,5.083859E-4,-5.4997625E-4,-2.4229554E-4,7.003362E-4,2.8642826E-4,1.1093242E-3,2.6013405E-4],"categories":[],"categories_nodes":[],"categories_segments":[],"categories_sizes":[],"default_left":[0,0,0,0,0,0,0,0,0,0,0,0,0,0,0,0,0,0,0,0,0,0,0,0,0,0,0],"id":45,"left_children":[1,3,5,7,9,11,13,15,17,19,21,-1,-1,23,25,-1,-1,-1,-1,-1,-1,-1,-1,-1,-1,-1,-1],"loss_changes":[4.941645E-3,4.559958E-4,7.076764E-4,1.9435224E-4,1.1350046E-4,3.19943E-5,2.4536718E-4,1.8573177E-5,6.382936E-5,3.392979E-4,1.0819943E-4,0E0,0E0,1.4228292E-4,6.152643E-5,0E0,0E0,0E0,0E0,0E0,0E0,0E0,0E0,0E0,0E0,0E0,0E0],"parents":[2147483647,0,0,1,1,2,2,3,3,4,4,5,5,6,6,7,7,8,8,9,9,10,10,13,13,14,14],"right_children":[2,4,6,8,10,12,14,16,18,20,22,-1,-1,24,26,-1,-1,-1,-1,-1,-1,-1,-1,-1,-1,-1,-1],"split_conditions":[8.2756865E-1,7.450442E-1,1.8867564E2,1.7234929E2,1.8190273E2,1.8752272E2,9.528636E-1,7.157055E-1,7.184171E-1,1.8079645E2,1.867286E2,-1.893441E-4,8.171946E-5,1.9193715E2,9.7419125E-1,4.185736E-6,-2.5563987E-4,-1.0397166E-3,-4.199192E-4,-2.452438E-4,5.083859E-4,-5.4997625E-4,-2.4229554E-4,7.003362E-4,2.8642826E-4,1.1093242E-3,2.6013405E-4],"split_indices":[0,0,2,2,2,2,0,0,0,2,2,0,0,2,0,0,0,0,0,0,0,0,0,0,0,0,0],"split_type":[0,0,0,0,0,0,0,0,0,0,0,0,0,0,0,0,0,0,0,0,0,0,0,0,0,0,0],"sum_hessian":[5.5E1,3.5E1,2E1,8E0,2.7E1,3E0,1.7E1,2E0,6E0,6E0,2.1E1,2E0,1E0,1.2E1,5E0,1E0,1E0,3E0,3E0,5E0,1E0,4E0,1.7E1,5E0,7E0,4E0,1E0],"tree_param":{"num_deleted":"0","num_feature":"3","num_nodes":"27","size_leaf_vector":"1"}},{"base_weights":[3.268567E-4,-7.926085E-3,1.11065945E-2,-1.20793525E-2,-5.947735E-3,7.757292E-3,2.0978054E-2,-3.2688975E-3,-1.3873354E-2,5.691901E-3,-7.793681E-3,3.3013025E-4,8.521724E-3,1.1572307E-3,2.5363118E-4,4.081428E-6,-2.4924875E-4,-8.6875184E-4,-4.148668E-4,4.9008926E-5,4.956767E-4,-4.539881E-4,-1.4254203E-4,7.967651E-5,-5.491674E-5,6.7115476E-4,2.9062203E-4],"categories":[],"categories_nodes":[],"categories_segments":[],"categories_sizes":[],"default_left":[0,0,0,0,0,0,0,0,0,0,0,0,0,0,0,0,0,0,0,0,0,0,0,0,0,0,0],"id":46,"left_children":[1,3,5,7,9,11,13,15,17,19,21,23,25,-1,-1,-1,-1,-1,-1,-1,-1,-1,-1,-1,-1,-1,-1],"loss_changes":[5.3369403E-3,2.0752009E-4,6.968924E-4,1.12709124E-4,5.815143E-4,1.1641544E-4,8.935644E-5,1.7656203E-5,1.2036995E-5,6.984762E-5,1.13966526E-4,7.164398E-6,1.7428386E-4,0E0,0E0,0E0,0E0,0E0,0E0,0E0,0E0,0E0,0E0,0E0,0E0,0E0,0E0],"parents":[2147483647,0,0,1,1,2,2,3,3,4,4,5,5,6,6,7,7,8,8,9,9,10,10,11,11,12,12],"right_children":[2,4,6,8,10,12,14,16,18,20,22,24,26,-1,-1,-1,-1,-1,-1,-1,-1,-1,-1,-1,-1,-1,-1],"split_conditions":[8.2756865E-1,1.8044853E2,9.538682E-1,1.7234929E2,1.8190273E2,1.8867564E2,9.7419125E-1,7.157055E-1,7.186779E-1,1.8125241E2,1.9912627E2,8.640187E-1,1.9193715E2,1.1572307E-3,2.5363118E-4,4.081428E-6,-2.4924875E-4,-8.6875184E-4,-4.148668E-4,4.9008926E-5,4.956767E-4,-4.539881E-4,-1.4254203E-4,7.967651E-5,-5.491674E-5,6.7115476E-4,2.9062203E-4],"split_indices":[0,2,0,2,2,2,0,0,0,2,2,0,2,0,0,0,0,0,0,0,0,0,0,0,0,0,0],"split_type":[0,0,0,0,0,0,0,0,0,0,0,0,0,0,0,0,0,0,0,0,0,0,0,0,0,0,0],"sum_hessian":[5.8E1,3.3E1,2.5E1,9E0,2.4E1,2E1,5E0,2E0,7E0,3E0,2.1E1,2E0,1.8E1,4E0,1E0,1E0,1E0,3E0,4E0,2E0,1E0,1.6E1,5E0,1E0,1E0,5E0,1.3E1],"tree_param":{"num_deleted":"0","num_feature":"3","num_nodes":"27","size_leaf_vector":"1"}},{"base_weights":[3.988784E-4,-5.7783932E-3,1.3382667E-2,-5.3818035E-4,-2.006434E-3,3.9368664E-4,2.1701736E-2,-3.3919637E-3,1.1886209E-3,1.1835044E-3,2.4729074E-4,1.407734E-5,-2.7106458E-4,3.4864646E-4,-9.508183E-5],"categories":[],"categories_nodes":[],"categories_segments":[],"categories_sizes":[],"default_left":[0,0,0,0,0,0,0,0,0,0,0,0,0,0,0],"id":47,"left_children":[1,3,5,-1,7,-1,9,11,13,-1,-1,-1,-1,-1,-1],"loss_changes":[4.729185E-3,7.3056435E-4,6.99881E-4,0E0,1.1027601E-4,0E0,1.13803195E-4,1.2825726E-4,1.5625998E-4,0E0,0E0,0E0,0E0,0E0,0E0],"parents":[2147483647,0,0,1,1,2,2,4,4,6,6,7,7,8,8],"right_children":[2,4,6,-1,8,-1,10,12,14,-1,-1,-1,-1,-1,-1],"split_conditions":[8.640187E-1,7.5887966E-1,9.538682E-1,-5.3818035E-4,8.108994E-1,3.9368664E-4,9.7419125E-1,7.6594716E-1,8.329182E-1,1.1835044E-3,2.4729074E-4,1.407734E-5,-2.7106458E-4,3.4864646E-4,-9.508183E-5],"split_indices":[0,1,0,0,0,0,0,1,0,0,0,0,0,0,0],"split_type":[0,0,0,0,0,0,0,0,0,0,0,0,0,0,0],"sum_hessian":[5.7E1,3.9E1,1.8E1,1.6E1,2.3E1,1.2E1,6E0,1.6E1,7E0,5E0,1E0,6E0,1E1,2E0,5E0],"tree_param":{"num_deleted":"0","num_feature":"3","num_nodes":"15","size_leaf_vector":"1"}},{"base_weights":[1.0207527E-3,-3.8113492E-3,1.5098997E-2,-8.978744E-3,1.5375387E-3,8.204833E-3,2.0821044E-2,-9.747583E-3,-1.1165142E-3,5.1798453E-3,-3.8944085E-3,-6.3386564E-5,9.739161E-3,1.1341915E-3,2.4110824E-4,-3.1810813E-4,-5.5961165E-4,2.9610097E-5,-1.13348666E-4,4.015863E-7,3.365293E-4,-3.0754806E-4,2.3201108E-5,5.640323E-4,1.2256205E-5],"categories":[],"categories_nodes":[],"categories_segments":[],"categories_sizes":[],"default_left":[0,0,0,0,0,0,0,0,0,0,0,0,0,0,0,0,0,0,0,0,0,0,0,0,0],"id":48,"left_children":[1,3,5,7,9,11,13,15,17,19,21,-1,23,-1,-1,-1,-1,-1,-1,-1,-1,-1,-1,-1,-1],"loss_changes":[3.7310335E-3,1.1470376E-3,3.8144877E-4,1.16057345E-4,4.3565358E-4,1.2861885E-4,9.923219E-5,2.1717395E-5,7.239929E-6,1.0420784E-4,9.1369424E-5,0E0,9.967922E-5,0E0,0E0,0E0,0E0,0E0,0E0,0E0,0E0,0E0,0E0,0E0,0E0],"parents":[2147483647,0,0,1,1,2,2,3,3,4,4,5,5,6,6,7,7,8,8,9,9,10,10,12,12],"right_children":[2,4,6,8,10,12,14,16,18,20,22,-1,24,-1,-1,-1,-1,-1,-1,-1,-1,-1,-1,-1,-1],"split_conditions":[8.7423664E-1,7.618141E-1,9.3318844E-1,1.970321E2,1.9503075E2,1.8752272E2,9.534713E-1,1.7590256E2,7.576285E-1,1.8408127E2,8.355051E-1,-6.3386564E-5,9.2956537E-1,1.1341915E-3,2.4110824E-4,-3.1810813E-4,-5.5961165E-4,2.9610097E-5,-1.13348666E-4,4.015863E-7,3.365293E-4,-3.0754806E-4,2.3201108E-5,5.640323E-4,1.2256205E-5],"split_indices":[1,1,1,2,2,2,1,2,1,2,1,0,1,0,0,0,0,0,0,0,0,0,0,0,0],"split_type":[0,0,0,0,0,0,0,0,0,0,0,0,0,0,0,0,0,0,0,0,0,0,0,0,0],"sum_hessian":[5.3E1,4E1,1.3E1,2E1,2E1,7E0,6E0,1.8E1,2E0,1.2E1,8E0,1E0,6E0,5E0,1E0,7E0,1.1E1,1E0,1E0,3E0,9E0,5E0,3E0,5E0,1E0],"tree_param":{"num_deleted":"0","num_feature":"3","num_nodes":"25","size_leaf_vector":"1"}},{"base_weights":[-3.124088E-4,-6.469251E-3,9.192407E-3,-9.1900723E-4,-4.0337946E-3,-2.0941198E-3,1.0904488E-2,-1.3609529E-3,-6.621577E-3,-1.8737317E-4,7.1647766E-5,6.875628E-3,1.3353164E-2,5.3335156E-5,-3.700334E-4,-7.4738165E-4,-2.1822262E-4,5.672288E-4,1.00278354E-4,8.974016E-4,2.8834792E-4],"categories":[],"categories_nodes":[],"categories_segments":[],"categories_sizes":[],"default_left":[0,0,0,0,0,0,0,0,0,0,0,0,0,0,0,0,0,0,0,0,0],"id":49,"left_children":[1,3,5,-1,7,9,11,13,15,-1,-1,17,19,-1,-1,-1,-1,-1,-1,-1,-1],"loss_changes":[3.5706472E-3,9.991716E-4,4.8659835E-4,0E0,2.123238E-4,2.8695813E-5,1.153613E-4,2.5715423E-4,2.3544888E-4,0E0,0E0,1.9488815E-4,3.1478563E-4,0E0,0E0,0E0,0E0,0E0,0E0,0E0,0E0],"parents":[2147483647,0,0,1,1,2,2,4,4,5,5,6,6,7,7,8,8,11,11,12,12],"right_children":[2,4,6,-1,8,10,12,14,16,-1,-1,18,20,-1,-1,-1,-1,-1,-1,-1,-1],"split_conditions":[8.2756865E-1,7.245466E-1,1.8867564E2,-9.1900723E-4,1.904298E2,1.8752272E2,8.8969654E-1,7.865639E-1,1.940115E2,-1.8737317E-4,7.1647766E-5,1.9193715E2,2.1280447E2,5.3335156E-5,-3.700334E-4,-7.4738165E-4,-2.1822262E-4,5.672288E-4,1.00278354E-4,8.974016E-4,2.8834792E-4],"split_indices":[0,0,2,0,2,2,0,0,2,0,0,2,2,0,0,0,0,0,0,0,0],"split_type":[0,0,0,0,0,0,0,0,0,0,0,0,0,0,0,0,0,0,0,0,0],"sum_hessian":[5.9E1,3.6E1,2.3E1,5E0,3.1E1,3E0,2E1,1.6E1,1.5E1,2E0,1E0,9E0,1.1E1,1.2E1,4E0,2E0,1.3E1,4E0,5E0,6E0,5E0],"tree_param":{"num_deleted":"0","num_feature":"3","num_nodes":"21","size_leaf_vector":"1"}},{"base_weights":[-5.124298E-4,-5.554531E-3,8.907505E-3,-1.3541374E-2,-3.2079816E-3,3.6108494E-3,1.3020481E-2,-6.2288195E-3,-1.6159514E-2,-5.695555E-5,-4.2140316E-3,-8.571148E-4,5.3934753E-3,1.5741475E-2,3.0313968E-4,4.836172E-5,-4.474958E-4,-8.7753957E-4,-2.300784E-4,-1.2360104E-4,4.8158914E-4,-4.6919286E-4,-1.5412584E-4,6.9856644E-5,-1.0371208E-4,4.54247E-4,1.7841374E-4,3.0412574E-4,8.973688E-4],"categories":[],"categories_nodes":[],"categories_segments":[],"categories_sizes":[],"default_left":[0,0,0,0,0,0,0,0,0,0,0,0,0,0,0,0,0,0,0,0,0,0,0,0,0,0,0,0,0],"id":50,"left_children":[1,3,5,7,9,11,13,15,17,19,21,23,25,27,-1,-1,-1,-1,-1,-1,-1,-1,-1,-1,-1,-1,-1,-1,-1],"loss_changes":[2.9942454E-3,7.2496186E-4,4.3225533E-4,7.165305E-5,1.0437294E-4,9.223462E-5,1.3174466E-4,8.6981294E-5,1.5720609E-5,2.3440037E-4,1.1731748E-4,1.3872812E-5,2.1483764E-5,6.1288476E-5,0E0,0E0,0E0,0E0,0E0,0E0,0E0,0E0,0E0,0E0,0E0,0E0,0E0,0E0,0E0],"parents":[2147483647,0,0,1,1,2,2,3,3,4,4,5,5,6,6,7,7,8,8,9,9,10,10,11,11,12,12,13,13],"right_children":[2,4,6,8,10,12,14,16,18,20,22,24,26,28,-1,-1,-1,-1,-1,-1,-1,-1,-1,-1,-1,-1,-1,-1,-1],"split_conditions":[8.355051E-1,7.241416E-1,8.844626E-1,1.7234929E2,1.8190273E2,1.9105148E2,2.1280447E2,7.06194E-1,7.0881736E-1,1.8187355E2,1.8658421E2,8.504181E-1,1.9193715E2,9.121577E-1,3.0313968E-4,4.836172E-5,-4.474958E-4,-8.7753957E-4,-2.300784E-4,-1.2360104E-4,4.8158914E-4,-4.6919286E-4,-1.5412584E-4,6.9856644E-5,-1.0371208E-4,4.54247E-4,1.7841374E-4,3.0412574E-4,8.973688E-4],"split_indices":[1,1,1,2,2,2,2,1,1,2,2,1,2,1,0,0,0,0,0,0,0,0,0,0,0,0,0,0,0],"split_type":[0,0,0,0,0,0,0,0,0,0,0,0,0,0,0,0,0,0,0,0,0,0,0,0,0,0,0,0,0],"sum_hessian":[6.1E1,4E1,2.1E1,8E0,3.2E1,1E1,1.1E1,3E0,5E0,8E0,2.4E1,3E0,7E0,7E0,4E0,1E0,2E0,4E0,1E0,7E0,1E0,3E0,2.1E1,1E0,2E0,1E0,6E0,2E0,5E0],"tree_param":{"num_deleted":"0","num_feature":"3","num_nodes":"29","size_leaf_vector":"1"}},{"base_weights":[-1.850035E-4,-6.3682506E-3,9.096982E-3,-1.4263153E-2,-4.500597E-3,5.395036E-3,1.6751982E-2,-5.1994524E-3,-8.4243715E-4,-2.61564E-3,-6.588169E-3,-1.7733773E-4,6.655644E-3,1.022178E-3,1.8924176E-4,4.7153237E-5,-4.3711215E-4,-2.2622348E-4,6.514959E-5,-7.1733096E-4,-2.1454877E-4,2.3234815E-4,4.16727E-4],"categories":[],"categories_nodes":[],"categories_segments":[],"categories_sizes":[],"default_left":[0,0,0,0,0,0,0,0,0,0,0,0,0,0,0,0,0,0,0,0,0,0,0],"id":51,"left_children":[1,3,5,7,9,11,13,15,-1,17,19,-1,21,-1,-1,-1,-1,-1,-1,-1,-1,-1,-1],"loss_changes":[3.7310715E-3,5.108601E-4,6.46421E-4,7.644086E-5,1.1262216E-4,2.3777573E-4,3.0557835E-4,7.352945E-5,0E0,1.4801534E-4,2.0577898E-4,0E0,1.8599909E-5,0E0,0E0,0E0,0E0,0E0,0E0,0E0,0E0,0E0,0E0],"parents":[2147483647,0,0,1,1,2,2,3,3,4,4,5,5,6,6,7,7,9,9,10,10,12,12],"right_children":[2,4,6,8,10,12,14,16,-1,18,20,-1,22,-1,-1,-1,-1,-1,-1,-1,-1,-1,-1],"split_conditions":[8.2756865E-1,7.245466E-1,9.538682E-1,1.7234929E2,1.904298E2,1.8752272E2,2.2339284E2,7.157055E-1,-8.4243715E-4,1.8658421E2,1.940115E2,-1.7733773E-4,8.8969654E-1,1.022178E-3,1.8924176E-4,4.7153237E-5,-4.3711215E-4,-2.2622348E-4,6.514959E-5,-7.1733096E-4,-2.1454877E-4,2.3234815E-4,4.16727E-4],"split_indices":[0,0,0,2,2,2,2,0,0,2,2,0,0,0,0,0,0,0,0,0,0,0,0],"split_type":[0,0,0,0,0,0,0,0,0,0,0,0,0,0,0,0,0,0,0,0,0,0,0],"sum_hessian":[6.3E1,3.8E1,2.5E1,6E0,3.2E1,1.8E1,7E0,2E0,4E0,1.8E1,1.4E1,2E0,1.6E1,5E0,2E0,1E0,1E0,1.2E1,6E0,2E0,1.2E1,9E0,7E0],"tree_param":{"num_deleted":"0","num_feature":"3","num_nodes":"23","size_leaf_vector":"1"}},{"base_weights":[-2.3575657E-4,-6.3331127E-3,8.3099725E-3,-1.2871792E-2,-4.814273E-3,4.5119314E-3,1.4560719E-2,-5.0694547E-3,-7.752799E-4,-5.661122E-3,-1.7777979E-3,6.4393817E-3,1.5386268E-3,9.0936024E-4,5.480811E-3,4.5974553E-5,-4.2618366E-4,-1.3208172E-4,-3.8903012E-4,-4.299596E-4,2.0174384E-4,4.4040085E-4,-1.01171936E-4,-9.798945E-5,2.7634948E-4,3.261616E-4,5.8838727E-5],"categories":[],"categories_nodes":[],"categories_segments":[],"categories_sizes":[],"default_left":[0,0,0,0,0,0,0,0,0,0,0,0,0,0,0,0,0,0,0,0,0,0,0,0,0,0,0],"id":52,"left_children":[1,3,5,7,9,11,13,15,-1,17,19,21,23,-1,25,-1,-1,-1,-1,-1,-1,-1,-1,-1,-1,-1,-1],"loss_changes":[3.126903E-3,2.8562394E-4,5.2781776E-4,4.469417E-5,6.707874E-5,8.751746E-5,1.9667274E-4,6.989882E-5,0E0,1.2664066E-4,3.5190105E-4,2.1827579E-4,1.2245534E-4,0E0,1.0270087E-5,0E0,0E0,0E0,0E0,0E0,0E0,0E0,0E0,0E0,0E0,0E0,0E0],"parents":[2147483647,0,0,1,1,2,2,3,3,4,4,5,5,6,6,7,7,9,9,10,10,11,11,12,12,14,14],"right_children":[2,4,6,8,10,12,14,16,-1,18,20,22,24,-1,26,-1,-1,-1,-1,-1,-1,-1,-1,-1,-1,-1,-1],"split_conditions":[7.95584E-1,7.1570385E-1,9.121577E-1,1.7234929E2,7.736196E-1,2.0303296E2,2.2339284E2,7.06194E-1,-7.752799E-4,1.8843341E2,1.8658421E2,8.573194E-1,8.556079E-1,9.0936024E-4,9.3663836E-1,4.5974553E-5,-4.2618366E-4,-1.3208172E-4,-3.8903012E-4,-4.299596E-4,2.0174384E-4,4.4040085E-4,-1.01171936E-4,-9.798945E-5,2.7634948E-4,3.261616E-4,5.8838727E-5],"split_indices":[1,1,1,2,1,2,2,1,0,2,2,1,1,0,1,0,0,0,0,0,0,0,0,0,0,0,0],"split_type":[0,0,0,0,0,0,0,0,0,0,0,0,0,0,0,0,0,0,0,0,0,0,0,0,0,0,0],"sum_hessian":[5.8E1,3.4E1,2.4E1,5E0,2.9E1,1.6E1,8E0,2E0,3E0,2.2E1,7E0,9E0,7E0,5E0,3E0,1E0,1E0,1E1,1.2E1,3E0,4E0,7E0,2E0,4E0,3E0,2E0,1E0],"tree_param":{"num_deleted":"0","num_feature":"3","num_nodes":"27","size_leaf_vector":"1"}},{"base_weights":[-3.079155E-5,-6.6597145E-3,7.0727253E-3,-1.1262347E-2,-3.4022771E-3,2.6739724E-3,1.194252E-2,-5.735025E-3,-1.2467563E-2,3.7018855E-3,-4.455819E-3,-2.4389327E-3,4.0414836E-3,1.5791684E-2,2.4099399E-4,4.4825672E-5,-4.122188E-4,-7.77728E-4,-3.4435274E-4,2.2437275E-4,5.326867E-5,-4.6810607E-4,-8.1567465E-5,-2.1805913E-4,-1.7222763E-5,4.382173E-4,1.19301134E-4,2.7717752E-4,9.1419026E-4],"categories":[],"categories_nodes":[],"categories_segments":[],"categories_sizes":[],"default_left":[0,0,0,0,0,0,0,0,0,0,0,0,0,0,0,0,0,0,0,0,0,0,0,0,0,0,0,0,0],"id":53,"left_children":[1,3,5,7,9,11,13,15,17,19,21,23,25,27,-1,-1,-1,-1,-1,-1,-1,-1,-1,-1,-1,-1,-1,-1,-1],"loss_changes":[2.7311563E-3,4.11466E-4,5.6785473E-4,8.43755E-6,1.5870103E-4,1.2172819E-4,2.802969E-4,7.395462E-5,4.7917943E-5,1.4326724E-6,2.2030808E-4,1.4602201E-5,8.072877E-5,1.0295934E-4,0E0,0E0,0E0,0E0,0E0,0E0,0E0,0E0,0E0,0E0,0E0,0E0,0E0,0E0,0E0],"parents":[2147483647,0,0,1,1,2,2,3,3,4,4,5,5,6,6,7,7,8,8,9,9,10,10,11,11,12,12,13,13],"right_children":[2,4,6,8,10,12,14,16,18,20,22,24,26,28,-1,-1,-1,-1,-1,-1,-1,-1,-1,-1,-1,-1,-1,-1,-1],"split_conditions":[7.95584E-1,7.5191647E-1,8.844626E-1,1.7234929E2,7.576285E-1,1.8752272E2,2.2339284E2,7.06194E-1,7.0881736E-1,7.537357E-1,7.64787E-1,1.8187355E2,8.2987005E-1,9.121577E-1,2.4099399E-4,4.4825672E-5,-4.122188E-4,-7.77728E-4,-3.4435274E-4,2.2437275E-4,5.326867E-5,-4.6810607E-4,-8.1567465E-5,-2.1805913E-4,-1.7222763E-5,4.382173E-4,1.19301134E-4,2.7717752E-4,9.1419026E-4],"split_indices":[1,1,1,2,1,2,2,1,1,1,1,2,1,1,0,0,0,0,0,0,0,0,0,0,0,0,0,0,0],"split_type":[0,0,0,0,0,0,0,0,0,0,0,0,0,0,0,0,0,0,0,0,0,0,0,0,0,0,0,0,0],"sum_hessian":[5.6E1,2.9E1,2.7E1,1.1E1,1.8E1,1.5E1,1.2E1,3E0,8E0,2E0,1.6E1,3E0,1.2E1,7E0,5E0,1E0,2E0,4E0,4E0,1E0,1E0,5E0,1.1E1,1E0,2E0,2E0,1E1,2E0,5E0],"tree_param":{"num_deleted":"0","num_feature":"3","num_nodes":"29","size_leaf_vector":"1"}},{"base_weights":[1.0675202E-3,-5.0082956E-3,7.310279E-3,-1.1360551E-2,-3.0293323E-3,4.2730495E-3,1.6679313E-2,-5.5401176E-3,-7.170424E-4,-3.7932856E-4,-5.44631E-3,-1.1861026E-3,5.1094093E-3,9.036045E-4,2.0806641E-4,4.3705106E-5,-3.9847792E-4,-1.9323578E-4,1.1410639E-4,-3.934145E-4,-6.546428E-5,6.266534E-5,-2.1260828E-4,4.074052E-4,1.5040275E-4],"categories":[],"categories_nodes":[],"categories_segments":[],"categories_sizes":[],"default_left":[0,0,0,0,0,0,0,0,0,0,0,0,0,0,0,0,0,0,0,0,0,0,0,0,0],"id":54,"left_children":[1,3,5,7,9,11,13,15,-1,17,19,21,23,-1,-1,-1,-1,-1,-1,-1,-1,-1,-1,-1,-1],"loss_changes":[2.3124032E-3,3.5528245E-4,7.824057E-4,4.197634E-5,1.5805909E-4,1.1563988E-4,4.6839355E-5,6.929807E-5,0E0,1.2941043E-4,1.19955395E-4,3.52468E-5,1.0958291E-4,0E0,0E0,0E0,0E0,0E0,0E0,0E0,0E0,0E0,0E0,0E0,0E0],"parents":[2147483647,0,0,1,1,2,2,3,3,4,4,5,5,6,6,7,7,9,9,10,10,11,11,12,12],"right_children":[2,4,6,8,10,12,14,16,-1,18,20,22,24,-1,-1,-1,-1,-1,-1,-1,-1,-1,-1,-1,-1],"split_conditions":[7.8592575E-1,7.3303425E-1,9.538682E-1,1.7234929E2,1.904298E2,1.8609807E2,9.7419125E-1,7.157055E-1,-7.170424E-4,1.7710725E2,1.9912627E2,8.2756865E-1,1.9193715E2,9.036045E-4,2.0806641E-4,4.3705106E-5,-3.9847792E-4,-1.9323578E-4,1.1410639E-4,-3.934145E-4,-6.546428E-5,6.266534E-5,-2.1260828E-4,4.074052E-4,1.5040275E-4],"split_indices":[0,0,0,2,2,2,0,0,0,2,2,0,2,0,0,0,0,0,0,0,0,0,0,0,0],"split_type":[0,0,0,0,0,0,0,0,0,0,0,0,0,0,0,0,0,0,0,0,0,0,0,0,0],"sum_hessian":[5.9E1,3E1,2.9E1,6E0,2.4E1,2.3E1,6E0,3E0,3E0,1.2E1,1.2E1,3E0,2E1,5E0,1E0,1E0,2E0,5E0,7E0,7E0,5E0,2E0,1E0,7E0,1.3E1],"tree_param":{"num_deleted":"0","num_feature":"3","num_nodes":"25","size_leaf_vector":"1"}},{"base_weights":[-1.1214614E-4,-4.921561E-3,6.505472E-3,-7.5483386E-4,-2.9975218E-3,-2.2648722E-3,7.866229E-3,-2.4112228E-3,-4.853472E-4,-1.764069E-4,3.8123133E-5,8.699395E-3,-3.2564003E-5,-1.9555108E-4,3.397584E-5,2.744794E-4,6.708848E-4,-3.119558E-5,2.875328E-5],"categories":[],"categories_nodes":[],"categories_segments":[],"categories_sizes":[],"default_left":[0,0,0,0,0,0,0,0,0,0,0,0,0,0,0,0,0,0,0],"id":55,"left_children":[1,3,5,-1,7,9,11,13,-1,-1,-1,15,17,-1,-1,-1,-1,-1,-1],"loss_changes":[1.8143218E-3,6.007989E-4,3.0423934E-4,0E0,9.067246E-5,1.7987388E-5,1.384844E-4,1.3245126E-4,0E0,0E0,0E0,2.1409418E-4,1.4367511E-6,0E0,0E0,0E0,0E0,0E0,0E0],"parents":[2147483647,0,0,1,1,2,2,4,4,5,5,6,6,7,7,11,11,12,12],"right_children":[2,4,6,-1,8,10,12,14,-1,-1,-1,16,18,-1,-1,-1,-1,-1,-1],"split_conditions":[8.108994E-1,7.245466E-1,1.8867564E2,-7.5483386E-4,8.040515E-1,1.8752272E2,2.2486905E2,7.778342E-1,-4.853472E-4,-1.764069E-4,3.8123133E-5,9.3029207E-1,9.505752E-1,-1.9555108E-4,3.397584E-5,2.744794E-4,6.708848E-4,-3.119558E-5,2.875328E-5],"split_indices":[0,0,2,0,0,2,2,0,0,0,0,0,0,0,0,0,0,0,0],"split_type":[0,0,0,0,0,0,0,0,0,0,0,0,0,0,0,0,0,0,0],"sum_hessian":[5.5E1,3.2E1,2.3E1,4E0,2.8E1,3E0,2E1,2.7E1,1E0,2E0,1E0,1.8E1,2E0,1.8E1,9E0,1.2E1,6E0,1E0,1E0],"tree_param":{"num_deleted":"0","num_feature":"3","num_nodes":"19","size_leaf_vector":"1"}},{"base_weights":[8.373329E-4,-3.397205E-3,9.755335E-3,-5.6662406E-3,5.73154E-4,1.8168241E-3,1.1326671E-2,-6.850766E-3,-1.1682907E-3,-4.2328117E-3,2.9188215E-3,-1.1471609E-4,3.5375656E-4,1.3193113E-2,2.6642263E-4,6.148368E-5,-3.6992098E-4,3.9178132E-5,-1.6906658E-4,6.942302E-5,-2.9926226E-4,3.4835786E-4,-1.2614728E-4,3.9045277E-4,7.740488E-4],"categories":[],"categories_nodes":[],"categories_segments":[],"categories_sizes":[],"default_left":[0,0,0,0,0,0,0,0,0,0,0,0,0,0,0,0,0,0,0,0,0,0,0,0,0],"id":56,"left_children":[1,3,5,7,9,11,13,15,17,19,21,-1,-1,23,-1,-1,-1,-1,-1,-1,-1,-1,-1,-1,-1],"loss_changes":[1.9968487E-3,3.2756754E-4,1.9148062E-4,1.1453882E-4,1.701796E-4,1.027033E-4,8.6435815E-5,8.875271E-5,2.8566676E-5,5.75648E-5,2.3787875E-4,0E0,0E0,2.2880267E-6,0E0,0E0,0E0,0E0,0E0,0E0,0E0,0E0,0E0,0E0,0E0],"parents":[2147483647,0,0,1,1,2,2,3,3,4,4,5,5,6,6,7,7,8,8,9,9,10,10,13,13],"right_children":[2,4,6,8,10,12,14,16,18,20,22,-1,-1,24,-1,-1,-1,-1,-1,-1,-1,-1,-1,-1,-1],"split_conditions":[8.565084E-1,7.705534E-1,1.9105148E2,1.9877928E2,1.8658421E2,8.844626E-1,2.2339284E2,7.06194E-1,7.622401E-1,7.745617E-1,1.9503075E2,-1.1471609E-4,3.5375656E-4,9.121577E-1,2.6642263E-4,6.148368E-5,-3.6992098E-4,3.9178132E-5,-1.6906658E-4,6.942302E-5,-2.9926226E-4,3.4835786E-4,-1.2614728E-4,3.9045277E-4,7.740488E-4],"split_indices":[1,1,2,2,2,1,2,1,1,1,2,0,0,1,0,0,0,0,0,0,0,0,0,0,0],"split_type":[0,0,0,0,0,0,0,0,0,0,0,0,0,0,0,0,0,0,0,0,0,0,0,0,0],"sum_hessian":[5.1E1,3.5E1,1.6E1,2.2E1,1.3E1,3E0,1.3E1,1.7E1,5E0,4E0,9E0,2E0,1E0,9E0,4E0,1E0,1.6E1,3E0,2E0,1E0,3E0,5E0,4E0,4E0,5E0],"tree_param":{"num_deleted":"0","num_feature":"3","num_nodes":"25","size_leaf_vector":"1"}},{"base_weights":[1.7382701E-5,-4.6265298E-3,7.689178E-3,-1.1492218E-2,-2.9800814E-3,5.0546904E-3,8.081198E-4,-4.0959716E-3,-6.8157614E-4,-5.3546205E-4,-5.1056007E-3,-2.169773E-3,6.544888E-3,5.9945884E-5,-3.6714374E-4,9.726538E-5,-4.232049E-4,-6.3494843E-4,-1.6232769E-4,-1.6362568E-4,2.8461218E-5,4.726368E-4,2.3939386E-4],"categories":[],"categories_nodes":[],"categories_segments":[],"categories_sizes":[],"default_left":[0,0,0,0,0,0,0,0,0,0,0,0,0,0,0,0,0,0,0,0,0,0,0],"id":57,"left_children":[1,3,5,7,9,11,-1,13,-1,15,17,19,21,-1,-1,-1,-1,-1,-1,-1,-1,-1,-1],"loss_changes":[2.1732028E-3,3.9530423E-4,4.3172366E-4,5.4925506E-5,1.6354088E-4,2.1875263E-4,0E0,6.037948E-5,0E0,3.3117118E-4,1.9875134E-4,1.3944409E-5,3.6487414E-5,0E0,0E0,0E0,0E0,0E0,0E0,0E0,0E0,0E0,0E0],"parents":[2147483647,0,0,1,1,2,2,3,3,4,4,5,5,7,7,9,9,10,10,11,11,12,12],"right_children":[2,4,6,8,10,12,-1,14,-1,16,18,20,22,-1,-1,-1,-1,-1,-1,-1,-1,-1,-1],"split_conditions":[8.2756865E-1,7.245466E-1,9.620672E-1,1.7234929E2,1.904298E2,1.8867564E2,8.081198E-4,7.157055E-1,-6.8157614E-4,7.865639E-1,1.940115E2,1.8752272E2,8.665998E-1,5.9945884E-5,-3.6714374E-4,9.726538E-5,-4.232049E-4,-6.3494843E-4,-1.6232769E-4,-1.6362568E-4,2.8461218E-5,4.726368E-4,2.3939386E-4],"split_indices":[0,0,0,2,2,2,0,0,0,0,2,2,0,0,0,0,0,0,0,0,0,0,0],"split_type":[0,0,0,0,0,0,0,0,0,0,0,0,0,0,0,0,0,0,0,0,0,0,0],"sum_hessian":[5.9E1,3.7E1,2.2E1,6E0,3.1E1,1.8E1,4E0,2E0,4E0,1.5E1,1.6E1,3E0,1.5E1,1E0,1E0,1.2E1,3E0,2E0,1.4E1,2E0,1E0,4E0,1.1E1],"tree_param":{"num_deleted":"0","num_feature":"3","num_nodes":"23","size_leaf_vector":"1"}},{"base_weights":[-3.798942E-4,-4.1241925E-3,8.585923E-3,-7.1800174E-3,-2.0474063E-3,6.1768014E-3,7.7368243E-4,-7.742035E-3,-1.9765894E-3,-4.6089655E-3,2.768141E-3,7.1041733E-3,1.8504858E-3,-2.9763256E-4,-5.5873394E-4,4.3065847E-5,-1.9131006E-4,-2.7373433E-5,-3.0644835E-4,3.3898355E-4,-1.2996614E-4,1.339227E-4,4.1409038E-4,-4.3061376E-5,1.520733E-4],"categories":[],"categories_nodes":[],"categories_segments":[],"categories_sizes":[],"default_left":[0,0,0,0,0,0,0,0,0,0,0,0,0,0,0,0,0,0,0,0,0,0,0,0,0],"id":58,"left_children":[1,3,5,7,9,11,-1,13,15,17,19,21,23,-1,-1,-1,-1,-1,-1,-1,-1,-1,-1,-1,-1],"loss_changes":[2.0496517E-3,2.5819027E-4,2.0310294E-4,3.441231E-5,3.4581166E-4,4.70354E-5,0E0,2.5615795E-5,1.9042647E-5,1.07767206E-4,2.3293996E-4,4.0360028E-5,1.5537782E-5,0E0,0E0,0E0,0E0,0E0,0E0,0E0,0E0,0E0,0E0,0E0,0E0],"parents":[2147483647,0,0,1,1,2,2,3,3,4,4,5,5,7,7,8,8,9,9,10,10,11,11,12,12],"right_children":[2,4,6,8,10,12,-1,14,16,18,20,22,24,-1,-1,-1,-1,-1,-1,-1,-1,-1,-1,-1,-1],"split_conditions":[8.640187E-1,1.8658421E2,9.620672E-1,8.108994E-1,7.8592575E-1,2.1263414E2,7.7368243E-4,7.7128226E-1,8.2756865E-1,1.904298E2,1.9503075E2,8.729979E-1,9.505752E-1,-2.9763256E-4,-5.5873394E-4,4.3065847E-5,-1.9131006E-4,-2.7373433E-5,-3.0644835E-4,3.3898355E-4,-1.2996614E-4,1.339227E-4,4.1409038E-4,-4.3061376E-5,1.520733E-4],"split_indices":[0,2,0,0,0,2,0,0,0,2,2,0,0,0,0,0,0,0,0,0,0,0,0,0,0],"split_type":[0,0,0,0,0,0,0,0,0,0,0,0,0,0,0,0,0,0,0,0,0,0,0,0,0],"sum_hessian":[5.9E1,4.2E1,1.7E1,1.6E1,2.6E1,1.4E1,3E0,1.4E1,2E0,1.7E1,9E0,1.1E1,3E0,1.1E1,3E0,1E0,1E0,5E0,1.2E1,5E0,4E0,3E0,8E0,1E0,2E0],"tree_param":{"num_deleted":"0","num_feature":"3","num_nodes":"25","size_leaf_vector":"1"}},{"base_weights":[2.0081997E-4,-4.1373856E-3,8.638334E-3,-7.3117553E-3,-7.452588E-4,6.0034352E-3,1.3346712E-2,-5.401884E-4,-4.868998E-3,7.948637E-3,-2.235637E-3,6.4295805E-3,1.1588633E-5,7.448482E-4,1.3988615E-4,-1.5528743E-4,-4.855623E-4,9.852052E-5,4.9762725E-4,-1.8586194E-4,5.5008633E-5,2.202984E-4,4.028067E-4],"categories":[],"categories_nodes":[],"categories_segments":[],"categories_sizes":[],"default_left":[0,0,0,0,0,0,0,0,0,0,0,0,0,0,0,0,0,0,0,0,0,0,0],"id":59,"left_children":[1,3,5,7,9,11,13,-1,15,17,19,21,-1,-1,-1,-1,-1,-1,-1,-1,-1,-1,-1],"loss_changes":[2.048942E-3,3.9296184E-4,1.5558966E-4,1.0946905E-4,2.639569E-4,3.294379E-5,5.6444085E-5,0E0,8.083449E-5,1.632885E-5,8.81094E-5,7.2946423E-6,0E0,0E0,0E0,0E0,0E0,0E0,0E0,0E0,0E0,0E0,0E0],"parents":[2147483647,0,0,1,1,2,2,3,3,4,4,5,5,6,6,8,8,9,9,10,10,11,11],"right_children":[2,4,6,8,10,12,14,-1,16,18,20,22,-1,-1,-1,-1,-1,-1,-1,-1,-1,-1,-1],"split_conditions":[8.5183424E-1,7.7359766E-1,9.620672E-1,7.245466E-1,7.6594716E-1,9.60866E-1,9.7419125E-1,-5.401884E-4,7.578931E-1,7.7485466E-1,8.108994E-1,8.844626E-1,1.1588633E-5,7.448482E-4,1.3988615E-4,-1.5528743E-4,-4.855623E-4,9.852052E-5,4.9762725E-4,-1.8586194E-4,5.5008633E-5,2.202984E-4,4.028067E-4],"split_indices":[0,0,0,0,1,0,0,0,1,0,0,1,0,0,0,0,0,0,0,0,0,0,0],"split_type":[0,0,0,0,0,0,0,0,0,0,0,0,0,0,0,0,0,0,0,0,0,0,0],"sum_hessian":[5.4E1,3.6E1,1.8E1,1.8E1,1.8E1,1.3E1,5E0,6E0,1.2E1,2E0,1.6E1,1.2E1,1E0,4E0,1E0,1E1,2E0,1E0,1E0,1.1E1,5E0,7E0,5E0],"tree_param":{"num_deleted":"0","num_feature":"3","num_nodes":"23","size_leaf_vector":"1"}},{"base_weights":[-1.001209E-3,-3.7646268E-3,8.854055E-3,-9.87719E-3,-2.4142389E-3,1.1915192E-2,3.2968621E-3,-5.2828314E-3,-6.575421E-4,-4.0623737E-3,-2.6572743E-4,3.4238696E-3,1.4174988E-2,1.1244416E-3,4.101962E-3,7.9391895E-5,-3.698729E-4,-8.5387175E-5,-2.941127E-4,-2.9030492E-4,1.1559037E-4,2.7247518E-4,-1.5684962E-5,2.08053E-4,7.672781E-4,-5.205572E-5,1.3638884E-4,2.659311E-4,1.129955E-5],"categories":[],"categories_nodes":[],"categories_segments":[],"categories_sizes":[],"default_left":[0,0,0,0,0,0,0,0,0,0,0,0,0,0,0,0,0,0,0,0,0,0,0,0,0,0,0,0,0],"id":60,"left_children":[1,3,5,7,9,11,13,15,-1,17,19,21,23,25,27,-1,-1,-1,-1,-1,-1,-1,-1,-1,-1,-1,-1,-1,-1],"loss_changes":[1.6129164E-3,3.5585347E-4,1.8186448E-4,5.0848932E-5,1.3702094E-4,1.0497589E-4,5.881673E-6,8.4390456E-5,0E0,8.4227795E-5,2.704716E-4,2.4422345E-5,6.4783962E-6,1.32562645E-5,1.7660997E-5,0E0,0E0,0E0,0E0,0E0,0E0,0E0,0E0,0E0,0E0,0E0,0E0,0E0,0E0],"parents":[2147483647,0,0,1,1,2,2,3,3,4,4,5,5,6,6,7,7,9,9,10,10,11,11,12,12,13,13,14,14],"right_children":[2,4,6,8,10,12,14,16,-1,18,20,22,24,26,28,-1,-1,-1,-1,-1,-1,-1,-1,-1,-1,-1,-1,-1,-1],"split_conditions":[8.7423664E-1,7.206121E-1,2.2339284E2,1.7402701E2,7.736196E-1,9.121577E-1,2.2636627E2,7.06194E-1,-6.575421E-4,7.578931E-1,1.8658421E2,8.840513E-1,2.1133081E2,9.3318844E-1,9.3663836E-1,7.9391895E-5,-3.698729E-4,-8.5387175E-5,-2.941127E-4,-2.9030492E-4,1.1559037E-4,2.7247518E-4,-1.5684962E-5,2.08053E-4,7.672781E-4,-5.205572E-5,1.3638884E-4,2.659311E-4,1.129955E-5],"split_indices":[1,1,2,2,1,1,2,1,0,1,2,1,2,1,1,0,0,0,0,0,0,0,0,0,0,0,0,0,0],"split_type":[0,0,0,0,0,0,0,0,0,0,0,0,0,0,0,0,0,0,0,0,0,0,0,0,0,0,0,0,0],"sum_hessian":[5.7E1,4.5E1,1.2E1,7E0,3.8E1,7E0,5E0,4E0,3E0,2.1E1,1.7E1,2E0,5E0,2E0,3E0,1E0,3E0,1E1,1.1E1,5E0,1.2E1,1E0,1E0,1E0,4E0,1E0,1E0,2E0,1E0],"tree_param":{"num_deleted":"0","num_feature":"3","num_nodes":"29","size_leaf_vector":"1"}},{"base_weights":[1.3204445E-3,-1.7429785E-3,8.565264E-3,-6.234169E-3,-1.9309738E-4,1.1645108E-3,9.96778E-3,-3.3312242E-3,-8.098085E-3,-3.54231E-3,1.2104536E-3,-1.349648E-4,3.1889827E-4,1.16666285E-2,2.1183789E-4,-2.5416314E-4,1.3572424E-4,-5.939216E-4,-1.6191528E-4,1.1478007E-4,-3.9084256E-4,2.14535E-4,-4.6187044E-5,3.3161105E-4,6.7979866E-4],"categories":[],"categories_nodes":[],"categories_segments":[],"categories_sizes":[],"default_left":[0,0,0,0,0,0,0,0,0,0,0,0,0,0,0,0,0,0,0,0,0,0,0,0,0],"id":61,"left_children":[1,3,5,7,9,11,13,15,17,19,21,-1,-1,23,-1,-1,-1,-1,-1,-1,-1,-1,-1,-1,-1],"loss_changes":[1.3465658E-3,2.9811106E-4,1.752266E-4,3.2542797E-5,1.594139E-4,9.779113E-5,9.661354E-5,7.735234E-5,7.176385E-5,2.674883E-4,1.6173578E-4,0E0,0E0,1.6672653E-5,0E0,0E0,0E0,0E0,0E0,0E0,0E0,0E0,0E0,0E0,0E0],"parents":[2147483647,0,0,1,1,2,2,3,3,4,4,5,5,6,6,7,7,8,8,9,9,10,10,13,13],"right_children":[2,4,6,8,10,12,14,16,18,20,22,-1,-1,24,-1,-1,-1,-1,-1,-1,-1,-1,-1,-1,-1],"split_conditions":[8.565084E-1,7.5191647E-1,1.9105148E2,1.7590256E2,1.8658421E2,8.844626E-1,2.2339284E2,7.241416E-1,1.940115E2,7.6594716E-1,1.9193715E2,-1.349648E-4,3.1889827E-4,9.121577E-1,2.1183789E-4,-2.5416314E-4,1.3572424E-4,-5.939216E-4,-1.6191528E-4,1.1478007E-4,-3.9084256E-4,2.14535E-4,-4.6187044E-5,3.3161105E-4,6.7979866E-4],"split_indices":[1,1,2,2,2,1,2,1,2,1,2,0,0,1,0,0,0,0,0,0,0,0,0,0,0],"split_type":[0,0,0,0,0,0,0,0,0,0,0,0,0,0,0,0,0,0,0,0,0,0,0,0,0],"sum_hessian":[5.9E1,4.2E1,1.7E1,1E1,3.2E1,3E0,1.4E1,5E0,5E0,9E0,2.3E1,2E0,1E0,1E1,4E0,4E0,1E0,2E0,3E0,4E0,5E0,9E0,1.4E1,4E0,6E0],"tree_param":{"num_deleted":"0","num_feature":"3","num_nodes":"25","size_leaf_vector":"1"}},{"base_weights":[7.4549625E-4,-2.5114103E-3,7.981787E-3,-7.395262E-3,-5.0306105E-4,1.1522621E-3,9.362953E-3,-6.0838065E-4,-4.9827825E-3,2.311464E-3,-3.0964136E-3,-1.3046662E-4,3.1092615E-4,1.2046307E-2,2.123654E-3,8.376092E-5,-3.0122176E-4,6.464307E-5,3.8883238E-4,-3.7226875E-4,-9.2731076E-5,2.386878E-4,6.633863E-4,-5.6050718E-5,1.6075373E-4],"categories":[],"categories_nodes":[],"categories_segments":[],"categories_sizes":[],"default_left":[0,0,0,0,0,0,0,0,0,0,0,0,0,0,0,0,0,0,0,0,0,0,0,0,0],"id":62,"left_children":[1,3,5,7,9,11,13,-1,15,17,19,-1,-1,21,23,-1,-1,-1,-1,-1,-1,-1,-1,-1,-1],"loss_changes":[1.2927136E-3,3.6900197E-4,1.4956738E-4,6.601657E-5,2.115308E-4,9.245507E-5,2.4637638E-4,0E0,7.2510156E-5,6.788177E-5,6.7199246E-5,0E0,0E0,2.5491347E-5,2.1310636E-5,0E0,0E0,0E0,0E0,0E0,0E0,0E0,0E0,0E0,0E0],"parents":[2147483647,0,0,1,1,2,2,3,3,4,4,5,5,6,6,8,8,9,9,10,10,13,13,14,14],"right_children":[2,4,6,8,10,12,14,-1,16,18,20,-1,-1,22,24,-1,-1,-1,-1,-1,-1,-1,-1,-1,-1],"split_conditions":[8.504181E-1,7.441714E-1,1.9105148E2,6.980664E-1,1.8912254E2,8.844626E-1,2.2339284E2,-6.0838065E-4,7.06194E-1,1.8867564E2,1.9415999E2,-1.3046662E-4,3.1092615E-4,8.565084E-1,9.3318844E-1,8.376092E-5,-3.0122176E-4,6.464307E-5,3.8883238E-4,-3.7226875E-4,-9.2731076E-5,2.386878E-4,6.633863E-4,-5.6050718E-5,1.6075373E-4],"split_indices":[1,1,2,1,2,1,2,0,1,2,2,0,0,1,1,0,0,0,0,0,0,0,0,0,0],"split_type":[0,0,0,0,0,0,0,0,0,0,0,0,0,0,0,0,0,0,0,0,0,0,0,0,0],"sum_hessian":[5.3E1,3.7E1,1.6E1,1E1,2.7E1,3E0,1.3E1,2E0,8E0,1.3E1,1.4E1,2E0,1E0,9E0,4E0,1E0,7E0,1.2E1,1E0,2E0,1.2E1,2E0,7E0,1E0,3E0],"tree_param":{"num_deleted":"0","num_feature":"3","num_nodes":"25","size_leaf_vector":"1"}},{"base_weights":[1.0006201E-3,-3.4226957E-3,7.303611E-3,-7.5526163E-3,-2.0203085E-3,5.4926435E-3,1.2724566E-2,-3.7570596E-3,-4.539269E-4,4.043591E-3,-3.3066354E-3,3.994902E-5,5.9978403E-3,1.6927124E-4,7.106498E-4,8.1667305E-5,-3.049155E-4,4.1251085E-4,-7.5544915E-5,-5.2925124E-4,-8.0015474E-5,4.466186E-4,2.0153772E-4],"categories":[],"categories_nodes":[],"categories_segments":[],"categories_sizes":[],"default_left":[0,0,0,0,0,0,0,0,0,0,0,0,0,0,0,0,0,0,0,0,0,0,0],"id":63,"left_children":[1,3,5,7,9,11,13,15,-1,17,19,-1,21,-1,-1,-1,-1,-1,-1,-1,-1,-1,-1],"loss_changes":[1.5584046E-3,1.7586906E-4,1.559034E-4,1.222518E-5,2.1617475E-4,4.0261075E-5,2.1386251E-5,6.0441813E-5,0E0,1.2929352E-4,2.5628542E-4,0E0,6.212789E-5,0E0,0E0,0E0,0E0,0E0,0E0,0E0,0E0,0E0,0E0],"parents":[2147483647,0,0,1,1,2,2,3,3,4,4,5,5,6,6,7,7,9,9,10,10,12,12],"right_children":[2,4,6,8,10,12,14,16,-1,18,20,-1,22,-1,-1,-1,-1,-1,-1,-1,-1,-1,-1],"split_conditions":[7.95584E-1,1.7575903E2,9.420441E-1,1.7234929E2,1.8190273E2,1.8867564E2,2.1133081E2,7.06194E-1,-4.539269E-4,7.6594716E-1,1.867286E2,3.994902E-5,1.9193715E2,1.6927124E-4,7.106498E-4,8.1667305E-5,-3.049155E-4,4.1251085E-4,-7.5544915E-5,-5.2925124E-4,-8.0015474E-5,4.466186E-4,2.0153772E-4],"split_indices":[1,2,1,2,2,2,2,1,0,1,2,0,2,0,0,0,0,0,0,0,0,0,0],"split_type":[0,0,0,0,0,0,0,0,0,0,0,0,0,0,0,0,0,0,0,0,0,0,0],"sum_hessian":[5.4E1,3.2E1,2.2E1,7E0,2.5E1,1.8E1,4E0,3E0,4E0,4E0,2.1E1,2E0,1.6E1,1E0,3E0,1E0,2E0,2E0,2E0,3E0,1.8E1,5E0,1.1E1],"tree_param":{"num_deleted":"0","num_feature":"3","num_nodes":"23","size_leaf_vector":"1"}},{"base_weights":[4.9469346E-4,-1.5743102E-3,8.38465E-3,-4.4821203E-4,-6.570731E-4,5.0083315E-3,1.0926247E-2,-2.457122E-3,6.6524505E-4,2.932648E-4,-3.3363701E-6,6.1321555E-4,1.05898085E-4,-1.3487638E-5,-2.3072596E-4,4.7773868E-4,-5.1633765E-6],"categories":[],"categories_nodes":[],"categories_segments":[],"categories_sizes":[],"default_left":[0,0,0,0,0,0,0,0,0,0,0,0,0,0,0,0,0],"id":64,"left_children":[1,3,5,-1,7,9,11,13,15,-1,-1,-1,-1,-1,-1,-1,-1],"loss_changes":[9.43688E-4,3.0591252E-4,4.825258E-5,0E0,1.0160457E-4,3.0835407E-5,4.4741028E-5,8.369764E-5,1.7177955E-4,0E0,0E0,0E0,0E0,0E0,0E0,0E0,0E0],"parents":[2147483647,0,0,1,1,2,2,4,4,5,5,6,6,7,7,8,8],"right_children":[2,4,6,-1,8,10,12,14,16,-1,-1,-1,-1,-1,-1,-1,-1],"split_conditions":[9.3029207E-1,7.3303425E-1,9.620672E-1,-4.4821203E-4,7.786153E-1,9.60866E-1,9.7419125E-1,7.578931E-1,7.6594716E-1,2.932648E-4,-3.3363701E-6,6.1321555E-4,1.05898085E-4,-1.3487638E-5,-2.3072596E-4,4.7773868E-4,-5.1633765E-6],"split_indices":[0,0,0,0,0,0,0,1,1,0,0,0,0,0,0,0,0],"split_type":[0,0,0,0,0,0,0,0,0,0,0,0,0,0,0,0,0],"sum_hessian":[5.6E1,4.5E1,1.1E1,4E0,4.1E1,6E0,5E0,1.7E1,2.4E1,5E0,1E0,4E0,1E0,9E0,8E0,1E0,2.3E1],"tree_param":{"num_deleted":"0","num_feature":"3","num_nodes":"17","size_leaf_vector":"1"}},{"base_weights":[-1.01902726E-4,-5.0841547E-3,3.9775735E-3,-4.465397E-4,-3.5598392E-3,2.3251034E-3,8.125816E-3,-1.5065349E-3,-6.1301854E-3,4.657954E-4,1.6456569E-3,8.625291E-3,1.03250146E-4,-1.6145674E-4,9.477258E-5,-4.24664E-4,-1.2705267E-4,-4.7027213E-5,1.2799882E-4,2.665048E-4,6.170293E-4],"categories":[],"categories_nodes":[],"categories_segments":[],"categories_sizes":[],"default_left":[0,0,0,0,0,0,0,0,0,0,0,0,0,0,0,0,0,0,0,0,0],"id":65,"left_children":[1,3,5,-1,7,9,11,13,15,-1,17,19,-1,-1,-1,-1,-1,-1,-1,-1,-1],"loss_changes":[1.2193962E-3,1.2652215E-4,2.073166E-4,0E0,1.0159641E-4,1.03416125E-4,9.433774E-6,8.230406E-5,5.475126E-5,0E0,5.9158512E-5,3.2164506E-5,0E0,0E0,0E0,0E0,0E0,0E0,0E0,0E0,0E0],"parents":[2147483647,0,0,1,1,2,2,4,4,5,5,6,6,7,7,8,8,10,10,11,11],"right_children":[2,4,6,-1,8,10,12,14,16,-1,18,20,-1,-1,-1,-1,-1,-1,-1,-1,-1],"split_conditions":[7.786153E-1,7.245466E-1,9.505752E-1,-4.465397E-4,7.578931E-1,7.6594716E-1,9.7419125E-1,7.640354E-1,7.7359766E-1,4.657954E-4,7.8798974E-1,9.6878356E-1,1.03250146E-4,-1.6145674E-4,9.477258E-5,-4.24664E-4,-1.2705267E-4,-4.7027213E-5,1.2799882E-4,2.665048E-4,6.170293E-4],"split_indices":[0,0,0,0,1,1,0,0,0,0,1,0,0,0,0,0,0,0,0,0,0],"split_type":[0,0,0,0,0,0,0,0,0,0,0,0,0,0,0,0,0,0,0,0,0],"sum_hessian":[5.8E1,2.6E1,3.2E1,6E0,2E1,2.4E1,8E0,1.2E1,8E0,1E0,2.3E1,7E0,1E0,8E0,4E0,4E0,4E0,6E0,1.7E1,5E0,2E0],"tree_param":{"num_deleted":"0","num_feature":"3","num_nodes":"21","size_leaf_vector":"1"}},{"base_weights":[2.0532586E-4,-5.443106E-3,2.9476623E-3,-4.805821E-4,-3.5655499E-3,1.9843438E-4,5.032863E-3,-7.786921E-5,-6.1715767E-3,2.633065E-3,-4.7038994E-3,-5.8847665E-5,5.4022013E-3,7.5192256E-5,-2.3920387E-4,-5.469799E-4,-1.3794849E-4,2.9975476E-4,-3.124135E-5,1.17827956E-4,-3.2936514E-4,3.0728965E-4,4.4569373E-5],"categories":[],"categories_nodes":[],"categories_segments":[],"categories_sizes":[],"default_left":[0,0,0,0,0,0,0,0,0,0,0,0,0,0,0,0,0,0,0,0,0,0,0],"id":66,"left_children":[1,3,5,-1,7,9,11,13,15,17,19,-1,21,-1,-1,-1,-1,-1,-1,-1,-1,-1,-1],"loss_changes":[8.524991E-4,1.0660919E-4,2.1111089E-4,0E0,1.2676526E-4,2.1528699E-4,5.4522126E-5,5.930165E-5,9.998903E-5,1.3518345E-4,9.530953E-5,0E0,6.1605824E-5,0E0,0E0,0E0,0E0,0E0,0E0,0E0,0E0,0E0,0E0],"parents":[2147483647,0,0,1,1,2,2,4,4,5,5,6,6,7,7,8,8,9,9,10,10,12,12],"right_children":[2,4,6,-1,8,10,12,14,16,18,20,-1,22,-1,-1,-1,-1,-1,-1,-1,-1,-1,-1],"split_conditions":[7.618141E-1,7.1570385E-1,8.355051E-1,-4.805821E-4,1.8698956E2,1.9503075E2,1.8752272E2,7.6004636E-1,1.940115E2,7.745617E-1,7.622401E-1,-5.8847665E-5,2.2486905E2,7.5192256E-5,-2.3920387E-4,-5.469799E-4,-1.3794849E-4,2.9975476E-4,-3.124135E-5,1.17827956E-4,-3.2936514E-4,3.0728965E-4,4.4569373E-5],"split_indices":[1,1,1,0,2,2,2,1,2,1,1,0,2,0,0,0,0,0,0,0,0,0,0],"split_type":[0,0,0,0,0,0,0,0,0,0,0,0,0,0,0,0,0,0,0,0,0,0,0],"sum_hessian":[5.3E1,1.7E1,3.6E1,4E0,1.3E1,1.6E1,2E1,6E0,7E0,1.1E1,5E0,1E0,1.9E1,5E0,1E0,2E0,5E0,5E0,6E0,1E0,4E0,1.6E1,3E0],"tree_param":{"num_deleted":"0","num_feature":"3","num_nodes":"23","size_leaf_vector":"1"}},{"base_weights":[-2.9117242E-4,-3.7187464E-3,4.543605E-3,-6.6819647E-3,-2.0941084E-3,2.3855944E-3,8.5945595E-3,-3.0852812E-3,-4.662041E-4,6.6297054E-3,-3.5202452E-3,4.139469E-3,-1.2124011E-3,1.1252533E-2,1.22948E-4,1.14010276E-4,-2.1797817E-4,1.4420947E-4,4.4665634E-4,-4.983239E-4,-1.0274932E-4,-7.5306896E-5,3.4079884E-4,-2.7644337E-4,8.099795E-5,1.3536513E-4,6.210059E-4],"categories":[],"categories_nodes":[],"categories_segments":[],"categories_sizes":[],"default_left":[0,0,0,0,0,0,0,0,0,0,0,0,0,0,0,0,0,0,0,0,0,0,0,0,0,0,0],"id":67,"left_children":[1,3,5,7,9,11,13,15,-1,17,19,21,23,25,-1,-1,-1,-1,-1,-1,-1,-1,-1,-1,-1,-1,-1],"loss_changes":[1.0774761E-3,1.6894523E-4,2.1553092E-4,9.47697E-5,3.4681335E-4,1.2491696E-4,1.1910481E-4,5.7800695E-5,0E0,8.745177E-6,1.967632E-4,2.0670243E-4,9.453704E-5,2.6238675E-5,0E0,0E0,0E0,0E0,0E0,0E0,0E0,0E0,0E0,0E0,0E0,0E0,0E0],"parents":[2147483647,0,0,1,1,2,2,3,3,4,4,5,5,6,6,7,7,9,9,10,10,11,11,12,12,13,13],"right_children":[2,4,6,8,10,12,14,16,-1,18,20,22,24,26,-1,-1,-1,-1,-1,-1,-1,-1,-1,-1,-1,-1,-1],"split_conditions":[8.108994E-1,1.8044853E2,9.505752E-1,1.7563145E2,1.8190273E2,2.050597E2,2.2339284E2,7.157055E-1,-4.662041E-4,1.8125241E2,1.867286E2,1.8867564E2,8.727647E-1,2.1133081E2,1.22948E-4,1.14010276E-4,-2.1797817E-4,1.4420947E-4,4.4665634E-4,-4.983239E-4,-1.0274932E-4,-7.5306896E-5,3.4079884E-4,-2.7644337E-4,8.099795E-5,1.3536513E-4,6.210059E-4],"split_indices":[0,2,0,2,2,2,2,0,0,2,2,2,0,2,0,0,0,0,0,0,0,0,0,0,0,0,0],"split_type":[0,0,0,0,0,0,0,0,0,0,0,0,0,0,0,0,0,0,0,0,0,0,0,0,0,0,0],"sum_hessian":[6.3E1,3.7E1,2.6E1,1.2E1,2.5E1,1.8E1,8E0,6E0,6E0,3E0,2.2E1,1.2E1,6E0,5E0,3E0,1E0,5E0,2E0,1E0,3E0,1.9E1,4E0,8E0,2E0,4E0,1E0,4E0],"tree_param":{"num_deleted":"0","num_feature":"3","num_nodes":"27","size_leaf_vector":"1"}},{"base_weights":[-7.61222E-5,-3.0317274E-3,4.3604574E-3,-5.8943033E-3,-2.2627353E-3,-1.4459133E-3,5.594027E-3,-3.078711E-3,-4.3110945E-4,1.3875762E-3,-3.6531931E-3,5.4620206E-5,-2.3535937E-3,6.582971E-3,2.1893282E-3,1.1115969E-4,-2.479993E-4,-1.10796595E-4,3.2229722E-4,-4.7963785E-4,-1.1052426E-4,-1.5292664E-4,-5.9694053E-6,2.4412751E-4,4.1599222E-4,1.1036794E-5,1.5592203E-4],"categories":[],"categories_nodes":[],"categories_segments":[],"categories_sizes":[],"default_left":[0,0,0,0,0,0,