{"learner":{"attributes":{"scikit_learn":"{\"_estimator_type\": \"regressor\"}"},"feature_names":[],"feature_types":[],"gradient_booster":{"model":{"gbtree_model_param":{"num_parallel_tree":"1","num_trees":"1000"},"iteration_indptr":[0,1,2,3,4,5,6,7,8,9,10,11,12,13,14,15,16,17,18,19,20,21,22,23,24,25,26,27,28,29,30,31,32,33,34,35,36,37,38,39,40,41,42,43,44,45,46,47,48,49,50,51,52,53,54,55,56,57,58,59,60,61,62,63,64,65,66,67,68,69,70,71,72,73,74,75,76,77,78,79,80,81,82,83,84,85,86,87,88,89,90,91,92,93,94,95,96,97,98,99,100,101,102,103,104,105,106,107,108,109,110,111,112,113,114,115,116,117,118,119,120,121,122,123,124,125,126,127,128,129,130,131,132,133,134,135,136,137,138,139,140,141,142,143,144,145,146,147,148,149,150,151,152,153,154,155,156,157,158,159,160,161,162,163,164,165,166,167,168,169,170,171,172,173,174,175,176,177,178,179,180,181,182,183,184,185,186,187,188,189,190,191,192,193,194,195,196,197,198,199,200,201,202,203,204,205,206,207,208,209,210,211,212,213,214,215,216,217,218,219,220,221,222,223,224,225,226,227,228,229,230,231,232,233,234,235,236,237,238,239,240,241,242,243,244,245,246,247,248,249,250,251,252,253,254,255,256,257,258,259,260,261,262,263,264,265,266,267,268,269,270,271,272,273,274,275,276,277,278,279,280,281,282,283,284,285,286,287,288,289,290,291,292,293,294,295,296,297,298,299,300,301,302,303,304,305,306,307,308,309,310,311,312,313,314,315,316,317,318,319,320,321,322,323,324,325,326,327,328,329,330,331,332,333,334,335,336,337,338,339,340,341,342,343,344,345,346,347,348,349,350,351,352,353,354,355,356,357,358,359,360,361,362,363,364,365,366,367,368,369,370,371,372,373,374,375,376,377,378,379,380,381,382,383,384,385,386,387,388,389,390,391,392,393,394,395,396,397,398,399,400,401,402,403,404,405,406,407,408,409,410,411,412,413,414,415,416,417,418,419,420,421,422,423,424,425,426,427,428,429,430,431,432,433,434,435,436,437,438,439,440,441,442,443,444,445,446,447,448,449,450,451,452,453,454,455,456,457,458,459,460,461,462,463,464,465,466,467,468,469,470,471,472,473,474,475,476,477,478,479,480,481,482,483,484,485,486,487,488,489,490,491,492,493,494,495,496,497,498,499,500,501,502,503,504,505,506,507,508,509,510,511,512,513,514,515,516,517,518,519,520,521,522,523,524,525,526,527,528,529,530,531,532,533,534,535,536,537,538,539,540,541,542,543,544,545,546,547,548,549,550,551,552,553,554,555,556,557,558,559,560,561,562,563,564,565,566,567,568,569,570,571,572,573,574,575,576,577,578,579,580,581,582,583,584,585,586,587,588,589,590,591,592,593,594,595,596,597,598,599,600,601,602,603,604,605,606,607,608,609,610,611,612,613,614,615,616,617,618,619,620,621,622,623,624,625,626,627,628,629,630,631,632,633,634,635,636,637,638,639,640,641,642,643,644,645,646,647,648,649,650,651,652,653,654,655,656,657,658,659,660,661,662,663,664,665,666,667,668,669,670,671,672,673,674,675,676,677,678,679,680,681,682,683,684,685,686,687,688,689,690,691,692,693,694,695,696,697,698,699,700,701,702,703,704,705,706,707,708,709,710,711,712,713,714,715,716,717,718,719,720,721,722,723,724,725,726,727,728,729,730,731,732,733,734,735,736,737,738,739,740,741,742,743,744,745,746,747,748,749,750,751,752,753,754,755,756,757,758,759,760,761,762,763,764,765,766,767,768,769,770,771,772,773,774,775,776,777,778,779,780,781,782,783,784,785,786,787,788,789,790,791,792,793,794,795,796,797,798,799,800,801,802,803,804,805,806,807,808,809,810,811,812,813,814,815,816,817,818,819,820,821,822,823,824,825,826,827,828,829,830,831,832,833,834,835,836,837,838,839,840,841,842,843,844,845,846,847,848,849,850,851,852,853,854,855,856,857,858,859,860,861,862,863,864,865,866,867,868,869,870,871,872,873,874,875,876,877,878,879,880,881,882,883,884,885,886,887,888,889,890,891,892,893,894,895,896,897,898,899,900,901,902,903,904,905,906,907,908,909,910,911,912,913,914,915,916,917,918,919,920,921,922,923,924,925,926,927,928,929,930,931,932,933,934,935,936,937,938,939,940,941,942,943,944,945,946,947,948,949,950,951,952,953,954,955,956,957,958,959,960,961,962,963,964,965,966,967,968,969,970,971,972,973,974,975,976,977,978,979,980,981,982,983,984,985,986,987,988,989,990,991,992,993,994,995,996,997,998,999,1000],"tree_info":[0,0,0,0,0,0,0,0,0,0,0,0,0,0,0,0,0,0,0,0,0,0,0,0,0,0,0,0,0,0,0,0,0,0,0,0,0,0,0,0,0,0,0,0,0,0,0,0,0,0,0,0,0,0,0,0,0,0,0,0,0,0,0,0,0,0,0,0,0,0,0,0,0,0,0,0,0,0,0,0,0,0,0,0,0,0,0,0,0,0,0,0,0,0,0,0,0,0,0,0,0,0,0,0,0,0,0,0,0,0,0,0,0,0,0,0,0,0,0,0,0,0,0,0,0,0,0,0,0,0,0,0,0,0,0,0,0,0,0,0,0,0,0,0,0,0,0,0,0,0,0,0,0,0,0,0,0,0,0,0,0,0,0,0,0,0,0,0,0,0,0,0,0,0,0,0,0,0,0,0,0,0,0,0,0,0,0,0,0,0,0,0,0,0,0,0,0,0,0,0,0,0,0,0,0,0,0,0,0,0,0,0,0,0,0,0,0,0,0,0,0,0,0,0,0,0,0,0,0,0,0,0,0,0,0,0,0,0,0,0,0,0,0,0,0,0,0,0,0,0,0,0,0,0,0,0,0,0,0,0,0,0,0,0,0,0,0,0,0,0,0,0,0,0,0,0,0,0,0,0,0,0,0,0,0,0,0,0,0,0,0,0,0,0,0,0,0,0,0,0,0,0,0,0,0,0,0,0,0,0,0,0,0,0,0,0,0,0,0,0,0,0,0,0,0,0,0,0,0,0,0,0,0,0,0,0,0,0,0,0,0,0,0,0,0,0,0,0,0,0,0,0,0,0,0,0,0,0,0,0,0,0,0,0,0,0,0,0,0,0,0,0,0,0,0,0,0,0,0,0,0,0,0,0,0,0,0,0,0,0,0,0,0,0,0,0,0,0,0,0,0,0,0,0,0,0,0,0,0,0,0,0,0,0,0,0,0,0,0,0,0,0,0,0,0,0,0,0,0,0,0,0,0,0,0,0,0,0,0,0,0,0,0,0,0,0,0,0,0,0,0,0,0,0,0,0,0,0,0,0,0,0,0,0,0,0,0,0,0,0,0,0,0,0,0,0,0,0,0,0,0,0,0,0,0,0,0,0,0,0,0,0,0,0,0,0,0,0,0,0,0,0,0,0,0,0,0,0,0,0,0,0,0,0,0,0,0,0,0,0,0,0,0,0,0,0,0,0,0,0,0,0,0,0,0,0,0,0,0,0,0,0,0,0,0,0,0,0,0,0,0,0,0,0,0,0,0,0,0,0,0,0,0,0,0,0,0,0,0,0,0,0,0,0,0,0,0,0,0,0,0,0,0,0,0,0,0,0,0,0,0,0,0,0,0,0,0,0,0,0,0,0,0,0,0,0,0,0,0,0,0,0,0,0,0,0,0,0,0,0,0,0,0,0,0,0,0,0,0,0,0,0,0,0,0,0,0,0,0,0,0,0,0,0,0,0,0,0,0,0,0,0,0,0,0,0,0,0,0,0,0,0,0,0,0,0,0,0,0,0,0,0,0,0,0,0,0,0,0,0,0,0,0,0,0,0,0,0,0,0,0,0,0,0,0,0,0,0,0,0,0,0,0,0,0,0,0,0,0,0,0,0,0,0,0,0,0,0,0,0,0,0,0,0,0,0,0,0,0,0,0,0,0,0,0,0,0,0,0,0,0,0,0,0,0,0,0,0,0,0,0,0,0,0,0,0,0,0,0,0,0,0,0,0,0,0,0,0,0,0,0,0,0,0,0,0,0,0,0,0,0,0,0,0,0,0,0,0,0,0,0,0,0,0,0,0,0,0,0,0,0,0,0,0,0,0,0,0,0,0,0,0,0,0,0,0,0,0,0,0,0,0,0,0,0,0,0,0,0,0,0,0,0,0,0,0,0,0,0,0,0,0,0,0,0,0,0,0,0,0,0,0,0,0,0,0,0,0,0,0,0,0,0,0,0,0,0,0,0,0,0,0,0,0,0,0,0,0,0,0,0,0,0,0,0,0,0,0,0,0,0,0,0,0,0,0,0,0,0,0,0,0,0,0,0,0,0,0,0,0,0,0,0,0,0,0,0,0,0,0,0,0,0,0,0,0,0,0,0,0,0,0,0,0,0,0,0,0,0,0,0,0,0,0,0,0,0,0,0,0,0,0,0,0,0,0,0,0,0,0,0,0,0,0,0,0,0,0,0,0,0,0,0,0,0,0,0,0,0,0,0,0,0,0,0,0,0,0,0,0,0,0,0,0,0,0,0,0,0,0],"trees":[{"base_weights":[1.9795483E-3,-5.9625074E-2,8.066907E-2,-1.03856325E-1,-3.544433E-2,5.055575E-2,5.3141075E-3,-6.5414584E-3,-4.282458E-3,-4.890481E-2,-7.476526E-3,3.1993557E-2,3.143886E-3,-2.9473687E-3,-1.9241242E-3,-8.9618017E-4,2.9038102E-4,3.4423172E-4,1.8629167E-3],"categories":[],"categories_nodes":[],"categories_segments":[],"categories_sizes":[],"default_left":[0,0,0,0,0,0,0,0,0,0,0,0,0,0,0,0,0,0,0],"id":0,"left_children":[1,3,5,7,9,11,-1,-1,-1,13,15,17,-1,-1,-1,-1,-1,-1,-1],"loss_changes":[7.949749E-1,9.4716966E-2,5.016008E-2,4.509747E-3,2.2598423E-2,5.993612E-3,0E0,0E0,0E0,2.0228997E-3,3.0184842E-3,1.8585771E-3,0E0,0E0,0E0,0E0,0E0,0E0,0E0],"parents":[2147483647,0,0,1,1,2,2,3,3,4,4,5,5,9,9,10,10,11,11],"right_children":[2,4,6,8,10,12,-1,-1,-1,14,16,18,-1,-1,-1,-1,-1,-1,-1],"split_conditions":[1.5648532E2,7.3922884E-1,1.6413751E2,1.3653687E2,7.9647356E-1,8.573294E-1,5.3141075E-3,-6.5414584E-3,-4.282458E-3,7.661538E-1,8.203135E-1,8.189036E-1,3.143886E-3,-2.9473687E-3,-1.9241242E-3,-8.9618017E-4,2.9038102E-4,3.4423172E-4,1.8629167E-3],"split_indices":[2,1,2,2,1,1,0,0,0,1,1,1,0,0,0,0,0,0,0],"split_type":[0,0,0,0,0,0,0,0,0,0,0,0,0,0,0,0,0,0,0],"sum_hessian":[1.62E2,9.1E1,7.1E1,3.1E1,6E1,3.4E1,3.7E1,1E1,2.1E1,4E1,2E1,1.5E1,1.9E1,1.8E1,2.2E1,1.1E1,9E0,3E0,1.2E1],"tree_param":{"num_deleted":"0","num_feature":"4","num_nodes":"19","size_leaf_vector":"1"}},{"base_weights":[7.8375376E-4,-5.608906E-2,7.832571E-2,-1.01701684E-1,-3.1587716E-2,5.3081352E-2,5.534508E-3,-6.4667887E-3,-4.119187E-3,-4.5087457E-2,-4.369747E-3,3.754577E-2,3.372925E-3,-2.789732E-3,-1.8215681E-3,-6.8287103E-4,3.606218E-4,4.387975E-4,2.005614E-3],"categories":[],"categories_nodes":[],"categories_segments":[],"categories_sizes":[],"default_left":[0,0,0,0,0,0,0,0,0,0,0,0,0,0,0,0,0,0,0],"id":1,"left_children":[1,3,5,7,9,11,-1,-1,-1,13,15,17,-1,-1,-1,-1,-1,-1,-1],"loss_changes":[6.879478E-1,9.736881E-2,4.804772E-2,5.8937073E-3,2.184911E-2,6.1781555E-3,0E0,0E0,0E0,1.6746297E-3,2.3575057E-3,1.1985749E-3,0E0,0E0,0E0,0E0,0E0,0E0,0E0],"parents":[2147483647,0,0,1,1,2,2,3,3,4,4,5,5,9,9,10,10,11,11],"right_children":[2,4,6,8,10,12,-1,-1,-1,14,16,18,-1,-1,-1,-1,-1,-1,-1],"split_conditions":[1.5648532E2,7.3922884E-1,8.984452E-1,1.3585474E2,7.933149E-1,8.681605E-1,5.534508E-3,-6.4667887E-3,-4.119187E-3,7.628034E-1,8.203135E-1,8.1329334E-1,3.372925E-3,-2.789732E-3,-1.8215681E-3,-6.8287103E-4,3.606218E-4,4.387975E-4,2.005614E-3],"split_indices":[2,1,1,2,1,1,0,0,0,1,1,1,0,0,0,0,0,0,0],"split_type":[0,0,0,0,0,0,0,0,0,0,0,0,0,0,0,0,0,0,0],"sum_hessian":[1.54E2,8.9E1,6.5E1,3E1,5.9E1,3.8E1,2.7E1,1E1,2E1,3.9E1,2E1,2E1,1.8E1,1.5E1,2.4E1,1.1E1,9E0,2E0,1.8E1],"tree_param":{"num_deleted":"0","num_feature":"4","num_nodes":"19","size_leaf_vector":"1"}},{"base_weights":[5.7294685E-4,-6.0786996E-2,6.970284E-2,-9.789094E-2,-3.656681E-2,3.654631E-2,9.5971115E-2,-6.0790866E-3,-3.8264655E-3,-2.7639049E-3,-2.6135668E-2,1.79386E-2,4.7744386E-2,3.5553065E-3,5.352563E-3,-1.5184993E-3,-6.5692264E-5,-1.736477E-4,9.926398E-4,5.409658E-4,2.4559188E-3],"categories":[],"categories_nodes":[],"categories_segments":[],"categories_sizes":[],"default_left":[0,0,0,0,0,0,0,0,0,0,0,0,0,0,0,0,0,0,0,0,0],"id":2,"left_children":[1,3,5,7,9,11,13,-1,-1,-1,15,17,19,-1,-1,-1,-1,-1,-1,-1,-1],"loss_changes":[6.4050794E-1,6.83136E-2,5.8331132E-2,6.383717E-3,8.314274E-3,6.0197636E-3,3.1327903E-3,0E0,0E0,0E0,3.5336167E-3,6.42749E-4,4.8326328E-4,0E0,0E0,0E0,0E0,0E0,0E0,0E0,0E0],"parents":[2147483647,0,0,1,1,2,2,3,3,4,4,5,5,6,6,10,10,11,11,12,12],"right_children":[2,4,6,8,10,12,14,-1,-1,-1,16,18,20,-1,-1,-1,-1,-1,-1,-1,-1],"split_conditions":[8.203135E-1,7.374263E-1,8.812561E-1,1.3653687E2,7.655673E-1,1.5764452E2,9.0227497E-1,-6.0790866E-3,-3.8264655E-3,-2.7639049E-3,1.5200435E2,1.4531024E2,8.300835E-1,3.5553065E-3,5.352563E-3,-1.5184993E-3,-6.5692264E-5,-1.736477E-4,9.926398E-4,5.409658E-4,2.4559188E-3],"split_indices":[1,1,1,2,1,2,1,0,0,0,2,2,0,0,0,0,0,0,0,0,0],"split_type":[0,0,0,0,0,0,0,0,0,0,0,0,0,0,0,0,0,0,0,0,0],"sum_hessian":[1.49E2,7.9E1,7E1,3E1,4.9E1,3.2E1,3.8E1,1.2E1,1.8E1,1.6E1,3.3E1,1.3E1,1.9E1,1.4E1,2.4E1,2.8E1,5E0,1E0,1.2E1,1E0,1.8E1],"tree_param":{"num_deleted":"0","num_feature":"4","num_nodes":"21","size_leaf_vector":"1"}},{"base_weights":[-2.7097457E-3,-5.5870604E-2,6.7470685E-2,-8.163309E-2,-2.5431544E-2,3.2143347E-2,8.673955E-2,-5.9128995E-3,-3.228943E-3,-3.37385E-2,-8.2665235E-3,1.9091398E-2,4.6867337E-2,2.195119E-3,9.206756E-2,-1.8563044E-3,-1.2188405E-4,1.2735592E-4,-9.6992776E-4,2.8838345E-4,1.3254434E-3,2.4605019E-3,5.274415E-4,3.4404106E-3,4.978921E-3],"categories":[],"categories_nodes":[],"categories_segments":[],"categories_sizes":[],"default_left":[0,0,0,0,0,0,0,0,0,0,0,0,0,0,0,0,0,0,0,0,0,0,0,0,0],"id":3,"left_children":[1,3,5,7,9,11,13,-1,-1,15,17,19,21,-1,23,-1,-1,-1,-1,-1,-1,-1,-1,-1,-1],"loss_changes":[6.2309104E-1,7.242161E-2,4.622355E-2,2.4218112E-2,6.1376058E-3,4.29401E-3,6.4569116E-3,0E0,0E0,3.0905232E-3,1.9754553E-3,1.4283587E-3,5.0188974E-4,0E0,1.361072E-4,0E0,0E0,0E0,0E0,0E0,0E0,0E0,0E0,0E0,0E0],"parents":[2147483647,0,0,1,1,2,2,3,3,4,4,5,5,6,6,9,9,10,10,11,11,12,12,14,14],"right_children":[2,4,6,8,10,12,14,-1,-1,16,18,20,22,-1,24,-1,-1,-1,-1,-1,-1,-1,-1,-1,-1],"split_conditions":[1.54938E2,7.7221537E-1,1.6176814E2,1.3653687E2,1.470746E2,1.3823863E2,8.808492E-1,-5.9128995E-3,-3.228943E-3,8.2504976E-1,1.3821791E2,8.56682E-1,1.613568E2,2.195119E-3,1.4137022E2,-1.8563044E-3,-1.2188405E-4,1.2735592E-4,-9.6992776E-4,2.8838345E-4,1.3254434E-3,2.4605019E-3,5.274415E-4,3.4404106E-3,4.978921E-3],"split_indices":[2,0,2,2,2,3,0,0,0,0,3,0,2,0,3,0,0,0,0,0,0,0,0,0,0],"split_type":[0,0,0,0,0,0,0,0,0,0,0,0,0,0,0,0,0,0,0,0,0,0,0,0,0],"sum_hessian":[1.65E2,9.4E1,7.1E1,5E1,4.4E1,2.6E1,4.5E1,1.4E1,3.6E1,2.9E1,1.5E1,1.5E1,1.1E1,6E0,3.9E1,2.6E1,3E0,8E0,7E0,6E0,9E0,1E1,1E0,1.2E1,2.7E1],"tree_param":{"num_deleted":"0","num_feature":"4","num_nodes":"25","size_leaf_vector":"1"}},{"base_weights":[-1.2188387E-3,-5.377121E-2,6.0107887E-2,-9.05821E-2,-3.1265322E-2,3.204165E-2,8.88081E-2,-5.633447E-3,-3.3607595E-3,-4.0187217E-2,-7.3838583E-3,7.3803524E-3,4.1991826E-2,3.4169003E-3,5.1062466E-3,-2.04689E-3,-2.3533255E-4,-6.6271616E-4,1.4479969E-4,-5.3402782E-5,5.626937E-4,1.4013967E-3,2.3437093E-3],"categories":[],"categories_nodes":[],"categories_segments":[],"categories_sizes":[],"default_left":[0,0,0,0,0,0,0,0,0,0,0,0,0,0,0,0,0,0,0,0,0,0,0],"id":4,"left_children":[1,3,5,7,9,11,13,-1,-1,15,17,19,21,-1,-1,-1,-1,-1,-1,-1,-1,-1,-1],"loss_changes":[5.446734E-1,7.2557956E-2,5.9984E-2,9.9743605E-3,1.2061197E-2,9.750843E-3,3.3796728E-3,0E0,0E0,9.2582405E-4,1.0642922E-3,4.3744606E-4,6.6333637E-4,0E0,0E0,0E0,0E0,0E0,0E0,0E0,0E0,0E0,0E0],"parents":[2147483647,0,0,1,1,2,2,3,3,4,4,5,5,6,6,9,9,10,10,11,11,12,12],"right_children":[2,4,6,8,10,12,14,-1,-1,16,18,20,22,-1,-1,-1,-1,-1,-1,-1,-1,-1,-1],"split_conditions":[8.203135E-1,7.3922884E-1,8.843197E-1,1.3653687E2,7.9647356E-1,1.5703258E2,9.121548E-1,-5.633447E-3,-3.3607595E-3,1.5200435E2,1.5031227E2,1.3745726E2,1.3823863E2,3.4169003E-3,5.1062466E-3,-2.04689E-3,-2.3533255E-4,-6.6271616E-4,1.4479969E-4,-5.3402782E-5,5.626937E-4,1.4013967E-3,2.3437093E-3],"split_indices":[1,1,1,2,1,2,1,0,0,2,2,3,3,0,0,0,0,0,0,0,0,0,0],"split_type":[0,0,0,0,0,0,0,0,0,0,0,0,0,0,0,0,0,0,0,0,0,0,0],"sum_hessian":[1.67E2,9E1,7.7E1,3.3E1,5.7E1,4E1,3.7E1,1.5E1,1.8E1,4.1E1,1.6E1,1.2E1,2.8E1,1.7E1,2E1,4E1,1E0,1E1,6E0,4E0,8E0,9E0,1.9E1],"tree_param":{"num_deleted":"0","num_feature":"4","num_nodes":"23","size_leaf_vector":"1"}},{"base_weights":[3.2841953E-4,-4.9412135E-2,5.8047973E-2,-8.11454E-2,-3.172488E-2,2.2739664E-2,7.627237E-2,-5.036646E-3,-3.41247E-3,-3.7544508E-2,-9.090134E-3,1.60538E-2,1.6110366E-3,5.881724E-2,4.673471E-3,-2.3791674E-3,-1.5362197E-3,-8.89646E-4,-1.1391309E-4,3.8713854E-4,9.6470304E-4,6.943673E-4,2.9962952E-3],"categories":[],"categories_nodes":[],"categories_segments":[],"categories_sizes":[],"default_left":[0,0,0,0,0,0,0,0,0,0,0,0,0,0,0,0,0,0,0,0,0,0,0],"id":5,"left_children":[1,3,5,7,9,11,13,-1,-1,15,17,19,-1,21,-1,-1,-1,-1,-1,-1,-1,-1,-1],"loss_changes":[5.024227E-1,5.018547E-2,5.0386906E-2,1.4608502E-3,7.825714E-3,1.3210205E-3,1.041171E-2,0E0,0E0,1.8928647E-3,7.8941474E-4,3.622789E-4,0E0,6.1234087E-4,0E0,0E0,0E0,0E0,0E0,0E0,0E0,0E0,0E0],"parents":[2147483647,0,0,1,1,2,2,3,3,4,4,5,5,6,6,9,9,10,10,11,11,13,13],"right_children":[2,4,6,8,10,12,14,-1,-1,16,18,20,-1,22,-1,-1,-1,-1,-1,-1,-1,-1,-1],"split_conditions":[8.203135E-1,7.3922884E-1,8.6942726E-1,7.063374E-1,7.9647356E-1,1.3821791E2,9.0524626E-1,-5.036646E-3,-3.41247E-3,7.628034E-1,1.3785175E2,8.56682E-1,1.6110366E-3,1.3769115E2,4.673471E-3,-2.3791674E-3,-1.5362197E-3,-8.89646E-4,-1.1391309E-4,3.8713854E-4,9.6470304E-4,6.943673E-4,2.9962952E-3],"split_indices":[1,1,1,1,1,3,1,0,0,1,3,0,0,3,0,0,0,0,0,0,0,0,0],"split_type":[0,0,0,0,0,0,0,0,0,0,0,0,0,0,0,0,0,0,0,0,0,0,0],"sum_hessian":[1.73E2,9.3E1,8E1,3.2E1,6.1E1,2.8E1,5.2E1,1E1,2.2E1,4.8E1,1.3E1,1.8E1,1E1,2.8E1,2.4E1,1.7E1,3.1E1,5E0,8E0,6E0,1.2E1,1E0,2.7E1],"tree_param":{"num_deleted":"0","num_feature":"4","num_nodes":"23","size_leaf_vector":"1"}},{"base_weights":[-3.0078182E-3,-4.4506244E-2,6.0243748E-2,-7.903352E-2,-2.5229923E-2,3.934542E-2,7.9316504E-2,-5.027101E-3,-6.1753854E-2,-3.5513762E-2,-4.9066595E-3,9.6953614E-4,4.49553E-2,1.6509036E-3,4.06192E-3,-3.3122736E-3,-1.6616632E-3,-1.9316691E-3,-1.1463192E-3,-1.1414653E-3,3.403582E-6,1.3372754E-3,2.464905E-3],"categories":[],"categories_nodes":[],"categories_segments":[],"categories_sizes":[],"default_left":[0,0,0,0,0,0,0,0,0,0,0,0,0,0,0,0,0,0,0,0,0,0,0],"id":6,"left_children":[1,3,5,7,9,11,13,-1,15,17,19,-1,21,-1,-1,-1,-1,-1,-1,-1,-1,-1,-1],"loss_changes":[4.3053022E-1,6.38963E-2,2.2787511E-2,6.799236E-3,1.3410822E-2,2.8224178E-3,2.54035E-4,0E0,6.1672926E-4,8.027926E-4,2.052242E-3,0E0,6.5853447E-4,0E0,0E0,0E0,0E0,0E0,0E0,0E0,0E0,0E0,0E0],"parents":[2147483647,0,0,1,1,2,2,3,3,4,4,5,5,6,6,8,8,9,9,10,10,12,12],"right_children":[2,4,6,8,10,12,14,-1,16,18,20,-1,22,-1,-1,-1,-1,-1,-1,-1,-1,-1,-1],"split_conditions":[1.5648532E2,1.367978E2,1.6413751E2,1.3653687E2,8.06507E-1,1.3823863E2,8.787754E-1,-5.027101E-3,1.4568309E2,7.928657E-1,1.4292455E2,9.6953614E-4,8.6198455E-1,1.6509036E-3,4.06192E-3,-3.3122736E-3,-1.6616632E-3,-1.9316691E-3,-1.1463192E-3,-1.1414653E-3,3.403582E-6,1.3372754E-3,2.464905E-3],"split_indices":[2,3,2,2,0,3,0,0,2,0,2,0,0,0,0,0,0,0,0,0,0,0,0],"split_type":[0,0,0,0,0,0,0,0,0,0,0,0,0,0,0,0,0,0,0,0,0,0,0],"sum_hessian":[1.62E2,9.8E1,6.4E1,3.4E1,6.4E1,3.2E1,3.2E1,1.3E1,2.1E1,4.2E1,2.2E1,8E0,2.4E1,2E0,3E1,1.7E1,4E0,3.2E1,1E1,4E0,1.8E1,6E0,1.8E1],"tree_param":{"num_deleted":"0","num_feature":"4","num_nodes":"23","size_leaf_vector":"1"}},{"base_weights":[7.486932E-4,-4.700149E-2,5.612892E-2,-7.604124E-2,-2.7846802E-2,2.7746549E-2,7.151595E-2,-4.854398E-3,-5.8389083E-2,-3.6121756E-2,-1.1973294E-2,5.714808E-3,3.349544E-2,5.965201E-2,4.4820625E-3,-3.0546882E-3,-1.0898203E-3,-2.0875495E-3,-1.3852724E-3,-1.53296E-3,-8.875536E-5,4.6934962E-4,-1.15521754E-4,1.1306304E-3,1.9645141E-3,8.5235684E-4,3.0238228E-3],"categories":[],"categories_nodes":[],"categories_segments":[],"categories_sizes":[],"default_left":[0,0,0,0,0,0,0,0,0,0,0,0,0,0,0,0,0,0,0,0,0,0,0,0,0,0,0],"id":7,"left_children":[1,3,5,7,9,11,13,-1,15,17,19,21,23,25,-1,-1,-1,-1,-1,-1,-1,-1,-1,-1,-1,-1,-1],"loss_changes":[4.283891E-1,4.6276018E-2,3.076969E-2,6.962806E-3,6.6605397E-3,3.3550076E-3,4.974529E-3,0E0,7.4677914E-4,5.014762E-4,3.7568235E-3,2.2797921E-4,4.9895793E-4,9.305775E-5,0E0,0E0,0E0,0E0,0E0,0E0,0E0,0E0,0E0,0E0,0E0,0E0,0E0],"parents":[2147483647,0,0,1,1,2,2,3,3,4,4,5,5,6,6,8,8,9,9,10,10,11,11,12,12,13,13],"right_children":[2,4,6,8,10,12,14,-1,16,18,20,22,24,26,-1,-1,-1,-1,-1,-1,-1,-1,-1,-1,-1,-1,-1],"split_conditions":[1.5383739E2,1.367978E2,1.61714E2,1.3722427E2,7.999647E-1,1.5648532E2,1.6868565E2,-4.854398E-3,1.4595894E2,7.792719E-1,1.436235E2,1.5607375E2,1.3978717E2,8.4050024E-1,4.4820625E-3,-3.0546882E-3,-1.0898203E-3,-2.0875495E-3,-1.3852724E-3,-1.53296E-3,-8.875536E-5,4.6934962E-4,-1.15521754E-4,1.1306304E-3,1.9645141E-3,8.5235684E-4,3.0238228E-3],"split_indices":[2,3,2,2,0,2,2,0,2,0,2,2,3,0,0,0,0,0,0,0,0,0,0,0,0,0,0],"split_type":[0,0,0,0,0,0,0,0,0,0,0,0,0,0,0,0,0,0,0,0,0,0,0,0,0,0,0],"sum_hessian":[1.6E2,8.6E1,7.4E1,3.3E1,5.3E1,2.7E1,4.7E1,1.3E1,2E1,3.4E1,1.9E1,6E0,2.1E1,3.1E1,1.6E1,1.8E1,2E0,1.8E1,1.6E1,6E0,1.3E1,4E0,2E0,9E0,1.2E1,1E0,3E1],"tree_param":{"num_deleted":"0","num_feature":"4","num_nodes":"27","size_leaf_vector":"1"}},{"base_weights":[4.884671E-4,-3.956165E-2,5.4461986E-2,-7.19158E-2,-2.3777496E-2,3.1602755E-2,7.123568E-2,-4.425892E-3,-2.882263E-3,-3.481113E-2,-7.368026E-3,4.5282394E-3,3.4341875E-2,2.7876853E-3,4.033238E-3,-1.8522509E-3,-6.3292444E-4,-8.4206276E-4,6.666541E-5,3.5864217E-4,-8.5139276E-5,1.1580898E-3,1.9633132E-3],"categories":[],"categories_nodes":[],"categories_segments":[],"categories_sizes":[],"default_left":[0,0,0,0,0,0,0,0,0,0,0,0,0,0,0,0,0,0,0,0,0,0,0],"id":8,"left_children":[1,3,5,7,9,11,13,-1,-1,15,17,19,21,-1,-1,-1,-1,-1,-1,-1,-1,-1,-1],"loss_changes":[3.5017958E-1,4.578352E-2,2.420567E-2,2.004981E-3,1.1331104E-2,2.1434594E-3,1.1958927E-3,0E0,0E0,1.4115497E-3,2.2480572E-3,7.812817E-5,6.320663E-4,0E0,0E0,0E0,0E0,0E0,0E0,0E0,0E0,0E0,0E0],"parents":[2147483647,0,0,1,1,2,2,3,3,4,4,5,5,6,6,9,9,10,10,11,11,12,12],"right_children":[2,4,6,8,10,12,14,-1,-1,16,18,20,22,-1,-1,-1,-1,-1,-1,-1,-1,-1,-1],"split_conditions":[1.5646225E2,7.374263E-1,8.812561E-1,1.3653687E2,7.840104E-1,8.189036E-1,9.0524626E-1,-4.425892E-3,-2.882263E-3,1.4914963E2,1.470746E2,8.1329334E-1,1.3978717E2,2.7876853E-3,4.033238E-3,-1.8522509E-3,-6.3292444E-4,-8.4206276E-4,6.666541E-5,3.5864217E-4,-8.5139276E-5,1.1580898E-3,1.9633132E-3],"split_indices":[2,1,1,2,1,1,1,0,0,2,2,1,3,0,0,0,0,0,0,0,0,0,0],"split_type":[0,0,0,0,0,0,0,0,0,0,0,0,0,0,0,0,0,0,0,0,0,0,0],"sum_hessian":[1.6E2,9.2E1,6.8E1,2.9E1,6.3E1,3E1,3.8E1,1.1E1,1.8E1,3.7E1,2.6E1,3E0,2.7E1,1.7E1,2.1E1,3.3E1,4E0,1.2E1,1.4E1,2E0,1E0,1E1,1.7E1],"tree_param":{"num_deleted":"0","num_feature":"4","num_nodes":"23","size_leaf_vector":"1"}},{"base_weights":[1.7986256E-3,-3.6373153E-2,5.4259837E-2,-6.179935E-2,-1.8816134E-2,2.7803188E-2,6.53447E-2,-4.367163E-3,-5.0373275E-2,-2.8548667E-2,-6.6736424E-3,1.8363476E-2,3.2559898E-2,5.3993925E-2,4.05113E-3,-2.7672306E-3,-1.4892009E-3,-1.4927102E-3,-7.6334056E-4,-5.4364087E-4,3.7385695E-4,1.3459824E-3,5.4254406E-4,1.7052926E-3,3.115624E-4,1.6830547E-3,2.8695732E-3],"categories":[],"categories_nodes":[],"categories_segments":[],"categories_sizes":[],"default_left":[0,0,0,0,0,0,0,0,0,0,0,0,0,0,0,0,0,0,0,0,0,0,0,0,0,0,0],"id":9,"left_children":[1,3,5,7,9,11,13,-1,15,17,19,21,23,25,-1,-1,-1,-1,-1,-1,-1,-1,-1,-1,-1,-1,-1],"loss_changes":[3.4240502E-1,4.3031573E-2,1.9298524E-2,7.274896E-3,6.9001056E-3,4.3483265E-4,4.5230985E-3,0E0,1.4223009E-3,1.164414E-4,1.7451021E-3,3.5068858E-4,3.5731774E-4,2.7875602E-4,0E0,0E0,0E0,0E0,0E0,0E0,0E0,0E0,0E0,0E0,0E0,0E0,0E0],"parents":[2147483647,0,0,1,1,2,2,3,3,4,4,5,5,6,6,8,8,9,9,10,10,11,11,12,12,13,13],"right_children":[2,4,6,8,10,12,14,-1,16,18,20,22,24,26,-1,-1,-1,-1,-1,-1,-1,-1,-1,-1,-1,-1,-1],"split_conditions":[1.5648532E2,1.3720265E2,1.6176814E2,1.3653687E2,7.999647E-1,1.3823863E2,1.6765106E2,-4.367163E-3,1.4568309E2,1.4914963E2,8.5342264E-1,1.3769115E2,1.613568E2,8.808492E-1,4.05113E-3,-2.7672306E-3,-1.4892009E-3,-1.4927102E-3,-7.6334056E-4,-5.4364087E-4,3.7385695E-4,1.3459824E-3,5.4254406E-4,1.7052926E-3,3.115624E-4,1.6830547E-3,2.8695732E-3],"split_indices":[2,3,2,2,0,3,2,0,2,2,0,3,2,0,0,0,0,0,0,0,0,0,0,0,0,0,0],"split_type":[0,0,0,0,0,0,0,0,0,0,0,0,0,0,0,0,0,0,0,0,0,0,0,0,0,0,0],"sum_hessian":[1.69E2,9.8E1,7.1E1,3.9E1,5.9E1,2.2E1,4.9E1,1E1,2.9E1,3.2E1,2.7E1,9E0,1.3E1,3.1E1,1.8E1,2.2E1,7E0,2.8E1,4E0,2.1E1,6E0,3E0,6E0,1.2E1,1E0,6E0,2.5E1],"tree_param":{"num_deleted":"0","num_feature":"4","num_nodes":"27","size_leaf_vector":"1"}},{"base_weights":[1.421857E-3,-3.8936995E-2,4.8825733E-2,-6.7003384E-2,-2.4063002E-2,2.9060498E-2,6.7864455E-2,-4.1255807E-3,-2.6786437E-3,-2.9445171E-2,-6.4125545E-3,8.144345E-3,3.3884283E-2,2.4546708E-3,3.7542046E-3,-1.8246066E-3,-1.1554168E-3,-5.825746E-4,9.938607E-5,-1.7520339E-4,5.019203E-4,1.3691153E-3,2.0376255E-3],"categories":[],"categories_nodes":[],"categories_segments":[],"categories_sizes":[],"default_left":[0,0,0,0,0,0,0,0,0,0,0,0,0,0,0,0,0,0,0,0,0,0,0],"id":10,"left_children":[1,3,5,7,9,11,13,-1,-1,15,17,19,21,-1,-1,-1,-1,-1,-1,-1,-1,-1,-1],"loss_changes":[3.3287883E-1,3.762886E-2,2.8132215E-2,2.2446811E-3,5.7960376E-3,3.8607307E-3,1.7346591E-3,0E0,0E0,1.3001896E-3,7.272963E-4,2.3374043E-4,3.5778806E-4,0E0,0E0,0E0,0E0,0E0,0E0,0E0,0E0,0E0,0E0],"parents":[2147483647,0,0,1,1,2,2,3,3,4,4,5,5,6,6,9,9,10,10,11,11,12,12],"right_children":[2,4,6,8,10,12,14,-1,-1,16,18,20,22,-1,-1,-1,-1,-1,-1,-1,-1,-1,-1],"split_conditions":[8.203135E-1,7.3922884E-1,8.8706845E-1,1.3653687E2,7.9647356E-1,1.5646225E2,9.0227497E-1,-4.1255807E-3,-2.6786437E-3,7.628034E-1,1.5031227E2,1.4531024E2,1.6176814E2,2.4546708E-3,3.7542046E-3,-1.8246066E-3,-1.1554168E-3,-5.825746E-4,9.938607E-5,-1.7520339E-4,5.019203E-4,1.3691153E-3,2.0376255E-3],"split_indices":[1,1,1,2,1,2,1,0,0,1,2,2,2,0,0,0,0,0,0,0,0,0,0],"split_type":[0,0,0,0,0,0,0,0,0,0,0,0,0,0,0,0,0,0,0,0,0,0,0],"sum_hessian":[1.72E2,9.3E1,7.9E1,3.1E1,6.2E1,4E1,3.9E1,1.2E1,1.9E1,4.7E1,1.5E1,8E0,3.2E1,1.3E1,2.6E1,2E1,2.7E1,9E0,6E0,1E0,7E0,1.9E1,1.3E1],"tree_param":{"num_deleted":"0","num_feature":"4","num_nodes":"23","size_leaf_vector":"1"}},{"base_weights":[-8.5888343E-4,-3.451823E-2,4.7773805E-2,-5.594745E-2,-1.5008542E-2,1.8293938E-2,6.0087975E-2,-4.143189E-3,-4.6385366E-2,-2.1934433E-2,6.470084E-4,3.6879182E-3,2.0654535E-2,2.4404812E-3,3.7564752E-3,-5.653307E-4,-2.3552866E-3,-1.3111096E-3,-3.5552052E-4,-7.7799654E-5,3.8225055E-4,3.2529136E-4,-1.1914522E-4,6.159553E-4,1.2040607E-3],"categories":[],"categories_nodes":[],"categories_segments":[],"categories_sizes":[],"default_left":[0,0,0,0,0,0,0,0,0,0,0,0,0,0,0,0,0,0,0,0,0,0,0,0,0],"id":11,"left_children":[1,3,5,7,9,11,13,-1,15,17,19,21,23,-1,-1,-1,-1,-1,-1,-1,-1,-1,-1,-1,-1],"loss_changes":[2.521016E-1,3.7205346E-2,2.1771014E-2,7.2235167E-3,5.327195E-3,6.134063E-4,3.797263E-3,0E0,3.265664E-4,1.9746516E-3,2.5856134E-4,8.393086E-5,1.88909E-4,0E0,0E0,0E0,0E0,0E0,0E0,0E0,0E0,0E0,0E0,0E0,0E0],"parents":[2147483647,0,0,1,1,2,2,3,3,4,4,5,5,6,6,8,8,9,9,10,10,11,11,12,12],"right_children":[2,4,6,8,10,12,14,-1,16,18,20,22,24,-1,-1,-1,-1,-1,-1,-1,-1,-1,-1,-1,-1],"split_conditions":[1.5648532E2,7.628034E-1,8.681605E-1,1.3585474E2,8.079005E-1,8.189036E-1,1.6678926E2,-4.143189E-3,1.3620761E2,1.470746E2,8.450687E-1,8.1329334E-1,1.5764452E2,2.4404812E-3,3.7564752E-3,-5.653307E-4,-2.3552866E-3,-1.3111096E-3,-3.5552052E-4,-7.7799654E-5,3.8225055E-4,3.2529136E-4,-1.1914522E-4,6.159553E-4,1.2040607E-3],"split_indices":[2,1,1,2,1,1,2,0,2,2,1,1,2,0,0,0,0,0,0,0,0,0,0,0,0],"split_type":[0,0,0,0,0,0,0,0,0,0,0,0,0,0,0,0,0,0,0,0,0,0,0,0,0],"sum_hessian":[1.52E2,9E1,6.2E1,4.2E1,4.8E1,1.9E1,4.3E1,9E0,3.3E1,3.3E1,1.5E1,3E0,1.6E1,2.7E1,1.6E1,1E0,3.2E1,2.5E1,8E0,1.2E1,3E0,2E0,1E0,6E0,1E1],"tree_param":{"num_deleted":"0","num_feature":"4","num_nodes":"25","size_leaf_vector":"1"}},{"base_weights":[2.7559535E-4,-4.1402195E-2,3.4249056E-2,-6.1420783E-2,-2.81694E-2,1.2378238E-2,5.237298E-2,-3.132907E-3,-6.693721E-4,-3.187528E-2,-1.7157307E-2,1.7728538E-3,2.0700298E-2,4.10524E-2,6.387747E-2,-1.6390857E-3,-5.79077E-4,-4.5672027E-4,-1.3166055E-3,1.396551E-4,-4.4029654E-4,1.7775373E-4,1.1490163E-3,4.6666115E-4,2.0940755E-3,9.0140104E-4,3.257104E-3],"categories":[],"categories_nodes":[],"categories_segments":[],"categories_sizes":[],"default_left":[0,0,0,0,0,0,0,0,0,0,0,0,0,0,0,0,0,0,0,0,0,0,0,0,0,0,0],"id":12,"left_children":[1,3,5,7,9,11,13,-1,-1,15,17,19,21,23,25,-1,-1,-1,-1,-1,-1,-1,-1,-1,-1,-1,-1],"loss_changes":[2.3646383E-1,1.813747E-2,3.581913E-2,8.8475645E-4,1.371149E-3,3.758423E-3,3.8895458E-3,0E0,0E0,2.4576485E-4,7.899911E-4,2.4045556E-4,8.56502E-4,3.4546852E-4,1.5919656E-4,0E0,0E0,0E0,0E0,0E0,0E0,0E0,0E0,0E0,0E0,0E0,0E0],"parents":[2147483647,0,0,1,1,2,2,3,3,4,4,5,5,6,6,9,9,10,10,11,11,12,12,13,13,14,14],"right_children":[2,4,6,8,10,12,14,-1,-1,16,18,20,22,24,26,-1,-1,-1,-1,-1,-1,-1,-1,-1,-1,-1,-1],"split_conditions":[7.9647356E-1,7.362239E-1,8.6942726E-1,1.4568309E2,1.4669879E2,1.5646225E2,8.984452E-1,-3.132907E-3,-6.693721E-4,7.9108894E-1,1.3897775E2,1.390238E2,8.189036E-1,1.3769115E2,1.3850752E2,-1.6390857E-3,-5.79077E-4,-4.5672027E-4,-1.3166055E-3,1.396551E-4,-4.4029654E-4,1.7775373E-4,1.1490163E-3,4.6666115E-4,2.0940755E-3,9.0140104E-4,3.257104E-3],"split_indices":[1,1,1,2,2,2,1,0,0,1,3,3,1,3,3,0,0,0,0,0,0,0,0,0,0,0,0],"split_type":[0,0,0,0,0,0,0,0,0,0,0,0,0,0,0,0,0,0,0,0,0,0,0,0,0,0,0],"sum_hessian":[1.65E2,7.4E1,9.1E1,2.8E1,4.6E1,4.2E1,4.9E1,2.7E1,1E0,3.3E1,1.3E1,1.9E1,2.3E1,2.7E1,2.2E1,3.1E1,2E0,8E0,5E0,1.8E1,1E0,3E0,2E1,1E0,2.6E1,1E0,2.1E1],"tree_param":{"num_deleted":"0","num_feature":"4","num_nodes":"27","size_leaf_vector":"1"}},{"base_weights":[-3.2926863E-4,-3.4964826E-2,4.1902155E-2,-3.2606148E-3,-2.3435978E-2,2.4630563E-2,5.804126E-2,-3.4817543E-2,-1.5167524E-2,7.765591E-3,2.830687E-2,2.3310764E-3,3.2708477E-3,-1.8173779E-3,-5.2307843E-4,-9.976899E-4,-2.930075E-4,5.9030176E-4,3.8681927E-5,1.1456474E-3,1.724417E-3],"categories":[],"categories_nodes":[],"categories_segments":[],"categories_sizes":[],"default_left":[0,0,0,0,0,0,0,0,0,0,0,0,0,0,0,0,0,0,0,0,0],"id":13,"left_children":[1,3,5,-1,7,9,11,13,15,17,19,-1,-1,-1,-1,-1,-1,-1,-1,-1,-1],"loss_changes":[2.3696126E-1,2.950763E-2,1.891902E-2,0E0,5.683027E-3,2.07421E-3,6.661564E-5,6.259009E-4,1.6649738E-3,2.1687112E-4,2.1003932E-4,0E0,0E0,0E0,0E0,0E0,0E0,0E0,0E0,0E0,0E0],"parents":[2147483647,0,0,1,1,2,2,4,4,5,5,6,6,7,7,8,8,9,9,10,10],"right_children":[2,4,6,-1,8,10,12,14,16,18,20,-1,-1,-1,-1,-1,-1,-1,-1,-1,-1],"split_conditions":[8.189036E-1,7.3295754E-1,8.8706845E-1,-3.2606148E-3,7.661538E-1,1.5646225E2,1.6627963E2,1.4771408E2,7.9647356E-1,8.3511156E-1,1.6176814E2,2.3310764E-3,3.2708477E-3,-1.8173779E-3,-5.2307843E-4,-9.976899E-4,-2.930075E-4,5.9030176E-4,3.8681927E-5,1.1456474E-3,1.724417E-3],"split_indices":[1,1,1,0,1,2,2,2,1,1,2,0,0,0,0,0,0,0,0,0,0],"split_type":[0,0,0,0,0,0,0,0,0,0,0,0,0,0,0,0,0,0,0,0,0],"sum_hessian":[1.6E2,8.8E1,7.2E1,2.3E1,6.5E1,3.6E1,3.6E1,2.6E1,3.9E1,7E0,2.9E1,1.7E1,1.9E1,2.4E1,2E0,2.5E1,1.4E1,4E0,3E0,1.8E1,1.1E1],"tree_param":{"num_deleted":"0","num_feature":"4","num_nodes":"21","size_leaf_vector":"1"}},{"base_weights":[-1.7378258E-3,-3.2080337E-2,4.0124394E-2,-5.2291032E-2,-1.6603028E-2,2.1794852E-2,5.2255232E-2,-5.8230124E-2,-1.099914E-3,-2.3745732E-2,-6.2540327E-3,1.2846555E-2,2.6829246E-2,2.1446247E-3,3.4873511E-3,-3.5701792E-3,-2.3377936E-3,-1.4447087E-3,-9.2110917E-4,-8.4947835E-4,-2.4769455E-5,1.0189757E-3,4.035589E-4,7.597208E-4,1.4620196E-3],"categories":[],"categories_nodes":[],"categories_segments":[],"categories_sizes":[],"default_left":[0,0,0,0,0,0,0,0,0,0,0,0,0,0,0,0,0,0,0,0,0,0,0,0,0],"id":14,"left_children":[1,3,5,7,9,11,13,15,-1,17,19,21,23,-1,-1,-1,-1,-1,-1,-1,-1,-1,-1,-1,-1],"loss_changes":[1.9943915E-1,2.7597263E-2,1.3536386E-2,5.735591E-3,3.769244E-3,9.167157E-4,3.395453E-3,1.4984459E-3,0E0,3.1735376E-4,1.413492E-3,2.6718597E-4,3.2615848E-5,0E0,0E0,0E0,0E0,0E0,0E0,0E0,0E0,0E0,0E0,0E0,0E0],"parents":[2147483647,0,0,1,1,2,2,3,3,4,4,5,5,6,6,7,7,9,9,10,10,11,11,12,12],"right_children":[2,4,6,8,10,12,14,16,-1,18,20,22,24,-1,-1,-1,-1,-1,-1,-1,-1,-1,-1,-1,-1],"split_conditions":[1.5648532E2,1.3720265E2,1.6218478E2,1.4568309E2,8.06507E-1,1.3823863E2,1.703351E2,1.3653687E2,-1.099914E-3,7.792719E-1,1.436235E2,1.3751344E2,8.716107E-1,2.1446247E-3,3.4873511E-3,-3.5701792E-3,-2.3377936E-3,-1.4447087E-3,-9.2110917E-4,-8.4947835E-4,-2.4769455E-5,1.0189757E-3,4.035589E-4,7.597208E-4,1.4620196E-3],"split_indices":[2,3,2,2,0,3,2,2,0,0,2,3,0,0,0,0,0,0,0,0,0,0,0,0,0],"split_type":[0,0,0,0,0,0,0,0,0,0,0,0,0,0,0,0,0,0,0,0,0,0,0,0,0],"sum_hessian":[1.55E2,9E1,6.5E1,3.8E1,5.2E1,2.7E1,3.8E1,3.1E1,7E0,3E1,2.2E1,1.1E1,1.6E1,2.7E1,1.1E1,1.2E1,1.9E1,1.3E1,1.7E1,7E0,1.5E1,3E0,8E0,4E0,1.2E1],"tree_param":{"num_deleted":"0","num_feature":"4","num_nodes":"25","size_leaf_vector":"1"}},{"base_weights":[-3.340477E-3,-3.4933724E-2,3.245373E-2,-3.4604028E-3,-2.7882019E-2,1.6478822E-2,4.7186878E-2,-3.569654E-2,-1.8377779E-2,9.114886E-3,2.5039276E-2,4.0426854E-2,3.1374132E-3,-1.8437449E-3,-4.632324E-4,-1.1497636E-3,-5.3440535E-4,-6.957395E-5,6.57087E-4,5.9941475E-4,1.4066393E-3,7.936478E-4,2.0806908E-3],"categories":[],"categories_nodes":[],"categories_segments":[],"categories_sizes":[],"default_left":[0,0,0,0,0,0,0,0,0,0,0,0,0,0,0,0,0,0,0,0,0,0,0],"id":15,"left_children":[1,3,5,-1,7,9,11,13,15,17,19,21,-1,-1,-1,-1,-1,-1,-1,-1,-1,-1,-1],"loss_changes":[1.8320142E-1,1.8855892E-2,1.7109826E-2,0E0,4.7657713E-3,2.1672389E-3,1.565896E-3,8.730665E-4,9.969687E-4,9.4905356E-4,3.4908392E-4,2.1380559E-4,0E0,0E0,0E0,0E0,0E0,0E0,0E0,0E0,0E0,0E0,0E0],"parents":[2147483647,0,0,1,1,2,2,4,4,5,5,6,6,7,7,8,8,9,9,10,10,11,11],"right_children":[2,4,6,-1,8,10,12,14,16,18,20,22,-1,-1,-1,-1,-1,-1,-1,-1,-1,-1,-1],"split_conditions":[8.2504976E-1,1.3585474E2,1.6218478E2,-3.4604028E-3,1.3776543E2,1.3823863E2,1.703351E2,1.4771408E2,7.928657E-1,8.52292E-1,8.6198455E-1,8.4050024E-1,3.1374132E-3,-1.8437449E-3,-4.632324E-4,-1.1497636E-3,-5.3440535E-4,-6.957395E-5,6.57087E-4,5.9941475E-4,1.4066393E-3,7.936478E-4,2.0806908E-3],"split_indices":[0,2,2,0,3,3,2,2,0,0,0,0,0,0,0,0,0,0,0,0,0,0,0],"split_type":[0,0,0,0,0,0,0,0,0,0,0,0,0,0,0,0,0,0,0,0,0,0,0],"sum_hessian":[1.6E2,8.5E1,7.5E1,1.3E1,7.2E1,3.7E1,3.8E1,3.8E1,3.4E1,2.1E1,1.6E1,2.9E1,9E0,3.6E1,2E0,2E1,1.4E1,6E0,1.5E1,4E0,1.2E1,2E0,2.7E1],"tree_param":{"num_deleted":"0","num_feature":"4","num_nodes":"23","size_leaf_vector":"1"}},{"base_weights":[1.320986E-4,-2.6792007E-2,3.6436845E-2,-5.262054E-2,-1.4073652E-2,2.1105316E-2,5.1128816E-2,-3.1838757E-3,-3.805554E-2,-2.370279E-2,-6.2433565E-3,1.2116285E-2,1.2728841E-3,1.968106E-3,2.8863663E-3,-1.9626832E-3,-5.320445E-4,-1.3093362E-3,-5.3222827E-4,-5.720411E-4,7.246594E-5,9.561226E-4,4.0510955E-4],"categories":[],"categories_nodes":[],"categories_segments":[],"categories_sizes":[],"default_left":[0,0,0,0,0,0,0,0,0,0,0,0,0,0,0,0,0,0,0,0,0,0,0],"id":16,"left_children":[1,3,5,7,9,11,13,-1,15,17,19,21,-1,-1,-1,-1,-1,-1,-1,-1,-1,-1,-1],"loss_changes":[1.5150702E-1,2.8495625E-2,1.37874335E-2,2.2470206E-3,4.451354E-3,1.0217484E-3,2.8993934E-4,0E0,7.4997544E-5,5.970206E-4,1.4159657E-3,2.1067075E-4,0E0,0E0,0E0,0E0,0E0,0E0,0E0,0E0,0E0,0E0,0E0],"parents":[2147483647,0,0,1,1,2,2,3,3,4,4,5,5,6,6,8,8,9,9,10,10,11,11],"right_children":[2,4,6,8,10,12,14,-1,16,18,20,22,-1,-1,-1,-1,-1,-1,-1,-1,-1,-1,-1],"split_conditions":[1.5648532E2,7.3922884E-1,8.8706845E-1,1.3722427E2,7.759429E-1,1.3823863E2,9.0540105E-1,-3.1838757E-3,1.4759894E2,1.4914963E2,8.079005E-1,1.3751344E2,1.2728841E-3,1.968106E-3,2.8863663E-3,-1.9626832E-3,-5.320445E-4,-1.3093362E-3,-5.3222827E-4,-5.720411E-4,7.246594E-5,9.561226E-4,4.0510955E-4],"split_indices":[2,1,1,2,1,3,1,0,2,2,1,3,0,0,0,0,0,0,0,0,0,0,0],"split_type":[0,0,0,0,0,0,0,0,0,0,0,0,0,0,0,0,0,0,0,0,0,0,0],"sum_hessian":[1.53E2,8.8E1,6.5E1,2.8E1,6E1,3.3E1,3.2E1,1.4E1,1.4E1,2.6E1,3.4E1,1.2E1,2.1E1,1.4E1,1.8E1,1.3E1,1E0,2.1E1,5E0,2E1,1.4E1,3E0,9E0],"tree_param":{"num_deleted":"0","num_feature":"4","num_nodes":"23","size_leaf_vector":"1"}},{"base_weights":[9.78394E-4,-2.8553957E-2,3.2829374E-2,-5.3548057E-2,-1.7902901E-2,1.9570999E-2,4.701726E-2,-3.2917429E-3,-2.0893493E-3,-2.3096897E-2,-3.7120336E-3,1.2117345E-2,2.6791468E-2,1.6323368E-3,5.2034423E-2,-1.4447473E-3,-8.6514093E-4,1.8705912E-4,-4.6517016E-4,2.2443433E-4,7.048514E-4,4.9336354E-4,1.4061877E-3,6.427974E-4,2.6565597E-3],"categories":[],"categories_nodes":[],"categories_segments":[],"categories_sizes":[],"default_left":[0,0,0,0,0,0,0,0,0,0,0,0,0,0,0,0,0,0,0,0,0,0,0,0,0],"id":17,"left_children":[1,3,5,7,9,11,13,-1,-1,15,17,19,21,-1,23,-1,-1,-1,-1,-1,-1,-1,-1,-1,-1],"loss_changes":[1.4861698E-1,2.087085E-2,1.3376057E-2,7.1711093E-4,4.262995E-3,1.8819328E-3,8.968115E-4,0E0,0E0,9.4459206E-4,7.432583E-4,2.6897388E-4,1.7345231E-4,0E0,3.9119273E-4,0E0,0E0,0E0,0E0,0E0,0E0,0E0,0E0,0E0,0E0],"parents":[2147483647,0,0,1,1,2,2,3,3,4,4,5,5,6,6,9,9,10,10,11,11,12,12,14,14],"right_children":[2,4,6,8,10,12,14,-1,-1,16,18,20,22,-1,24,-1,-1,-1,-1,-1,-1,-1,-1,-1,-1],"split_conditions":[8.203135E-1,7.361649E-1,8.8706845E-1,6.950649E-1,8.06507E-1,8.573294E-1,9.0227497E-1,-3.2917429E-3,-2.0893493E-3,7.628034E-1,8.0536956E-1,1.3745726E2,1.3769115E2,1.6323368E-3,1.3850752E2,-1.4447473E-3,-8.6514093E-4,1.8705912E-4,-4.6517016E-4,2.2443433E-4,7.048514E-4,4.9336354E-4,1.4061877E-3,6.427974E-4,2.6565597E-3],"split_indices":[1,1,1,1,0,1,1,0,0,1,1,3,3,0,3,0,0,0,0,0,0,0,0,0,0],"split_type":[0,0,0,0,0,0,0,0,0,0,0,0,0,0,0,0,0,0,0,0,0,0,0,0,0],"sum_hessian":[1.56E2,8.1E1,7.5E1,2.3E1,5.8E1,4E1,3.5E1,9E0,1.4E1,4.2E1,1.6E1,2.1E1,1.9E1,1.1E1,2.4E1,1.9E1,2.3E1,7E0,9E0,5E0,1.6E1,2E0,1.7E1,1E0,2.3E1],"tree_param":{"num_deleted":"0","num_feature":"4","num_nodes":"25","size_leaf_vector":"1"}},{"base_weights":[-4.5589107E-4,-2.287984E-2,3.3704523E-2,-3.7246075E-2,-9.70828E-3,2.0944921E-2,4.544278E-2,-2.8399546E-3,-3.1120384E-2,-1.6311148E-2,-1.0501817E-3,9.8036975E-3,2.3567416E-2,1.7705543E-3,2.6400683E-3,-1.7008601E-3,-1.0458768E-3,-9.0574584E-4,-2.8960408E-6,1.4965833E-4,-8.5067697E-4,5.945355E-4,-1.2013465E-4,2.8686028E-4,1.2407108E-3],"categories":[],"categories_nodes":[],"categories_segments":[],"categories_sizes":[],"default_left":[0,0,0,0,0,0,0,0,0,0,0,0,0,0,0,0,0,0,0,0,0,0,0,0,0],"id":18,"left_children":[1,3,5,7,9,11,13,-1,15,17,19,21,23,-1,-1,-1,-1,-1,-1,-1,-1,-1,-1,-1,-1],"loss_changes":[1.2563102E-1,1.8371746E-2,8.783609E-3,3.861852E-3,3.0127899E-3,7.33139E-4,5.662814E-4,0E0,4.1156635E-4,8.7846164E-4,1.6000142E-3,2.3236877E-4,4.3563452E-4,0E0,0E0,0E0,0E0,0E0,0E0,0E0,0E0,0E0,0E0,0E0,0E0],"parents":[2147483647,0,0,1,1,2,2,3,3,4,4,5,5,6,6,8,8,9,9,10,10,11,11,12,12],"right_children":[2,4,6,8,10,12,14,-1,16,18,20,22,24,-1,-1,-1,-1,-1,-1,-1,-1,-1,-1,-1,-1],"split_conditions":[1.5743059E2,7.7150905E-1,1.6413751E2,1.3585474E2,1.470746E2,8.422603E-1,1.6868565E2,-2.8399546E-3,1.450399E2,8.2504976E-1,1.3873767E2,8.4050024E-1,1.5764452E2,1.7705543E-3,2.6400683E-3,-1.7008601E-3,-1.0458768E-3,-9.0574584E-4,-2.8960408E-6,1.4965833E-4,-8.5067697E-4,5.945355E-4,-1.2013465E-4,2.8686028E-4,1.2407108E-3],"split_indices":[2,0,2,2,2,0,2,0,2,0,3,0,2,0,0,0,0,0,0,0,0,0,0,0,0],"split_type":[0,0,0,0,0,0,0,0,0,0,0,0,0,0,0,0,0,0,0,0,0,0,0,0,0],"sum_hessian":[1.62E2,9.8E1,6.4E1,4.6E1,5.2E1,3.2E1,3.2E1,9E0,3.7E1,2.9E1,2.3E1,7E0,2.5E1,1.6E1,1.6E1,2.7E1,1E1,2.6E1,3E0,1.9E1,4E0,6E0,1E0,2E0,2.3E1],"tree_param":{"num_deleted":"0","num_feature":"4","num_nodes":"25","size_leaf_vector":"1"}},{"base_weights":[-1.4480967E-5,-2.7968587E-2,2.7939804E-2,-2.4112302E-3,-1.806457E-2,1.4027876E-2,4.3313097E-2,-1.204721E-3,-9.623778E-3,7.8231385E-3,2.1082405E-2,1.6143002E-3,4.8400316E-2,-3.923564E-4,-1.3065845E-3,9.5595584E-5,5.2462134E-4,5.407179E-4,1.1892065E-3,5.8246404E-4,2.4745848E-3],"categories":[],"categories_nodes":[],"categories_segments":[],"categories_sizes":[],"default_left":[0,0,0,0,0,0,0,0,0,0,0,0,0,0,0,0,0,0,0,0,0],"id":19,"left_children":[1,3,5,-1,7,9,11,-1,13,15,17,-1,19,-1,-1,-1,-1,-1,-1,-1,-1],"loss_changes":[1.2659281E-1,1.5378743E-2,1.6716056E-2,0E0,2.6183352E-3,1.7610155E-3,5.690381E-4,0E0,5.2816095E-4,3.7440867E-4,2.976181E-4,0E0,3.8608164E-4,0E0,0E0,0E0,0E0,0E0,0E0,0E0,0E0],"parents":[2147483647,0,0,1,1,2,2,4,4,5,5,6,6,8,8,9,9,10,10,12,12],"right_children":[2,4,6,-1,8,10,12,-1,14,16,18,-1,20,-1,-1,-1,-1,-1,-1,-1,-1],"split_conditions":[8.079005E-1,7.3295754E-1,8.8706845E-1,-2.4112302E-3,7.784938E-1,1.3855585E2,9.0540105E-1,-1.204721E-3,8.0672336E-1,8.5342264E-1,8.6198455E-1,1.6143002E-3,1.3850752E2,-3.923564E-4,-1.3065845E-3,9.5595584E-5,5.2462134E-4,5.407179E-4,1.1892065E-3,5.8246404E-4,2.4745848E-3],"split_indices":[1,1,1,0,1,3,1,0,1,0,0,0,3,0,0,0,0,0,0,0,0],"split_type":[0,0,0,0,0,0,0,0,0,0,0,0,0,0,0,0,0,0,0,0,0],"sum_hessian":[1.6E2,8E1,8E1,2.5E1,5.5E1,4.3E1,3.7E1,3.1E1,2.4E1,2.4E1,1.9E1,1.4E1,2.3E1,2.3E1,1E0,8E0,1.6E1,5E0,1.4E1,1E0,2.2E1],"tree_param":{"num_deleted":"0","num_feature":"4","num_nodes":"21","size_leaf_vector":"1"}},{"base_weights":[2.1668477E-3,-2.796562E-2,2.5984108E-2,-4.63771E-2,-1.7793689E-2,1.122748E-2,3.8403515E-2,-2.9130054E-3,-1.8025826E-3,-2.1789486E-2,-7.5503034E-3,2.5858348E-3,1.6778331E-2,1.6406259E-3,2.6454024E-3,-1.1982474E-3,-3.8215864E-4,1.5117378E-4,-4.260768E-4,3.0425537E-4,-2.7134467E-4,8.668513E-4,7.0273876E-5],"categories":[],"categories_nodes":[],"categories_segments":[],"categories_sizes":[],"default_left":[0,0,0,0,0,0,0,0,0,0,0,0,0,0,0,0,0,0,0,0,0,0,0],"id":20,"left_children":[1,3,5,7,9,11,13,-1,-1,15,17,19,21,-1,-1,-1,-1,-1,-1,-1,-1,-1,-1],"loss_changes":[1.1698966E-1,1.2658961E-2,1.6246263E-2,9.67063E-4,1.800146E-3,2.0192591E-3,2.237603E-3,0E0,0E0,8.63174E-4,1.7980859E-4,5.377201E-4,1.9894028E-4,0E0,0E0,0E0,0E0,0E0,0E0,0E0,0E0,0E0,0E0],"parents":[2147483647,0,0,1,1,2,2,3,3,4,4,5,5,6,6,9,9,10,10,11,11,12,12],"right_children":[2,4,6,8,10,12,14,-1,-1,16,18,20,22,-1,-1,-1,-1,-1,-1,-1,-1,-1,-1],"split_conditions":[8.0120236E-1,7.312677E-1,1.6176814E2,6.950649E-1,7.784938E-1,1.5703258E2,1.7128885E2,-2.9130054E-3,-1.8025826E-3,1.4914963E2,1.3739075E2,1.3809866E2,1.61714E2,1.6406259E-3,2.6454024E-3,-1.1982474E-3,-3.8215864E-4,1.5117378E-4,-4.260768E-4,3.0425537E-4,-2.7134467E-4,8.668513E-4,7.0273876E-5],"split_indices":[1,1,2,1,1,2,2,0,0,2,3,3,2,0,0,0,0,0,0,0,0,0,0],"split_type":[0,0,0,0,0,0,0,0,0,0,0,0,0,0,0,0,0,0,0,0,0,0,0],"sum_hessian":[1.61E2,7.1E1,9E1,2.4E1,4.7E1,4.2E1,4.8E1,9E0,1.5E1,3.3E1,1.4E1,1.7E1,2.5E1,3.7E1,1.1E1,2.8E1,5E0,1E0,1.3E1,1.2E1,5E0,2.4E1,1E0],"tree_param":{"num_deleted":"0","num_feature":"4","num_nodes":"23","size_leaf_vector":"1"}},{"base_weights":[2.666217E-4,-2.2707146E-2,2.7119525E-2,-4.2260285E-2,-1.54026905E-2,1.0623588E-2,3.5316948E-2,-2.1817277E-3,-3.3501835E-4,-2.6983209E-2,-1.0788092E-2,4.063438E-3,1.4726127E-2,2.9408542E-2,2.2006815E-3,-1.450206E-3,1.3378412E-4,-7.31038E-4,-1.3440214E-4,-2.3100823E-4,2.6969076E-4,8.59704E-4,4.724656E-4,8.614491E-4,1.5544057E-3],"categories":[],"categories_nodes":[],"categories_segments":[],"categories_sizes":[],"default_left":[0,0,0,0,0,0,0,0,0,0,0,0,0,0,0,0,0,0,0,0,0,0,0,0,0],"id":21,"left_children":[1,3,5,7,9,11,13,-1,-1,15,17,19,21,23,-1,-1,-1,-1,-1,-1,-1,-1,-1,-1,-1],"loss_changes":[9.5003396E-2,1.1203557E-2,9.225722E-3,7.827468E-4,3.0221473E-3,6.12993E-4,1.1206456E-3,0E0,0E0,1.0965513E-3,1.3887594E-3,1.519974E-4,3.2871496E-5,9.853393E-5,0E0,0E0,0E0,0E0,0E0,0E0,0E0,0E0,0E0,0E0,0E0],"parents":[2147483647,0,0,1,1,2,2,3,3,4,4,5,5,6,6,9,9,10,10,11,11,12,12,13,13],"right_children":[2,4,6,8,10,12,14,-1,-1,16,18,20,22,24,-1,-1,-1,-1,-1,-1,-1,-1,-1,-1,-1],"split_conditions":[8.203135E-1,7.3295754E-1,8.6942726E-1,1.4568309E2,1.412028E2,1.5703258E2,9.167366E-1,-2.1817277E-3,-3.3501835E-4,7.9108894E-1,7.999647E-1,1.4531024E2,8.638651E-1,1.6111063E2,2.2006815E-3,-1.450206E-3,1.3378412E-4,-7.31038E-4,-1.3440214E-4,-2.3100823E-4,2.6969076E-4,8.59704E-4,4.724656E-4,8.614491E-4,1.5544057E-3],"split_indices":[1,1,1,2,2,2,1,0,0,1,0,2,0,2,0,0,0,0,0,0,0,0,0,0,0],"split_type":[0,0,0,0,0,0,0,0,0,0,0,0,0,0,0,0,0,0,0,0,0,0,0,0,0],"sum_hessian":[1.52E2,8.2E1,7E1,2.1E1,6.1E1,2.4E1,4.6E1,2E1,1E0,1.6E1,4.5E1,1E1,1.4E1,3E1,1.6E1,1.5E1,1E0,3E1,1.5E1,1E0,9E0,8E0,6E0,5E0,2.5E1],"tree_param":{"num_deleted":"0","num_feature":"4","num_nodes":"25","size_leaf_vector":"1"}},{"base_weights":[-2.2311036E-3,-2.3686113E-2,2.5052708E-2,-4.393176E-2,-1.5714042E-2,1.0288855E-2,3.381573E-2,-2.6462479E-3,-3.0867416E-2,-1.9257303E-2,-3.743049E-3,1.9510925E-3,6.9716474E-4,2.5801497E-2,2.1472077E-3,-1.6175447E-3,-3.266424E-4,-1.3312976E-3,-7.3534856E-4,-1.2781665E-3,-3.907867E-5,-2.0212948E-4,3.310323E-4,2.603859E-4,1.3196635E-3],"categories":[],"categories_nodes":[],"categories_segments":[],"categories_sizes":[],"default_left":[0,0,0,0,0,0,0,0,0,0,0,0,0,0,0,0,0,0,0,0,0,0,0,0,0],"id":22,"left_children":[1,3,5,7,9,11,13,-1,15,17,19,21,-1,23,-1,-1,-1,-1,-1,-1,-1,-1,-1,-1,-1],"loss_changes":[9.8350935E-2,1.4481228E-2,9.2258975E-3,1.4210865E-3,2.854647E-3,8.564207E-4,2.257213E-3,0E0,2.57954E-4,1.3854895E-3,1.0785643E-3,3.066427E-4,0E0,1.9159354E-4,0E0,0E0,0E0,0E0,0E0,0E0,0E0,0E0,0E0,0E0,0E0],"parents":[2147483647,0,0,1,1,2,2,3,3,4,4,5,5,6,6,8,8,9,9,10,10,11,11,13,13],"right_children":[2,4,6,8,10,12,14,-1,16,18,20,22,-1,24,-1,-1,-1,-1,-1,-1,-1,-1,-1,-1,-1],"split_conditions":[8.203135E-1,7.3295754E-1,1.6114108E2,1.3585474E2,7.9108894E-1,1.5581995E2,9.0540105E-1,-2.6462479E-3,1.4568309E2,1.412028E2,1.3740123E2,1.3745726E2,6.9716474E-4,1.3730296E2,2.1472077E-3,-1.6175447E-3,-3.266424E-4,-1.3312976E-3,-7.3534856E-4,-1.2781665E-3,-3.907867E-5,-2.0212948E-4,3.310323E-4,2.603859E-4,1.3196635E-3],"split_indices":[1,1,2,2,1,2,1,0,2,2,3,3,0,3,0,0,0,0,0,0,0,0,0,0,0],"split_type":[0,0,0,0,0,0,0,0,0,0,0,0,0,0,0,0,0,0,0,0,0,0,0,0,0],"sum_hessian":[1.66E2,9.3E1,7.3E1,2.5E1,6.8E1,2.8E1,4.5E1,1.3E1,1.2E1,5.2E1,1.6E1,9E0,1.9E1,2.6E1,1.9E1,1.1E1,1E0,1.8E1,3.4E1,1E0,1.5E1,4E0,5E0,1E0,2.5E1],"tree_param":{"num_deleted":"0","num_feature":"4","num_nodes":"25","size_leaf_vector":"1"}},{"base_weights":[-2.093276E-3,-2.3829298E-2,2.4370713E-2,-3.9927084E-2,-1.6665712E-2,9.231656E-3,3.0598167E-2,-2.443359E-3,-2.9517194E-2,-1.8419778E-2,-3.899773E-3,-3.3727288E-4,1.1908429E-2,2.356277E-2,3.8444415E-2,-1.5357815E-3,-3.1847655E-4,-1.1052279E-3,-6.085926E-4,3.1834246E-5,-3.8281383E-4,-2.2633524E-4,2.68053E-4,7.886584E-4,4.3308138E-4,2.7260484E-4,1.1999637E-3,4.343465E-4,1.9701084E-3],"categories":[],"categories_nodes":[],"categories_segments":[],"categories_sizes":[],"default_left":[0,0,0,0,0,0,0,0,0,0,0,0,0,0,0,0,0,0,0,0,0,0,0,0,0,0,0,0,0],"id":23,"left_children":[1,3,5,7,9,11,13,-1,15,17,19,21,23,25,27,-1,-1,-1,-1,-1,-1,-1,-1,-1,-1,-1,-1,-1,-1],"loss_changes":[9.43419E-2,9.713195E-3,6.694086E-3,1.0703467E-3,1.361277E-3,5.931349E-4,1.9646212E-3,0E0,2.2047013E-4,1.0201912E-3,1.5824562E-4,1.675046E-4,8.924329E-5,1.063142E-4,3.132224E-4,0E0,0E0,0E0,0E0,0E0,0E0,0E0,0E0,0E0,0E0,0E0,0E0,0E0,0E0],"parents":[2147483647,0,0,1,1,2,2,3,3,4,4,5,5,6,6,8,8,9,9,10,10,11,11,12,12,13,13,14,14],"right_children":[2,4,6,8,10,12,14,-1,16,18,20,22,24,26,28,-1,-1,-1,-1,-1,-1,-1,-1,-1,-1,-1,-1,-1,-1],"split_conditions":[1.5373167E2,7.3295754E-1,8.635213E-1,1.3585474E2,8.079005E-1,8.203135E-1,9.0524626E-1,-2.443359E-3,1.4568309E2,1.3817464E2,8.1818354E-1,1.5823375E2,1.3788116E2,1.3769115E2,1.3850752E2,-1.5357815E-3,-3.1847655E-4,-1.1052279E-3,-6.085926E-4,3.1834246E-5,-3.8281383E-4,-2.2633524E-4,2.68053E-4,7.886584E-4,4.3308138E-4,2.7260484E-4,1.1999637E-3,4.343465E-4,1.9701084E-3],"split_indices":[2,1,1,2,1,1,1,0,2,3,1,2,3,3,3,0,0,0,0,0,0,0,0,0,0,0,0,0,0],"split_type":[0,0,0,0,0,0,0,0,0,0,0,0,0,0,0,0,0,0,0,0,0,0,0,0,0,0,0,0,0],"sum_hessian":[1.62E2,8.9E1,7.3E1,2.6E1,6.3E1,2.2E1,5.1E1,1.2E1,1.4E1,5.5E1,8E0,5E0,1.7E1,2.9E1,2.2E1,1.3E1,1E0,3.3E1,2.2E1,4E0,4E0,3E0,2E0,6E0,1.1E1,1E0,2.8E1,1E0,2.1E1],"tree_param":{"num_deleted":"0","num_feature":"4","num_nodes":"29","size_leaf_vector":"1"}},{"base_weights":[-2.7701033E-3,-2.0646643E-2,2.3952644E-2,-2.4290502E-3,-1.5914142E-2,1.1351604E-2,3.270848E-2,-2.4682784E-2,-1.1104256E-2,4.3625175E-3,1.4278566E-2,1.3511358E-3,2.162478E-3,-1.3445368E-3,-4.1324375E-4,-6.826668E-4,-2.5766698E-4,-1.7286738E-4,3.3748263E-4,1.0238886E-4,7.407257E-4],"categories":[],"categories_nodes":[],"categories_segments":[],"categories_sizes":[],"default_left":[0,0,0,0,0,0,0,0,0,0,0,0,0,0,0,0,0,0,0,0,0],"id":24,"left_children":[1,3,5,-1,7,9,11,13,15,17,19,-1,-1,-1,-1,-1,-1,-1,-1,-1,-1],"loss_changes":[7.979445E-2,1.2446813E-2,7.0209913E-3,0E0,3.3952408E-3,5.3095655E-4,1.1687092E-3,8.6524896E-4,8.0946274E-4,2.1000663E-4,1.0076491E-4,0E0,0E0,0E0,0E0,0E0,0E0,0E0,0E0,0E0,0E0],"parents":[2147483647,0,0,1,1,2,2,4,4,5,5,6,6,7,7,8,8,9,9,10,10],"right_children":[2,4,6,-1,8,10,12,14,16,18,20,-1,-1,-1,-1,-1,-1,-1,-1,-1,-1],"split_conditions":[1.54938E2,1.3585474E2,1.6218478E2,-2.4290502E-3,1.3720265E2,8.56682E-1,1.7128885E2,1.4611565E2,1.470746E2,1.3767593E2,1.5581995E2,1.3511358E-3,2.162478E-3,-1.3445368E-3,-4.1324375E-4,-6.826668E-4,-2.5766698E-4,-1.7286738E-4,3.3748263E-4,1.0238886E-4,7.407257E-4],"split_indices":[2,2,2,0,3,0,2,2,2,3,2,0,0,0,0,0,0,0,0,0,0],"split_type":[0,0,0,0,0,0,0,0,0,0,0,0,0,0,0,0,0,0,0,0,0],"sum_hessian":[1.65E2,9.9E1,6.6E1,1.3E1,8.6E1,2.8E1,3.8E1,2.9E1,5.7E1,9E0,1.9E1,2.7E1,1.1E1,2.5E1,4E0,3.9E1,1.8E1,2E0,7E0,1E0,1.8E1],"tree_param":{"num_deleted":"0","num_feature":"4","num_nodes":"21","size_leaf_vector":"1"}},{"base_weights":[-9.915717E-5,-2.0546746E-2,2.1126177E-2,-3.8752608E-2,-1.36438655E-2,1.2061982E-2,3.1089265E-2,-2.6259972E-3,-3.030736E-2,-2.3576766E-2,-9.892338E-3,1.9730546E-3,1.5059444E-2,2.2975456E-2,1.9188712E-3,-1.576368E-3,-3.001839E-4,-3.6448016E-4,-1.3387302E-3,-7.0924097E-4,-2.6832646E-4,5.226739E-4,-1.2568943E-4,-5.2303076E-6,7.768295E-4,4.134258E-4,1.20751E-3],"categories":[],"categories_nodes":[],"categories_segments":[],"categories_sizes":[],"default_left":[0,0,0,0,0,0,0,0,0,0,0,0,0,0,0,0,0,0,0,0,0,0,0,0,0,0,0],"id":25,"left_children":[1,3,5,7,9,11,13,-1,15,17,19,21,23,25,-1,-1,-1,-1,-1,-1,-1,-1,-1,-1,-1,-1,-1],"loss_changes":[6.987519E-2,9.7764395E-3,6.759282E-3,9.6616894E-4,2.039846E-3,1.2706574E-3,1.306247E-3,0E0,2.851272E-4,6.381627E-4,8.175168E-4,4.4483144E-4,2.4039485E-4,1.458507E-4,0E0,0E0,0E0,0E0,0E0,0E0,0E0,0E0,0E0,0E0,0E0,0E0,0E0],"parents":[2147483647,0,0,1,1,2,2,3,3,4,4,5,5,6,6,8,8,9,9,10,10,11,11,12,12,13,13],"right_children":[2,4,6,8,10,12,14,-1,16,18,20,22,24,26,-1,-1,-1,-1,-1,-1,-1,-1,-1,-1,-1,-1,-1],"split_conditions":[8.203135E-1,7.3259544E-1,8.8706845E-1,6.9438034E-1,1.412028E2,1.5646225E2,1.6765106E2,-2.6259972E-3,1.4568309E2,1.3752805E2,7.876306E-1,8.2773834E-1,8.300835E-1,1.6218478E2,1.9188712E-3,-1.576368E-3,-3.001839E-4,-3.6448016E-4,-1.3387302E-3,-7.0924097E-4,-2.6832646E-4,5.226739E-4,-1.2568943E-4,-5.2303076E-6,7.768295E-4,4.134258E-4,1.20751E-3],"split_indices":[1,1,1,0,2,2,2,0,2,2,0,1,0,2,0,0,0,0,0,0,0,0,0,0,0,0,0],"split_type":[0,0,0,0,0,0,0,0,0,0,0,0,0,0,0,0,0,0,0,0,0,0,0,0,0,0,0],"sum_hessian":[1.59E2,8.1E1,7.8E1,2.1E1,6E1,4.2E1,3.6E1,6E0,1.5E1,1.5E1,4.5E1,1E1,3.2E1,1.9E1,1.7E1,1.4E1,1E0,3E0,1.2E1,2.2E1,2.3E1,3E0,7E0,1E0,3.1E1,2E0,1.7E1],"tree_param":{"num_deleted":"0","num_feature":"4","num_nodes":"27","size_leaf_vector":"1"}},{"base_weights":[-1.2782167E-3,-1.6568642E-2,2.4659423E-2,-2.0612632E-3,-1.2737907E-2,1.996183E-2,1.7545506E-3,-1.8038606E-2,-2.897974E-3,4.5338273E-3,2.0603834E-2,-1.0571859E-3,-7.475998E-4,-9.1760355E-4,3.2180105E-5,3.4513624E-4,-5.0991775E-6,3.755629E-4,1.0719898E-3],"categories":[],"categories_nodes":[],"categories_segments":[],"categories_sizes":[],"default_left":[0,0,0,0,0,0,0,0,0,0,0,0,0,0,0,0,0,0,0],"id":26,"left_children":[1,3,5,-1,7,9,-1,11,13,15,17,-1,-1,-1,-1,-1,-1,-1,-1],"loss_changes":[6.307098E-2,8.920176E-3,2.1907166E-3,0E0,4.5376746E-3,3.3249334E-4,0E0,2.3016334E-4,1.7632311E-3,3.3649238E-5,2.8770044E-4,0E0,0E0,0E0,0E0,0E0,0E0,0E0,0E0],"parents":[2147483647,0,0,1,1,2,2,4,4,5,5,7,7,8,8,9,9,10,10],"right_children":[2,4,6,-1,8,10,-1,12,14,16,18,-1,-1,-1,-1,-1,-1,-1,-1],"split_conditions":[1.5823375E2,1.3585474E2,1.6765106E2,-2.0612632E-3,7.999647E-1,8.300835E-1,1.7545506E-3,1.3720265E2,1.436235E2,8.2486314E-1,1.3769115E2,-1.0571859E-3,-7.475998E-4,-9.1760355E-4,3.2180105E-5,3.4513624E-4,-5.0991775E-6,3.755629E-4,1.0719898E-3],"split_indices":[2,2,2,0,0,0,0,3,2,0,3,0,0,0,0,0,0,0,0],"split_type":[0,0,0,0,0,0,0,0,0,0,0,0,0,0,0,0,0,0,0],"sum_hessian":[1.57E2,9.9E1,5.8E1,1.2E1,8.7E1,4.2E1,1.6E1,5.6E1,3.1E1,2E0,4E1,2.5E1,3.1E1,5E0,2.6E1,1E0,1E0,3E0,3.7E1],"tree_param":{"num_deleted":"0","num_feature":"4","num_nodes":"19","size_leaf_vector":"1"}},{"base_weights":[-4.801855E-4,-1.7720645E-2,2.2034863E-2,-2.976223E-2,-1.0718441E-2,1.2330248E-2,2.8293086E-2,-1.9997633E-3,-2.3129249E-2,-1.5654348E-2,-5.436776E-3,5.491269E-3,1.3171196E-2,2.2010017E-2,1.6913627E-3,-1.1848244E-3,-2.662495E-4,-8.6153386E-4,2.4008055E-4,-3.4191407E-4,2.8664767E-4,4.5206348E-4,5.5422383E-6,3.802189E-4,7.2305114E-4,1.4146765E-3,7.974825E-4],"categories":[],"categories_nodes":[],"categories_segments":[],"categories_sizes":[],"default_left":[0,0,0,0,0,0,0,0,0,0,0,0,0,0,0,0,0,0,0,0,0,0,0,0,0,0,0],"id":27,"left_children":[1,3,5,7,9,11,13,-1,15,17,19,21,23,25,-1,-1,-1,-1,-1,-1,-1,-1,-1,-1,-1,-1,-1],"loss_changes":[6.443849E-2,7.6068565E-3,4.0239654E-3,1.3827067E-3,1.5051491E-3,1.0020984E-4,7.5063854E-4,0E0,1.06100924E-4,1.0823393E-3,5.24491E-4,9.450037E-5,7.6719094E-5,4.2457692E-4,0E0,0E0,0E0,0E0,0E0,0E0,0E0,0E0,0E0,0E0,0E0,0E0,0E0],"parents":[2147483647,0,0,1,1,2,2,3,3,4,4,5,5,6,6,8,8,9,9,10,10,11,11,12,12,13,13],"right_children":[2,4,6,8,10,12,14,-1,16,18,20,22,24,26,-1,-1,-1,-1,-1,-1,-1,-1,-1,-1,-1,-1,-1],"split_conditions":[1.54938E2,7.3922884E-1,8.812561E-1,1.3653687E2,7.784938E-1,8.303123E-1,9.0540105E-1,-1.9997633E-3,1.4771408E2,7.928657E-1,8.6695975E-1,8.2653195E-1,1.5744353E2,9.11018E-1,1.6913627E-3,-1.1848244E-3,-2.662495E-4,-8.6153386E-4,2.4008055E-4,-3.4191407E-4,2.8664767E-4,4.5206348E-4,5.5422383E-6,3.802189E-4,7.2305114E-4,1.4146765E-3,7.974825E-4],"split_indices":[2,1,1,2,1,0,1,0,2,0,0,0,2,0,0,0,0,0,0,0,0,0,0,0,0,0,0],"split_type":[0,0,0,0,0,0,0,0,0,0,0,0,0,0,0,0,0,0,0,0,0,0,0,0,0,0,0],"sum_hessian":[1.64E2,9.3E1,7.1E1,3.3E1,6E1,2.9E1,4.2E1,1.1E1,2.2E1,3E1,3E1,4E0,2.5E1,2.2E1,2E1,2.1E1,1E0,2.8E1,2E0,2.7E1,3E0,2E0,2E0,6E0,1.9E1,9E0,1.3E1],"tree_param":{"num_deleted":"0","num_feature":"4","num_nodes":"27","size_leaf_vector":"1"}},{"base_weights":[-7.865429E-5,-1.758661E-2,1.9674918E-2,-2.988285E-2,-1.03749195E-2,1.3820837E-2,3.596071E-2,-2.104514E-3,-2.2420824E-2,-1.1550579E-2,-3.2726355E-4,7.0812632E-3,1.8239938E-2,1.3606407E-3,4.3628946E-2,-9.198705E-4,-1.4207112E-3,-8.3963125E-4,-4.449966E-4,2.0079539E-4,-2.2943095E-4,-7.418752E-5,4.3916746E-4,4.4548513E-5,9.3619985E-4,5.6319835E-4,2.3133287E-3],"categories":[],"categories_nodes":[],"categories_segments":[],"categories_sizes":[],"default_left":[0,0,0,0,0,0,0,0,0,0,0,0,0,0,0,0,0,0,0,0,0,0,0,0,0,0,0],"id":28,"left_children":[1,3,5,7,9,11,13,-1,15,17,19,21,23,-1,25,-1,-1,-1,-1,-1,-1,-1,-1,-1,-1,-1,-1],"loss_changes":[5.741038E-2,7.4935164E-3,6.939385E-3,1.9712504E-3,6.6953944E-4,1.6280264E-3,1.5435368E-4,0E0,7.758848E-6,5.591824E-4,1.4798203E-4,3.7749216E-4,2.772445E-4,0E0,2.4715438E-4,0E0,0E0,0E0,0E0,0E0,0E0,0E0,0E0,0E0,0E0,0E0,0E0],"parents":[2147483647,0,0,1,1,2,2,3,3,4,4,5,5,6,6,8,8,9,9,10,10,11,11,12,12,14,14],"right_children":[2,4,6,8,10,12,14,-1,16,18,20,22,24,-1,26,-1,-1,-1,-1,-1,-1,-1,-1,-1,-1,-1,-1],"split_conditions":[8.203135E-1,7.361649E-1,1.4966795E2,6.950649E-1,8.079005E-1,8.635213E-1,9.366384E-1,-2.104514E-3,1.3559494E2,1.3746368E2,8.1818354E-1,1.3745726E2,8.692135E-1,1.3606407E-3,1.4972214E2,-9.198705E-4,-1.4207112E-3,-8.3963125E-4,-4.449966E-4,2.0079539E-4,-2.2943095E-4,-7.418752E-5,4.3916746E-4,4.4548513E-5,9.3619985E-4,5.6319835E-4,2.3133287E-3],"split_indices":[1,1,3,1,1,1,1,0,3,3,1,3,0,0,3,0,0,0,0,0,0,0,0,0,0,0,0],"split_type":[0,0,0,0,0,0,0,0,0,0,0,0,0,0,0,0,0,0,0,0,0,0,0,0,0,0,0],"sum_hessian":[1.64E2,8.7E1,7.7E1,3.1E1,5.6E1,5.8E1,1.9E1,1E1,2.1E1,5E1,6E0,2.4E1,3.4E1,1.1E1,8E0,1.5E1,6E0,1.5E1,3.5E1,3E0,3E0,4E0,2E1,1E0,3.3E1,1E0,7E0],"tree_param":{"num_deleted":"0","num_feature":"4","num_nodes":"27","size_leaf_vector":"1"}},{"base_weights":[-1.6106492E-4,-1.4725863E-2,2.0765278E-2,-2.8830696E-2,-8.161348E-3,1.1999413E-2,2.7650107E-2,-3.605939E-2,-2.0331295E-2,-1.14667965E-2,-2.7799606E-4,7.3205493E-3,1.5491771E-2,1.1536379E-3,2.0172154E-3,-1.1123936E-3,-2.015741E-3,-1.0505256E-3,-2.3659617E-4,-8.0617034E-4,-4.4006162E-4,4.2977533E-4,-1.696734E-4,5.153281E-4,1.0045128E-4,5.447653E-4,9.4388233E-4],"categories":[],"categories_nodes":[],"categories_segments":[],"categories_sizes":[],"default_left":[0,0,0,0,0,0,0,0,0,0,0,0,0,0,0,0,0,0,0,0,0,0,0,0,0,0,0],"id":29,"left_children":[1,3,5,7,9,11,13,15,17,19,21,23,25,-1,-1,-1,-1,-1,-1,-1,-1,-1,-1,-1,-1,-1,-1],"loss_changes":[5.2729316E-2,9.209024E-3,3.953172E-3,1.2329333E-3,1.846931E-3,4.2582024E-4,1.3352707E-3,4.3464825E-5,8.07005E-5,4.787189E-4,6.373618E-4,2.3305818E-4,7.445738E-5,0E0,0E0,0E0,0E0,0E0,0E0,0E0,0E0,0E0,0E0,0E0,0E0,0E0,0E0],"parents":[2147483647,0,0,1,1,2,2,3,3,4,4,5,5,6,6,7,7,8,8,9,9,10,10,11,11,12,12],"right_children":[2,4,6,8,10,12,14,16,18,20,22,24,26,-1,-1,-1,-1,-1,-1,-1,-1,-1,-1,-1,-1,-1,-1],"split_conditions":[1.5648532E2,7.361649E-1,8.8706845E-1,1.3722427E2,8.096141E-1,8.635213E-1,9.274583E-1,1.3176561E2,1.4771408E2,1.4226123E2,8.1831545E-1,8.676847E-1,1.61714E2,1.1536379E-3,2.0172154E-3,-1.1123936E-3,-2.015741E-3,-1.0505256E-3,-2.3659617E-4,-8.0617034E-4,-4.4006162E-4,4.2977533E-4,-1.696734E-4,5.153281E-4,1.0045128E-4,5.447653E-4,9.4388233E-4],"split_indices":[2,1,1,2,0,1,1,2,2,2,0,0,2,0,0,0,0,0,0,0,0,0,0,0,0,0,0],"split_type":[0,0,0,0,0,0,0,0,0,0,0,0,0,0,0,0,0,0,0,0,0,0,0,0,0,0,0],"sum_hessian":[1.71E2,1.01E2,7E1,3.1E1,7E1,3.2E1,3.8E1,1.5E1,1.6E1,4.9E1,2.1E1,1.5E1,1.7E1,3E1,8E0,5E0,1E1,1.5E1,1E0,1.6E1,3.3E1,5E0,1.6E1,9E0,6E0,9E0,8E0],"tree_param":{"num_deleted":"0","num_feature":"4","num_nodes":"27","size_leaf_vector":"1"}},{"base_weights":[-2.3573749E-4,-1.8313237E-2,1.5930446E-2,-1.785066E-3,-1.4821386E-2,9.392311E-3,2.9627467E-2,-1.7439695E-2,-4.9310448E-3,2.4362386E-3,1.2635539E-2,2.4264911E-2,2.0741317E-3,-1.0472597E-3,-4.924663E-4,-8.638531E-5,-4.7240505E-4,7.444114E-4,4.986399E-5,4.2187964E-4,7.8433484E-4,1.7656088E-4,1.2562518E-3],"categories":[],"categories_nodes":[],"categories_segments":[],"categories_sizes":[],"default_left":[0,0,0,0,0,0,0,0,0,0,0,0,0,0,0,0,0,0,0,0,0,0,0],"id":30,"left_children":[1,3,5,-1,7,9,11,13,15,17,19,21,-1,-1,-1,-1,-1,-1,-1,-1,-1,-1,-1],"loss_changes":[4.7050804E-2,4.0853154E-3,7.333735E-3,0E0,1.5972424E-3,1.3002641E-3,7.0992485E-4,1.1507124E-3,2.007214E-4,3.4351018E-4,3.7998613E-4,2.8578285E-4,0E0,0E0,0E0,0E0,0E0,0E0,0E0,0E0,0E0,0E0,0E0],"parents":[2147483647,0,0,1,1,2,2,4,4,5,5,6,6,7,7,8,8,9,9,10,10,11,11],"right_children":[2,4,6,-1,8,10,12,14,16,18,20,22,-1,-1,-1,-1,-1,-1,-1,-1,-1,-1,-1],"split_conditions":[1.4914963E2,1.3585474E2,1.4138228E2,-1.785066E-3,1.3833206E2,8.56682E-1,1.4982083E2,1.4455847E2,1.4467389E2,1.4930705E2,1.5906076E2,1.6086917E2,2.0741317E-3,-1.0472597E-3,-4.924663E-4,-8.638531E-5,-4.7240505E-4,7.444114E-4,4.986399E-5,4.2187964E-4,7.8433484E-4,1.7656088E-4,1.2562518E-3],"split_indices":[2,2,3,0,3,0,3,2,2,2,2,2,0,0,0,0,0,0,0,0,0,0,0],"split_type":[0,0,0,0,0,0,0,0,0,0,0,0,0,0,0,0,0,0,0,0,0,0,0],"sum_hessian":[1.59E2,7.5E1,8.4E1,1.1E1,6.4E1,5.8E1,2.6E1,5E1,1.4E1,1.9E1,3.9E1,2E1,6E0,3.3E1,1.7E1,9E0,5E0,1E0,1.8E1,1.8E1,2.1E1,1E0,1.9E1],"tree_param":{"num_deleted":"0","num_feature":"4","num_nodes":"23","size_leaf_vector":"1"}},{"base_weights":[2.7896723E-4,-1.3724466E-2,1.8946337E-2,-2.556371E-2,-6.81966E-3,1.4492867E-2,1.4204547E-3,-2.8769363E-2,-5.2748322E-3,-1.384696E-2,-2.6084706E-3,4.4542626E-3,1.5988685E-2,-2.0947612E-3,-1.2234191E-3,2.40465E-5,-4.136473E-4,-9.910337E-4,-4.997334E-4,-4.7929505E-5,-6.9829583E-4,-1.4744252E-4,2.9665572E-4,5.774267E-4,9.056733E-4],"categories":[],"categories_nodes":[],"categories_segments":[],"categories_sizes":[],"default_left":[0,0,0,0,0,0,0,0,0,0,0,0,0,0,0,0,0,0,0,0,0,0,0,0,0],"id":31,"left_children":[1,3,5,7,9,11,-1,13,15,17,19,21,23,-1,-1,-1,-1,-1,-1,-1,-1,-1,-1,-1,-1],"loss_changes":[4.3915045E-2,7.6734424E-3,2.622502E-3,2.1246132E-3,1.7986647E-3,6.9459435E-4,0E0,6.685145E-4,1.0751729E-4,3.3118622E-4,7.3614955E-4,1.0508073E-4,2.0592753E-4,0E0,0E0,0E0,0E0,0E0,0E0,0E0,0E0,0E0,0E0,0E0,0E0],"parents":[2147483647,0,0,1,1,2,2,3,3,4,4,5,5,7,7,8,8,9,9,10,10,11,11,12,12],"right_children":[2,4,6,8,10,12,-1,14,16,18,20,22,24,-1,-1,-1,-1,-1,-1,-1,-1,-1,-1,-1,-1],"split_conditions":[1.5648532E2,1.412028E2,1.6764406E2,1.3813603E2,7.746247E-1,8.469597E-1,1.4204547E-3,6.873445E-1,1.382172E2,1.4455847E2,1.3944244E2,1.5823375E2,1.6114108E2,-2.0947612E-3,-1.2234191E-3,2.40465E-5,-4.136473E-4,-9.910337E-4,-4.997334E-4,-4.7929505E-5,-6.9829583E-4,-1.4744252E-4,2.9665572E-4,5.774267E-4,9.056733E-4],"split_indices":[2,2,2,3,0,0,0,0,3,2,3,2,2,0,0,0,0,0,0,0,0,0,0,0,0],"split_type":[0,0,0,0,0,0,0,0,0,0,0,0,0,0,0,0,0,0,0,0,0,0,0,0,0],"sum_hessian":[1.66E2,9.5E1,7.1E1,3.4E1,6.1E1,5E1,2.1E1,2.9E1,5E0,2.2E1,3.9E1,7E0,4.3E1,5E0,2.4E1,2E0,3E0,7E0,1.5E1,3.5E1,4E0,1E0,6E0,1.6E1,2.7E1],"tree_param":{"num_deleted":"0","num_feature":"4","num_nodes":"25","size_leaf_vector":"1"}},{"base_weights":[-6.2496016E-5,-1.7202878E-2,1.4031402E-2,-2.764479E-2,-1.1311193E-2,6.9034346E-3,2.5035253E-2,-1.8304114E-3,-2.0746017E-2,-1.6586175E-2,-7.990541E-3,3.1269405E-3,1.114066E-2,1.9691555E-2,3.642534E-2,-7.6467346E-4,-1.4096722E-3,-1.150766E-3,-2.8364136E-4,-1.6436154E-4,-6.9014257E-4,2.874511E-4,6.986723E-5,4.0837997E-4,6.742723E-4,1.9594133E-4,1.0082856E-3,7.672916E-4,1.9888494E-3],"categories":[],"categories_nodes":[],"categories_segments":[],"categories_sizes":[],"default_left":[0,0,0,0,0,0,0,0,0,0,0,0,0,0,0,0,0,0,0,0,0,0,0,0,0,0,0,0,0],"id":32,"left_children":[1,3,5,7,9,11,13,-1,15,17,19,21,23,25,27,-1,-1,-1,-1,-1,-1,-1,-1,-1,-1,-1,-1,-1,-1],"loss_changes":[3.961807E-2,4.239818E-3,6.8863295E-3,8.4828027E-4,7.2577037E-4,8.612678E-4,1.4130082E-3,0E0,2.5915122E-4,1.1323807E-3,8.29414E-4,1.3255604E-4,7.110741E-5,1.154216E-4,9.610038E-5,0E0,0E0,0E0,0E0,0E0,0E0,0E0,0E0,0E0,0E0,0E0,0E0,0E0,0E0],"parents":[2147483647,0,0,1,1,2,2,3,3,4,4,5,5,6,6,8,8,9,9,10,10,11,11,12,12,13,13,14,14],"right_children":[2,4,6,8,10,12,14,-1,16,18,20,22,24,26,28,-1,-1,-1,-1,-1,-1,-1,-1,-1,-1,-1,-1,-1,-1],"split_conditions":[7.9108894E-1,7.3295754E-1,8.8706845E-1,6.950649E-1,1.412028E2,1.5823375E2,1.7128885E2,-1.8304114E-3,1.3559494E2,1.3813603E2,1.3818271E2,1.3761633E2,1.61714E2,1.3850752E2,9.18055E-1,-7.6467346E-4,-1.4096722E-3,-1.150766E-3,-2.8364136E-4,-1.6436154E-4,-6.9014257E-4,2.874511E-4,6.986723E-5,4.0837997E-4,6.742723E-4,1.9594133E-4,1.0082856E-3,7.672916E-4,1.9888494E-3],"split_indices":[1,1,1,1,2,2,2,0,3,3,3,3,2,3,1,0,0,0,0,0,0,0,0,0,0,0,0,0,0],"split_type":[0,0,0,0,0,0,0,0,0,0,0,0,0,0,0,0,0,0,0,0,0,0,0,0,0,0,0,0,0],"sum_hessian":[1.62E2,7.3E1,8.9E1,2.5E1,4.8E1,5.5E1,3.4E1,9E0,1.6E1,1.7E1,3.1E1,3E1,2.5E1,2.5E1,9E0,1.1E1,5E0,1E1,7E0,1.8E1,1.3E1,1.1E1,1.9E1,1.3E1,1.2E1,1E0,2.4E1,2E0,7E0],"tree_param":{"num_deleted":"0","num_feature":"4","num_nodes":"29","size_leaf_vector":"1"}},{"base_weights":[-6.557852E-4,-1.3368059E-2,1.7948074E-2,-2.458397E-2,-9.190226E-3,1.02081E-2,2.4329493E-2,-1.8150986E-3,-2.0803334E-2,-1.1848922E-2,-2.4882988E-3,1.354441E-3,1.1077291E-2,2.122424E-2,1.9668608E-3,-1.090973E-3,-3.5473605E-4,-8.6980744E-4,-4.4501308E-4,-5.551308E-4,2.1403036E-6,3.0457677E-4,-1.127551E-4,2.6414037E-4,5.896548E-4,1.9104332E-4,1.0831193E-3],"categories":[],"categories_nodes":[],"categories_segments":[],"categories_sizes":[],"default_left":[0,0,0,0,0,0,0,0,0,0,0,0,0,0,0,0,0,0,0,0,0,0,0,0,0,0,0],"id":33,"left_children":[1,3,5,7,9,11,13,-1,15,17,19,21,23,25,-1,-1,-1,-1,-1,-1,-1,-1,-1,-1,-1,-1,-1],"loss_changes":[3.90255E-2,4.3661706E-3,3.0609053E-3,3.9663725E-4,1.2712586E-3,2.3125322E-4,8.427985E-4,0E0,1.5165005E-4,6.957273E-4,4.801576E-4,8.2132006E-5,5.7983445E-5,1.6123708E-4,0E0,0E0,0E0,0E0,0E0,0E0,0E0,0E0,0E0,0E0,0E0,0E0,0E0],"parents":[2147483647,0,0,1,1,2,2,3,3,4,4,5,5,6,6,8,8,9,9,10,10,11,11,12,12,13,13],"right_children":[2,4,6,8,10,12,14,-1,16,18,20,22,24,26,-1,-1,-1,-1,-1,-1,-1,-1,-1,-1,-1,-1,-1],"split_conditions":[1.5703258E2,7.3295754E-1,8.8658994E-1,6.749313E-1,7.9108894E-1,8.189036E-1,1.7398587E2,-1.8150986E-3,1.4455847E2,1.412028E2,1.3740123E2,8.0536956E-1,1.5744353E2,1.3850752E2,1.9668608E-3,-1.090973E-3,-3.5473605E-4,-8.6980744E-4,-4.4501308E-4,-5.551308E-4,2.1403036E-6,3.0457677E-4,-1.127551E-4,2.6414037E-4,5.896548E-4,1.9104332E-4,1.0831193E-3],"split_indices":[2,1,1,1,1,1,2,0,2,2,3,1,2,3,0,0,0,0,0,0,0,0,0,0,0,0,0],"split_type":[0,0,0,0,0,0,0,0,0,0,0,0,0,0,0,0,0,0,0,0,0,0,0,0,0,0,0],"sum_hessian":[1.63E2,9.7E1,6.6E1,2.5E1,7.2E1,3.1E1,3.5E1,4E0,2.1E1,5.1E1,2.1E1,3E0,2.8E1,3.1E1,4E0,1.9E1,2E0,1.6E1,3.5E1,4E0,1.7E1,1E0,2E0,4E0,2.4E1,1E0,3E1],"tree_param":{"num_deleted":"0","num_feature":"4","num_nodes":"27","size_leaf_vector":"1"}},{"base_weights":[5.096351E-4,-1.1364275E-2,1.672456E-2,-2.7616834E-2,-8.964334E-3,1.2864568E-2,2.822897E-2,-1.7780572E-3,-1.9199535E-2,-1.2147659E-2,-1.5582641E-3,6.265287E-3,1.4758029E-2,1.4522283E-3,3.794864E-4,-3.57306E-4,-1.1013161E-3,-7.9754536E-4,-4.8453794E-4,-3.696309E-4,1.15428425E-4,4.5577885E-4,-3.441751E-5,3.578697E-4,7.912993E-4],"categories":[],"categories_nodes":[],"categories_segments":[],"categories_sizes":[],"default_left":[0,0,0,0,0,0,0,0,0,0,0,0,0,0,0,0,0,0,0,0,0,0,0,0,0],"id":34,"left_children":[1,3,5,7,9,11,13,-1,15,17,19,21,23,-1,-1,-1,-1,-1,-1,-1,-1,-1,-1,-1,-1],"loss_changes":[3.2343335E-2,3.5359357E-3,2.7897395E-3,1.19678676E-4,2.0086016E-3,5.9478823E-4,6.57253E-5,0E0,1.1517666E-4,4.0607527E-4,6.2619906E-4,2.8375298E-4,2.276469E-4,0E0,0E0,0E0,0E0,0E0,0E0,0E0,0E0,0E0,0E0,0E0,0E0],"parents":[2147483647,0,0,1,1,2,2,3,3,4,4,5,5,6,6,8,8,9,9,10,10,11,11,12,12],"right_children":[2,4,6,8,10,12,14,-1,16,18,20,22,24,-1,-1,-1,-1,-1,-1,-1,-1,-1,-1,-1,-1],"split_conditions":[8.5342264E-1,1.3585474E2,1.4966795E2,6.873445E-1,1.4677963E2,1.3850752E2,9.81375E-1,-1.7780572E-3,1.2891351E2,1.367978E2,7.95009E-1,1.378494E2,1.5906076E2,1.4522283E-3,3.794864E-4,-3.57306E-4,-1.1013161E-3,-7.9754536E-4,-4.8453794E-4,-3.696309E-4,1.15428425E-4,4.5577885E-4,-3.441751E-5,3.578697E-4,7.912993E-4],"split_indices":[0,2,3,0,2,3,0,0,3,3,0,3,2,0,0,0,0,0,0,0,0,0,0,0,0],"split_type":[0,0,0,0,0,0,0,0,0,0,0,0,0,0,0,0,0,0,0,0,0,0,0,0,0],"sum_hessian":[1.66E2,9.6E1,7E1,1.1E1,8.5E1,5.4E1,1.6E1,4E0,7E0,5.9E1,2.6E1,1.3E1,4.1E1,1.5E1,1E0,2E0,5E0,2.1E1,3.8E1,1E1,1.6E1,9E0,4E0,6E0,3.5E1],"tree_param":{"num_deleted":"0","num_feature":"4","num_nodes":"25","size_leaf_vector":"1"}},{"base_weights":[-5.9083104E-4,-1.3504739E-2,1.4984713E-2,-2.546884E-2,-9.130814E-3,8.171309E-3,2.0103192E-2,-1.5810311E-3,-2.0079847E-2,-1.5875574E-2,-6.835775E-3,3.8615097E-3,1.045017E-2,1.83533E-2,1.5850678E-3,-5.816668E-4,-1.220913E-3,-1.1195655E-3,-2.1497223E-4,2.0206421E-4,-3.7998924E-4,3.1432032E-4,-1.5830547E-4,5.6226144E-4,9.657045E-5,1.871273E-4,9.323518E-4],"categories":[],"categories_nodes":[],"categories_segments":[],"categories_sizes":[],"default_left":[0,0,0,0,0,0,0,0,0,0,0,0,0,0,0,0,0,0,0,0,0,0,0,0,0,0,0],"id":35,"left_children":[1,3,5,7,9,11,13,-1,15,17,19,21,23,25,-1,-1,-1,-1,-1,-1,-1,-1,-1,-1,-1,-1,-1],"loss_changes":[3.2384947E-2,4.372496E-3,2.381552E-3,1.275558E-4,9.1312407E-4,2.8375397E-4,2.5029108E-4,0E0,2.6560156E-4,1.1105617E-3,4.5453175E-4,2.4143973E-4,1.2051198E-4,9.32971E-5,0E0,0E0,0E0,0E0,0E0,0E0,0E0,0E0,0E0,0E0,0E0,0E0,0E0],"parents":[2147483647,0,0,1,1,2,2,3,3,4,4,5,5,6,6,8,8,9,9,10,10,11,11,12,12,13,13],"right_children":[2,4,6,8,10,12,14,-1,16,18,20,22,24,26,-1,-1,-1,-1,-1,-1,-1,-1,-1,-1,-1,-1,-1],"split_conditions":[8.3072233E-1,7.3295754E-1,8.812561E-1,6.950649E-1,1.412028E2,1.5764452E2,1.7398587E2,-1.5810311E-3,1.352003E2,1.3813603E2,1.4213838E2,1.5741728E2,1.6483383E2,1.3850752E2,1.5850678E-3,-5.816668E-4,-1.220913E-3,-1.1195655E-3,-2.1497223E-4,2.0206421E-4,-3.7998924E-4,3.1432032E-4,-1.5830547E-4,5.6226144E-4,9.657045E-5,1.871273E-4,9.323518E-4],"split_indices":[1,1,1,1,2,2,2,0,3,3,2,2,2,3,0,0,0,0,0,0,0,0,0,0,0,0,0],"split_type":[0,0,0,0,0,0,0,0,0,0,0,0,0,0,0,0,0,0,0,0,0,0,0,0,0,0,0],"sum_hessian":[1.59E2,8.7E1,7.2E1,2.2E1,6.5E1,3.2E1,4E1,8E0,1.4E1,1.5E1,5E1,1.2E1,2E1,3.7E1,3E0,6E0,8E0,9E0,6E0,3E0,4.7E1,9E0,3E0,1.8E1,2E0,1E0,3.6E1],"tree_param":{"num_deleted":"0","num_feature":"4","num_nodes":"27","size_leaf_vector":"1"}},{"base_weights":[1.4959044E-3,-1.1861601E-2,1.1642964E-2,-2.1129962E-2,-8.490052E-3,7.0793377E-3,2.4278266E-2,-1.1315473E-3,-3.0407013E-4,-1.0241926E-2,-4.177735E-3,1.7009818E-3,9.560675E-3,1.8830292E-2,1.7409507E-3,-5.6747487E-4,3.0468602E-4,2.7345866E-4,-3.3177924E-4,4.903589E-4,-8.684607E-5,2.1360086E-4,5.267995E-4,1.0100242E-3,2.6229222E-4],"categories":[],"categories_nodes":[],"categories_segments":[],"categories_sizes":[],"default_left":[0,0,0,0,0,0,0,0,0,0,0,0,0,0,0,0,0,0,0,0,0,0,0,0,0],"id":36,"left_children":[1,3,5,7,9,11,13,-1,-1,15,17,19,21,23,-1,-1,-1,-1,-1,-1,-1,-1,-1,-1,-1],"loss_changes":[2.1959947E-2,2.0080172E-3,5.1331045E-3,2.689492E-4,3.576076E-4,9.045778E-4,7.2256476E-4,0E0,0E0,7.385982E-4,4.393723E-4,6.5800565E-4,1.974213E-4,2.290709E-4,0E0,0E0,0E0,0E0,0E0,0E0,0E0,0E0,0E0,0E0,0E0],"parents":[2147483647,0,0,1,1,2,2,3,3,4,4,5,5,6,6,9,9,10,10,11,11,12,12,13,13],"right_children":[2,4,6,8,10,12,14,-1,-1,16,18,20,22,24,-1,-1,-1,-1,-1,-1,-1,-1,-1,-1,-1],"split_conditions":[8.096141E-1,7.3259544E-1,9.0524626E-1,1.4455847E2,7.784938E-1,1.5646225E2,9.366384E-1,-1.1315473E-3,-3.0407013E-4,7.928657E-1,7.8099895E-1,8.195016E-1,8.469597E-1,9.606019E-1,1.7409507E-3,-5.6747487E-4,3.0468602E-4,2.7345866E-4,-3.3177924E-4,4.903589E-4,-8.684607E-5,2.1360086E-4,5.267995E-4,1.0100242E-3,2.6229222E-4],"split_indices":[0,1,1,2,1,2,1,0,0,0,0,0,0,0,0,0,0,0,0,0,0,0,0,0,0],"split_type":[0,0,0,0,0,0,0,0,0,0,0,0,0,0,0,0,0,0,0,0,0,0,0,0,0],"sum_hessian":[1.6E2,6.9E1,9.1E1,1.7E1,5.2E1,6.8E1,2.3E1,1.5E1,2E0,3.6E1,1.6E1,2.2E1,4.6E1,1.7E1,6E0,3.4E1,2E0,3E0,1.3E1,6E0,1.6E1,8E0,3.8E1,1.5E1,2E0],"tree_param":{"num_deleted":"0","num_feature":"4","num_nodes":"25","size_leaf_vector":"1"}},{"base_weights":[-4.2992496E-4,-1.1454933E-2,1.2866385E-2,-2.948165E-2,-8.765846E-3,8.79054E-3,2.1915365E-2,-1.6451165E-3,-1.52698755E-2,-1.3383645E-2,-3.8048762E-3,5.164886E-3,1.1080019E-2,1.7991992E-2,1.7536276E-3,-1.0018796E-4,-9.5119973E-4,-7.091297E-4,-1.3237298E-4,-2.4660246E-4,3.64545E-4,-1.8737167E-4,2.8838657E-4,6.5479E-4,1.823835E-4,9.828383E-4,3.4174472E-4],"categories":[],"categories_nodes":[],"categories_segments":[],"categories_sizes":[],"default_left":[0,0,0,0,0,0,0,0,0,0,0,0,0,0,0,0,0,0,0,0,0,0,0,0,0,0,0],"id":37,"left_children":[1,3,5,7,9,11,13,-1,15,17,19,21,23,25,-1,-1,-1,-1,-1,-1,-1,-1,-1,-1,-1,-1,-1],"loss_changes":[2.3602093E-2,4.0074056E-3,2.4997555E-3,3.2338314E-5,1.7359601E-3,3.7441775E-4,5.046278E-4,0E0,1.6109087E-4,3.0555855E-4,5.2372663E-4,1.3981474E-4,4.166728E-4,2.1855533E-4,0E0,0E0,0E0,0E0,0E0,0E0,0E0,0E0,0E0,0E0,0E0,0E0,0E0],"parents":[2147483647,0,0,1,1,2,2,3,3,4,4,5,5,6,6,8,8,9,9,10,10,11,11,12,12,13,13],"right_children":[2,4,6,8,10,12,14,-1,16,18,20,22,24,26,-1,-1,-1,-1,-1,-1,-1,-1,-1,-1,-1,-1,-1],"split_conditions":[8.5342264E-1,1.3585474E2,9.0540105E-1,6.950649E-1,7.655673E-1,1.5906076E2,1.7398587E2,-1.6451165E-3,7.01648E-1,1.4914963E2,1.5823375E2,1.4531024E2,8.9311874E-1,9.639974E-1,1.7536276E-3,-1.0018796E-4,-9.5119973E-4,-7.091297E-4,-1.3237298E-4,-2.4660246E-4,3.64545E-4,-1.8737167E-4,2.8838657E-4,6.5479E-4,1.823835E-4,9.828383E-4,3.4174472E-4],"split_indices":[0,2,1,1,1,2,2,0,0,2,2,2,1,0,0,0,0,0,0,0,0,0,0,0,0,0,0],"split_type":[0,0,0,0,0,0,0,0,0,0,0,0,0,0,0,0,0,0,0,0,0,0,0,0,0,0,0],"sum_hessian":[1.59E2,8.7E1,7.2E1,1E1,7.7E1,5.1E1,2.1E1,7E0,3E0,3.9E1,3.8E1,2.1E1,3E1,1.8E1,3E0,1E0,2E0,3.6E1,3E0,3.5E1,3E0,1E0,2E1,2.3E1,7E0,1.5E1,3E0],"tree_param":{"num_deleted":"0","num_feature":"4","num_nodes":"27","size_leaf_vector":"1"}},{"base_weights":[1.7921501E-4,-1.0776728E-2,1.2381035E-2,-2.4310514E-2,-8.5276095E-3,8.276737E-3,2.2638684E-2,-1.5736895E-2,-1.5130659E-3,-1.0659608E-2,-1.9184321E-3,4.738027E-3,1.1898996E-2,1.73276E-2,1.4883567E-3,-1.1462286E-3,-2.307497E-4,-5.5069727E-4,2.3843945E-4,-4.3184284E-4,1.50488695E-5,2.8503378E-4,-1.1156003E-5,6.4776995E-4,1.16086754E-4,9.0208754E-4,1.832366E-4],"categories":[],"categories_nodes":[],"categories_segments":[],"categories_sizes":[],"default_left":[0,0,0,0,0,0,0,0,0,0,0,0,0,0,0,0,0,0,0,0,0,0,0,0,0,0,0],"id":38,"left_children":[1,3,5,7,9,11,13,15,-1,17,19,21,23,25,-1,-1,-1,-1,-1,-1,-1,-1,-1,-1,-1,-1,-1],"loss_changes":[2.2324715E-2,2.4713296E-3,3.1385617E-3,1.3601966E-4,1.064539E-3,6.8707345E-4,3.171228E-4,4.5378774E-4,0E0,3.6959955E-4,3.0081818E-4,1.4932302E-4,2.5320938E-4,8.024275E-5,0E0,0E0,0E0,0E0,0E0,0E0,0E0,0E0,0E0,0E0,0E0,0E0,0E0],"parents":[2147483647,0,0,1,1,2,2,3,3,4,4,5,5,6,6,7,7,9,9,10,10,11,11,12,12,13,13],"right_children":[2,4,6,8,10,12,14,16,-1,18,20,22,24,26,-1,-1,-1,-1,-1,-1,-1,-1,-1,-1,-1,-1,-1],"split_conditions":[8.203135E-1,1.3585474E2,9.121548E-1,1.3176561E2,1.470746E2,1.6176814E2,9.366384E-1,1.2846216E2,-1.5130659E-3,8.2504976E-1,7.534433E-1,1.6055074E2,9.3230003E-1,9.606019E-1,1.4883567E-3,-1.1462286E-3,-2.307497E-4,-5.5069727E-4,2.3843945E-4,-4.3184284E-4,1.50488695E-5,2.8503378E-4,-1.1156003E-5,6.4776995E-4,1.16086754E-4,9.0208754E-4,1.832366E-4],"split_indices":[1,2,1,2,2,2,1,2,0,0,0,2,0,0,0,0,0,0,0,0,0,0,0,0,0,0,0],"split_type":[0,0,0,0,0,0,0,0,0,0,0,0,0,0,0,0,0,0,0,0,0,0,0,0,0,0,0],"sum_hessian":[1.65E2,8.7E1,7.8E1,1.1E1,7.6E1,5.7E1,2.1E1,6E0,5E0,5.7E1,1.9E1,3E1,2.7E1,1.4E1,7E0,3E0,3E0,5.6E1,1E0,4E0,1.5E1,2.5E1,5E0,2.4E1,3E0,1.3E1,1E0],"tree_param":{"num_deleted":"0","num_feature":"4","num_nodes":"27","size_leaf_vector":"1"}},{"base_weights":[3.926387E-4,-1.1698763E-2,1.0439795E-2,-1.8360766E-2,-6.701279E-3,7.247252E-3,2.1565802E-2,-2.0880016E-2,-2.0923615E-3,-4.801597E-3,-7.621182E-4,2.3190153E-3,1.0817558E-2,8.0755184E-4,1.6206991E-3,-8.8083E-4,-1.4139031E-3,1.5054048E-4,-3.2490393E-4,-4.445115E-4,-6.453052E-5,2.6051383E-4,-1.778882E-5,5.8978575E-4,1.8173853E-4],"categories":[],"categories_nodes":[],"categories_segments":[],"categories_sizes":[],"default_left":[0,0,0,0,0,0,0,0,0,0,0,0,0,0,0,0,0,0,0,0,0,0,0,0,0],"id":39,"left_children":[1,3,5,7,9,11,13,15,17,19,-1,21,23,-1,-1,-1,-1,-1,-1,-1,-1,-1,-1,-1,-1],"loss_changes":[1.8466247E-2,2.174194E-3,2.791889E-3,1.1448534E-3,5.920514E-4,1.1362042E-3,5.33808E-4,1.0540895E-4,1.3198012E-4,4.9095595E-4,0E0,2.2612576E-4,2.2410927E-4,0E0,0E0,0E0,0E0,0E0,0E0,0E0,0E0,0E0,0E0,0E0,0E0],"parents":[2147483647,0,0,1,1,2,2,3,3,4,4,5,5,6,6,7,7,8,8,9,9,11,11,12,12],"right_children":[2,4,6,8,10,12,14,16,18,20,-1,22,24,-1,-1,-1,-1,-1,-1,-1,-1,-1,-1,-1,-1],"split_conditions":[7.9647356E-1,1.412028E2,1.4966795E2,1.3813603E2,1.3897775E2,1.3855016E2,1.4995544E2,1.3690947E2,1.3895116E2,7.543068E-1,-7.621182E-4,1.3761633E2,1.4722548E2,8.0755184E-4,1.6206991E-3,-8.8083E-4,-1.4139031E-3,1.5054048E-4,-3.2490393E-4,-4.445115E-4,-6.453052E-5,2.6051383E-4,-1.778882E-5,5.8978575E-4,1.8173853E-4],"split_indices":[1,2,3,3,3,3,3,3,2,1,0,3,3,0,0,0,0,0,0,0,0,0,0,0,0],"split_type":[0,0,0,0,0,0,0,0,0,0,0,0,0,0,0,0,0,0,0,0,0,0,0,0,0],"sum_hessian":[1.5E2,6.8E1,8.2E1,2.8E1,4E1,6.5E1,1.7E1,2.4E1,4E0,3.4E1,6E0,2.8E1,3.7E1,1.3E1,4E0,1.9E1,5E0,2E0,2E0,1.5E1,1.9E1,1.3E1,1.5E1,3.2E1,5E0],"tree_param":{"num_deleted":"0","num_feature":"4","num_nodes":"25","size_leaf_vector":"1"}},{"base_weights":[-7.249964E-4,-9.984776E-3,1.0671827E-2,-2.0003082E-2,-6.3020685E-3,5.640779E-3,1.5289642E-2,-1.5342176E-3,-1.6332611E-2,-9.120692E-3,-1.6841337E-3,5.335808E-5,6.3164253E-3,1.2335134E-2,9.736717E-4,-8.659144E-4,-2.4871726E-4,-5.1492534E-4,-1.686911E-5,4.4564507E-4,-1.4442063E-4,2.8918983E-4,-1.4126002E-4,3.6286356E-4,1.2345612E-4,6.662199E-4,1.9051954E-4],"categories":[],"categories_nodes":[],"categories_segments":[],"categories_sizes":[],"default_left":[0,0,0,0,0,0,0,0,0,0,0,0,0,0,0,0,0,0,0,0,0,0,0,0,0,0,0],"id":40,"left_children":[1,3,5,7,9,11,13,-1,15,17,19,21,23,25,-1,-1,-1,-1,-1,-1,-1,-1,-1,-1,-1,-1,-1],"loss_changes":[1.7413817E-2,3.2313373E-3,1.6329549E-3,4.3977145E-4,8.6974236E-4,1.3934239E-4,2.2951327E-4,0E0,1.377645E-4,4.3102074E-4,3.703123E-4,9.881739E-5,1.0153174E-4,1.6005989E-4,0E0,0E0,0E0,0E0,0E0,0E0,0E0,0E0,0E0,0E0,0E0,0E0,0E0],"parents":[2147483647,0,0,1,1,2,2,3,3,4,4,5,5,6,6,8,8,9,9,10,10,11,11,12,12,13,13],"right_children":[2,4,6,8,10,12,14,-1,16,18,20,22,24,26,-1,-1,-1,-1,-1,-1,-1,-1,-1,-1,-1,-1,-1],"split_conditions":[1.54938E2,7.3295754E-1,8.843197E-1,6.873445E-1,7.840104E-1,8.189036E-1,1.703351E2,-1.5342176E-3,1.4455847E2,1.4914963E2,1.4153732E2,8.2486314E-1,8.942001E-1,9.4361585E-1,9.736717E-4,-8.659144E-4,-2.4871726E-4,-5.1492534E-4,-1.686911E-5,4.4564507E-4,-1.4442063E-4,2.8918983E-4,-1.4126002E-4,3.6286356E-4,1.2345612E-4,6.662199E-4,1.9051954E-4],"split_indices":[2,1,1,0,1,1,2,0,2,2,2,0,0,0,0,0,0,0,0,0,0,0,0,0,0,0,0],"split_type":[0,0,0,0,0,0,0,0,0,0,0,0,0,0,0,0,0,0,0,0,0,0,0,0,0,0,0],"sum_hessian":[1.63E2,9E1,7.3E1,2.3E1,6.7E1,3.6E1,3.7E1,4E0,1.9E1,4.1E1,2.6E1,4E0,3.2E1,2.4E1,1.3E1,1.7E1,2E0,3.6E1,5E0,2E0,2.4E1,1E0,3E0,2.5E1,7E0,2.1E1,3E0],"tree_param":{"num_deleted":"0","num_feature":"4","num_nodes":"27","size_leaf_vector":"1"}},{"base_weights":[9.78342E-6,-9.18145E-3,1.1844937E-2,-1.4829947E-2,-3.6914032E-3,9.876809E-3,2.6601367E-2,-1.1263908E-3,-1.14504695E-2,4.773998E-3,-4.5499722E-3,4.4616032E-3,1.1664501E-2,2.1288544E-4,1.4592537E-3,-3.393255E-4,-7.187958E-4,2.9302388E-4,1.0702014E-5,-1.062723E-3,-1.6393648E-4,6.175041E-4,1.03028426E-4,7.9250334E-5,6.029846E-4],"categories":[],"categories_nodes":[],"categories_segments":[],"categories_sizes":[],"default_left":[0,0,0,0,0,0,0,0,0,0,0,0,0,0,0,0,0,0,0,0,0,0,0,0,0],"id":41,"left_children":[1,3,5,7,9,11,13,-1,15,17,19,21,23,-1,-1,-1,-1,-1,-1,-1,-1,-1,-1,-1,-1],"loss_changes":[1.8166175E-2,2.8602453E-3,1.8573683E-3,9.387247E-4,3.778601E-4,5.86885E-4,3.3757463E-4,0E0,3.66339E-4,2.3517132E-5,8.85908E-4,3.1548104E-4,1.7606886E-4,0E0,0E0,0E0,0E0,0E0,0E0,0E0,0E0,0E0,0E0,0E0,0E0],"parents":[2147483647,0,0,1,1,2,2,3,3,4,4,5,5,6,6,8,8,9,9,10,10,11,11,12,12],"right_children":[2,4,6,8,10,12,14,-1,16,18,20,22,24,-1,-1,-1,-1,-1,-1,-1,-1,-1,-1,-1,-1],"split_conditions":[1.5648532E2,7.628034E-1,9.366384E-1,1.3476253E2,1.3738205E2,8.607211E-1,1.4972214E2,-1.1263908E-3,1.3610776E2,8.4585196E-1,1.3740123E2,1.3751344E2,1.3850752E2,2.1288544E-4,1.4592537E-3,-3.393255E-4,-7.187958E-4,2.9302388E-4,1.0702014E-5,-1.062723E-3,-1.6393648E-4,6.175041E-4,1.03028426E-4,7.9250334E-5,6.029846E-4],"split_indices":[2,1,1,2,3,1,3,0,3,1,3,3,3,0,0,0,0,0,0,0,0,0,0,0,0],"split_type":[0,0,0,0,0,0,0,0,0,0,0,0,0,0,0,0,0,0,0,0,0,0,0,0,0],"sum_hessian":[1.65E2,9.3E1,7.2E1,4.5E1,4.8E1,6.5E1,7E0,1.2E1,3.3E1,4E0,4.4E1,1.7E1,4.8E1,1E0,6E0,1.4E1,1.9E1,3E0,1E0,2E0,4.2E1,3E0,1.4E1,2E0,4.6E1],"tree_param":{"num_deleted":"0","num_feature":"4","num_nodes":"25","size_leaf_vector":"1"}},{"base_weights":[3.1082955E-4,-1.000535E-2,1.1132614E-2,-1.7923484E-2,-6.596192E-3,9.062847E-3,1.334188E-3,-1.2489948E-3,-1.3791551E-2,-6.0150404E-3,-1.0366321E-3,4.6224464E-3,1.1420889E-2,-3.3837426E-4,-9.367028E-4,-4.629398E-4,-1.6311022E-4,3.3284977E-4,1.2755037E-4,7.961914E-5,6.027412E-4],"categories":[],"categories_nodes":[],"categories_segments":[],"categories_sizes":[],"default_left":[0,0,0,0,0,0,0,0,0,0,0,0,0,0,0,0,0,0,0,0,0],"id":42,"left_children":[1,3,5,7,9,11,-1,-1,13,15,-1,17,19,-1,-1,-1,-1,-1,-1,-1,-1],"loss_changes":[1.8531898E-2,2.1762783E-3,2.365335E-3,3.8440432E-4,3.7643267E-4,7.115654E-4,0E0,0E0,4.981146E-4,5.055675E-4,0E0,9.6807955E-5,2.73644E-4,0E0,0E0,0E0,0E0,0E0,0E0,0E0,0E0],"parents":[2147483647,0,0,1,1,2,2,3,3,4,4,5,5,8,8,9,9,11,11,12,12],"right_children":[2,4,6,8,10,12,-1,-1,14,16,-1,18,20,-1,-1,-1,-1,-1,-1,-1,-1],"split_conditions":[8.079005E-1,7.3295754E-1,9.274583E-1,6.869286E-1,8.0672336E-1,8.635213E-1,1.334188E-3,-1.2489948E-3,1.352003E2,7.6178455E-1,-1.0366321E-3,8.309097E-1,1.3850752E2,-3.3837426E-4,-9.367028E-4,-4.629398E-4,-1.6311022E-4,3.3284977E-4,1.2755037E-4,7.961914E-5,6.027412E-4],"split_indices":[1,1,1,1,1,1,0,0,3,1,0,1,3,0,0,0,0,0,0,0,0],"split_type":[0,0,0,0,0,0,0,0,0,0,0,0,0,0,0,0,0,0,0,0,0],"sum_hessian":[1.64E2,8.4E1,8E1,2.4E1,6E1,7.2E1,8E0,7E0,1.7E1,5.9E1,1E0,2.6E1,4.6E1,8E0,9E0,2.6E1,3.3E1,1.2E1,1.4E1,3E0,4.3E1],"tree_param":{"num_deleted":"0","num_feature":"4","num_nodes":"21","size_leaf_vector":"1"}},{"base_weights":[-1.5844837E-5,-9.172217E-3,8.682907E-3,-2.3548756E-2,-7.6035312E-3,4.36372E-3,1.35845635E-2,-1.25961E-3,-3.422022E-4,-8.886084E-3,8.344108E-5,2.316401E-3,6.704682E-3,1.1682637E-2,1.1710185E-3,-5.084162E-4,-2.7919852E-4,3.686986E-4,-5.069995E-4,2.631122E-4,1.6523712E-5,3.839718E-4,-6.893675E-5,8.68349E-4,4.888114E-4],"categories":[],"categories_nodes":[],"categories_segments":[],"categories_sizes":[],"default_left":[0,0,0,0,0,0,0,0,0,0,0,0,0,0,0,0,0,0,0,0,0,0,0,0,0],"id":43,"left_children":[1,3,5,7,9,11,13,-1,-1,15,17,19,21,23,-1,-1,-1,-1,-1,-1,-1,-1,-1,-1,-1],"loss_changes":[1.2425236E-2,1.5349197E-3,1.6344148E-3,1.9756146E-5,6.908672E-4,1.9534788E-4,4.1854708E-4,0E0,0E0,1.972667E-4,8.9464855E-4,1.4451667E-4,1.681748E-4,1.8782681E-4,0E0,0E0,0E0,0E0,0E0,0E0,0E0,0E0,0E0,0E0,0E0],"parents":[2147483647,0,0,1,1,2,2,3,3,4,4,5,5,6,6,9,9,10,10,11,11,12,12,13,13],"right_children":[2,4,6,8,10,12,14,-1,-1,16,18,20,22,24,-1,-1,-1,-1,-1,-1,-1,-1,-1,-1,-1],"split_conditions":[8.0927855E-1,6.950649E-1,8.8706845E-1,1.3476253E2,1.4914963E2,1.3855016E2,1.4982083E2,-1.25961E-3,-3.422022E-4,7.784938E-1,1.3818271E2,1.3751344E2,8.838162E-1,8.9311874E-1,1.1710185E-3,-5.084162E-4,-2.7919852E-4,3.686986E-4,-5.069995E-4,2.631122E-4,1.6523712E-5,3.839718E-4,-6.893675E-5,8.68349E-4,4.888114E-4],"split_indices":[1,1,1,2,2,3,3,0,0,1,3,3,1,1,0,0,0,0,0,0,0,0,0,0,0],"split_type":[0,0,0,0,0,0,0,0,0,0,0,0,0,0,0,0,0,0,0,0,0,0,0,0,0],"sum_hessian":[1.54E2,7.5E1,7.9E1,6E0,6.9E1,4.3E1,3.6E1,5E0,1E0,5.9E1,1E1,2.4E1,1.9E1,3.2E1,4E0,4.1E1,1.8E1,6E0,4E0,9E0,1.5E1,1.7E1,2E0,6E0,2.6E1],"tree_param":{"num_deleted":"0","num_feature":"4","num_nodes":"25","size_leaf_vector":"1"}},{"base_weights":[5.8049194E-5,-8.022115E-3,1.0099709E-2,-1.6586747E-2,-4.868135E-3,8.221343E-3,2.3629375E-2,-1.2910449E-3,-1.39105795E-2,-6.3610873E-3,-6.1647757E-4,5.4733767E-3,1.1682581E-2,1.6198754E-4,1.3039679E-3,-8.3156425E-5,-7.589506E-4,-2.4826362E-4,-1.0236867E-3,2.229727E-4,-2.561584E-4,3.50401E-4,-4.828535E-5,-1.5452505E-6,6.0671446E-4],"categories":[],"categories_nodes":[],"categories_segments":[],"categories_sizes":[],"default_left":[0,0,0,0,0,0,0,0,0,0,0,0,0,0,0,0,0,0,0,0,0,0,0,0,0],"id":44,"left_children":[1,3,5,7,9,11,13,-1,15,17,19,21,23,-1,-1,-1,-1,-1,-1,-1,-1,-1,-1,-1,-1],"loss_changes":[1.2738589E-2,2.269356E-3,1.5846915E-3,2.0919554E-4,4.0866737E-4,5.352725E-4,3.1514326E-4,0E0,2.854569E-4,8.438771E-4,4.3460832E-4,3.723905E-4,1.4323369E-4,0E0,0E0,0E0,0E0,0E0,0E0,0E0,0E0,0E0,0E0,0E0,0E0],"parents":[2147483647,0,0,1,1,2,2,3,3,4,4,5,5,6,6,8,8,9,9,10,10,11,11,12,12],"right_children":[2,4,6,8,10,12,14,-1,16,18,20,22,24,-1,-1,-1,-1,-1,-1,-1,-1,-1,-1,-1,-1],"split_conditions":[8.203135E-1,7.3295754E-1,9.366384E-1,6.749313E-1,7.9108894E-1,1.4142651E2,1.4972214E2,-1.2910449E-3,1.2891351E2,7.878656E-1,8.0536956E-1,1.4014682E2,1.6086917E2,1.6198754E-4,1.3039679E-3,-8.3156425E-5,-7.589506E-4,-2.4826362E-4,-1.0236867E-3,2.229727E-4,-2.561584E-4,3.50401E-4,-4.828535E-5,-1.5452505E-6,6.0671446E-4],"split_indices":[1,1,1,1,1,3,3,0,3,1,1,3,2,0,0,0,0,0,0,0,0,0,0,0,0],"split_type":[0,0,0,0,0,0,0,0,0,0,0,0,0,0,0,0,0,0,0,0,0,0,0,0,0],"sum_hessian":[1.55E2,8.6E1,6.9E1,2.2E1,6.4E1,6.2E1,7E0,3E0,1.9E1,4.7E1,1.7E1,3.6E1,2.6E1,1E0,6E0,2E0,1.7E1,4.4E1,3E0,8E0,9E0,2.9E1,7E0,1E0,2.5E1],"tree_param":{"num_deleted":"0","num_feature":"4","num_nodes":"25","size_leaf_vector":"1"}},{"base_weights":[-6.665038E-4,-9.800945E-3,8.3593745E-3,-2.2040354E-2,-8.062458E-3,5.9063747E-3,1.0679337E-3,-1.2439438E-3,-8.07035E-3,-1.0332004E-2,-3.3765584E-3,3.5660765E-3,9.695432E-3,-1.2294353E-4,-4.8233272E-4,-2.9897015E-4,-7.6144695E-4,5.2765536E-4,-2.9345197E-4,3.2662912E-4,1.1035118E-4,7.07064E-4,3.1554067E-4],"categories":[],"categories_nodes":[],"categories_segments":[],"categories_sizes":[],"default_left":[0,0,0,0,0,0,0,0,0,0,0,0,0,0,0,0,0,0,0,0,0,0,0],"id":45,"left_children":[1,3,5,7,9,11,-1,-1,13,15,17,19,21,-1,-1,-1,-1,-1,-1,-1,-1,-1,-1],"loss_changes":[1.2778668E-2,1.4607115E-3,2.3610555E-3,1.5610596E-4,6.989194E-4,5.595493E-4,0E0,0E0,2.8163195E-6,8.8940235E-4,8.952028E-4,1.5894289E-4,2.8694444E-4,0E0,0E0,0E0,0E0,0E0,0E0,0E0,0E0,0E0,0E0],"parents":[2147483647,0,0,1,1,2,2,3,3,4,4,5,5,8,8,9,9,10,10,11,11,12,12],"right_children":[2,4,6,8,10,12,-1,-1,14,16,18,20,22,-1,-1,-1,-1,-1,-1,-1,-1,-1,-1],"split_conditions":[8.1848955E-1,6.9438034E-1,9.18055E-1,6.852258E-1,1.3817464E2,8.843197E-1,1.0679337E-3,-1.2439438E-3,6.903289E-1,7.5867796E-1,1.382172E2,1.3752411E2,9.11018E-1,-1.2294353E-4,-4.8233272E-4,-2.9897015E-4,-7.6144695E-4,5.2765536E-4,-2.9345197E-4,3.2662912E-4,1.1035118E-4,7.07064E-4,3.1554067E-4],"split_indices":[0,0,1,1,3,1,0,0,0,0,3,3,0,0,0,0,0,0,0,0,0,0,0],"split_type":[0,0,0,0,0,0,0,0,0,0,0,0,0,0,0,0,0,0,0,0,0,0,0],"sum_hessian":[1.53E2,7.6E1,7.7E1,8E0,6.8E1,6.6E1,1.1E1,6E0,2E0,4.5E1,2.3E1,4.2E1,2.4E1,1E0,1E0,2.5E1,2E1,3E0,2E1,1.2E1,3E1,9E0,1.5E1],"tree_param":{"num_deleted":"0","num_feature":"4","num_nodes":"23","size_leaf_vector":"1"}},{"base_weights":[2.8608026E-4,-6.2854122E-3,9.520119E-3,-1.1456289E-2,-1.1956621E-3,5.9427833E-3,1.641641E-2,-1.1964351E-3,-9.449528E-3,-3.8349442E-3,3.3123745E-3,6.8030404E-3,8.986518E-4,1.2231592E-2,1.1366997E-3,-3.7584195E-4,-1.0057484E-3,-9.221637E-5,-7.107705E-4,-3.9397777E-4,2.1859507E-4,2.3086007E-4,6.9095095E-4,-1.7747581E-4,2.1387279E-4,6.707373E-4,1.3165077E-4],"categories":[],"categories_nodes":[],"categories_segments":[],"categories_sizes":[],"default_left":[0,0,0,0,0,0,0,0,0,0,0,0,0,0,0,0,0,0,0,0,0,0,0,0,0,0,0],"id":46,"left_children":[1,3,5,7,9,11,13,-1,15,17,19,21,23,25,-1,-1,-1,-1,-1,-1,-1,-1,-1,-1,-1,-1,-1],"loss_changes":[1.0072272E-2,2.5391937E-3,1.6046953E-3,9.752852E-4,6.076018E-4,1.9783119E-4,3.2999972E-4,0E0,7.3515694E-4,6.35015E-4,2.597535E-4,5.4962677E-4,1.354188E-4,1.4638389E-4,0E0,0E0,0E0,0E0,0E0,0E0,0E0,0E0,0E0,0E0,0E0,0E0,0E0],"parents":[2147483647,0,0,1,1,2,2,3,3,4,4,5,5,6,6,8,8,9,9,10,10,11,11,12,12,13,13],"right_children":[2,4,6,8,10,12,14,-1,16,18,20,22,24,26,-1,-1,-1,-1,-1,-1,-1,-1,-1,-1,-1,-1,-1],"split_conditions":[8.5342264E-1,1.3746368E2,9.121548E-1,6.873445E-1,7.9647356E-1,9.2145014E-1,1.4978673E2,-1.1964351E-3,1.3739075E2,7.878656E-1,7.9774505E-1,8.8706845E-1,1.4933853E2,9.639974E-1,1.1366997E-3,-3.7584195E-4,-1.0057484E-3,-9.221637E-5,-7.107705E-4,-3.9397777E-4,2.1859507E-4,2.3086007E-4,6.9095095E-4,-1.7747581E-4,2.1387279E-4,6.707373E-4,1.3165077E-4],"split_indices":[0,3,1,0,1,0,3,0,3,1,0,1,3,0,0,0,0,0,0,0,0,0,0,0,0,0,0],"split_type":[0,0,0,0,0,0,0,0,0,0,0,0,0,0,0,0,0,0,0,0,0,0,0,0,0,0,0],"sum_hessian":[1.64E2,9.6E1,6.8E1,4.7E1,4.9E1,4.6E1,2.2E1,5E0,4.2E1,3.1E1,1.8E1,3.9E1,7E0,1.5E1,7E0,3.7E1,5E0,2.7E1,4E0,1E0,1.7E1,3.1E1,8E0,3E0,4E0,1.3E1,2E0],"tree_param":{"num_deleted":"0","num_feature":"4","num_nodes":"27","size_leaf_vector":"1"}},{"base_weights":[-1.9468246E-4,-7.301125E-3,8.051387E-3,-1.0933349E-2,-2.5503528E-3,5.0820885E-3,1.6535524E-2,-1.8284049E-2,-9.053114E-3,-6.8444374E-4,-5.491223E-4,1.0486576E-3,6.7700804E-3,1.1263907E-2,1.1188005E-3,-1.0492787E-3,-4.8303753E-4,-3.051308E-4,-7.4693013E-4,6.404972E-5,-4.0838207E-4,1.2961794E-4,-3.766984E-4,3.710136E-4,3.6734342E-5,6.092462E-4,2.8318167E-5],"categories":[],"categories_nodes":[],"categories_segments":[],"categories_sizes":[],"default_left":[0,0,0,0,0,0,0,0,0,0,0,0,0,0,0,0,0,0,0,0,0,0,0,0,0,0,0],"id":47,"left_children":[1,3,5,7,9,11,13,15,17,19,-1,21,23,25,-1,-1,-1,-1,-1,-1,-1,-1,-1,-1,-1,-1,-1],"loss_changes":[9.493419E-3,1.473377E-3,1.8053604E-3,5.117031E-4,6.060903E-4,3.8097915E-4,3.329455E-4,6.9283415E-6,6.208054E-4,4.958189E-4,0E0,2.5801288E-4,1.5151477E-4,1.113303E-4,0E0,0E0,0E0,0E0,0E0,0E0,0E0,0E0,0E0,0E0,0E0,0E0,0E0],"parents":[2147483647,0,0,1,1,2,2,3,3,4,4,5,5,6,6,7,7,8,8,9,9,11,11,12,12,13,13],"right_children":[2,4,6,8,10,12,14,16,18,20,-1,22,24,26,-1,-1,-1,-1,-1,-1,-1,-1,-1,-1,-1,-1,-1],"split_conditions":[8.203135E-1,7.628034E-1,1.4966795E2,6.950649E-1,1.390238E2,1.3811162E2,9.366384E-1,6.9438034E-1,7.59983E-1,8.0536956E-1,-5.491223E-4,1.3788116E2,1.4849406E2,9.606019E-1,1.1188005E-3,-1.0492787E-3,-4.8303753E-4,-3.051308E-4,-7.4693013E-4,6.404972E-5,-4.0838207E-4,1.2961794E-4,-3.766984E-4,3.710136E-4,3.6734342E-5,6.092462E-4,2.8318167E-5],"split_indices":[1,1,3,1,3,3,1,0,0,1,0,3,3,0,0,0,0,0,0,0,0,0,0,0,0,0,0],"split_type":[0,0,0,0,0,0,0,0,0,0,0,0,0,0,0,0,0,0,0,0,0,0,0,0,0,0,0],"sum_hessian":[1.6E2,8.6E1,7.4E1,4.8E1,3.8E1,5.6E1,1.8E1,8E0,4E1,3.2E1,6E0,1.7E1,3.9E1,1.1E1,7E0,5E0,3E0,2.8E1,1.2E1,2.6E1,6E0,1.5E1,2E0,3.5E1,4E0,1E1,1E0],"tree_param":{"num_deleted":"0","num_feature":"4","num_nodes":"27","size_leaf_vector":"1"}},{"base_weights":[-4.3967422E-4,-8.654237E-3,6.997783E-3,-1.4049793E-2,-5.567552E-3,2.3504412E-3,1.1589162E-2,-1.1028632E-3,-1.122731E-2,-4.3288395E-3,-9.365268E-4,-3.5329014E-3,2.8800145E-3,1.0236457E-2,1.288109E-3,-3.283477E-4,-6.97428E-4,-3.0171368E-4,1.2923479E-4,1.3020486E-4,-3.2233002E-4,4.6129475E-4,8.549316E-5,1.96312E-4,5.728006E-4],"categories":[],"categories_nodes":[],"categories_segments":[],"categories_sizes":[],"default_left":[0,0,0,0,0,0,0,0,0,0,0,0,0,0,0,0,0,0,0,0,0,0,0,0,0],"id":48,"left_children":[1,3,5,7,9,11,13,-1,15,17,-1,19,21,23,-1,-1,-1,-1,-1,-1,-1,-1,-1,-1,-1],"loss_changes":[9.774739E-3,1.1875103E-3,1.7651282E-3,3.6258204E-4,7.3417625E-4,1.4414819E-4,5.415068E-4,0E0,1.8740445E-4,5.6975416E-4,0E0,8.831303E-5,2.812506E-4,2.6284717E-4,0E0,0E0,0E0,0E0,0E0,0E0,0E0,0E0,0E0,0E0,0E0],"parents":[2147483647,0,0,1,1,2,2,3,3,4,4,5,5,6,6,8,8,9,9,11,11,12,12,13,13],"right_children":[2,4,6,8,10,12,14,-1,16,18,-1,20,22,24,-1,-1,-1,-1,-1,-1,-1,-1,-1,-1,-1],"split_conditions":[7.9108894E-1,7.3295754E-1,1.6218478E2,6.873445E-1,7.878656E-1,8.096141E-1,1.7468471E2,-1.1028632E-3,7.200846E-1,7.928657E-1,-9.365268E-4,7.885866E-1,8.1831545E-1,8.788346E-1,1.288109E-3,-3.283477E-4,-6.97428E-4,-3.0171368E-4,1.2923479E-4,1.3020486E-4,-3.2233002E-4,4.6129475E-4,8.549316E-5,1.96312E-4,5.728006E-4],"split_indices":[1,1,2,0,1,0,2,0,0,0,0,0,0,1,0,0,0,0,0,0,0,0,0,0,0],"split_type":[0,0,0,0,0,0,0,0,0,0,0,0,0,0,0,0,0,0,0,0,0,0,0,0,0],"sum_hessian":[1.58E2,7.5E1,8.3E1,2.6E1,4.9E1,4.2E1,4.1E1,5E0,2.1E1,4.6E1,3E0,3E0,3.9E1,3.9E1,2E0,9E0,1.2E1,3.7E1,9E0,1E0,2E0,5E0,3.4E1,7E0,3.2E1],"tree_param":{"num_deleted":"0","num_feature":"4","num_nodes":"25","size_leaf_vector":"1"}},{"base_weights":[-7.271839E-5,-7.4189273E-3,6.131555E-3,-8.6333435E-3,8.188148E-3,2.2790353E-3,8.778049E-3,-1.3152329E-2,-6.850436E-3,1.2337566E-4,5.215794E-4,8.466414E-3,8.543264E-4,6.864071E-4,9.249819E-3,-7.1020046E-4,1.4444739E-4,-3.689766E-4,7.379353E-5,5.2289315E-4,-8.705706E-5,-1.6197127E-4,1.7362744E-4,2.5670827E-4,-1.2537837E-4,6.4999535E-4,3.8617395E-4],"categories":[],"categories_nodes":[],"categories_segments":[],"categories_sizes":[],"default_left":[0,0,0,0,0,0,0,0,0,0,0,0,0,0,0,0,0,0,0,0,0,0,0,0,0,0,0],"id":49,"left_children":[1,3,5,7,9,11,13,15,17,-1,-1,19,21,23,25,-1,-1,-1,-1,-1,-1,-1,-1,-1,-1,-1,-1],"loss_changes":[7.565841E-3,1.5111556E-3,8.9760474E-4,4.8194313E-4,5.1263283E-5,3.2774502E-4,1.9597262E-4,3.6156992E-4,2.443781E-4,0E0,0E0,1.6050343E-4,3.5423634E-4,6.969837E-5,1.8579094E-4,0E0,0E0,0E0,0E0,0E0,0E0,0E0,0E0,0E0,0E0,0E0,0E0],"parents":[2147483647,0,0,1,1,2,2,3,3,4,4,5,5,6,6,7,7,8,8,11,11,12,12,13,13,14,14],"right_children":[2,4,6,8,10,12,14,16,18,-1,-1,20,22,24,26,-1,-1,-1,-1,-1,-1,-1,-1,-1,-1,-1,-1],"split_conditions":[1.4776775E2,1.3855016E2,1.5906076E2,1.3845E2,7.7934504E-1,1.5007214E2,8.303123E-1,1.3761888E2,8.2504976E-1,1.2337566E-4,5.215794E-4,1.3873767E2,8.5342264E-1,8.2486314E-1,9.014128E-1,-7.1020046E-4,1.4444739E-4,-3.689766E-4,7.379353E-5,5.2289315E-4,-8.705706E-5,-1.6197127E-4,1.7362744E-4,2.5670827E-4,-1.2537837E-4,6.4999535E-4,3.8617395E-4],"split_indices":[2,3,2,2,0,2,0,3,0,0,0,3,0,0,0,0,0,0,0,0,0,0,0,0,0,0,0],"split_type":[0,0,0,0,0,0,0,0,0,0,0,0,0,0,0,0,0,0,0,0,0,0,0,0,0,0,0],"sum_hessian":[1.64E2,7.5E1,8.9E1,7E1,5E0,3.7E1,5.2E1,1.8E1,5.2E1,2E0,3E0,6E0,3.1E1,3E0,4.9E1,1.7E1,1E0,4.9E1,3E0,5E0,1E0,1.2E1,1.9E1,1E0,2E0,1.2E1,3.7E1],"tree_param":{"num_deleted":"0","num_feature":"4","num_nodes":"27","size_leaf_vector":"1"}},{"base_weights":[6.2533414E-5,-7.177553E-3,6.000329E-3,-1.2602125E-2,-5.173109E-3,5.0040134E-3,1.0868813E-3,-1.340421E-2,4.5885146E-5,-3.8937663E-3,-1.497211E-2,-6.7101954E-3,5.665335E-3,-3.1748414E-4,-7.814527E-4,-2.3644604E-4,3.4463705E-4,3.7454217E-4,-1.0481435E-3,1.4011661E-4,-6.9929956E-4,1.1087344E-4,3.417565E-4],"categories":[],"categories_nodes":[],"categories_segments":[],"categories_sizes":[],"default_left":[0,0,0,0,0,0,0,0,0,0,0,0,0,0,0,0,0,0,0,0,0,0,0],"id":50,"left_children":[1,3,5,7,9,11,-1,13,-1,15,17,19,21,-1,-1,-1,-1,-1,-1,-1,-1,-1,-1],"loss_changes":[6.964482E-3,7.2855526E-4,1.2866829E-3,2.183381E-4,6.3119736E-4,6.964982E-4,0E0,1.8327427E-4,0E0,4.830152E-4,9.6445053E-4,3.8524944E-4,3.1154044E-4,0E0,0E0,0E0,0E0,0E0,0E0,0E0,0E0,0E0,0E0],"parents":[2147483647,0,0,1,1,2,2,3,3,4,4,5,5,7,7,9,9,10,10,11,11,12,12],"right_children":[2,4,6,8,10,12,-1,14,-1,16,18,20,22,-1,-1,-1,-1,-1,-1,-1,-1,-1,-1],"split_conditions":[1.4776775E2,1.3845E2,1.7398587E2,1.3761888E2,8.1448555E-1,7.746247E-1,1.0868813E-3,1.3176561E2,4.5885146E-5,8.096141E-1,1.3739075E2,1.3760031E2,8.56682E-1,-3.1748414E-4,-7.814527E-4,-2.3644604E-4,3.4463705E-4,3.7454217E-4,-1.0481435E-3,1.4011661E-4,-6.9929956E-4,1.1087344E-4,3.417565E-4],"split_indices":[2,2,2,3,0,0,0,2,0,0,3,3,0,0,0,0,0,0,0,0,0,0,0],"split_type":[0,0,0,0,0,0,0,0,0,0,0,0,0,0,0,0,0,0,0,0,0,0,0],"sum_hessian":[1.6E2,7.2E1,8.8E1,1.8E1,5.4E1,8.4E1,4E0,1.7E1,1E0,4.9E1,5E0,4E0,8E1,5E0,1.2E1,4.6E1,3E0,1E0,4E0,2E0,2E0,2.1E1,5.9E1],"tree_param":{"num_deleted":"0","num_feature":"4","num_nodes":"23","size_leaf_vector":"1"}},{"base_weights":[9.648742E-4,-5.3692167E-3,6.9194846E-3,-1.0070838E-2,-2.2527946E-3,4.3694214E-3,1.4139241E-2,-8.281215E-3,-7.6396595E-4,-1.3670909E-3,-1.5673121E-2,1.4630074E-3,6.1493544E-3,1.1255953E-2,1.0845613E-3,-6.40233E-4,-2.3268853E-4,-1.0475398E-4,3.5822764E-4,-2.3863166E-4,-9.368524E-4,2.930809E-4,-8.2623774E-5,3.9398504E-4,1.5306771E-4,6.2100013E-4,6.478529E-5],"categories":[],"categories_nodes":[],"categories_segments":[],"categories_sizes":[],"default_left":[0,0,0,0,0,0,0,0,0,0,0,0,0,0,0,0,0,0,0,0,0,0,0,0,0,0,0],"id":51,"left_children":[1,3,5,7,9,11,13,15,-1,17,19,21,23,25,-1,-1,-1,-1,-1,-1,-1,-1,-1,-1,-1,-1,-1],"loss_changes":[6.298181E-3,1.1641437E-3,1.5215515E-3,1.7174776E-4,5.7289505E-4,3.272629E-4,2.3488421E-4,3.6703213E-4,0E0,3.131354E-4,1.0769814E-5,3.659849E-4,1.8960983E-4,1.9260333E-4,0E0,0E0,0E0,0E0,0E0,0E0,0E0,0E0,0E0,0E0,0E0,0E0,0E0],"parents":[2147483647,0,0,1,1,2,2,3,3,4,4,5,5,6,6,7,7,9,9,10,10,11,11,12,12,13,13],"right_children":[2,4,6,8,10,12,14,16,-1,18,20,22,24,26,-1,-1,-1,-1,-1,-1,-1,-1,-1,-1,-1,-1,-1],"split_conditions":[8.079005E-1,7.3922884E-1,9.121548E-1,7.570285E-1,8.0536956E-1,1.3855016E2,1.4995544E2,7.013478E-1,-7.6396595E-4,8.0120236E-1,8.233255E-1,1.3751344E2,9.0692145E-1,9.639974E-1,1.0845613E-3,-6.40233E-4,-2.3268853E-4,-1.0475398E-4,3.5822764E-4,-2.3863166E-4,-9.368524E-4,2.930809E-4,-8.2623774E-5,3.9398504E-4,1.5306771E-4,6.2100013E-4,6.478529E-5],"split_indices":[1,1,1,0,1,3,3,1,0,1,0,3,0,0,0,0,0,0,0,0,0,0,0,0,0,0,0],"split_type":[0,0,0,0,0,0,0,0,0,0,0,0,0,0,0,0,0,0,0,0,0,0,0,0,0,0,0],"sum_hessian":[1.65E2,8E1,8.5E1,3.1E1,4.9E1,6.4E1,2.1E1,2.5E1,6E0,4.7E1,2E0,2.5E1,3.9E1,1.7E1,4E0,1E1,1.5E1,4.4E1,3E0,1E0,1E0,1E1,1.5E1,2.4E1,1.5E1,1.5E1,2E0],"tree_param":{"num_deleted":"0","num_feature":"4","num_nodes":"27","size_leaf_vector":"1"}},{"base_weights":[3.6981833E-4,-6.048414E-3,6.7834845E-3,-9.665053E-3,-3.955377E-3,5.2650147E-3,1.7038118E-2,-6.87986E-3,-7.1344676E-4,-2.6902866E-3,-1.3416867E-2,2.2780704E-3,6.711027E-3,6.307423E-3,9.4661827E-4,-9.757291E-4,-2.1959294E-4,-8.232646E-5,-6.879993E-4,3.98919E-5,-8.2096877E-4,2.2862692E-4,-9.581676E-6,1.0204241E-4,3.7292994E-4,4.0721745E-4,6.583929E-5],"categories":[],"categories_nodes":[],"categories_segments":[],"categories_sizes":[],"default_left":[0,0,0,0,0,0,0,0,0,0,0,0,0,0,0,0,0,0,0,0,0,0,0,0,0,0,0],"id":52,"left_children":[1,3,5,7,9,11,13,15,-1,17,19,21,23,25,-1,-1,-1,-1,-1,-1,-1,-1,-1,-1,-1,-1,-1],"loss_changes":[6.6684973E-3,5.7492196E-4,1.1715738E-3,2.736901E-4,5.9829536E-4,2.956912E-4,8.385163E-5,5.429986E-4,0E0,5.319397E-4,2.6917865E-4,1.4254265E-4,1.5235995E-4,1.6777922E-5,0E0,0E0,0E0,0E0,0E0,0E0,0E0,0E0,0E0,0E0,0E0,0E0,0E0],"parents":[2147483647,0,0,1,1,2,2,3,3,4,4,5,5,6,6,7,7,9,9,10,10,11,11,12,12,13,13],"right_children":[2,4,6,8,10,12,14,16,-1,18,20,22,24,26,-1,-1,-1,-1,-1,-1,-1,-1,-1,-1,-1,-1,-1],"split_conditions":[8.079005E-1,7.3922884E-1,9.274583E-1,1.3559494E2,8.1448555E-1,1.3855016E2,1.4972214E2,6.7936647E-1,-7.1344676E-4,1.3944244E2,7.8454876E-1,8.3592397E-1,8.635213E-1,9.408805E-1,9.4661827E-4,-9.757291E-4,-2.1959294E-4,-8.232646E-5,-6.879993E-4,3.98919E-5,-8.2096877E-4,2.2862692E-4,-9.581676E-6,1.0204241E-4,3.7292994E-4,4.0721745E-4,6.583929E-5],"split_indices":[1,1,1,3,0,3,3,0,0,3,1,1,1,0,0,0,0,0,0,0,0,0,0,0,0,0,0],"split_type":[0,0,0,0,0,0,0,0,0,0,0,0,0,0,0,0,0,0,0,0,0,0,0,0,0,0,0],"sum_hessian":[1.6E2,8E1,8E1,2.8E1,5.2E1,7.1E1,9E0,1.9E1,9E0,4.7E1,5E0,2.4E1,4.7E1,2E0,7E0,2E0,1.7E1,4.4E1,3E0,1E0,4E0,1.2E1,1.2E1,7E0,4E1,1E0,1E0],"tree_param":{"num_deleted":"0","num_feature":"4","num_nodes":"27","size_leaf_vector":"1"}},{"base_weights":[2.5650277E-4,-6.290034E-3,5.3454037E-3,-8.70626E-3,1.858443E-4,3.9656344E-3,1.7322699E-2,-9.999675E-4,-7.319628E-3,4.7768233E-4,-2.7532093E-3,1.844654E-3,6.2568523E-3,3.784587E-4,9.5140556E-4,-1.8253569E-4,-4.4626734E-4,-4.031256E-4,1.9653276E-5,1.7591879E-4,-1.4559006E-4,8.876175E-5,3.5908652E-4],"categories":[],"categories_nodes":[],"categories_segments":[],"categories_sizes":[],"default_left":[0,0,0,0,0,0,0,0,0,0,0,0,0,0,0,0,0,0,0,0,0,0,0],"id":53,"left_children":[1,3,5,7,9,11,13,-1,15,-1,17,19,21,-1,-1,-1,-1,-1,-1,-1,-1,-1,-1],"loss_changes":[5.330656E-3,1.0969213E-3,1.4186357E-3,6.522392E-4,5.769527E-4,3.8694777E-4,5.6768768E-6,0E0,2.4430454E-4,0E0,2.7044152E-4,3.60528E-4,1.4890381E-4,0E0,0E0,0E0,0E0,0E0,0E0,0E0,0E0,0E0,0E0],"parents":[2147483647,0,0,1,1,2,2,3,3,4,4,5,5,6,6,8,8,10,10,11,11,12,12],"right_children":[2,4,6,8,10,12,14,-1,16,-1,18,20,22,-1,-1,-1,-1,-1,-1,-1,-1,-1,-1],"split_conditions":[1.4776775E2,7.826243E-1,1.4978673E2,6.749313E-1,1.4270209E2,1.6218478E2,9.172645E-1,-9.999675E-4,1.3569417E2,4.7768233E-4,1.4388013E2,1.397965E2,8.788346E-1,3.784587E-4,9.5140556E-4,-1.8253569E-4,-4.4626734E-4,-4.031256E-4,1.9653276E-5,1.7591879E-4,-1.4559006E-4,8.876175E-5,3.5908652E-4],"split_indices":[2,1,3,1,2,2,1,0,3,0,2,3,1,0,0,0,0,0,0,0,0,0,0],"split_type":[0,0,0,0,0,0,0,0,0,0,0,0,0,0,0,0,0,0,0,0,0,0,0],"sum_hessian":[1.58E2,6.9E1,8.9E1,5E1,1.9E1,8.1E1,8E0,4E0,4.6E1,4E0,1.5E1,4.3E1,3.8E1,2E0,6E0,1.5E1,3.1E1,5E0,1E1,3.2E1,1.1E1,7E0,3.1E1],"tree_param":{"num_deleted":"0","num_feature":"4","num_nodes":"23","size_leaf_vector":"1"}},{"base_weights":[3.472821E-4,-6.3865837E-3,5.8193565E-3,-8.6563994E-4,-5.1679057E-3,4.769202E-3,1.7739901E-2,-6.361748E-3,-1.086763E-4,2.146962E-3,7.163858E-3,2.539739E-4,9.501696E-4,-4.2240135E-5,-4.2047413E-4,1.5634722E-4,-6.5074663E-4,7.229343E-4,7.470127E-5,3.8314142E-4,1.2922287E-5],"categories":[],"categories_nodes":[],"categories_segments":[],"categories_sizes":[],"default_left":[0,0,0,0,0,0,0,0,0,0,0,0,0,0,0,0,0,0,0,0,0],"id":54,"left_children":[1,3,5,-1,7,9,11,13,15,17,19,-1,-1,-1,-1,-1,-1,-1,-1,-1,-1],"loss_changes":[6.0802735E-3,8.9587853E-4,1.0545705E-3,0E0,4.1002338E-4,5.183654E-4,1.5447149E-5,6.142438E-4,6.253334E-4,3.1602703E-4,1.4962582E-4,0E0,0E0,0E0,0E0,0E0,0E0,0E0,0E0,0E0,0E0],"parents":[2147483647,0,0,1,1,2,2,4,4,5,5,6,6,7,7,8,8,9,9,10,10],"right_children":[2,4,6,-1,8,10,12,14,16,18,20,-1,-1,-1,-1,-1,-1,-1,-1,-1,-1],"split_conditions":[1.4914963E2,6.9438034E-1,1.4982083E2,-8.6563994E-4,1.3833206E2,1.6176814E2,9.339193E-1,1.3569417E2,1.3944244E2,1.4930705E2,9.639974E-1,2.539739E-4,9.501696E-4,-4.2240135E-5,-4.2047413E-4,1.5634722E-4,-6.5074663E-4,7.229343E-4,7.470127E-5,3.8314142E-4,1.2922287E-5],"split_indices":[2,0,3,0,3,2,0,3,3,2,0,0,0,0,0,0,0,0,0,0,0],"split_type":[0,0,0,0,0,0,0,0,0,0,0,0,0,0,0,0,0,0,0,0,0],"sum_hessian":[1.63E2,7.3E1,9E1,6E0,6.7E1,8.4E1,6E0,5.4E1,1.3E1,4.1E1,4.3E1,1E0,5E0,1.5E1,3.9E1,1.1E1,2E0,1E0,4E1,4E1,3E0],"tree_param":{"num_deleted":"0","num_feature":"4","num_nodes":"21","size_leaf_vector":"1"}},{"base_weights":[2.5159196E-4,-5.502819E-3,5.066313E-3,-6.8503907E-3,7.4644886E-5,3.4057873E-3,9.742125E-3,-9.042333E-3,-4.346644E-3,-5.6785517E-3,4.5410595E-3,2.91843E-3,5.054191E-4,7.065218E-3,7.234518E-4,-5.111635E-4,2.496928E-4,-1.0010352E-4,-6.500249E-4,-6.255329E-5,-5.582422E-4,3.528774E-4,5.5817964E-5,-2.265662E-4,1.5574205E-4,6.5866933E-4,2.3211516E-4],"categories":[],"categories_nodes":[],"categories_segments":[],"categories_sizes":[],"default_left":[0,0,0,0,0,0,0,0,0,0,0,0,0,0,0,0,0,0,0,0,0,0,0,0,0,0,0],"id":55,"left_children":[1,3,5,7,9,11,13,15,17,19,21,23,-1,25,-1,-1,-1,-1,-1,-1,-1,-1,-1,-1,-1,-1,-1],"loss_changes":[4.377703E-3,5.416656E-4,6.3455035E-4,2.7900422E-4,4.1122903E-4,1.8282578E-4,1.7615035E-4,5.48329E-4,5.623704E-4,1.5606539E-4,6.968521E-5,1.04833685E-4,0E0,1.756383E-4,0E0,0E0,0E0,0E0,0E0,0E0,0E0,0E0,0E0,0E0,0E0,0E0,0E0],"parents":[2147483647,0,0,1,1,2,2,3,3,4,4,5,5,6,6,7,7,8,8,9,9,10,10,11,11,13,13],"right_children":[2,4,6,8,10,12,14,16,18,20,22,24,-1,26,-1,-1,-1,-1,-1,-1,-1,-1,-1,-1,-1,-1,-1],"split_conditions":[8.0120236E-1,1.3833206E2,9.121548E-1,1.4275023E2,7.724457E-1,1.6764406E2,1.4977138E2,1.3813603E2,1.3811382E2,7.677992E-1,1.4467389E2,1.4292455E2,5.054191E-4,1.6522096E2,7.234518E-4,-5.111635E-4,2.496928E-4,-1.0010352E-4,-6.500249E-4,-6.255329E-5,-5.582422E-4,3.528774E-4,5.5817964E-5,-2.265662E-4,1.5574205E-4,6.5866933E-4,2.3211516E-4],"split_indices":[1,3,1,2,1,2,3,3,3,1,2,2,0,2,0,0,0,0,0,0,0,0,0,0,0,0,0],"split_type":[0,0,0,0,0,0,0,0,0,0,0,0,0,0,0,0,0,0,0,0,0,0,0,0,0,0,0],"sum_hessian":[1.56E2,7.1E1,8.5E1,5.7E1,1.4E1,6.4E1,2.1E1,2.9E1,2.8E1,6E0,8E0,6.1E1,3E0,1.5E1,6E0,2.7E1,2E0,2.3E1,5E0,4E0,2E0,4E0,4E0,1E0,6E1,3E0,1.2E1],"tree_param":{"num_deleted":"0","num_feature":"4","num_nodes":"27","size_leaf_vector":"1"}},{"base_weights":[1.5254747E-4,-4.222657E-3,7.025145E-3,-7.7836923E-3,-4.8471987E-4,5.950193E-3,1.2731083E-2,-8.184374E-4,-6.301342E-3,8.039333E-4,-7.4110203E-3,2.7903782E-3,6.498684E-3,4.9090388E-5,1.4269292E-2,-2.0555258E-4,-7.274311E-4,8.693542E-5,-3.788166E-4,